tree
version=v4
num_class=1
num_tree_per_iteration=1
label_index=0
max_feature_idx=28
objective=regression
feature_names=Age Age_at_contract Age_at_license Car_Age_Contract Car_Age_Contract_Cat_Standard Contract_Duration Customer_Loyalty Cylinder_Capacity Days_Driving_At_Start_Date Half_Yearly_Payment_Method Issurance_Broker_Agent_Channel Market_Value_EOY19 Max_Policy_Simultaneous_Force Max_Product_Simultaneous_Held Multiple_Drivers_Regular_Flag Non_Continuation_Insurance_Flag Policies_Terminated_Non_Payment Power_Wt_Ratio Premium_Amt_Current_Yr Ratio_Premium_Car_Value Rural_Urban_Flag Time_Since_Last_Renewal Total_Policies_Entity Vehicle_Doors Vehicle_Power_HP Vehicle_Wt_Kg Years_Associates Years_Driving Yr_Vehicle_Registration
feature_infos=[19:101] [18:91] [6575:23602] [0:68] [0:1] [32:14244] [1:15.550000000000001] [49:7480] [-4732:25943] [0:1] [0:1] [270.45999999999998:220675.79999999999] [1:17] [1:4] [0:1] [0:1] [0:7] [0:2.5172413793103448] [40.200000000000003:2143.8600000000001] [0.00082567981271379997:0.90841529246468999] [0:1] [1:4] [1:17] [0:6] [0:580] [43:7300] [1:40] [1:77] [1950:2018]
tree_sizes=3792 3853 3841 3811 3837 3809 3841 3839 3840 3822 3837

Tree=0
num_leaves=43
num_cat=0
split_feature=5 15 18 18 18 16 21 16 3 0 2 24 5 1 18 28 5 2 7 2 18 18 19 12 7 25 8 17 19 11 18 21 18 3 0 24 8 8 19 19 1 28
split_gain=3.98868e+07 7.41938e+07 5.41865e+07 4.77346e+08 1.89828e+07 1.31789e+07 1.05441e+07 5.4657e+07 2.88163e+07 1.37053e+07 2.31104e+07 1.10923e+07 4.14673e+07 1.65772e+07 8.65868e+06 1.09078e+07 8.38658e+06 8.0949e+06 4.33412e+07 6.60173e+06 6.55375e+06 6.27124e+06 6.11377e+06 7.75562e+06 5.69185e+06 1.36084e+07 1.67576e+07 8.78665e+06 4.88193e+06 1.50166e+07 3.67291e+06 3.89928e+06 3.56991e+06 7.61634e+06 3.31004e+06 6.12731e+06 1.90323e+07 3.68772e+06 7.60364e+06 1.305e+07 2.7067e+06 3.83778e+06
threshold=370.00000000000006 1.0000000180025095e-35 220.91500000000005 214.14000000000001 321.43500000000006 1.0000000180025095e-35 2.5000000000000004 1.0000000180025095e-35 18.500000000000004 39.500000000000007 7034.5000000000009 135.50000000000003 2193.5000000000005 28.500000000000004 282.31500000000005 1998.5000000000002 754.00000000000011 12978.500000000002 1996.5000000000002 10672.500000000002 568.0150000000001 327.11500000000007 0.019222378263146055 1.5000000000000002 1538.5000000000002 1370.5000000000002 10345.500000000002 0.086719948094844859 0.012544875693315402 31612.500000000004 473.99500000000006 2.5000000000000004 324.26000000000005 12.500000000000002 34.500000000000007 139.50000000000003 2528.5000000000005 3147.5000000000005 0.021237181409045906 0.023573211140296101 71.500000000000014 2006.5000000000002
decision_type=2 2 2 2 2 2 2 2 2 2 2 2 2 2 2 2 2 2 2 2 2 2 2 2 2 2 2 2 2 2 2 2 2 2 2 2 2 2 2 2 2 2
left_child=1 21 3 19 -2 14 16 9 11 10 -8 -9 13 -13 -4 -16 17 20 -19 -3 32 -1 -11 -24 -22 26 27 -26 29 -17 -30 -32 33 -6 35 37 -37 -23 -39 -40 -18 -42
right_child=4 2 5 -5 6 -7 7 8 -10 22 -12 12 -14 -15 15 28 40 18 -20 -21 24 34 23 -25 25 -27 -28 -29 30 -31 31 -33 -34 -35 -36 36 -38 38 39 -41 41 -43
leaf_value=70.166946326939467 68.424419944768005 76.127723215517477 75.415849337094741 289.62620940854413 68.216411347444634 74.068453270008732 87.487117436132507 68.688116017723857 109.45180936101733 76.943736334955986 139.74296481617233 109.59616337105881 125.22028969401293 68.205151005090329 115.53861944193997 124.27203538174086 69.087294776731667 69.03548813173488 124.1576112717735 100.6704955357267 70.023199497202441 71.166398152436628 85.556232858628803 114.30984563187349 69.859882053383672 72.953410032469677 127.5252005043433 101.63344190823084 80.486383940203467 73.913850949736471 85.144459344928592 107.07839462573745 70.326305883151278 102.78870743304714 72.057426617670799 115.3516687103684 70.272762613066902 71.807114020057611 119.86032105508676 78.188118473313978 67.454221405375179 93.876560168361067
leaf_weight=4281 13254 166 187 23 31 604 38 1335 37 67 30 20 32 209 24 22 4615 117 36 24 145 303 60 27 40 152 22 29 257 24 62 22 1822 20 1522 29 48 111 20 52 22 20
leaf_count=4281 13254 166 187 23 31 604 38 1335 37 67 30 20 32 209 24 22 4615 117 36 24 145 303 60 27 40 152 22 29 257 24 62 22 1822 20 1522 29 48 111 20 52 22 20
internal_value=70.4493 73.1835 82.3733 102.96 69.49 78.7019 71.0723 74.05 71.2348 94.6643 111.191 70.3257 78.6773 71.9699 83.3685 86.9666 70.2908 72.4136 82.262 79.3656 71.7424 71.1393 87.1574 94.8649 76.9853 81.1248 94.6034 83.4611 85.0865 98.6122 83.1872 91.2415 70.6534 82.1246 73.135 76.0403 87.5978 74.1786 79.136 90.2665 69.1903 80.281
internal_weight=29961 7781 1415 213 22180 1202 8926 1855 1633 222 68 1596 261 229 598 411 7071 2414 153 190 2261 6366 154 87 388 243 91 69 387 46 341 84 1873 51 2085 563 77 486 183 72 4657 42
internal_count=29961 7781 1415 213 22180 1202 8926 1855 1633 222 68 1596 261 229 598 411 7071 2414 153 190 2261 6366 154 87 388 243 91 69 387 46 341 84 1873 51 2085 563 77 486 183 72 4657 42
is_linear=0
shrinkage=1


Tree=1
num_leaves=43
num_cat=0
split_feature=5 15 18 18 18 16 5 16 5 2 7 28 19 3 26 11 3 18 7 11 17 17 18 21 16 25 25 19 2 2 18 8 17 3 11 26 18 8 7 8 9 1
split_gain=3.64665e+07 6.79085e+07 4.96759e+07 4.37585e+08 1.73663e+07 1.20671e+07 9.73936e+06 9.39656e+06 3.82793e+07 1.50489e+07 5.90782e+07 1.42156e+07 4.07198e+07 1.27297e+07 8.45069e+06 1.00645e+07 2.58739e+07 7.19818e+06 8.93487e+06 2.04914e+07 7.17805e+06 9.98881e+06 6.4827e+06 6.28634e+06 2.495e+07 2.39016e+07 1.89573e+07 1.34044e+07 7.19691e+07 6.05482e+06 5.77253e+06 3.50327e+06 5.58501e+06 1.17643e+07 1.59116e+07 3.41789e+06 4.63381e+06 3.41563e+06 7.7853e+06 2.53638e+06 2.5168e+06 2.48122e+06
threshold=370.00000000000006 1.0000000180025095e-35 220.91500000000005 214.14000000000001 321.43500000000006 1.0000000180025095e-35 754.00000000000011 1.0000000180025095e-35 730.50000000000011 12978.500000000002 1996.5000000000002 1996.5000000000002 0.023338776957081555 12.500000000000002 1.5000000000000002 23349.660000000003 12.500000000000002 568.0150000000001 1895.5000000000002 30451.400000000005 0.12691331511128462 0.14394063880045185 324.26000000000005 2.5000000000000004 1.0000000180025095e-35 1269.5000000000002 1130.5000000000002 0.013438696458908701 8865.5000000000018 10672.500000000002 355.42500000000007 7955.5000000000009 0.097352982392352419 11.500000000000002 24166.620000000006 2.5000000000000004 401.09000000000009 11423.500000000002 1586.5000000000002 13974.500000000002 1.0000000180025095e-35 71.500000000000014
decision_type=2 2 2 2 2 2 2 2 2 2 2 2 2 2 2 2 2 2 2 2 2 2 2 2 2 2 2 2 2 2 2 2 2 2 2 2 2 2 2 2 2 2
left_child=1 30 3 29 40 14 7 8 9 17 -11 12 -9 -10 37 35 -17 22 -19 -20 -13 -22 -6 41 25 26 -25 28 -26 39 -1 32 -32 -34 -35 36 -16 -4 -39 -3 -2 -8
right_child=4 2 5 -5 6 -7 23 11 13 10 -12 20 -14 -15 15 16 -18 18 19 -21 21 -23 -24 24 27 -27 -28 -29 -30 -31 31 -33 33 34 -36 -37 -38 38 -40 -41 -42 -43
leaf_value=-0.12095918128444932 -2.2613331746847454 3.0037601394354927 3.1814713556138376 209.84178687343322 20.303069318221851 3.4587850225577221 -1.3015422446078626 71.538092132184659 22.741893735572877 -1.7442281534358763 78.731034209006935 -1.1230627121053347 -2.7913954369466771 61.956837117091908 11.89306526153683 14.64011382255682 65.050428307534347 2.8107712150909094 47.998642654407931 1.4516139984840275 39.224704190767866 -3.0159798285722648 0.03424085088410353 18.354893713142157 -2.5122045877905714 7.0189782081654828 78.415192507933327 -1.9667433228108897 88.585704320832448 28.931864226084304 3.192308686082721 0.62332227511498328 2.709796944798005 -0.13440370050794304 46.527229134490923 4.894294403710056 31.049095063696264 34.983803371963482 2.4404670570119089 17.90336014623858 -0.78824346811434665 9.4158110885323829
leaf_weight=4746 10317 140 191 23 31 604 4615 20 86 64 24 1559 47 20 126 74 27 143 32 43 20 23 1130 22 92 81 20 792 20 24 751 715 95 24 35 89 31 23 37 26 2937 42
leaf_count=4746 10317 140 191 23 31 604 4615 20 86 64 24 1559 47 20 126 74 27 143 32 43 20 23 1130 22 92 81 20 792 20 24 751 715 95 24 35 89 31 23 37 26 2937 42
internal_value=0.00144002 2.61578 11.4077 31.1191 -0.915773 7.89251 0.597679 2.53871 4.99911 3.1277 20.8225 0.218282 20.1006 30.6355 12.3579 16.8406 28.6066 1.98468 9.36656 21.6708 -0.624906 17.0626 0.591933 -0.509678 2.63216 21.306 48.0792 0.0712604 14.376 8.52862 0.660107 2.94705 4.78028 12.4558 27.851 11.9166 15.8428 6.11963 15.2734 5.42786 -1.93499 -1.20295
internal_weight=29961 7781 1415 213 22180 1202 8926 3242 1573 1467 88 1669 67 106 598 347 101 1379 218 75 1602 43 1161 5684 1027 123 42 904 112 190 6366 1620 905 154 59 246 157 251 60 166 13254 4657
internal_count=29961 7781 1415 213 22180 1202 8926 3242 1573 1467 88 1669 67 106 598 347 101 1379 218 75 1602 43 1161 5684 1027 123 42 904 112 190 6366 1620 905 154 59 246 157 251 60 166 13254 4657
is_linear=0
shrinkage=0.0443876


Tree=2
num_leaves=43
num_cat=0
split_feature=5 15 18 2 18 16 21 16 3 0 25 2 24 17 8 18 28 5 13 18 18 18 19 11 7 25 11 21 1 18 28 28 17 17 24 25 2 18 25 26 6 8
split_gain=3.33335e+07 6.21678e+07 4.55525e+07 4.06296e+08 1.58927e+07 1.10503e+07 8.9768e+06 4.52581e+07 2.59012e+07 1.22065e+07 2.31663e+07 2.08783e+07 9.7618e+06 3.80908e+07 1.51226e+07 7.808e+06 9.63574e+06 6.95329e+06 7.45733e+06 3.52824e+07 5.57612e+06 5.43348e+06 5.35826e+06 7.45722e+06 4.85824e+06 1.45415e+07 1.55341e+07 4.3723e+06 4.82008e+06 4.54208e+06 5.26437e+06 7.54166e+06 3.49344e+06 3.08172e+06 2.85844e+06 2.76274e+06 1.05752e+07 2.67589e+06 7.95954e+06 2.6116e+06 1.90671e+07 8.49395e+06
threshold=370.00000000000006 1.0000000180025095e-35 220.91500000000005 10023.500000000002 321.43500000000006 1.0000000180025095e-35 2.5000000000000004 1.0000000180025095e-35 18.500000000000004 39.500000000000007 1181.0000000000002 6993.5000000000009 135.50000000000003 0.086512395220260371 2528.5000000000005 282.31500000000005 1998.5000000000002 754.00000000000011 1.5000000000000002 369.45500000000004 568.0150000000001 268.55500000000006 0.019222378263146055 22110.620000000006 1538.5000000000002 1259.5000000000002 18737.495000000006 3.5000000000000004 23.500000000000004 588.99000000000012 2011.5000000000002 2016.5000000000002 0.071131863865763714 0.12175517407347987 100.50000000000001 1802.5000000000002 7852.5000000000009 324.26000000000005 1241.5000000000002 2.5000000000000004 1.8750000000000002 3648.5000000000005
decision_type=2 2 2 2 2 2 2 2 2 2 2 2 2 2 2 2 2 2 2 2 2 2 2 2 2 2 2 2 2 2 2 2 2 2 2 2 2 2 2 2 2 2
left_child=1 21 3 33 -2 15 17 9 12 10 -8 -12 -9 -14 -15 -4 -17 18 20 -20 37 35 -11 32 -22 26 -26 28 -18 30 -30 -32 -24 -3 -34 -1 -37 38 -6 -39 -41 -42
right_child=4 2 5 -5 6 -7 7 8 -10 22 11 -13 13 14 -16 16 27 -19 19 -21 24 -23 23 -25 25 -27 -28 -29 29 -31 31 -33 34 -35 -36 36 -38 39 -40 40 41 -43
leaf_value=-1.0156431753564519 -1.8491080083154448 1.0973440047761176 4.2727927181534708 170.58904497077276 31.564049000332133 3.3055040649549112 6.3187278448919448 -1.6387278050578726 36.991824532438415 5.4535148030822178 25.035684462882372 90.129928635287143 49.487925158490761 35.863000851726326 -2.8875030043633232 42.086852754549056 32.919590710617918 -1.1494748882218373 64.521734597074058 -2.7742054149377453 -0.37693071121041893 1.8178742176316074 0.62309522490816449 45.483843004206626 5.8600197447560101 4.703037725654732 57.200433183314949 30.854365853745563 6.0041945054190826 28.051931611890328 32.747084898307357 4.5944758242270254 32.004527514577347 19.202676705363775 8.8933372104918611 -2.2363303546374609 34.429560665161304 -1.1450267823962774 -2.9459781689422466 38.176774328209014 12.313819722614552 -1.4693569891458265
leaf_weight=2823 13254 160 187 33 20 604 28 1335 37 67 20 20 36 21 204 24 20 4657 20 57 141 3464 23 20 23 200 23 26 239 27 39 36 24 20 20 59 20 1217 35 27 104 547
leaf_count=2823 13254 160 187 33 20 604 28 1335 37 67 20 20 36 21 204 24 20 4657 20 57 141 3464 23 20 23 200 23 26 239 27 39 36 24 20 20 59 20 1217 35 27 104 547
internal_value=0.00283452 2.50235 10.9145 29.7901 -0.874094 7.54832 0.573725 3.32115 0.759426 22.0795 37.6693 58.9457 -0.102499 7.7322 0.867588 11.8214 15.2378 -0.147388 1.78549 15.2903 1.33437 0.631164 15.0031 22.2162 6.19429 9.94741 32.1812 13.4717 12.1405 10.8319 9.26937 19.465 14.7208 3.20116 21.9177 -0.785499 7.3511 0.367265 9.93256 0.0847058 2.29054 0.747603
internal_weight=29961 7781 1415 213 22180 1202 8926 1855 1633 222 68 40 1596 261 225 598 411 7071 2414 77 2337 6366 154 87 387 246 46 387 361 341 314 75 67 180 44 2902 79 1950 55 1895 678 651
internal_count=29961 7781 1415 213 22180 1202 8926 1855 1633 222 68 40 1596 261 225 598 411 7071 2414 77 2337 6366 154 87 387 246 46 387 361 341 314 75 67 180 44 2902 79 1950 55 1895 678 651
is_linear=0
shrinkage=0.0443876


Tree=3
num_leaves=43
num_cat=0
split_feature=5 15 16 5 18 8 18 6 6 3 17 24 18 0 8 9 8 8 7 5 26 6 17 21 16 28 27 25 26 25 25 0 25 2 17 3 2 8 7 18 2 16
split_gain=3.08268e+07 3.24665e+07 4.52707e+07 3.79986e+07 2.1313e+08 4.46345e+08 1.86186e+07 1.47945e+07 2.46797e+07 3.39891e+07 5.27059e+07 1.64228e+07 9.39723e+06 8.2627e+06 3.38088e+07 7.90763e+06 1.357e+07 4.93181e+07 3.07858e+07 7.53191e+06 8.40025e+06 6.60398e+06 5.78445e+06 5.26285e+06 2.8646e+07 1.15193e+07 7.74567e+06 2.65508e+07 2.18989e+07 6.85462e+06 7.16962e+07 5.03432e+06 4.25021e+06 1.22873e+07 4.14942e+06 1.88919e+07 1.07061e+07 3.91926e+06 7.37673e+06 3.46948e+06 5.59198e+06 6.55521e+06
threshold=754.00000000000011 1.0000000180025095e-35 1.0000000180025095e-35 365.50000000000006 220.91500000000005 5647.5000000000009 277.94500000000005 1.675 1.925 12.500000000000002 0.06923308479599867 129.50000000000003 350.52000000000004 69.500000000000014 14066.500000000002 1.0000000180025095e-35 3871.5000000000005 3682.5000000000005 2145.5000000000005 551.50000000000011 1.5000000000000002 1.7250000000000003 0.084280425330405959 2.5000000000000004 1.0000000180025095e-35 2012.5000000000002 20.500000000000004 1210.5000000000002 5.5000000000000009 1566.0000000000002 1590.5000000000002 39.500000000000007 1318.5000000000002 10932.500000000002 0.097352982392352419 16.500000000000004 12496.000000000002 11423.500000000002 1685.5000000000002 629.59500000000014 8908.0000000000018 1.0000000180025095e-35
decision_type=2 2 2 2 2 2 2 2 2 2 2 2 2 2 2 2 2 2 2 2 2 2 2 2 2 2 2 2 2 2 2 2 2 2 2 2 2 2 2 2 2 2
left_child=1 12 6 4 5 -4 32 19 9 21 -11 -10 -1 34 -15 -5 17 18 -17 20 37 31 -22 39 25 26 27 -25 -29 -26 -31 -9 -3 -34 -14 36 -36 -8 -39 -2 -41 -42
right_child=23 2 3 15 -6 -7 7 8 11 10 -12 -13 13 14 -16 16 -18 -19 -20 -21 22 -23 -24 24 29 -27 -28 28 -30 30 -32 -33 33 -35 35 -37 -38 38 -40 40 41 -43
leaf_value=-0.73417106491807094 -1.963921632201987 2.293889253622897 256.37841143741321 -2.5743874708948056 3.3276002176337642 -2.5189112002232341 3.0750106505787222 41.718852789188446 5.4308115662783667 13.488641570757641 110.92936601896145 37.891925262164179 0.97925877160978891 64.796246150679451 0.8389173747806481 1.1948668221161374 -0.72641435000100285 72.759960901515555 55.795120867534472 -1.7911348560680165 14.749921145629429 5.8612695695624533 35.931732327367186 1.4081786355295502 -2.1639061702089286 44.443993641424214 5.0206888086453221 12.512253197671745 76.763333288245491 80.35077197767697 -2.1262164672355324 20.581275970207663 5.2069958782514858 40.464536534458013 1.681755416776664 35.898989290787952 34.079037939241132 36.143873705658976 1.2494348332671577 -0.51879690131542811 21.961996463181688 -2.5237481179394186
leaf_weight=7708 11805 338 20 1488 527 35 128 37 163 20 24 37 2471 20 73 276 800 22 21 84 71 34 41 60 1989 21 169 20 22 22 216 64 106 23 487 36 20 22 25 328 52 36
leaf_count=7708 11805 338 20 1488 527 35 128 37 163 20 24 37 2471 20 73 276 800 22 21 84 71 34 41 60 1989 21 169 20 22 22 216 64 106 23 487 36 20 22 25 328 52 36
internal_value=0.00406352 1.40514 4.61648 1.83558 12.0803 94.4363 11.8962 16.2254 22.3916 34.333 67.8841 11.59 0.0965475 2.15702 15.1199 -0.455144 2.36273 10.0885 5.2245 9.88426 13.296 22.9917 22.7458 -1.44273 0.404549 13.4528 10.9013 20.5057 47.1404 -1.31142 5.79282 28.6478 4.92441 11.7482 1.7523 5.26215 3.02237 7.15603 17.9835 -1.82349 2.15687 12.0268
internal_weight=29961 15221 4406 3189 582 55 1217 750 379 179 44 200 10815 3107 93 2607 1119 319 297 371 287 135 112 14740 2519 292 271 102 42 2227 238 101 467 129 3014 543 507 175 47 12221 416 88
internal_count=29961 15221 4406 3189 582 55 1217 750 379 179 44 200 10815 3107 93 2607 1119 319 297 371 287 135 112 14740 2519 292 271 102 42 2227 238 101 467 129 3014 543 507 175 47 12221 416 88
is_linear=0
shrinkage=0.0443876


Tree=4
num_leaves=43
num_cat=0
split_feature=5 15 18 18 18 16 18 28 2 16 15 21 28 2 27 28 9 17 17 3 0 6 28 6 23 17 18 7 25 18 5 1 18 3 28 7 18 19 18 18 2 2
split_gain=2.84079e+07 5.19985e+07 3.86075e+07 5.99839e+08 1.36925e+07 8.46713e+06 8.15446e+06 8.90078e+06 2.6186e+07 7.86854e+06 4.12763e+07 1.11619e+07 1.09773e+07 1.04113e+07 5.7662e+07 9.43816e+06 7.65627e+06 1.39955e+07 3.54616e+07 2.94294e+07 1.80708e+07 2.37808e+07 7.32174e+06 5.88809e+06 5.48336e+06 7.00678e+06 6.07429e+06 7.57089e+06 4.84846e+06 4.71187e+06 4.58657e+06 6.14958e+06 3.88901e+06 3.875e+06 7.94706e+06 5.00813e+06 4.97184e+06 3.02207e+06 2.99991e+06 7.88246e+06 1.26289e+07 2.79243e+06
threshold=370.00000000000006 1.0000000180025095e-35 223.08000000000001 218.38500000000002 321.43500000000006 1.0000000180025095e-35 280.85500000000008 2000.5000000000002 8556.5000000000018 1.0000000180025095e-35 1.0000000180025095e-35 2.5000000000000004 2000.5000000000002 12978.500000000002 33.500000000000007 2012.5000000000002 1.0000000180025095e-35 0.086070761568790219 0.086967981481057013 16.500000000000004 30.500000000000004 1.7750000000000001 2012.5000000000002 3.4250000000000003 4.5000000000000009 0.096291201793265072 366.61500000000007 1869.0000000000002 1318.5000000000002 268.55500000000006 1095.5000000000002 33.500000000000007 289.39000000000004 5.5000000000000009 2016.5000000000002 1538.5000000000002 568.0150000000001 0.034329164881478004 658.23000000000013 683.0150000000001 7098.5000000000009 10612.000000000002
decision_type=2 2 2 2 2 2 2 2 2 2 2 2 2 2 2 2 2 2 2 2 2 2 2 2 2 2 2 2 2 2 2 2 2 2 2 2 2 2 2 2 2 2
left_child=1 29 3 28 -2 6 -4 8 -8 10 13 23 -13 38 22 30 -11 -18 -19 20 21 -20 -15 24 -12 26 27 -26 -3 -1 31 -14 -9 34 35 -34 -35 41 -6 40 -40 -28
right_child=4 2 5 -5 9 -7 7 32 -10 16 11 12 15 14 -16 -17 17 18 19 -21 -22 -23 -24 -25 25 -27 37 -29 -30 -31 -32 -33 33 36 -36 -37 -38 -39 39 -41 -42 -43
leaf_value=-0.7175932039306 -1.7090574203770437 0.42023136452536203 2.5463494818177312 252.95679027205097 -0.77348641463182388 3.0725422398008235 6.7881334492438912 29.572138252121615 69.729301474964558 -2.6639225960188644 2.2562848881965127 46.924784822475928 40.446964439242223 -1.9749648908702444 79.542223458699212 37.445489419972226 -1.3805372513885978 48.629285636495062 57.923333413607331 45.409863794255692 -0.58340197294839691 -3.2014457762495296 20.718211567061761 0.3785941340811077 7.9522031154355428 35.409199850180876 0.56017676641234437 44.800427821194603 17.633307542965998 1.7067517739486435 4.9173355513556585 11.75428976889822 10.523589010835254 5.0049373177008301 3.7558279134148314 39.040632382124137 27.684436094096547 22.207151043281293 -2.4214815210366121 0.73416153671169171 46.169951909894905 17.92598364738846
leaf_weight=2902 13254 167 176 20 3496 599 35 21 20 2190 89 26 20 159 20 34 1449 36 24 31 557 25 33 138 23 29 89 21 39 3464 88 54 20 218 46 34 20 21 21 211 20 22
leaf_count=2902 13254 167 176 20 3496 599 35 21 20 2190 89 26 20 159 20 34 1449 36 24 31 557 25 33 138 23 29 89 21 39 3464 88 54 20 218 46 34 20 21 21 211 20 22
internal_value=0.00550301 2.31296 10.0064 26.7869 -0.804046 6.79758 10.5682 13.9645 30.4874 0.539822 1.81368 12.1357 20.2126 0.10643 9.65317 16.4555 -0.823353 1.07655 6.36114 3.90208 1.70959 27.2803 2.00994 7.94909 11.4897 15.4688 12.0071 26.1257 3.74637 0.601651 11.8536 19.9319 11.3578 10.1448 17.454 28.8507 7.01538 7.14477 -0.435925 4.23209 21.8007 4.12749
internal_weight=29961 7781 1415 226 22180 1189 590 414 55 8926 4614 654 222 3960 212 196 4312 2122 673 637 606 49 192 432 294 205 176 44 206 6366 162 74 359 338 100 54 238 132 3748 252 41 111
internal_count=29961 7781 1415 226 22180 1189 590 414 55 8926 4614 654 222 3960 212 196 4312 2122 673 637 606 49 192 432 294 205 176 44 206 6366 162 74 359 338 100 54 238 132 3748 252 41 111
is_linear=0
shrinkage=0.0443876


Tree=5
num_leaves=43
num_cat=0
split_feature=5 15 16 5 18 28 18 6 6 3 17 24 18 0 1 9 24 28 17 5 6 6 19 19 18 21 16 28 27 28 11 11 27 12 25 7 8 7 17 3 2 28
split_gain=2.64142e+07 2.76393e+07 3.75148e+07 3.30898e+07 1.94282e+08 4.25463e+08 1.65111e+07 1.35981e+07 2.23903e+07 3.12166e+07 4.7804e+07 1.48588e+07 8.20622e+06 7.39793e+06 3.32362e+07 6.82813e+06 1.28782e+07 1.08761e+07 4.31094e+07 6.74784e+06 6.05206e+06 5.4637e+06 5.19215e+06 4.89666e+06 5.98875e+06 4.74931e+06 2.50803e+07 9.79113e+06 7.15032e+06 2.174e+07 6.71336e+06 4.41977e+07 5.28375e+07 4.69007e+06 4.00206e+06 1.21398e+07 3.88438e+06 7.23175e+06 3.79678e+06 1.72338e+07 9.76753e+06 3.52307e+06
threshold=754.00000000000011 1.0000000180025095e-35 1.0000000180025095e-35 365.50000000000006 220.91500000000005 2005.5000000000002 277.94500000000005 1.675 1.925 12.500000000000002 0.06923308479599867 129.50000000000003 350.52000000000004 69.500000000000014 69.500000000000014 1.0000000180025095e-35 160.50000000000003 1996.5000000000002 0.080608974690251703 551.50000000000011 1.7250000000000003 1.2750000000000001 0.016350579426644155 0.013315860472153751 442.97500000000008 2.5000000000000004 1.0000000180025095e-35 2012.5000000000002 21.500000000000004 2000.5000000000002 25855.000000000004 26846.105000000003 23.500000000000004 1.5000000000000002 1318.5000000000002 1594.5000000000002 11423.500000000002 1685.5000000000002 0.097352982392352419 16.500000000000004 12496.000000000002 2006.5000000000002
decision_type=2 2 2 2 2 2 2 2 2 2 2 2 2 2 2 2 2 2 2 2 2 2 2 2 2 2 2 2 2 2 2 2 2 2 2 2 2 2 2 2 2 2
left_child=1 12 6 4 5 -4 34 19 9 20 -11 -10 -1 38 -15 -5 17 18 -17 21 22 36 -9 -23 -25 -2 27 28 29 -27 -28 32 -32 -31 -3 -36 -8 -38 -14 40 -40 -24
right_child=25 2 3 15 -6 -7 7 8 11 10 -12 -13 13 14 -16 16 -18 -19 -20 -21 -22 23 41 24 -26 26 30 -29 -30 33 31 -33 -34 -35 35 -37 37 -39 39 -41 -42 -43
leaf_value=-0.68002575679341049 -1.6942228315800802 1.7780893175430212 -4.6742969754051646 -2.3718095406245445 2.9389935838529646 248.03534296756828 2.4249885157221267 43.838592704064574 4.7398544992751495 12.609017051541697 105.39345844775545 35.611867436267993 0.89935055432140931 58.170767451868528 -1.570874039297754 -3.5182515196430364 35.111031369090576 0.34676980650037798 71.812794817694638 -2.1528839586806887 5.0139003834352911 37.773103928760953 9.1726577208407232 8.8504424206153018 34.29586569207892 59.695294080918103 -2.0680194435505874 41.206878204078777 4.2733492848440076 2.4294090557835237 -3.6065603507913844 -2.3841237496739671 97.069623219236988 24.107935811280598 38.778981363276941 4.2924119900403461 35.921394848699876 -0.077977759672144362 1.5765586968160479 34.257660237809446 32.521041047078164 28.842817492849683
leaf_weight=7708 12221 338 35 1488 527 20 118 26 163 20 24 37 2471 24 69 52 22 1025 20 84 34 22 33 81 23 20 1968 21 161 62 20 219 20 28 24 105 21 22 487 36 20 42
leaf_count=7708 12221 338 35 1488 527 20 118 26 163 20 24 37 2471 24 69 52 22 1025 20 84 34 22 33 81 23 20 1968 21 161 62 20 219 20 28 24 105 21 22 487 36 20 42
internal_value=0.00673425 1.30366 4.26667 1.73514 11.2953 89.9253 10.8936 14.9702 20.8807 32.2535 64.4 10.5954 0.0962675 2.02175 14.2875 -0.402518 2.21595 1.52582 18.0833 8.89354 21.3916 12.123 26.8048 19.0216 14.7426 -1.33251 0.422313 12.6314 10.2781 18.9527 -1.18332 5.52163 47.8376 9.35893 4.32909 10.95 6.64255 17.9076 1.6388 4.99617 2.857 20.4155
internal_weight=29961 15221 4406 3189 582 55 1217 750 379 179 44 200 10815 3107 93 2607 1119 1097 72 371 135 287 101 126 104 14740 2519 292 271 110 2227 259 40 90 467 129 161 43 3014 543 507 75
internal_count=29961 15221 4406 3189 582 55 1217 750 379 179 44 200 10815 3107 93 2607 1119 1097 72 371 135 287 101 126 104 14740 2519 292 271 110 2227 259 40 90 467 129 161 43 3014 543 507 75
is_linear=0
shrinkage=0.0443876


Tree=6
num_leaves=43
num_cat=0
split_feature=5 15 2 2 18 26 26 16 15 2 8 21 28 7 28 2 2 9 17 17 3 0 5 10 25 6 26 23 17 18 18 0 11 18 11 3 18 3 6 24 19 3
split_gain=2.42439e+07 4.35047e+07 3.70319e+07 4.41387e+08 1.19658e+07 6.99457e+06 1.01683e+07 6.95591e+06 3.6081e+07 9.94645e+06 5.2642e+07 9.49622e+06 1.07052e+07 8.58609e+06 6.87371e+06 6.87022e+06 1.67868e+07 6.72841e+06 1.28933e+07 3.22717e+07 2.58105e+07 1.64438e+07 2.24627e+07 5.56715e+06 7.46046e+06 5.48197e+06 5.71543e+06 6.44319e+06 9.94658e+06 1.08265e+07 4.72383e+06 4.26615e+06 4.67351e+06 4.09538e+06 4.0308e+06 6.92559e+06 3.01854e+06 5.15888e+06 8.90892e+06 2.78159e+06 3.81436e+06 3.38318e+06
threshold=370.00000000000006 1.0000000180025095e-35 10023.500000000002 10220.500000000002 323.35000000000008 1.5000000000000002 3.5000000000000004 1.0000000180025095e-35 1.0000000180025095e-35 12978.500000000002 10244.500000000002 2.5000000000000004 2000.5000000000002 1398.5000000000002 2012.5000000000002 9038.5000000000018 9331.0000000000018 1.0000000180025095e-35 0.086070761568790219 0.086967981481057013 16.500000000000004 30.500000000000004 1071.5000000000002 1.0000000180025095e-35 1495.5000000000002 3.4250000000000003 2.5000000000000004 4.5000000000000009 0.096291201793265072 366.61500000000007 324.26000000000005 33.500000000000007 22901.285000000003 268.55500000000006 17778.965000000004 15.500000000000002 603.38000000000011 9.5000000000000018 2.3750000000000004 82.500000000000014 0.023338776957081555 5.5000000000000009
decision_type=2 2 2 2 2 2 2 2 2 2 2 2 2 2 2 2 2 2 2 2 2 2 2 2 2 2 2 2 2 2 2 2 2 2 2 2 2 2 2 2 2 2
left_child=1 33 5 -4 -2 -3 15 8 9 30 14 25 -13 -14 -11 31 -17 -9 -19 -20 21 22 -21 24 -15 26 -10 -28 29 -29 -6 32 -7 -1 -5 -36 -32 -38 -39 40 -33 -41
right_child=4 2 3 34 7 6 -8 17 11 10 -12 12 13 23 -16 16 -18 18 19 20 -22 -23 -24 -25 -26 -27 27 28 -30 -31 36 39 -34 -35 35 -37 37 38 -40 41 -42 -43
leaf_value=-0.65557697836979623 -1.5709695586387302 1.5942368844190005 197.93921332004322 -0.41877419121140952 14.970021069555454 13.275053767371283 1.5979389244626501 -2.4967866598334765 -0.47221882791220959 -1.853949627744474 76.272194597868136 45.948077049482094 37.680163489150004 8.8515959659291994 20.468980317007755 56.261505686172342 4.4631694412316572 -1.3411315163076696 46.454511714667383 55.837377041086647 42.623283688537839 -0.54517032249056629 -3.5542004761313928 5.348679325060429 42.143965363432955 0.34042887774622688 3.2747877804568457 37.80586493247776 47.375080195810639 7.6918469306039761 -1.0147124792966609 21.968001931415827 37.898606526891662 1.6046162110878017 5.0300595784637885 30.394945688634447 0.75878860084118205 38.27194490482654 3.5084650014186112 17.233812775348998 1.4768871209744521 2.7259964283673672
leaf_weight=2902 13443 475 25 122 38 63 254 2147 65 154 20 25 28 33 32 22 27 1422 36 24 31 547 25 108 22 138 70 30 21 101 3227 53 20 3464 90 27 325 20 48 38 27 172
leaf_count=2902 13443 475 25 122 38 63 254 2147 65 154 20 25 28 33 32 22 27 1422 36 24 31 547 25 108 22 138 70 30 21 101 3227 53 20 3464 90 27 325 20 48 38 27 172
internal_value=0.0080141 2.13966 9.17673 24.141 -0.739854 5.727 8.62449 0.538957 1.75268 0.133655 9.60022 11.4974 19.0644 15.3313 2.0728 12.8404 28.3601 -0.75317 1.04262 6.14978 3.76747 1.68049 26.0546 11.2921 22.668 7.61687 11.1027 14.4791 19.5855 14.8153 -0.401857 10.7334 19.5776 0.574343 5.23493 11.0852 -0.567185 3.101 14.1274 8.14527 15.1528 5.41837
internal_weight=29961 7781 1415 264 22180 1151 676 8737 4505 3864 206 641 216 191 186 422 49 4232 2085 663 627 596 49 163 55 425 287 222 152 131 3658 373 83 6366 239 117 3620 393 68 290 80 210
internal_count=29961 7781 1415 264 22180 1151 676 8737 4505 3864 206 641 216 191 186 422 49 4232 2085 663 627 596 49 163 55 425 287 222 152 131 3658 373 83 6366 239 117 3620 393 68 290 80 210
is_linear=0
shrinkage=0.0443876


Tree=7
num_leaves=43
num_cat=0
split_feature=5 15 16 19 19 26 6 9 17 0 19 24 18 5 11 18 0 18 23 25 17 21 16 8 25 11 11 2 25 28 5 2 0 17 3 2 17 5 6 21 8 18
split_gain=2.26493e+07 2.36383e+07 3.24135e+07 2.98535e+07 4.23296e+08 1.51032e+07 1.68936e+07 1.62737e+07 2.10713e+07 1.71529e+07 1.07814e+07 7.79517e+06 7.32359e+06 8.55726e+06 1.44763e+07 7.13573e+06 6.54524e+06 3.17884e+07 4.95743e+06 5.24506e+06 4.90148e+06 4.27e+06 2.17439e+07 8.98073e+06 3.28378e+07 6.31868e+06 5.85624e+07 4.05934e+06 4.05222e+06 2.06645e+07 3.06689e+07 3.79651e+06 5.90595e+06 3.47023e+06 1.57313e+07 8.91322e+06 3.15224e+06 3.11346e+06 4.08882e+06 2.9655e+06 2.9348e+06 2.94024e+06
threshold=754.00000000000011 1.0000000180025095e-35 1.0000000180025095e-35 0.011795045256915451 0.011578395355423302 1.5000000000000002 2.9250000000000003 1.0000000180025095e-35 0.095254182754182723 46.500000000000007 0.011716838366221302 169.50000000000003 473.99500000000006 730.50000000000011 17516.115000000002 350.52000000000004 69.500000000000014 375.86000000000007 4.5000000000000009 1111.0000000000002 0.086967981481057013 2.5000000000000004 1.0000000180025095e-35 3287.5000000000005 1159.5000000000002 26752.500000000004 27503.780000000002 6967.5000000000009 1150.5000000000002 1996.5000000000002 730.50000000000011 9378.5000000000018 55.500000000000007 0.097352982392352419 16.500000000000004 12496.000000000002 0.10241184195450416 712.50000000000011 2.1750000000000003 2.5000000000000004 15571.000000000002 568.0150000000001
decision_type=2 2 2 2 2 2 2 2 2 2 2 2 2 2 2 2 2 2 2 2 2 2 2 2 2 2 2 2 2 2 2 2 2 2 2 2 2 2 2 2 2 2
left_child=1 15 5 4 -4 40 7 12 10 -10 -9 28 13 -7 -15 -1 33 -18 -12 -20 -21 -2 23 24 -23 -24 -27 -14 -5 30 -30 -25 -33 -17 35 36 37 38 -35 -8 41 -3
right_child=21 2 3 11 -6 6 39 8 9 -11 18 -13 27 14 -16 16 17 -19 19 20 -22 22 25 31 -26 26 -28 -29 29 -31 -32 32 -34 34 -36 -37 -38 -39 -40 -41 -42 -43
leaf_value=-0.63056162388526382 -1.5741353804961815 -0.13603814910662679 -1.215927563935929 -2.0213388562666168 176.30280751401742 4.9187797183467676 -1.3600928384431197 50.109445929845641 23.335836307427122 82.393985395349759 6.9237606480928875 20.375955771373679 13.799049866561202 4.8801344590685458 45.010110599201226 0.82171951485709371 61.595093400796202 -0.40539674961795702 35.336446691812682 11.308689716326612 34.524382807917085 -1.575230076154662 -1.857626230247615 5.4300757660758361 71.286712781566209 67.358140946429984 -2.3112042393752112 39.938647089042817 -3.8735518718585809 0.49863580853886197 70.193480979592394 36.416568405767968 5.1997970605807176 6.168228784743147 32.695112532727535 31.031667273787601 -0.71000645937579465 -1.2865404241988616 28.116271946245181 12.220814379728536 18.159068307304384 17.065104673392668
leaf_weight=7708 12221 295 306 1252 28 286 152 20 20 20 73 36 26 42 30 2471 20 73 38 91 22 29 2001 195 20 26 200 23 23 1524 20 21 27 58 36 20 355 51 23 39 20 20
leaf_count=7708 12221 295 306 1252 28 286 152 20 20 20 73 36 26 42 30 2471 20 73 38 91 22 29 2001 195 20 26 200 23 23 1524 20 21 27 58 36 20 355 51 23 39 20 20
internal_value=0.00897309 1.20992 3.95009 1.59697 14.1332 10.11 13.1547 16.3805 24.5295 54.1161 19.4842 0.12609 10.6495 8.39956 21.9769 0.0933302 1.88883 13.4261 16.5457 21.1234 16.0838 -1.23116 0.432749 11.8008 28.9706 -1.0623 5.95739 26.6056 -0.139428 1.3645 31.3645 8.2372 19.3078 1.52864 4.73837 2.69465 1.47156 7.30103 12.6593 1.4607 2.07869 1.00512
internal_weight=29961 15221 4406 3189 334 1217 882 691 284 40 244 2855 407 358 72 10815 3107 93 224 151 113 14740 2519 292 49 2227 226 49 2819 1567 43 243 48 3014 543 507 487 132 81 191 335 315
internal_count=29961 15221 4406 3189 334 1217 882 691 284 40 244 2855 407 358 72 10815 3107 93 224 151 113 14740 2519 292 49 2227 226 49 2819 1567 43 243 48 3014 543 507 487 132 81 191 335 315
is_linear=0
shrinkage=0.0443876


Tree=8
num_leaves=43
num_cat=0
split_feature=5 15 19 2 24 2 18 16 15 2 27 26 6 6 5 23 17 19 9 17 17 28 0 6 17 18 8 18 16 28 19 6 7 18 8 6 28 24 11 18 18 2
split_gain=2.12274e+07 3.80407e+07 3.53405e+07 2.18735e+08 4.83451e+08 1.2895e+07 1.06166e+07 6.15014e+06 2.99576e+07 8.51838e+06 4.9368e+07 8.12273e+06 8.88878e+06 9.50916e+06 9.50952e+06 1.07485e+07 9.49338e+06 1.1607e+07 6.23248e+06 1.13558e+07 2.95213e+07 2.34352e+07 1.54627e+07 2.03108e+07 6.22769e+06 4.89184e+06 7.72496e+06 3.90456e+06 5.06349e+06 7.48776e+06 3.51719e+06 3.77291e+06 4.1136e+06 3.51484e+06 3.35767e+06 3.69019e+06 2.82777e+06 3.48293e+06 2.57695e+06 2.55493e+06 7.17191e+06 1.16523e+07
threshold=370.00000000000006 1.0000000180025095e-35 0.012741223746226901 10023.500000000002 109.50000000000001 9038.5000000000018 321.43500000000006 1.0000000180025095e-35 1.0000000180025095e-35 12978.500000000002 33.500000000000007 2.5000000000000004 4.4250000000000016 3.975000000000001 2167.5000000000005 4.5000000000000009 0.096291201793265072 0.03332181863342281 1.0000000180025095e-35 0.086070761568790219 0.086967981481057013 1998.5000000000002 30.500000000000004 1.7750000000000001 0.097905023846446407 366.61500000000007 5197.5000000000009 391.41000000000003 1.0000000180025095e-35 2002.5000000000002 0.011328103773394452 1.2750000000000001 1895.5000000000002 268.55500000000006 4964.5000000000009 2.0250000000000004 2007.5000000000002 94.500000000000014 28403.000000000004 658.23000000000013 683.0150000000001 7098.5000000000009
decision_type=2 2 2 2 2 2 2 2 2 2 2 2 2 2 2 2 2 2 2 2 2 2 2 2 2 2 2 2 2 2 2 2 2 2 2 2 2 2 2 2 2 2
left_child=1 33 3 5 -5 30 -2 8 9 39 24 -10 13 14 15 38 17 25 -9 -20 -21 -22 23 -23 -11 26 -17 -4 29 -29 -3 -32 -33 -1 35 -27 -31 -38 -13 -8 41 -41
right_child=6 2 27 4 -6 -7 7 18 11 10 -12 12 -14 -15 -16 16 -18 -19 19 20 21 22 -24 -25 -26 34 -28 28 -30 36 31 32 -34 -35 -36 -37 37 -39 -40 40 -42 -43
leaf_value=-0.59850772331216606 -1.486695478637349 -0.29511077397780766 2.6360634874819988 269.77838928456981 0.25565232207482591 38.496793861366442 -0.63687194951933479 -2.3722694949272354 -2.448246965569473 -1.0493769094891106 73.468162286466395 2.0128590617384221 0.2877581264179867 42.845679562090162 -2.7018594912992451 3.4187456773640026 44.539532026970186 46.052092225008302 -1.2107710491177102 44.328391404843671 39.963168776158462 53.474684450482449 -0.57075680492989123 -3.5743858954748542 24.56759516229857 33.289155413738989 36.333000735222853 33.814077420983885 3.2381696742969837 0.36354553539606882 -1.8363181806543378 27.741463688076589 4.4765372402422283 1.4953694136087905 5.0335323591540284 6.2620537464239945 28.973972663636449 8.5018423889225208 16.206724695894962 -2.517862121186476 0.64624908150103177 44.149136713927653
leaf_weight=2902 13254 190 720 20 35 21 3496 2190 84 172 20 99 100 22 62 22 30 25 1449 36 32 24 557 24 20 20 39 30 177 45 33 31 29 3464 98 20 22 62 33 21 211 20
leaf_count=2902 13254 190 720 20 35 21 3496 2190 84 172 20 99 100 22 62 22 30 25 1449 36 32 24 557 24 20 20 39 30 177 45 33 31 29 3464 98 20 22 62 33 21 211 20
internal_value=0.0100034 2.00464 8.58497 20.5974 101.24 5.73196 -0.689794 0.493538 1.61974 0.165265 8.80064 10.4134 12.3097 14.8617 13.3979 15.9842 21.3109 18.0213 -0.711631 1.00252 5.76274 3.51914 1.53065 25.4442 1.7291 14.2936 24.7015 4.48605 8.43133 14.1577 3.17749 10.2019 16.7468 0.54091 9.55276 20.2437 9.36829 14.1331 5.65364 -0.325332 3.98254 20.7406
internal_weight=29961 7781 1415 359 55 304 22180 8926 4614 3960 212 654 570 470 448 386 254 224 4312 2122 673 637 605 48 192 199 61 1056 336 159 283 93 60 6366 138 40 129 84 132 3748 252 41
internal_count=29961 7781 1415 359 55 304 22180 8926 4614 3960 212 654 570 470 448 386 254 224 4312 2122 673 637 605 48 192 199 61 1056 336 159 283 93 60 6366 138 40 129 84 132 3748 252 41
is_linear=0
shrinkage=0.0443876


Tree=9
num_leaves=43
num_cat=0
split_feature=5 15 6 25 18 6 6 8 0 3 24 17 19 18 0 1 28 5 26 3 21 21 11 2 2 11 0 3 7 17 17 28 2 3 25 19 2 25 18 2 25 18
split_gain=1.95109e+07 2.02319e+07 2.54662e+07 3.68107e+07 4.00633e+08 2.62854e+07 1.88797e+07 1.72927e+07 1.6891e+07 8.67236e+06 6.67807e+07 6.46565e+06 1.2804e+07 6.29794e+06 6.5649e+06 3.14914e+07 6.06531e+06 5.7886e+06 7.36016e+06 7.01916e+06 4.40869e+06 3.8854e+06 5.09664e+06 1.99091e+07 7.01182e+07 1.48612e+07 3.72524e+06 3.00504e+06 2.99196e+06 5.47899e+06 1.43821e+07 1.00103e+07 5.58187e+06 3.36425e+06 7.02807e+06 1.3803e+07 1.69002e+07 2.8239e+06 2.63304e+06 4.64301e+06 4.07206e+06 2.6198e+06
threshold=754.00000000000011 1.0000000180025095e-35 1.675 1325.5000000000002 223.08000000000001 1.7250000000000003 1.7750000000000001 12070.500000000002 39.500000000000007 18.500000000000004 112.50000000000001 0.10003335557038028 0.014919942575553952 355.42500000000007 69.500000000000014 69.500000000000014 2006.5000000000002 370.00000000000006 1.5000000000000002 5.5000000000000009 3.5000000000000004 2.5000000000000004 23199.995000000006 9331.0000000000018 10562.500000000002 23439.730000000007 25.500000000000004 10.500000000000002 1751.0000000000002 0.082206914825986063 0.083998231653404073 1999.5000000000002 14177.500000000002 11.500000000000002 1365.5000000000002 0.013978105118043651 7305.5000000000009 1230.5000000000002 629.59500000000014 8908.0000000000018 1350.5000000000002 577.90500000000009
decision_type=2 2 2 2 2 2 2 2 2 2 2 2 2 2 2 2 2 2 2 2 2 2 2 2 2 2 2 2 2 2 2 2 2 2 2 2 2 2 2 2 2 2
left_child=1 13 9 5 -5 7 8 16 -6 17 -11 20 -13 -1 28 -16 37 18 -3 -20 -8 38 41 25 -25 -24 -7 -10 -15 -30 -31 -32 33 -33 -35 -36 -37 -4 -2 -40 -41 -23
right_child=21 2 3 4 6 26 11 -9 27 10 -12 12 -14 14 15 -17 -18 -19 19 -21 -22 22 23 24 -26 -27 -28 -29 29 30 31 32 -34 34 35 36 -38 -39 39 40 -42 -43
leaf_value=-0.56290722478141564 -1.5896458417447179 0.85990147945437834 1.5676963872939591 159.97767922504511 58.008347995095534 19.348538344543755 1.9595015751746596 58.554410238941294 23.094387430309336 -1.2467648322694946 78.968478646043422 3.2002367848008504 45.463857539744062 0.21849916721938381 57.206745411501871 -2.2853467269452978 29.763602652351928 -1.5232634454971206 32.90955326975876 7.5424710879825696 19.814518961594185 -0.79009042606103863 33.648133064901081 94.501322869672364 0.20783424373399786 -1.7146148847796003 0.4653531138408365 2.9998168329359678 0.45138585528653574 38.020852890306898 33.435216202745409 -0.92052894305412936 23.927987777425042 -1.8984844365211877 -1.196599289022557 6.0781952529863155 55.122829899608355 18.647818469999041 -0.43809878118394141 21.754367562607197 2.5571180050295204 8.8643933102340391
leaf_weight=7869 11805 538 53 35 24 20 465 20 32 139 23 40 21 1622 23 65 35 1598 25 131 28 1984 24 20 60 375 1123 27 682 26 22 268 24 102 57 29 26 29 328 38 50 56
leaf_count=7869 11805 538 53 35 24 20 465 20 32 139 23 40 21 1622 23 65 35 1598 25 131 28 1984 24 20 60 375 1123 27 682 26 22 268 24 102 57 29 26 29 328 38 50 56
internal_value=0.0108743 1.12552 3.66057 7.44295 15.8479 3.0217 7.69754 21.323 27.3166 0.650183 10.5439 4.71562 18.2337 0.0925062 1.84278 13.7178 14.5297 -0.053277 3.32891 11.7859 3.01049 -1.14014 0.447058 4.56253 24.6306 0.488888 0.811888 14.0958 1.47261 3.11691 6.39178 4.76744 3.45945 2.39427 6.53094 14.1581 29.8163 7.75557 -1.4673 2.00009 10.9936 -0.52098
internal_weight=29961 15221 4406 1952 672 1280 637 137 83 2454 162 554 61 10815 2946 88 117 2292 694 156 493 14740 2519 479 80 399 1143 59 2858 1236 554 528 506 482 214 112 55 82 12221 416 88 2040
internal_count=29961 15221 4406 1952 672 1280 637 137 83 2454 162 554 61 10815 2946 88 117 2292 694 156 493 14740 2519 479 80 399 1143 59 2858 1236 554 528 506 482 214 112 55 82 12221 416 88 2040
is_linear=0
shrinkage=0.0443876


Tree=10
num_leaves=43
num_cat=0
split_feature=5 15 18 18 18 16 18 28 2 16 15 2 27 26 22 3 17 18 5 26 28 9 17 17 3 0 5 19 18 5 24 17 18 16 3 3 18 18 3 25 8 25
split_gain=1.83379e+07 3.23933e+07 3.09104e+07 3.83609e+08 9.29723e+06 6.70862e+06 5.92661e+06 7.8352e+06 2.23179e+07 5.62898e+06 2.62822e+07 7.68537e+06 4.51823e+07 7.26925e+06 8.43772e+06 1.23301e+07 3.35159e+07 1.44373e+07 7.2871e+06 1.12034e+07 5.92319e+06 5.70383e+06 1.0214e+07 2.69444e+07 2.15177e+07 1.36863e+07 1.95549e+07 5.48419e+06 3.51185e+06 3.43382e+06 3.41968e+06 3.66874e+06 4.58247e+06 3.25917e+06 3.21602e+06 6.93552e+06 4.05854e+06 3.05279e+06 3.00616e+06 2.93137e+06 2.90582e+06 2.5325e+06
threshold=370.00000000000006 1.0000000180025095e-35 220.91500000000005 214.14000000000001 321.43500000000006 1.0000000180025095e-35 282.31500000000005 2000.5000000000002 8556.5000000000018 1.0000000180025095e-35 1.0000000180025095e-35 12978.500000000002 33.500000000000007 2.5000000000000004 1.5000000000000002 9.5000000000000018 0.087304252347905814 568.0150000000001 1460.5000000000002 3.5000000000000004 2012.5000000000002 1.0000000180025095e-35 0.086070761568790219 0.086967981481057013 16.500000000000004 30.500000000000004 1071.5000000000002 0.016058276449170402 292.60500000000008 2167.5000000000005 109.50000000000001 0.07569840820353356 363.47000000000008 1.0000000180025095e-35 5.5000000000000009 1.5000000000000002 568.0150000000001 268.55500000000006 15.500000000000002 1350.5000000000002 13631.500000000002 1802.5000000000002
decision_type=2 2 2 2 2 2 2 2 2 2 2 2 2 2 2 2 2 2 2 2 2 2 2 2 2 2 2 2 2 2 2 2 2 2 2 2 2 2 2 2 2 2
left_child=1 37 3 33 -2 6 -4 8 -8 10 11 -6 20 -12 15 17 27 29 19 -19 -13 -11 -23 -24 25 26 -25 -17 -9 30 31 -15 -33 38 35 39 -36 41 40 -30 -3 -1
right_child=4 2 5 -5 9 -7 7 28 -10 21 13 12 -14 14 -16 16 -18 18 -20 -21 -22 22 23 24 -26 -27 -28 -29 34 -31 -32 32 -34 -35 36 -37 -38 -39 -40 -41 -42 -43
leaf_value=-0.76738070080968979 -1.3844505252562729 -1.1162681477931395 1.9306675625429286 190.81634620101624 -0.28225286276476419 1.8618203185686337 5.104731791417656 26.712591075891595 63.170673828630193 -2.2729656104169891 -2.3838630227002757 -1.9620509839164071 70.251391009993725 4.6453964931439744 0.93964198356442352 29.835755058710966 59.747856481007013 17.091298232566885 9.9686973116642275 61.625627237949139 18.448488485763146 -1.1435448580612775 42.313987447774885 51.495189861291628 38.819244019855951 -0.54350573024516768 -3.8994183932287303 4.1987184516630567 -1.2752169414285375 -2.6833697495510962 0.77637748036666732 7.0551397406666689 35.59343776484338 -5.5532334163970267 3.2250467246215457 30.892996312914153 23.701821337708658 1.4044328116104203 19.416508685851021 17.756727035521536 17.509685038385523 7.2429326806494636
leaf_weight=2823 13254 77 187 23 3748 604 35 20 20 2190 84 159 20 44 117 21 39 26 34 20 33 1449 36 24 31 557 25 67 41 88 69 21 24 66 217 33 20 3464 27 25 20 79
leaf_count=2823 13254 77 187 23 3748 604 35 20 20 2190 84 159 20 44 117 21 39 26 34 20 33 1449 36 24 31 557 25 67 41 88 69 21 24 66 217 33 20 3464 27 25 20 79
internal_value=0.0117204 1.86563 7.93791 23.4852 -0.638707 5.16615 8.49521 11.4704 26.9483 0.468659 1.54609 0.183746 8.38603 9.78263 11.5766 14.316 26.0138 9.69528 25.9581 37.3266 1.62109 -0.684317 0.95553 5.47008 3.3267 1.45196 23.7054 10.5752 9.01247 4.3254 8.22158 13.9231 22.7053 2.36327 7.88505 14.5748 5.04259 0.514919 6.58729 6.08658 2.85943 -0.546973
internal_weight=29961 7781 1415 213 22180 1202 598 411 55 8926 4614 3960 212 654 570 453 127 326 80 46 192 4312 2122 673 637 606 49 88 356 246 158 89 45 190 336 99 237 6366 124 66 97 2902
internal_count=29961 7781 1415 213 22180 1202 598 411 55 8926 4614 3960 212 654 570 453 127 326 80 46 192 4312 2122 673 637 606 49 88 356 246 158 89 45 190 336 99 237 6366 124 66 97 2902
is_linear=0
shrinkage=0.0443876


end of trees

feature_importances:
Premium_Amt_Current_Yr=69
Age_at_license=36
Power_Wt_Ratio=34
Contract_Duration=30
Yr_Vehicle_Registration=27
Car_Age_Contract=26
Vehicle_Wt_Kg=23
Customer_Loyalty=22
Policies_Terminated_Non_Payment=22
Days_Driving_At_Start_Date=21
Ratio_Premium_Car_Value=20
Age=17
Market_Value_EOY19=16
Cylinder_Capacity=15
Non_Continuation_Insurance_Flag=15
Time_Since_Last_Renewal=13
Vehicle_Power_HP=13
Years_Associates=13
Half_Yearly_Payment_Method=8
Age_at_contract=7
Years_Driving=6
Vehicle_Doors=4
Max_Policy_Simultaneous_Force=2
Issurance_Broker_Agent_Channel=1
Max_Product_Simultaneous_Held=1
Total_Policies_Entity=1

parameters:
[boosting: gbdt]
[objective: regression]
[metric: l2]
[tree_learner: serial]
[device_type: cpu]
[data_sample_strategy: bagging]
[data: ]
[valid: ]
[num_iterations: 728]
[learning_rate: 0.0443876]
[num_leaves: 43]
[num_threads: 0]
[seed: 0]
[deterministic: 0]
[force_col_wise: 0]
[force_row_wise: 0]
[histogram_pool_size: -1]
[max_depth: 0]
[min_data_in_leaf: 20]
[min_sum_hessian_in_leaf: 0.000144028]
[bagging_fraction: 0.964069]
[pos_bagging_fraction: 1]
[neg_bagging_fraction: 1]
[bagging_freq: 0]
[bagging_seed: 3]
[bagging_by_query: 0]
[feature_fraction: 0.9725]
[feature_fraction_bynode: 1]
[feature_fraction_seed: 2]
[extra_trees: 0]
[extra_seed: 6]
[early_stopping_round: 0]
[early_stopping_min_delta: 0]
[first_metric_only: 0]
[max_delta_step: 0]
[lambda_l1: 1.0355e-08]
[lambda_l2: 0.969696]
[linear_lambda: 0]
[min_gain_to_split: 0.0202732]
[drop_rate: 0.1]
[max_drop: 50]
[skip_drop: 0.5]
[xgboost_dart_mode: 0]
[uniform_drop: 0]
[drop_seed: 4]
[top_rate: 0.2]
[other_rate: 0.1]
[min_data_per_group: 100]
[max_cat_threshold: 32]
[cat_l2: 10]
[cat_smooth: 10]
[max_cat_to_onehot: 4]
[top_k: 20]
[monotone_constraints: ]
[monotone_constraints_method: basic]
[monotone_penalty: 0]
[feature_contri: ]
[forcedsplits_filename: ]
[refit_decay_rate: 0.9]
[cegb_tradeoff: 1]
[cegb_penalty_split: 0]
[cegb_penalty_feature_lazy: ]
[cegb_penalty_feature_coupled: ]
[path_smooth: 0]
[interaction_constraints: ]
[verbosity: 1]
[saved_feature_importance_type: 0]
[use_quantized_grad: 0]
[num_grad_quant_bins: 4]
[quant_train_renew_leaf: 0]
[stochastic_rounding: 1]
[linear_tree: 0]
[max_bin: 276]
[max_bin_by_feature: ]
[min_data_in_bin: 3]
[bin_construct_sample_cnt: 200000]
[data_random_seed: 1]
[is_enable_sparse: 1]
[enable_bundle: 1]
[use_missing: 1]
[zero_as_missing: 0]
[feature_pre_filter: 1]
[pre_partition: 0]
[two_round: 0]
[header: 0]
[label_column: ]
[weight_column: ]
[group_column: ]
[ignore_column: ]
[categorical_feature: ]
[forcedbins_filename: ]
[precise_float_parser: 0]
[parser_config_file: ]
[objective_seed: 5]
[num_class: 1]
[is_unbalance: 0]
[scale_pos_weight: 1]
[sigmoid: 1]
[boost_from_average: 1]
[reg_sqrt: 0]
[alpha: 0.9]
[fair_c: 1]
[poisson_max_delta_step: 0.7]
[tweedie_variance_power: 1.36502]
[lambdarank_truncation_level: 30]
[lambdarank_norm: 1]
[label_gain: ]
[lambdarank_position_bias_regularization: 0]
[eval_at: ]
[multi_error_top_k: 1]
[auc_mu_weights: ]
[num_machines: 1]
[local_listen_port: 12400]
[time_out: 120]
[machine_list_filename: ]
[machines: ]
[gpu_platform_id: -1]
[gpu_device_id: -1]
[gpu_use_dp: 0]
[num_gpu: 1]

end of parameters

pandas_categorical:[]
