tree
version=v4
num_class=1
num_tree_per_iteration=1
label_index=0
max_feature_idx=28
objective=regression
feature_names=Age Age_at_contract Age_at_license Car_Age_Contract Car_Age_Contract_Cat_Standard Contract_Duration Customer_Loyalty Cylinder_Capacity Days_Driving_At_Start_Date Half_Yearly_Payment_Method Issurance_Broker_Agent_Channel Market_Value_EOY19 Max_Policy_Simultaneous_Force Max_Product_Simultaneous_Held Multiple_Drivers_Regular_Flag Non_Continuation_Insurance_Flag Policies_Terminated_Non_Payment Power_Wt_Ratio Premium_Amt_Current_Yr Ratio_Premium_Car_Value Rural_Urban_Flag Time_Since_Last_Renewal Total_Policies_Entity Vehicle_Doors Vehicle_Power_HP Vehicle_Wt_Kg Years_Associates Years_Driving Yr_Vehicle_Registration
feature_infos=[19:101] [18:91] [6575:23602] [0:68] [0:1] [32:14244] [1:15.550000000000001] [49:7480] [-4732:25943] [0:1] [0:1] [270.45999999999998:220675.79999999999] [1:17] [1:4] [0:1] [0:1] [0:7] [0:2.5172413793103448] [40.259999999999998:2116.6900000000001] [0.00082567981271379997:0.90841529246468999] [0:1] [1:4] [1:17] [0:6] [0:580] [43:7300] [1:40] [1:77] [1950:2018]
tree_sizes=3777 3821 3844 3858 3862 3839 3826 3849 3856 3842 3877 3848 3829 3873 3852 3860 3829

Tree=0
num_leaves=43
num_cat=0
split_feature=5 15 18 18 8 18 8 21 16 3 11 16 17 24 5 2 1 26 24 3 18 25 1 2 2 25 7 8 11 8 27 5 18 17 17 6 24 3 18 8 18 11
split_gain=4.22792e+07 8.98858e+07 6.94899e+07 4.10663e+08 2.10386e+07 1.92909e+07 1.74699e+07 1.59242e+07 6.34011e+07 2.56879e+07 2.98207e+07 1.49576e+07 1.17596e+07 1.02404e+07 3.08186e+07 4.79185e+07 2.15942e+07 9.7694e+06 2.19081e+07 4.3646e+07 7.97845e+06 7.54994e+06 7.46002e+06 2.47173e+07 4.18589e+07 7.3482e+06 6.93033e+06 1.235e+07 1.11853e+07 5.23001e+06 9.41704e+06 4.96598e+06 5.68434e+06 3.97833e+06 1.54735e+07 2.41945e+07 3.7679e+06 2.4032e+07 3.7332e+06 3.35955e+06 3.2174e+06 5.95712e+06
threshold=370.00000000000006 1.0000000180025095e-35 221.06000000000003 213.23500000000004 13959.500000000002 322.48500000000007 17419.500000000004 2.5000000000000004 1.0000000180025095e-35 18.500000000000004 14522.500000000002 1.0000000180025095e-35 0.10274600980268941 135.50000000000003 2193.5000000000005 7108.5000000000009 27.500000000000004 1.5000000000000002 124.50000000000001 11.500000000000002 356.26500000000004 1335.5000000000002 67.500000000000014 12907.500000000002 15103.500000000002 1025.5000000000002 1959.0000000000002 4876.5000000000009 19037.500000000004 7782.5000000000009 21.500000000000004 933.00000000000011 324.28500000000003 0.10755882039816886 0.11078814472882612 2.3750000000000004 124.50000000000001 14.500000000000002 578.995 1427.5000000000002 643.05500000000018 18950.270000000004
decision_type=2 2 2 2 2 2 2 2 2 2 2 2 2 2 2 2 2 2 2 2 2 2 2 2 2 2 2 2 2 2 2 2 2 2 2 2 2 2 2 2 2 2
left_child=1 20 3 4 21 -2 11 22 12 13 -11 17 26 -10 16 -16 -15 25 -19 -20 -1 -3 31 -24 -25 -4 27 -9 -29 30 36 32 -7 38 35 -35 -22 39 -34 -38 41 -40
right_child=5 2 6 -5 -6 7 -8 8 9 10 -12 -13 -14 14 15 -17 -18 18 19 -21 29 -23 23 24 -26 -27 -28 28 -30 -31 -32 -33 33 34 -36 -37 37 -39 40 -41 -42 -43
leaf_value=71.414466676528349 69.67341068947691 74.342814105550673 103.55843402013534 270.08242284219648 123.42902585484066 89.583203612155771 120.76930918865062 85.691807400868342 70.41355091996148 69.030125246882236 144.66399413623151 74.695180841697606 125.91984528697165 116.75289541367604 68.681515006443902 162.32670278751436 69.715371794065391 84.179149559051652 87.34898495457054 165.91802907894538 74.888654577858134 99.357067773541843 71.642676665631726 154.60595421831874 68.872441698519879 76.094923826467749 83.724056753934008 97.435715156294293 136.49438628353289 72.259848528087218 102.62660653538468 70.253049643782504 71.087821037830764 76.804850369081322 70.88214566751661 135.80772858882773 92.003009866186588 119.20214141929 96.555543005872394 73.00074513332973 72.854464141455352 75.31685532011528
leaf_weight=4736 13288 134 20 26 23 38 20 57 1316 20 20 563 26 20 22 20 231 254 43 20 686 28 164 20 24 234 78 36 26 757 27 4471 1772 40 159 20 20 28 37 147 206 84
leaf_count=4736 13288 134 20 26 23 38 20 57 1316 20 20 563 26 20 22 20 231 254 43 20 686 28 164 20 24 234 78 36 26 757 27 4471 1772 40 159 20 20 28 37 147 206 84
internal_value=71.7311 74.5497 84.8865 108.253 84.5934 70.7447 80.5871 72.3431 75.9803 72.9698 107.678 79.8371 98.1399 72.0858 79.5762 114.313 73.6222 84.8934 90.084 113.341 72.3438 78.8049 71.3748 79.636 108.789 78.3702 94.226 100.957 114.56 74.9858 77.2555 71.122 72.7709 72.4879 78.1671 97.1788 76.4448 81.8765 71.8926 75.3804 76.243 81.9571
internal_weight=29961 7766 1365 211 185 22195 1154 8907 1872 1649 40 1134 223 1609 293 42 251 571 317 63 6401 162 7035 208 44 254 197 119 62 1665 908 6827 2356 2318 219 60 881 195 2099 167 327 121
internal_count=29961 7766 1365 211 185 22195 1154 8907 1872 1649 40 1134 223 1609 293 42 251 571 317 63 6401 162 7035 208 44 254 197 119 62 1665 908 6827 2356 2318 219 60 881 195 2099 167 327 121
is_linear=0
shrinkage=1


Tree=1
num_leaves=43
num_cat=0
split_feature=5 15 16 5 18 11 26 17 3 6 7 7 18 0 2 9 8 28 7 8 18 5 26 17 21 16 18 7 5 0 1 25 25 8 17 3 1 17 25 25 11 8
split_gain=3.89055e+07 4.85695e+07 7.03577e+07 4.21997e+07 1.86953e+08 4.63064e+08 3.0598e+07 3.76991e+07 6.90416e+07 2.32241e+07 1.20582e+07 3.45228e+07 1.02347e+07 9.74073e+06 3.28061e+07 9.11142e+06 1.67451e+07 4.15779e+07 3.43047e+07 8.79462e+06 8.64181e+06 8.21122e+06 8.24543e+06 1.0884e+07 6.57726e+06 3.05611e+07 1.14861e+07 1.46335e+07 1.4063e+07 1.42247e+07 2.01629e+07 8.12434e+06 7.6071e+07 5.6916e+06 7.88119e+06 2.43629e+07 1.26793e+07 5.70368e+06 5.43456e+06 4.8342e+06 1.34712e+07 4.47238e+06
threshold=754.00000000000011 1.0000000180025095e-35 1.0000000180025095e-35 365.50000000000006 221.06000000000003 15672.500000000002 2.5000000000000004 0.096291201793265072 12.500000000000002 2.1750000000000003 1800.5000000000002 1919.5000000000002 356.26500000000004 69.500000000000014 12078.000000000002 1.0000000180025095e-35 3875.5000000000005 1996.5000000000002 2145.5000000000005 15049.500000000002 339.69000000000005 623.00000000000011 1.5000000000000002 0.095254182754182723 2.5000000000000004 1.0000000180025095e-35 274.21000000000009 1895.5000000000002 2556.5000000000005 44.500000000000007 47.500000000000007 1566.0000000000002 1590.5000000000002 7782.5000000000009 0.096946941152741259 16.500000000000004 46.500000000000007 0.099239532731899116 1454.5000000000002 1299.5000000000002 20454.620000000006 3090.5000000000005
decision_type=2 2 2 2 2 2 2 2 2 2 2 2 2 2 2 2 2 2 2 2 2 2 2 2 2 2 2 2 2 2 2 2 2 2 2 2 2 2 2 2 2 2
left_child=1 12 6 4 5 -4 21 9 20 10 -8 -12 -1 33 -15 -5 17 -17 38 -6 -9 22 -3 41 -2 26 -26 28 29 -28 -31 -27 -33 34 -14 36 37 -36 -19 -11 -41 -24
right_child=24 2 3 15 19 -7 7 8 -10 39 11 -13 13 14 -16 16 -18 18 -20 -21 -22 -23 23 -25 25 31 27 -29 -30 30 -32 32 -34 -35 35 -37 -38 -39 -40 40 -42 -43
leaf_value=-0.86161465850340513 -2.0502934838181748 6.3187282110888718 -2.0415691331767496 -2.579842753827005 2.9617588605219591 255.43049381721718 18.693352732730492 3.1617378773327447 108.9110634101952 3.1184135716074644 77.813621752089801 19.2377129354375 2.0177677291397171 1.55865644847754 65.199179714700222 71.663398861872849 -0.7473198365992334 0.98112025707424644 59.179089702846589 32.33551017811395 39.150138904593888 -0.41693918963808491 28.430859166660809 39.28156417195477 0.75267860378727869 -2.340716277315229 18.367131918718517 7.518782964860673 1.4232326152555397 88.454469267659405 27.781009559666352 85.032111173554938 -1.3970490476442159 -0.47919327866162753 19.721980257080446 51.983380005660493 38.509639280186164 0.64692829986725053 23.969282811430499 46.068165922617943 8.2101099998895855 10.129374457588254
leaf_weight=7835 12203 303 40 1494 485 20 93 27 26 132 32 52 1327 67 20 20 800 262 22 20 25 155 31 37 98 1994 37 109 25 20 25 21 231 1267 35 24 21 219 21 22 99 165
leaf_count=7835 12203 303 40 1494 485 20 93 27 26 132 32 52 1327 67 20 20 800 262 22 20 25 155 31 37 98 1994 37 109 25 20 25 21 231 1267 35 24 21 219 21 22 99 165
internal_value=0.00166 1.57807 5.51915 2.06638 13.0573 86.48 14.6791 22.9427 51.1899 17.7152 30.0114 42.1857 -0.0194854 2.1942 16.7461 -0.30866 2.7071 11.1872 7.007 4.18482 20.8638 8.58025 11.1781 17.445 -1.6212 0.424219 13.3728 19.0696 30.6631 39.4568 56.044 -1.39103 6.10372 1.75112 3.48826 9.98685 6.15192 3.34039 2.76298 9.03095 15.4049 13.1497
internal_weight=29961 15198 4383 3184 565 60 1199 508 78 430 177 84 10815 2980 87 2619 1125 325 305 505 52 691 536 233 14763 2560 314 216 107 82 45 2246 252 2893 1626 299 275 254 283 253 121 196
internal_count=29961 15198 4383 3184 565 60 1199 508 78 430 177 84 10815 2980 87 2619 1125 325 305 505 52 691 536 233 14763 2560 314 216 107 82 45 2246 252 2893 1626 299 275 254 283 253 121 196
is_linear=0
shrinkage=0.0443876


Tree=2
num_leaves=43
num_cat=0
split_feature=5 15 18 2 3 18 8 21 16 3 16 17 11 11 1 26 24 3 25 18 1 8 7 8 11 23 24 18 11 11 5 18 18 25 17 17 26 18 19 18 19 17
split_gain=3.60653e+07 7.51684e+07 5.83262e+07 3.78133e+08 2.19562e+07 1.68762e+07 1.56931e+07 1.3438e+07 5.42164e+07 2.3521e+07 1.26668e+07 1.02978e+07 9.45379e+06 6.72288e+07 2.02645e+07 8.24291e+06 1.91853e+07 3.91289e+07 6.75122e+06 6.73292e+06 6.69984e+06 2.27472e+07 6.15192e+06 1.16059e+07 1.07685e+07 4.66041e+06 5.15135e+06 1.14664e+07 1.94731e+07 3.46981e+07 3.95474e+06 8.23618e+06 3.74721e+06 3.55726e+06 3.51641e+06 1.44249e+07 2.17453e+07 3.33955e+06 2.94003e+06 2.92025e+06 5.44661e+06 3.59363e+06
threshold=370.00000000000006 1.0000000180025095e-35 221.06000000000003 10019.500000000002 21.500000000000004 323.43500000000006 17419.500000000004 2.5000000000000004 1.0000000180025095e-35 18.500000000000004 1.0000000180025095e-35 0.10274600980268941 26752.970000000005 27382.175000000003 27.500000000000004 1.5000000000000002 124.50000000000001 11.500000000000002 1025.5000000000002 356.26500000000004 67.500000000000014 11600.500000000002 1959.0000000000002 4876.5000000000009 19037.500000000004 4.5000000000000009 117.50000000000001 415.29000000000002 32253.950000000004 25239.000000000004 933.00000000000011 325.18500000000006 364.38000000000005 1082.5000000000002 0.10755882039816886 0.11078814472882612 3.5000000000000004 578.995 0.020531009466402305 643.05500000000018 0.032567914788545656 0.072401830340403969
decision_type=2 2 2 2 2 2 2 2 2 2 2 2 2 2 2 2 2 2 2 2 2 2 2 2 2 2 2 2 2 2 2 2 2 2 2 2 2 2 2 2 2 2
left_child=1 19 3 4 -3 -2 10 20 11 12 15 22 -10 -14 -15 18 38 -18 -4 -1 30 -22 23 -9 -25 26 32 -28 29 -29 31 -7 -21 -23 37 36 -36 -33 -17 40 41 -39
right_child=5 2 6 -5 -6 7 -8 8 9 -11 -12 -13 13 14 -16 16 17 -19 -20 25 21 33 -24 24 -26 -27 27 28 -30 -31 -32 34 -34 -35 35 -37 -38 39 -40 -41 -42 -43
leaf_value=-0.26431233085540973 -1.9010003019861277 1.3689992807472451 30.212454762795424 166.84989044233342 49.736298387572866 26.301277225335145 46.202015949908606 12.6078592200112 -1.3305014444274097 34.789709008221116 2.6782032457651281 50.515427470360038 80.388202577923551 43.317534649582221 -2.0570963471292298 7.4148702905604189 14.003306723422421 88.367180196639936 3.8916403909498838 21.460117176016382 44.800710137044376 15.435528751212367 10.988950107077276 23.836256143685006 62.721641320306752 1.5716525607311973 -0.90640218431558672 3.5649244998946226 -0.24478996489311219 74.933864940288061 -1.3139321347881989 -0.65479340277194154 1.9870999605128354 -1.091952742550113 4.8448568030893115 -0.99380653990808587 61.031342927922793 16.713349780312495 17.269316992528584 0.9952998647210719 23.625387578481405 -2.8613522080925757
leaf_weight=4736 13380 157 20 34 20 24 20 57 1294 39 563 26 22 20 257 155 43 20 234 20 27 30 78 35 25 1209 66 26 40 27 4426 1762 277 149 39 158 20 26 99 206 37 58
leaf_count=4736 13380 157 20 34 20 24 20 57 1294 39 563 26 22 20 257 155 43 20 234 20 27 30 78 35 25 1209 66 26 40 27 4426 1762 277 149 39 158 20 26 99 206 37 58
internal_value=0.0033836 2.60669 12.0594 33.4666 7.07545 -0.907583 8.12046 0.600336 3.95856 1.15848 7.40993 24.5407 0.314448 7.41468 1.35873 12.0629 16.8307 38.5926 6.07117 0.589392 -0.293913 7.57278 20.8446 27.2707 40.7784 3.01645 6.83559 13.2606 23.2202 40.6158 -0.534832 0.945054 3.36399 1.74626 0.670211 6.03511 24.57 0.110378 11.3068 4.22315 9.66691 3.31908
internal_weight=29961 7766 1365 211 177 22195 1154 8815 1853 1632 1134 221 1593 299 277 571 317 63 254 6401 6962 206 195 117 60 1665 456 159 93 53 6756 2330 297 179 2306 217 59 2089 254 327 121 84
internal_count=29961 7766 1365 211 177 22195 1154 8815 1853 1632 1134 221 1593 299 277 571 317 63 254 6401 6962 206 195 117 60 1665 456 159 93 53 6756 2330 297 179 2306 217 59 2089 254 327 121 84
is_linear=0
shrinkage=0.0443876


Tree=3
num_leaves=43
num_cat=0
split_feature=5 15 16 5 18 2 26 17 17 6 22 7 7 18 0 1 9 8 8 7 8 5 26 17 27 25 21 16 2 25 25 19 24 8 17 3 1 17 17 17 8 25
split_gain=3.31094e+07 4.16051e+07 5.96025e+07 3.66889e+07 1.64254e+08 4.40057e+08 2.75146e+07 3.36343e+07 6.79637e+07 2.182e+07 1.50146e+07 1.10388e+07 3.11821e+07 8.58514e+06 8.78872e+06 3.10824e+07 8.22825e+06 1.51856e+07 3.8106e+07 3.35309e+07 7.75836e+06 6.76306e+06 6.98608e+06 9.58982e+06 1.30172e+07 5.64623e+06 5.6146e+06 2.63986e+07 1.0943e+07 7.12499e+06 6.97467e+07 7.11318e+06 1.18172e+07 5.14492e+06 6.93763e+06 2.19647e+07 1.14423e+07 5.19549e+06 4.39728e+06 8.71413e+06 4.54361e+06 4.23662e+06
threshold=754.00000000000011 1.0000000180025095e-35 1.0000000180025095e-35 365.50000000000006 221.06000000000003 7779.5000000000009 2.5000000000000004 0.096291201793265072 0.10483832012707726 2.1750000000000003 1.5000000000000002 1800.5000000000002 1919.5000000000002 356.26500000000004 69.500000000000014 69.500000000000014 1.0000000180025095e-35 3875.5000000000005 3683.5000000000005 2145.5000000000005 15049.500000000002 623.00000000000011 1.5000000000000002 0.089951710912409569 27.500000000000004 1454.5000000000002 2.5000000000000004 1.0000000180025095e-35 11585.000000000002 1576.0000000000002 1596.5000000000002 0.024443998800011201 69.500000000000014 7782.5000000000009 0.096946941152741259 16.500000000000004 46.500000000000007 0.099239532731899116 0.082595767518094665 0.079371255635847016 11416.500000000002 1299.5000000000002
decision_type=2 2 2 2 2 2 2 2 2 2 2 2 2 2 2 2 2 2 2 2 2 2 2 2 2 2 2 2 2 2 2 2 2 2 2 2 2 2 2 2 2 2
left_child=1 13 6 4 5 -4 21 9 -9 11 -10 -8 -13 -1 33 -16 -5 18 19 25 -6 22 38 -24 -25 -18 -2 28 31 -29 -31 -28 -33 34 -15 36 37 -36 39 40 -3 -11
right_child=26 2 3 16 20 -7 7 8 10 41 -12 12 -14 14 15 -17 17 -19 -20 -21 -22 -23 23 24 -26 -27 27 29 -30 30 -32 32 -34 -35 35 -37 -38 -39 -40 -41 -42 -43
leaf_value=-0.79090643516693893 -1.8888375283503736 1.6726800420170214 -5.2194967810118031 -2.4442260316983675 2.7119143303944426 245.69995124581163 17.531165724280498 103.71738178456229 44.011837319240321 2.4916646688518815 -3.9112555554569202 73.85796890343363 18.191514270920152 1.8589755207906191 57.740208188568332 -0.76871326677725105 0.55622183416046833 -0.70968517929387209 65.790937711746494 59.275228557351184 30.300433315696925 -0.41032286322545525 10.649449794628657 10.876515555196162 53.418726105001646 24.495279559739625 5.985585050891796 -2.1711007622123932 37.09923132736192 81.310896771682764 -1.5102379121723981 -0.60885242561670805 39.81333957505921 -0.53345848999265377 18.659464674869614 49.210989106632411 36.433161544860972 0.45487894475830998 0.013384710009711673 36.701707040049818 19.854833892705635 13.989036361816648
leaf_weight=7835 12203 102 40 1494 485 20 93 27 22 132 29 32 52 1327 24 63 262 800 22 21 20 155 176 30 27 20 225 1998 31 21 227 24 34 1267 35 24 21 219 144 21 36 121
leaf_count=7835 12203 102 40 1494 485 20 93 27 22 132 29 32 52 1327 24 63 262 800 22 21 20 155 176 30 27 20 225 1998 31 21 227 24 34 1267 35 24 21 219 144 21 36 121
internal_value=0.00471428 1.45897 5.10656 1.92863 12.1768 80.9978 13.5373 21.3732 48.0521 16.4365 17.1969 28.3535 39.9987 -0.0196228 2.00783 15.8302 -0.285918 2.57995 10.6555 6.45521 3.86051 7.75483 10.1125 15.8806 31.5846 2.33215 -1.49238 0.397424 12.4319 -1.28968 5.79222 9.61236 23.352 1.58699 3.2386 9.33576 5.69505 3.02481 5.64046 10.7057 6.5213 8.02282
internal_weight=29961 15198 4383 3184 565 60 1199 508 78 430 51 177 84 10815 2980 87 2619 1125 325 303 505 691 536 233 57 282 14763 2560 314 2246 248 283 58 2893 1626 299 275 254 303 159 138 253
internal_count=29961 15198 4383 3184 565 60 1199 508 78 430 51 177 84 10815 2980 87 2619 1125 325 303 505 691 536 233 57 282 14763 2560 314 2246 248 283 58 2893 1626 299 275 254 303 159 138 253
is_linear=0
shrinkage=0.0443876


Tree=4
num_leaves=43
num_cat=0
split_feature=5 15 18 8 3 18 8 21 16 3 16 17 7 27 2 19 3 17 14 1 27 18 7 1 2 18 23 24 18 11 11 27 16 15 6 18 14 19 17 19 18 25
split_gain=3.08637e+07 6.29384e+07 4.93641e+07 3.71065e+08 2.15525e+07 1.4743e+07 1.39778e+07 1.14896e+07 4.57097e+07 2.15065e+07 1.0704e+07 9.1308e+06 8.69218e+06 2.64828e+07 2.03581e+07 6.14037e+07 7.38291e+06 1.6285e+07 7.64949e+06 5.85672e+06 2.07e+07 5.70705e+06 5.34369e+06 1.07499e+07 5.07439e+06 5.00294e+06 4.14979e+06 4.51519e+06 1.04949e+07 1.76857e+07 3.14519e+07 4.04719e+06 3.51462e+06 1.27671e+07 6.64973e+06 6.37103e+06 6.32408e+06 1.55599e+07 5.08986e+06 4.52333e+06 3.44759e+06 3.31544e+06
threshold=370.00000000000006 1.0000000180025095e-35 221.06000000000003 4466.5000000000009 21.500000000000004 323.43500000000006 17419.500000000004 2.5000000000000004 1.0000000180025095e-35 18.500000000000004 1.0000000180025095e-35 0.10274600980268941 1992.0000000000002 11.500000000000002 9323.5000000000018 0.013972331013416002 12.500000000000002 0.095254182754182723 1.0000000180025095e-35 67.500000000000014 34.500000000000007 356.26500000000004 1959.0000000000002 50.500000000000007 7721.5000000000009 412.64000000000004 4.5000000000000009 117.50000000000001 415.29000000000002 32253.950000000004 25239.000000000004 17.500000000000004 1.0000000180025095e-35 1.0000000180025095e-35 3.4250000000000003 324.28500000000003 1.0000000180025095e-35 0.023544394000272206 0.058751648188385554 0.034499134855611957 364.38000000000005 1082.5000000000002
decision_type=2 2 2 2 2 2 2 2 2 2 2 2 2 2 2 2 2 2 2 2 2 2 2 2 2 2 2 2 2 2 2 2 2 2 2 2 2 2 2 2 2 2
left_child=1 21 3 -3 31 -2 10 19 11 12 16 22 -10 -14 -15 -16 -4 18 -18 32 -21 -1 23 24 25 -9 27 40 -29 30 -30 -5 33 35 36 -7 38 -38 -35 -40 -23 -22
right_child=5 2 6 4 -6 7 -8 8 9 -11 -12 -13 13 14 15 -17 17 -19 -20 20 41 26 -24 -25 -26 -27 -28 28 29 -31 -32 -33 -34 34 -36 -37 37 -39 39 -41 -42 -43
leaf_value=-0.21748349727805485 -1.7650807084879865 175.48764903680237 7.0052334033265975 17.846163624014647 49.232776309369825 19.537353092004281 43.378607584589048 36.668460375828772 -1.7767782658128835 33.265793262781813 2.4203953033520635 47.022129534742632 41.488999704498553 -2.0204128758501816 87.71641116299709 -3.2696022692873266 7.8284471220386829 43.913238186738354 32.423415558185837 42.614086149609989 14.75964236037832 20.513915162053792 9.9219608556301466 51.138267330329313 4.6778043581995705 9.4913711006704791 1.4397138994396721 -1.1278637549192945 3.2588096541430307 -0.40745126671808263 71.201699644550459 -1.5655627260033602 -1.7589797465458656 29.051018470404244 0.088649927823589159 -0.67943105207496557 51.151984945798731 4.2567362859452214 3.6411177950526947 25.017434253414756 1.8362019542202828 -1.1956401904842455
leaf_weight=4736 13380 29 350 24 20 30 20 34 1137 39 563 26 36 352 20 48 155 37 29 27 30 20 78 24 36 23 1209 66 26 40 27 138 2600 20 151 3699 24 32 179 21 277 149
leaf_count=4736 13380 29 350 24 20 30 20 34 1137 39 563 26 36 352 20 48 155 37 29 27 30 20 78 24 36 23 1209 66 26 40 27 138 2600 20 151 3699 24 32 179 21 277 149
internal_value=0.00614757 2.41441 11.064 30.758 6.88881 -0.83657 7.44035 0.572826 3.67806 1.10698 6.77 22.5767 0.299909 5.47075 2.29501 24.348 11.0473 17.3902 11.8545 -0.254057 7.10101 0.568502 19.1008 25.0881 17.9071 26.0445 2.80302 6.40684 12.4221 21.9505 38.5286 1.39932 -0.479311 0.321475 7.58271 -0.511749 11.6681 24.8833 8.20976 5.99551 3.15663 1.54355
internal_weight=29961 7766 1365 211 182 22195 1154 8815 1853 1632 1134 221 1593 456 420 68 571 221 184 6962 206 6401 195 117 93 57 1665 456 159 93 53 162 6756 4156 427 3729 276 56 220 200 297 179
internal_count=29961 7766 1365 211 182 22195 1154 8815 1853 1632 1134 221 1593 456 420 68 571 221 184 6962 206 6401 195 117 93 57 1665 456 159 93 53 162 6756 4156 427 3729 276 56 220 200 297 179
is_linear=0
shrinkage=0.0443876


Tree=5
num_leaves=43
num_cat=0
split_feature=5 15 16 5 18 3 5 18 1 25 18 18 3 9 24 28 17 18 0 2 8 1 18 21 16 7 28 1 19 19 8 17 28 0 6 8 7 7 18 0 0 27
split_gain=2.84378e+07 3.54142e+07 4.98862e+07 3.19498e+07 1.44985e+08 4.44186e+08 2.29342e+07 2.43819e+07 3.53308e+07 1.59975e+07 8.92337e+06 1.15478e+07 7.36979e+06 7.35674e+06 1.44456e+07 1.05262e+07 4.30063e+07 7.34765e+06 7.83834e+06 2.91941e+07 6.84348e+06 5.74474e+06 4.89433e+06 5.91771e+06 2.6358e+07 1.57663e+07 1.47446e+07 8.7478e+06 8.70804e+06 7.60866e+07 4.65823e+06 6.46666e+06 2.233e+07 1.0278e+07 4.2274e+06 5.74517e+06 7.52641e+06 4.13597e+06 5.38527e+06 6.20289e+06 8.04449e+06 3.74023e+06
threshold=754.00000000000011 1.0000000180025095e-35 1.0000000180025095e-35 365.50000000000006 221.06000000000003 11.500000000000002 730.50000000000011 367.19500000000005 49.500000000000007 189.50000000000003 278.42500000000007 288.44000000000005 17.500000000000004 1.0000000180025095e-35 169.50000000000003 1996.5000000000002 0.080587364049172008 356.26500000000004 69.500000000000014 12078.000000000002 15049.500000000002 33.500000000000007 292.40000000000003 2.5000000000000004 1.0000000180025095e-35 1895.5000000000002 2001.5000000000002 39.500000000000007 0.013440047952047901 0.013191086435525303 7782.5000000000009 0.10617791385312252 2001.5000000000002 43.500000000000007 2.1750000000000003 6581.5000000000009 1751.0000000000002 1244.0000000000002 543.52500000000009 52.500000000000007 42.500000000000007 12.500000000000002
decision_type=2 2 2 2 2 2 2 2 2 2 2 2 2 2 2 2 2 2 2 2 2 2 2 2 2 2 2 2 2 2 2 2 2 2 2 2 2 2 2 2 2 2
left_child=1 17 6 4 5 -4 9 34 21 -3 -11 -12 37 -5 15 16 -15 -1 30 -20 -6 -9 -2 -24 25 26 -25 -28 29 -26 31 -19 -33 -34 35 36 -8 -13 -39 40 -40 -17
right_child=22 2 3 13 20 -7 7 8 -10 10 11 12 -14 14 -16 41 -18 18 19 -21 -22 -23 23 24 28 -27 27 -29 -30 -31 -32 32 33 -35 -36 -37 -38 38 39 -41 -42 -43
leaf_value=-0.7226580955270665 -2.2227261293887666 43.412780976179569 241.51544356262582 -2.2944827078472123 2.4845582241937745 -10.463688061127442 13.256399621826663 41.297693584814745 94.215810545733561 3.3988428101279733 36.197750018191194 -1.5876780389650933 30.276893153814907 -4.002215785606837 38.954552867517187 5.677220979540559 71.659777345668147 2.0833091692612102 0.60591153207638893 60.627402753702981 28.395008202760945 10.022710907064015 -1.1942359430738141 61.361494790574341 -1.8213602792981001 4.8637585261335126 4.3099620205742877 35.393027413514474 -1.9473772410984247 88.089792256370359 -0.54853628856122505 50.951768169505833 -0.10420711919977885 33.457075817734072 0.76254220608127365 10.002140300388426 50.802974596004248 8.3331190215821405 15.844442362732647 1.8915883243450251 50.942172178331482 -0.7803716967780725
leaf_weight=7835 7074 26 20 1494 485 40 23 22 21 381 36 62 34 50 20 225 20 1457 67 20 20 25 6256 22 160 100 36 35 1060 20 1267 23 126 20 32 59 20 377 37 24 20 810
leaf_count=7835 7074 26 20 1494 485 40 23 22 21 381 36 62 34 50 20 225 20 1457 67 20 20 25 6256 22 160 100 36 35 1060 20 1267 23 126 20 32 59 20 377 37 24 20 810
internal_value=0.00727319 1.35503 4.72032 1.81291 11.3763 76.0347 12.4334 26.0473 47.5394 9.65245 8.70606 12.1221 10.4971 -0.253668 2.45618 1.762 18.2992 -0.00912345 1.86652 14.9202 3.56317 25.201 -1.38019 -0.604867 1.96719 17.1829 30.2424 19.903 -0.412642 8.58725 1.4691 3.04066 11.2352 4.68364 14.8777 19.2571 31.4552 9.14981 10.6036 20.9478 28.8056 0.627453
internal_weight=29961 15198 4383 3184 565 60 1199 202 68 997 971 590 554 2619 1125 1105 70 10815 2980 87 505 47 14763 7689 1433 193 93 71 1240 180 2893 1626 169 146 134 102 43 520 458 81 57 1035
internal_count=29961 15198 4383 3184 565 60 1199 202 68 997 971 590 554 2619 1125 1105 70 10815 2980 87 505 47 14763 7689 1433 193 93 71 1240 180 2893 1626 169 146 134 102 43 520 458 81 57 1035
is_linear=0
shrinkage=0.0443876


Tree=6
num_leaves=43
num_cat=0
split_feature=5 15 18 18 8 18 8 21 16 3 16 12 8 27 24 24 2 27 26 24 3 25 2 1 12 18 8 27 25 18 11 18 10 7 0 24 3 11 11 19 11 24
split_gain=2.65062e+07 5.28566e+07 4.17701e+07 3.66642e+08 2.24427e+07 1.2578e+07 1.25473e+07 9.75581e+06 3.76828e+07 1.88903e+07 9.13412e+06 8.91791e+06 2.00293e+07 2.45102e+07 7.93958e+06 2.86409e+07 4.65786e+07 1.53988e+07 6.8362e+06 1.61575e+07 3.48364e+07 6.33589e+06 6.20236e+06 5.17916e+06 2.03367e+07 4.8488e+06 3.84619e+06 8.29368e+06 3.22624e+06 3.16629e+06 7.93836e+06 3.19228e+06 3.14324e+06 4.27537e+06 3.76591e+06 2.63925e+06 1.96424e+07 3.37769e+06 5.95976e+06 2.60803e+06 2.78433e+06 2.52775e+06
threshold=370.00000000000006 1.0000000180025095e-35 221.06000000000003 213.23500000000004 13959.500000000002 323.43500000000006 17419.500000000004 2.5000000000000004 1.0000000180025095e-35 18.500000000000004 1.0000000180025095e-35 1.5000000000000002 4971.5000000000009 31.500000000000004 135.50000000000003 137.50000000000003 7450.5000000000009 11.500000000000002 1.5000000000000002 124.50000000000001 11.500000000000002 1335.5000000000002 6634.5000000000009 67.500000000000014 2.5000000000000004 356.26500000000004 7782.5000000000009 21.500000000000004 1082.5000000000002 324.28500000000003 17266.005000000001 569.56500000000017 1.0000000180025095e-35 1794.5000000000002 44.500000000000007 124.50000000000001 14.500000000000002 25825.000000000004 23439.730000000007 0.020531009466402305 14288.000000000002 90.500000000000014
decision_type=2 2 2 2 2 2 2 2 2 2 2 2 2 2 2 2 2 2 2 2 2 2 2 2 2 2 2 2 2 2 2 2 2 2 2 2 2 2 2 2 2 2
left_child=1 25 3 4 21 -2 10 23 11 14 18 32 -13 -14 -10 16 -16 -17 22 39 -21 -3 -4 29 28 -1 27 35 -25 30 -7 -31 -9 34 -34 -27 37 38 -37 -20 -41 -42
right_child=5 2 6 -5 -6 7 -8 8 9 -11 -12 12 13 -15 15 17 -18 -19 19 20 -22 -23 -24 24 -26 26 -28 -29 -30 31 -32 -33 33 -35 -36 36 -38 -39 -40 40 41 -43
leaf_value=-0.17576154449023029 -1.6300461622589644 -4.012712337055409 24.831577174665551 181.18143407815916 46.048725506073431 31.600768281262329 40.881390173691109 25.178052350269194 -1.185890456040446 31.195654831608305 2.1808851658422479 4.4996118873949005 87.205500961202276 18.281860930778151 -4.545597581928785 34.98234361854184 87.719092166399747 -2.4193840437031566 5.7735236325048724 11.30521253267259 81.405167407794622 18.865206687259867 2.3068359527376403 14.561993540901945 39.237733870617845 2.4926726165053155 0.27095795516262366 28.360915959772406 -1.8683625905138965 -0.9245332366439255 -3.4455200025572887 1.8455703043690659 5.8420038968021037 3.2310286776027417 31.603257225057671 -1.0418800509426294 42.083427730146717 -1.8437256707798042 28.75958955669476 7.2981102233333814 32.565633093704733 12.054178148937197
leaf_weight=4736 13380 134 26 26 23 20 20 39 1301 39 563 28 20 21 22 23 20 227 155 43 20 28 228 27 31 686 757 27 148 5749 32 955 20 67 26 31 28 114 22 49 24 26
leaf_count=4736 13380 134 26 26 23 20 20 39 1301 39 563 28 20 21 22 23 20 227 155 43 20 28 228 27 31 686 757 27 148 5749 32 955 20 67 26 31 28 114 22 49 24 26
internal_value=0.0085498 2.24034 10.167 28.2828 5.96172 -0.772416 6.83367 0.52939 3.39076 1.05629 6.19876 20.55 33.7385 53.1412 0.299885 6.90174 40.378 1.14344 10.1499 14.4906 34.4558 0.0302187 4.69819 -0.232557 6.68399 0.548722 2.60838 4.55472 0.732883 -0.444381 10.3656 -0.529716 14.3872 10.4804 20.7546 3.79475 8.34038 2.47258 11.623 9.42634 15.0339 22.3319
internal_weight=29961 7766 1365 211 185 22195 1154 8815 1853 1632 1134 221 69 41 1593 292 42 250 571 317 63 162 254 6962 206 6401 1665 908 175 6756 52 6704 152 113 46 881 195 167 53 254 99 50
internal_count=29961 7766 1365 211 185 22195 1154 8815 1853 1632 1134 221 69 41 1593 292 42 250 571 317 63 162 254 6962 206 6401 1665 908 175 6756 52 6704 152 113 46 881 195 167 53 254 99 50
is_linear=0
shrinkage=0.0443876


Tree=7
num_leaves=43
num_cat=0
split_feature=5 15 16 5 19 19 26 17 17 6 22 7 7 9 24 28 25 18 18 3 18 24 26 2 13 0 21 16 2 11 11 19 24 25 11 25 8 24 19 18 2 1
split_gain=2.44825e+07 3.03975e+07 4.19996e+07 2.80488e+07 1.29708e+08 5.10866e+08 2.45397e+07 2.89891e+07 6.23442e+07 1.94203e+07 1.38281e+07 9.59736e+06 2.86481e+07 6.54521e+06 1.3139e+07 9.29947e+06 4.14987e+07 6.40646e+06 5.31874e+06 1.22724e+07 5.01164e+06 5.37812e+06 8.93925e+06 1.28483e+07 4.56936e+06 4.23296e+07 4.27624e+06 1.9771e+07 9.39726e+06 6.31467e+06 6.65063e+07 6.00506e+06 9.83435e+06 3.93614e+06 1.30681e+07 3.55077e+06 1.94145e+07 3.41187e+06 4.16085e+06 3.52355e+06 4.81661e+06 3.2563e+06
threshold=754.00000000000011 1.0000000180025095e-35 1.0000000180025095e-35 365.50000000000006 0.011763457558113052 0.010855959024487801 2.5000000000000004 0.096291201793265072 0.10483832012707726 2.1750000000000003 1.5000000000000002 1800.5000000000002 1919.5000000000002 1.0000000180025095e-35 169.50000000000003 1996.5000000000002 1233.5000000000002 310.16500000000008 312.87000000000006 17.500000000000004 241.41500000000002 82.500000000000014 1.5000000000000002 8143.5000000000009 1.5000000000000002 62.500000000000007 2.5000000000000004 1.0000000180025095e-35 11585.000000000002 26752.970000000005 27382.175000000003 0.024443998800011201 69.500000000000014 1299.5000000000002 20454.620000000006 1553.5000000000002 4092.5000000000005 111.50000000000001 0.018120670858044155 423.85000000000008 7299.5000000000009 52.500000000000007
decision_type=2 2 2 2 2 2 2 2 2 2 2 2 2 2 2 2 2 2 2 2 2 2 2 2 2 2 2 2 2 2 2 2 2 2 2 2 2 2 2 2 2 2
left_child=1 17 6 4 5 -4 18 9 -9 11 -10 -8 -13 -5 15 16 -15 -1 -3 37 -6 22 -22 -24 41 -26 -2 28 31 -29 -31 -28 -33 -11 -35 -17 -37 38 -20 -40 -41 -19
right_child=26 2 3 13 20 -7 7 8 10 33 -12 12 -14 14 -16 35 -18 24 19 -21 21 -23 23 -25 25 -27 27 29 -30 30 -32 32 -34 34 -36 36 -38 -39 39 40 -42 -43
leaf_value=-0.90599498293022462 -1.6238043209940305 2.3910800108878134 -4.9979043558635077 -2.1511048949412857 -9.2151819025668935 251.15869072382688 15.439964253275383 96.914913595690706 39.861509094326891 1.0232788254071155 -6.0709308385644656 68.80102055738756 15.509546580549593 -4.6817823359212429 37.138549519273205 -0.28922359996581098 69.630604564311597 1.7688152770754551 24.596241302280671 43.069006072640605 0.87757411750040171 0.221106724521245 5.8099650580081947 45.00485760115086 -0.77060481717964291 65.839837991061785 4.8481539044506441 -1.9052603233068741 33.637646756592694 77.541715733730172 -1.8425368433095848 -1.0417886129515621 35.8146603874779 42.270054719646211 5.0408273371247425 46.562381019374264 -0.95457410121513409 1.9780059746492087 2.2368513269986754 28.909489923254878 3.4050864122851161 -0.97744706057034958
leaf_weight=6371 12203 373 57 1494 65 20 93 27 22 132 29 32 52 50 20 927 20 3125 38 20 83 273 39 28 130 21 225 2005 31 22 219 24 34 22 99 20 88 118 84 29 29 1168
leaf_count=6371 12203 373 57 1494 65 20 93 27 22 132 29 32 52 50 20 927 20 3125 38 20 83 273 39 28 130 21 225 2005 31 22 219 24 34 22 99 20 88 118 84 29 29 1168
internal_value=0.00955308 1.26007 4.3779 1.71018 10.6708 63.8324 11.4551 18.8539 43.616 14.2741 14.1171 25.5143 36.3645 -0.226136 2.32987 1.66784 17.2116 -0.00376853 5.99692 10.2063 2.17262 3.93959 10.6623 22.5983 1.2896 8.8541 -1.27781 0.371441 10.7862 -1.08862 5.68587 8.17675 20.7974 6.34298 12.092 0.601446 8.18091 7.8682 11.6983 8.10327 16.423 1.02159
internal_weight=29961 15198 4383 3184 565 77 1199 508 78 430 51 177 84 2619 1125 1105 70 10815 691 318 488 423 150 67 4444 151 14763 2560 314 2246 241 283 58 253 121 1035 108 298 180 142 58 4293
internal_count=29961 15198 4383 3184 565 77 1199 508 78 430 51 177 84 2619 1125 1105 70 10815 691 318 488 423 150 67 4444 151 14763 2560 314 2246 241 283 58 253 121 1035 108 298 180 142 58 4293
is_linear=0
shrinkage=0.0443876


Tree=8
num_leaves=43
num_cat=0
split_feature=5 15 26 2 2 19 9 21 16 28 24 7 5 1 26 18 20 24 16 24 16 18 16 17 15 2 18 6 23 11 19 2 24 2 21 1 12 18 2 7 2 16
split_gain=2.28343e+07 4.461e+07 3.91997e+07 3.02427e+08 4.25811e+08 2.17211e+07 1.1378e+07 1.201e+07 2.18745e+07 1.77263e+07 1.70757e+07 4.46585e+07 4.73257e+07 1.75916e+07 1.07457e+07 1.06397e+07 1.07698e+07 8.946e+06 2.57e+07 9.51719e+06 1.643e+07 5.13314e+06 6.84249e+06 9.97178e+06 8.68183e+06 9.78177e+06 4.17694e+06 4.05814e+06 3.5919e+06 3.96559e+06 1.18596e+07 1.79168e+07 3.29872e+07 4.43697e+06 3.50258e+06 3.38626e+06 3.08328e+07 3.34588e+06 3.53777e+06 5.49169e+06 3.05099e+06 2.59979e+06
threshold=370.00000000000006 1.0000000180025095e-35 3.5000000000000004 10019.500000000002 11310.500000000002 0.035054205015981603 1.0000000180025095e-35 2.5000000000000004 1.0000000180025095e-35 2000.5000000000002 112.50000000000001 1597.5000000000002 2193.5000000000005 26.500000000000004 1.5000000000000002 281.29500000000007 1.0000000180025095e-35 124.50000000000001 1.0000000180025095e-35 82.500000000000014 1.0000000180025095e-35 569.56500000000017 1.0000000180025095e-35 0.059909864187255059 1.0000000180025095e-35 7260.5000000000009 356.26500000000004 1.5250000000000001 4.5000000000000009 25239.000000000004 0.013848335132855752 6948.5000000000009 117.50000000000001 6646.5000000000009 3.5000000000000004 67.500000000000014 2.5000000000000004 221.06000000000003 6634.5000000000009 1869.0000000000002 8771.5000000000018 1.0000000180025095e-35
decision_type=2 2 2 2 2 2 2 2 2 2 2 2 2 2 2 2 2 2 2 2 2 2 2 2 2 2 2 2 2 2 2 2 2 2 2 2 2 2 2 2 2 2
left_child=1 26 14 5 -5 -4 21 35 9 -9 -10 -12 13 -13 37 40 17 19 -19 20 -17 41 23 -23 -25 -26 -1 -21 29 33 -31 -32 -33 -28 -11 -8 -37 -3 39 -39 -16 -2
right_child=6 2 3 4 -6 -7 7 8 10 34 11 12 -14 -15 15 16 -18 18 -20 27 -22 22 -24 24 25 -27 28 -29 -30 30 31 32 -34 -35 -36 36 -38 38 -40 -41 -42 -43
leaf_value=-0.14443726533998472 -1.0813658589430317 -7.6291804673647867 0.76827629768850081 275.74292605610549 -0.78244841532743781 47.97943003586041 -0.40463910468014258 44.585039725465343 -0.56927913737812486 8.0054067358132954 73.669268113181303 39.127148642035444 57.935001889380189 -2.2125719582881582 5.9317486618510777 10.673828222280203 2.8533166391809486 62.260814776479009 -0.069708562980932129 19.38958491421365 61.321709185026563 31.284656315700708 -2.2876825406016885 0.66974644466868027 2.9085089023364574 38.100539777102455 22.279228223711574 0.57689228534105808 1.1714404717304083 -1.3404772052389573 0.071671810808314695 5.109757347107819 77.50360535348085 1.0724710612813719 25.784999158912758 -2.2259539744206847 53.677420080513691 29.759710399038578 1.6097035294492832 -1.5765058783157171 -6.3501847317521998 -2.2929462200548723
leaf_weight=4736 8510 69 228 20 23 20 5399 39 1047 125 20 21 31 263 118 33 91 31 22 34 20 29 311 246 34 28 20 64 1209 79 40 26 23 268 26 126 22 22 490 21 59 5918
leaf_count=4736 8510 69 228 20 23 20 5399 39 1047 125 20 21 31 263 118 33 91 31 22 34 20 29 311 246 34 28 20 64 1209 79 40 26 23 268 26 126 22 22 490 21 59 5918
internal_value=0.0106085 2.08206 9.36414 23.7885 131.079 4.74767 -0.714248 0.748198 4.17164 18.2537 2.22417 10.9312 6.73395 0.966979 5.43793 10.445 15.5938 21.2367 36.8514 15.5558 30.5446 -1.40483 2.45741 6.8304 4.43693 19.1437 0.527986 7.22977 2.43963 5.79237 11.193 22.2128 39.9351 2.61498 11.2118 -0.222552 6.37932 1.50163 2.69538 14.7587 1.82548 -1.57845
internal_weight=29961 7766 1365 291 43 248 22195 7119 1572 190 1382 335 315 284 1074 472 295 204 53 151 53 15076 648 337 308 62 6401 98 1665 456 168 89 49 288 151 5547 148 602 533 43 177 14428
internal_count=29961 7766 1365 291 43 248 22195 7119 1572 190 1382 335 315 284 1074 472 295 204 53 151 53 15076 648 337 308 62 6401 98 1665 456 168 89 49 288 151 5547 148 602 533 43 177 14428
is_linear=0
shrinkage=0.0443876


Tree=9
num_leaves=43
num_cat=0
split_feature=5 15 26 6 19 11 1 7 17 6 18 19 6 27 1 28 12 5 26 28 18 5 17 11 13 2 18 21 2 2 8 28 3 8 7 7 17 1 17 3 0 25
split_gain=2.11734e+07 2.63948e+07 3.04356e+07 4.43617e+07 1.01187e+08 4.82718e+08 5.07033e+07 1.62994e+07 1.86952e+07 1.60945e+07 1.42951e+07 2.01699e+07 1.16596e+07 9.56112e+06 7.66545e+06 3.87541e+07 1.83479e+07 6.46702e+06 6.61046e+06 5.95417e+06 5.56701e+06 4.74269e+06 4.68008e+06 4.53369e+06 4.16643e+06 4.00181e+07 3.8239e+06 4.30672e+06 1.27154e+07 8.9861e+07 3.78998e+06 3.64003e+06 7.09056e+06 3.56396e+06 6.78945e+06 1.87738e+07 3.27215e+06 3.005e+06 4.09646e+06 1.88592e+07 1.31461e+07 2.66491e+06
threshold=754.00000000000011 1.0000000180025095e-35 2.5000000000000004 2.6250000000000004 0.011763457558113052 22312.500000000004 68.500000000000014 1800.5000000000002 0.10003498950314907 2.1750000000000003 371.74500000000006 0.015294245146337851 1.8750000000000002 31.500000000000004 32.500000000000007 1996.5000000000002 2.5000000000000004 370.00000000000006 1.5000000000000002 1998.5000000000002 310.16500000000008 470.00000000000006 0.068976429506765621 41295.000000000007 1.5000000000000002 10276.500000000002 292.40000000000003 2.5000000000000004 9323.5000000000018 9614.5000000000018 3182.5000000000005 2007.5000000000002 4.5000000000000009 11416.500000000002 1586.5000000000002 1360.5000000000002 0.060323167561947659 52.500000000000007 0.10617791385312252 16.500000000000004 50.500000000000007 1560.5000000000002
decision_type=2 2 2 2 2 2 2 2 2 2 2 2 2 2 2 2 2 2 2 2 2 2 2 2 2 2 2 2 2 2 2 2 2 2 2 2 2 2 2 2 2 2
left_child=1 20 14 4 5 -4 23 12 9 10 11 -9 13 30 15 -3 21 18 33 -20 -1 31 -13 -5 37 -26 -2 -28 -29 -30 -6 -17 -33 -16 35 -35 -31 38 -22 40 -40 -12
right_child=26 2 3 6 7 -7 -8 8 -10 -11 41 22 -14 -15 17 16 -18 -19 19 -21 24 -23 -24 -25 25 -27 27 28 29 36 -32 32 -34 34 -36 -37 -38 -39 39 -41 -42 -43
leaf_value=-0.84425850842068251 -1.9303939047651992 61.141302116858277 247.27906319471995 -0.31362532587383452 26.402122964678874 -0.65138087885782459 70.193211387845423 7.4121983621750713 51.504625451033895 3.8051095904752179 -1.6145987875591683 39.622687438712362 0.037725006283339295 44.626520803568489 -1.8413457472354136 3.2887106089888798 37.381638580581161 -1.4271832260160586 25.506537095169854 6.4734340627463585 1.145241133397936 -1.2715881701432903 73.352402432754104 20.137496622810495 -1.1770818327792851 62.405564392977439 -1.0031517532117629 -0.35093795621712937 92.379092959268291 14.462189638171971 4.6457058395457365 0.85033879071534235 31.667168052303648 -5.910730904094601 -1.1284360856748878 51.368222412544277 0.33118853506181761 -0.9738078657040663 -0.84309357609786151 42.02760976901267 27.653692504774451 18.829096709712498
leaf_weight=6371 7074 23 20 765 21 59 20 24 31 121 25 20 257 20 346 136 29 1534 37 230 2831 363 22 21 129 22 6256 1157 23 37 58 29 29 24 75 20 216 1168 232 26 36 24
leaf_count=6371 7074 23 20 765 21 59 20 24 31 121 25 20 257 20 346 136 29 1534 37 230 2831 363 22 21 129 22 6256 1157 23 37 58 29 29 24 75 20 216 1168 232 26 36 24
internal_value=0.0115352 1.17448 4.07979 9.18489 17.3345 64.3532 2.07457 11.2815 19.5536 15.163 26.9817 40.3293 5.04115 17.9035 1.39986 5.81673 3.54787 0.210823 3.64082 9.19374 -0.00321712 1.72442 58.5473 0.256919 1.20244 8.42571 -1.18567 -0.500364 1.69383 10.2368 10.6791 7.30879 16.5261 0.439876 7.03394 20.6714 2.44511 0.946523 1.66435 6.64273 3.07073 8.56972
internal_weight=29961 15198 4383 1508 702 79 806 623 267 236 115 66 356 99 2875 609 586 2266 732 267 10815 557 42 786 4444 151 14763 7689 1433 276 79 194 58 465 119 44 253 4293 3125 294 268 49
internal_count=29961 15198 4383 1508 702 79 806 623 267 236 115 66 356 99 2875 609 586 2266 732 267 10815 557 42 786 4444 151 14763 7689 1433 276 79 194 58 465 119 44 253 4293 3125 294 268 49
is_linear=0
shrinkage=0.0443876


Tree=10
num_leaves=43
num_cat=0
split_feature=5 15 18 25 8 8 9 21 16 28 24 10 3 5 16 3 2 24 18 16 17 15 2 18 7 8 27 25 1 8 28 8 3 16 21 5 18 24 24 8 2 19
split_gain=1.98361e+07 3.81006e+07 3.75166e+07 3.55348e+08 2.49853e+07 1.08366e+07 1.00992e+07 1.04848e+07 1.89536e+07 1.60958e+07 1.54875e+07 4.33309e+07 6.69453e+07 7.04585e+07 8.44119e+06 6.67979e+06 1.32772e+07 8.70229e+06 4.57669e+06 6.18271e+06 9.14842e+06 7.62725e+06 8.89099e+06 3.60231e+06 3.37309e+06 3.36324e+06 7.42867e+06 3.28679e+06 3.06197e+06 2.92595e+07 2.85211e+06 3.51908e+06 6.45121e+06 2.47351e+06 1.94431e+07 7.34328e+06 9.19284e+06 3.40549e+06 4.19626e+06 3.06319e+06 4.19435e+06 2.98727e+06
threshold=370.00000000000006 1.0000000180025095e-35 221.06000000000003 1335.5000000000002 13959.500000000002 17419.500000000004 1.0000000180025095e-35 2.5000000000000004 1.0000000180025095e-35 2000.5000000000002 112.50000000000001 1.0000000180025095e-35 12.500000000000002 2191.5000000000005 1.0000000180025095e-35 12.500000000000002 6624.5000000000009 124.50000000000001 569.56500000000017 1.0000000180025095e-35 0.059909864187255059 1.0000000180025095e-35 7260.5000000000009 356.26500000000004 1463.5000000000002 7782.5000000000009 21.500000000000004 1521.5000000000002 67.500000000000014 11600.500000000002 2007.5000000000002 3830.5000000000005 4.5000000000000009 1.0000000180025095e-35 2.5000000000000004 1449.5000000000002 367.19500000000005 115.50000000000001 67.500000000000014 6528.5000000000009 7304.5000000000009 0.020449914315968803
decision_type=2 2 2 2 2 2 2 2 2 2 2 2 2 2 2 2 2 2 2 2 2 2 2 2 2 2 2 2 2 2 2 2 2 2 2 2 2 2 2 2 2 2
left_child=1 23 3 4 -3 14 18 28 9 -9 -10 12 13 -12 15 30 -17 24 33 20 -20 -22 -23 -1 -18 26 -25 -11 -8 -30 -4 32 -32 34 -2 36 37 38 -36 -40 -41 -37
right_child=6 2 5 -5 -6 -7 7 8 10 27 11 -13 -14 -15 -16 16 17 -19 19 -21 21 22 -24 25 -26 -27 -28 -29 29 -31 31 -33 -34 -35 35 41 -38 -39 39 40 -42 -43
leaf_value=-0.11748978541757558 -1.3910710901837287 -6.7021184810233008 0.30682290274434437 152.96792930469749 42.01601900239767 37.150406283326809 -0.36543503299976232 42.109766173857061 -0.55973741198512938 6.6784637873827473 -0.92726314551501032 -3.0637043975151639 96.845653255772177 88.875363498141411 1.0655214198334542 48.440827313507796 18.355729486923568 32.073953661972823 29.912671638312379 -2.1773202119394708 0.66654062217546506 2.5120825788610555 36.054720722968483 3.3833101595125403 3.5709957009204523 0.096715512601984882 26.63176711954554 22.295049603485037 51.011019208601866 -2.509823361538039 1.4960279364199141 4.7453840517366066 32.332964337617256 -2.1745471646251682 -1.2099370632183706 -1.1100457688903234 41.329428051568726 -4.0808324249530763 31.006944401304153 27.390887144198025 0.68259692307239006 12.762790148955762
leaf_weight=4736 8221 153 152 35 23 20 5399 39 1047 117 96 196 23 20 563 20 39 32 29 311 246 34 28 881 130 757 27 34 23 125 25 145 28 5918 23 100 25 21 31 20 26 43
leaf_count=4736 8221 153 152 35 23 20 5399 39 1047 117 96 196 23 20 563 20 39 32 29 311 246 34 28 881 130 757 27 34 23 125 25 145 28 5918 23 100 25 21 31 20 26 43
internal_value=0.0125239 1.9432 8.67305 25.8405 -0.140205 5.51506 -0.663071 0.71474 3.91343 17.0217 2.10062 10.3928 29.2573 15.1644 4.92585 8.72383 14.7526 11.184 -1.31369 2.33319 6.49002 4.19768 17.9823 0.506972 7.06811 2.28225 4.10229 10.3146 -0.192283 6.08551 4.88687 8.38424 18.0755 -1.47762 -0.99278 10.3039 17.2738 12.0146 15.4013 20.3165 12.6206 3.11937
internal_weight=29961 7766 1365 211 176 1154 22195 7119 1572 190 1382 335 139 116 1134 571 221 201 15076 648 337 308 62 6401 169 1665 908 151 5547 148 350 198 53 14428 8510 289 146 121 100 77 46 143
internal_count=29961 7766 1365 211 176 1154 22195 7119 1572 190 1382 335 139 116 1134 571 221 201 15076 648 337 308 62 6401 169 1665 908 151 5547 148 350 198 53 14428 8510 289 146 121 100 77 46 143
is_linear=0
shrinkage=0.0443876


Tree=11
num_leaves=43
num_cat=0
split_feature=5 15 16 27 8 26 6 27 24 28 18 0 7 28 19 25 19 22 18 27 18 3 7 3 13 2 18 21 16 7 28 19 19 1 24 19 18 2 8 27 25 24
split_gain=1.8208e+07 2.26478e+07 3.04415e+07 2.57215e+07 3.69181e+08 1.95393e+07 1.95903e+07 2.4844e+07 1.73611e+07 1.93063e+07 2.21618e+07 2.32075e+07 1.61568e+07 1.36174e+07 3.50279e+07 9.76188e+06 8.35544e+06 5.43147e+06 4.85922e+06 4.84742e+06 4.48366e+06 1.07647e+07 3.99533e+06 3.89706e+06 3.64538e+06 3.67875e+07 3.2942e+06 3.58256e+06 1.82124e+07 1.40106e+07 1.26096e+07 7.4027e+06 6.81273e+07 7.30816e+06 3.22466e+06 3.76575e+06 3.18138e+06 4.32955e+06 3.15913e+06 9.02005e+06 1.00666e+07 5.27344e+06
threshold=754.00000000000011 1.0000000180025095e-35 1.0000000180025095e-35 15.500000000000002 4421.0000000000009 2.5000000000000004 3.975000000000001 42.500000000000007 104.50000000000001 2004.5000000000002 367.19500000000005 48.500000000000007 2490.0000000000005 1996.5000000000002 0.026412456265587903 1553.5000000000002 0.013500979800357452 1.5000000000000002 304.92500000000007 53.500000000000007 312.87000000000006 17.500000000000004 1672.0000000000002 6.5000000000000009 1.5000000000000002 10276.500000000002 292.40000000000003 2.5000000000000004 1.0000000180025095e-35 1895.5000000000002 2001.5000000000002 0.013440047952047901 0.013191086435525303 39.500000000000007 111.50000000000001 0.018120670858044155 423.85000000000008 7299.5000000000009 3720.5000000000005 11.500000000000002 1240.5000000000002 124.50000000000001
decision_type=2 2 2 2 2 2 2 2 2 2 2 2 2 2 2 2 2 2 2 2 2 2 2 2 2 2 2 2 2 2 2 2 2 2 2 2 2 2 2 2 2 2
left_child=1 18 5 4 12 20 7 8 23 10 11 -10 13 14 -4 -15 -11 22 -1 -5 -3 34 -18 -7 38 -26 -2 -28 29 30 -29 32 -30 -32 35 -22 -37 -38 39 41 -41 -20
right_child=26 2 3 19 -6 6 -8 -9 9 16 -12 -13 -14 15 -16 -17 17 -19 24 -21 21 -23 -24 -25 25 -27 27 28 31 -31 33 -33 -34 -35 -36 36 37 -39 -40 40 -42 -43
leaf_value=-0.81664270903221192 -1.788211418472182 1.6296538827759433 68.012608614567526 -1.3304386329310305 153.54719197540044 21.162372385598331 -1.8688068002949596 58.913452233599379 60.457967429324725 -0.82855934614424875 80.974172073297225 -3.9509070078710629 40.002452906147056 -0.87522294356938168 -4.8073076341654879 23.408056015962867 17.694193411357745 5.487036919529003 0.52465127631458708 17.960613499183719 22.599868257559461 39.573337144108763 43.711860367163958 5.6859958581262084 -1.1948670853418333 59.628453294555293 -0.91949165558989654 55.245369020997941 -1.9873789417908243 2.5974882885426558 2.7471528384342547 -1.85281325051983 83.089847776890409 31.117726975352834 0.89941394043377632 1.3621945324096723 26.665838113409677 2.5149607500311792 0.1456020064258722 -2.5251927089854984 35.403443179054563 8.3898145361431009
leaf_weight=6163 7074 373 20 2201 32 39 94 30 20 38 23 23 21 818 34 33 23 21 931 25 38 20 28 169 133 22 6256 22 160 100 36 1060 20 35 118 84 29 29 3306 23 33 204
leaf_count=6163 7074 373 20 2201 32 39 94 30 20 38 23 23 21 818 34 33 23 21 931 25 38 20 28 169 133 22 6256 22 160 100 36 1060 20 35 118 84 29 29 3306 23 33 204
internal_value=0.0132155 1.09165 3.78285 1.51165 7.58911 9.80804 16.4097 20.5546 17.417 27.6472 46.4988 26.6794 2.38985 1.47519 22.887 0.0920027 16.0287 24.8184 0.000743796 -1.10606 4.93848 8.80284 32.5275 8.67255 1.08357 7.75517 -1.09699 -0.460919 1.54032 14.1883 26.4961 -0.437817 7.86022 16.9635 6.61605 10.3387 6.92654 14.8303 0.851992 2.81109 20.0478 1.94426
internal_weight=29961 15198 4383 3184 958 1199 508 414 384 176 66 43 926 905 54 851 110 72 10815 2226 691 318 51 208 4652 155 14763 7689 1433 193 93 1240 180 71 298 180 142 58 4497 1191 56 1135
internal_count=29961 15198 4383 3184 958 1199 508 414 384 176 66 43 926 905 54 851 110 72 10815 2226 691 318 51 208 4652 155 14763 7689 1433 193 93 1240 180 71 298 180 142 58 4497 1191 56 1135
is_linear=0
shrinkage=0.0443876


Tree=12
num_leaves=43
num_cat=0
split_feature=5 15 18 18 3 8 18 16 21 16 3 12 8 8 7 27 2 1 3 2 11 1 0 16 6 18 23 11 25 21 7 18 8 3 0 28 8 3 11 18 18 3
split_gain=1.72037e+07 3.23348e+07 3.45777e+07 3.33941e+08 2.10201e+07 9.71643e+06 8.95779e+06 7.55674e+06 6.51531e+06 2.41672e+07 1.63327e+07 8.25985e+06 1.76403e+07 2.19637e+07 6.77259e+06 2.18079e+07 1.84342e+07 5.76567e+07 5.84824e+06 1.1952e+07 8.49798e+06 4.39033e+06 1.79379e+07 3.36699e+06 4.02401e+06 3.16681e+06 5.12045e+06 9.07209e+06 3.64088e+07 3.09589e+06 3.08835e+06 2.95356e+06 7.49657e+06 2.82709e+06 4.99515e+06 2.55501e+06 3.18519e+06 5.96447e+06 2.43312e+06 2.76632e+06 2.38955e+06 2.29522e+06
threshold=370.00000000000006 1.0000000180025095e-35 221.06000000000003 213.23500000000004 21.500000000000004 17419.500000000004 323.43500000000006 1.0000000180025095e-35 2.5000000000000004 1.0000000180025095e-35 18.500000000000004 1.5000000000000002 4971.5000000000009 9982.5000000000018 1992.0000000000002 11.500000000000002 9323.5000000000018 45.500000000000007 12.500000000000002 6624.5000000000009 23349.660000000003 67.500000000000014 71.500000000000014 1.0000000180025095e-35 2.8250000000000006 432.98500000000007 4.5000000000000009 27382.175000000003 1429.5000000000002 3.5000000000000004 1463.5000000000002 324.28500000000003 9608.5000000000018 4.5000000000000009 76.500000000000014 2007.5000000000002 3830.5000000000005 4.5000000000000009 20301.095000000005 311.05500000000001 569.56500000000017 6.5000000000000009
decision_type=2 2 2 2 2 2 2 2 2 2 2 2 2 2 2 2 2 2 2 2 2 2 2 2 2 2 2 2 2 2 2 2 2 2 2 2 2 2 2 2 2 2
left_child=1 25 3 4 23 7 -2 18 21 11 14 29 -13 -14 -11 -16 -17 -18 35 -20 30 31 -23 24 -3 -1 27 -27 -29 41 -21 32 -8 34 -24 -4 37 -37 39 -38 -33 -10
right_child=6 2 5 -5 -6 -7 8 -9 9 10 -12 12 13 -15 15 16 17 -19 19 20 -22 22 33 -25 -26 26 -28 28 -30 -31 -32 40 -34 -35 -36 36 38 -39 -40 -41 -42 -43
leaf_value=0.091674190255952498 -1.3389434801055942 -3.1928547535960696 0.092838079420216477 170.41118097681655 45.066130460203397 34.934321781768688 -3.838388356193124 0.77059312364904664 17.285533921467664 -1.5842187792315054 28.977086178915354 1.8738719931576475 79.645424967189598 14.590759041046836 37.497877401656083 -2.1741270820965788 84.32290030292927 -3.8317052165112253 45.615054931289762 16.598308091374079 29.214530063198612 37.986057759628231 -0.90990909903638495 -11.34171804811629 15.014474577397168 2.457051371368054 0.95307896640819967 67.877305744869872 0.95284145864168923 22.764437931085709 2.3986985682894084 -0.75832704826890518 29.951721679703454 -3.1688182588770877 25.532140356764589 1.0300074463052618 21.095263160011335 30.663694601228784 -0.11122098716417256 0.90536532801047653 1.6383079027861329 3.4974685899176068
leaf_weight=5510 13380 80 152 26 20 20 31 563 32 1137 39 28 20 21 36 352 20 48 20 39 37 29 39 52 33 155 661 22 53 32 125 5749 21 117 21 25 28 28 92 25 955 88
leaf_count=5510 13380 80 152 26 20 20 31 563 32 1137 39 28 20 21 36 352 20 48 20 39 37 29 39 52 33 155 661 22 53 32 125 5749 21 117 21 25 28 28 92 25 955 88
internal_value=0.0139884 1.812 8.01176 24.4927 3.20358 4.98031 -0.615183 4.42263 0.483415 2.82177 0.952182 16.5635 29.2267 47.4317 0.248863 4.81317 1.9317 22.9171 8.01608 13.6568 10.2731 -0.139265 6.22879 -2.10433 2.20684 0.488896 2.94257 8.63218 21.1998 10.6662 5.85315 -0.334302 10.1061 0.846998 8.60369 4.42649 7.73667 16.9552 4.27688 11.7591 -0.416733 7.28337
internal_weight=29961 7766 1365 211 185 1154 22195 1134 8815 1853 1632 221 69 41 1593 456 420 68 571 221 201 6962 206 165 113 6401 891 230 75 152 164 6756 52 177 60 350 198 53 145 53 6704 120
internal_count=29961 7766 1365 211 185 1154 22195 1134 8815 1853 1632 221 69 41 1593 456 420 68 571 221 201 6962 206 165 113 6401 891 230 75 152 164 6756 52 177 60 350 198 53 145 53 6704 120
is_linear=0
shrinkage=0.0443876


Tree=13
num_leaves=43
num_cat=0
split_feature=5 15 26 8 19 18 26 9 21 11 11 16 28 3 17 20 24 28 24 16 18 6 18 17 22 18 24 8 24 16 8 7 16 15 24 1 12 18 6 3 16 24
split_gain=1.57361e+07 2.96274e+07 3.39903e+07 2.74889e+08 1.88761e+07 1.13477e+07 9.68046e+06 8.66587e+06 8.84191e+06 1.60665e+07 8.19173e+07 1.46204e+07 1.61004e+07 1.26177e+07 3.41487e+07 7.01185e+06 8.02821e+06 2.1409e+07 7.73293e+06 1.20993e+07 3.87389e+06 3.77972e+06 3.66453e+06 5.46371e+06 7.43779e+06 2.92796e+06 3.03726e+06 8.3219e+06 1.26085e+07 2.82124e+06 2.80724e+06 8.74296e+06 2.74884e+06 6.38035e+06 4.52584e+06 2.69302e+06 2.77938e+07 2.61327e+06 2.56779e+06 6.04287e+06 2.33755e+06 3.05336e+06
threshold=370.00000000000006 1.0000000180025095e-35 3.5000000000000004 4466.5000000000009 0.033959007705494107 221.06000000000003 1.5000000000000002 1.0000000180025095e-35 2.5000000000000004 26752.970000000005 28047.500000000004 1.0000000180025095e-35 2000.5000000000002 18.500000000000004 0.080587364049172008 1.0000000180025095e-35 121.50000000000001 2004.5000000000002 82.500000000000014 1.0000000180025095e-35 211.67500000000004 1.5250000000000001 569.56500000000017 0.059909864187255059 1.5000000000000002 356.26500000000004 121.50000000000001 2512.5000000000005 139.50000000000003 1.0000000180025095e-35 11416.500000000002 1586.5000000000002 1.0000000180025095e-35 1.0000000180025095e-35 129.50000000000003 67.500000000000014 2.5000000000000004 358.66000000000003 3.2250000000000005 14.500000000000002 1.0000000180025095e-35 126.50000000000001
decision_type=2 2 2 2 2 2 2 2 2 2 2 2 2 2 2 2 2 2 2 2 2 2 2 2 2 2 2 2 2 2 2 2 2 2 2 2 2 2 2 2 2 2
left_child=1 25 5 -4 38 20 30 22 35 11 -11 12 -10 -13 -15 16 18 -18 19 -8 29 -20 -2 24 -24 -1 37 28 -28 -3 -7 -32 33 -25 -35 -9 -37 -27 39 -5 41 -29
right_child=7 2 3 4 -6 6 15 8 9 10 -12 13 -14 14 -16 -17 17 -19 21 -21 -22 -23 23 32 -26 26 27 40 -30 -31 31 -33 -34 34 -36 36 -38 -39 -40 -41 -42 -43
leaf_value=-0.095308323891103511 -1.3365385708045925 0.30797583327209871 132.49750098127748 -0.47333358586126073 43.761693572506445 0.32945354508447583 8.1158850213712554 -0.30619690082766265 38.922946084894896 79.331729228108031 1.3892217717298971 -0.60397329041062553 6.6387697185509751 -5.3065093880694043 65.821607651999358 1.803754106257826 60.753645484330526 7.6145091397355493 14.105095587123285 44.129499650040223 -23.938106386022316 -0.86123151531079212 31.435423521623424 0.55287211940989633 -2.1653706311895728 13.758660481486867 -2.8443065907086336 12.811812402063929 42.901865012581084 -14.323469445058462 27.293672401453616 -0.61861163627609328 -2.2353166112545155 4.890571710852055 28.893648804195429 -2.4242887343806436 50.650897141559874 0.7044499611808025 -2.3993718213083244 27.744568007591937 14.112345397274909 0.059349783263867001
leaf_weight=4736 14428 82 37 52 21 434 49 5399 39 32 137 1178 130 36 20 116 24 38 51 29 23 92 27 246 24 30 21 42 26 37 32 67 289 33 29 126 22 1247 161 20 33 266
leaf_count=4736 14428 82 37 52 21 434 49 5399 39 32 137 1178 130 36 20 116 24 38 51 29 23 92 27 246 24 30 21 42 26 37 32 67 289 33 29 126 22 1247 161 20 33 266
internal_value=0.0145735 1.73418 7.66871 21.0995 4.43005 4.01389 5.79537 -0.587163 0.689134 3.62654 16.516 2.0636 14.2685 0.382206 20.7844 11.0153 14.772 28.8033 10.727 21.883 -7.63864 4.53546 -1.18985 2.07345 15.8779 0.467681 2.0682 5.50253 22.8178 -4.3203 1.87486 8.58077 0.870335 3.78227 16.3899 -0.143806 5.74361 1.02133 0.718458 7.62951 3.05804 1.83307
internal_weight=29961 7766 1365 291 254 1074 932 22195 7119 1572 169 1403 169 1234 56 399 283 62 221 78 142 143 15076 648 51 6401 1665 388 47 119 533 99 597 308 62 5547 148 1277 233 72 341 308
internal_count=29961 7766 1365 291 254 1074 932 22195 7119 1572 169 1403 169 1234 56 399 283 62 221 78 142 143 15076 648 51 6401 1665 388 47 119 533 99 597 308 62 5547 148 1277 233 72 341 308
is_linear=0
shrinkage=0.0443876


Tree=14
num_leaves=43
num_cat=0
split_feature=5 15 16 8 8 26 17 3 6 7 28 19 7 25 2 25 18 17 0 18 3 18 18 8 17 3 1 7 25 25 25 7 18 18 21 16 7 28 19 19 1 14
split_gain=1.46575e+07 1.82145e+07 2.4536e+07 2.35757e+07 5.78377e+08 1.74262e+07 2.47366e+07 5.75669e+07 1.79419e+07 1.42365e+07 1.20921e+07 3.16762e+07 8.3235e+06 1.23686e+07 2.62226e+07 8.26978e+06 6.51112e+06 4.85679e+06 4.37815e+06 4.15243e+06 9.32794e+06 4.03181e+06 2.76177e+07 3.41583e+06 5.60493e+06 1.72631e+07 1.06602e+07 4.30778e+06 3.2038e+06 5.53485e+06 3.18181e+06 9.08516e+06 2.92578e+06 2.6635e+06 2.88431e+06 1.47692e+07 1.31009e+07 1.12116e+07 6.6059e+06 6.16005e+07 6.47911e+06 2.08184e+06
threshold=754.00000000000011 1.0000000180025095e-35 1.0000000180025095e-35 4466.5000000000009 4379.5000000000009 2.5000000000000004 0.096291201793265072 12.500000000000002 2.1750000000000003 2490.0000000000005 1996.5000000000002 0.026412456265587903 1395.5000000000002 1259.5000000000002 7154.5000000000009 1553.5000000000002 339.69000000000005 0.070033460855159158 76.500000000000014 312.87000000000006 17.500000000000004 364.38000000000005 365.69000000000005 7782.5000000000009 0.097426279309986014 16.500000000000004 40.500000000000007 2198.5000000000005 1299.5000000000002 1340.5000000000002 1129.5000000000002 1398.5000000000002 448.17500000000007 292.40000000000003 2.5000000000000004 1.0000000180025095e-35 1895.5000000000002 2001.5000000000002 0.013440047952047901 0.013191086435525303 39.500000000000007 1.0000000180025095e-35
decision_type=2 2 2 2 2 2 2 2 2 2 2 2 2 2 2 2 2 2 2 2 2 2 2 2 2 2 2 2 2 2 2 2 2 2 2 2 2 2 2 2 2 2
left_child=1 21 5 4 9 19 8 16 12 10 11 -4 -7 14 -14 -12 -8 -15 -5 -3 30 41 -23 24 -24 26 27 -26 -10 -30 31 -21 -31 -2 -35 36 37 -36 39 -37 -39 -1
right_child=33 2 3 18 -6 6 7 -9 28 -11 15 -13 13 17 -16 -17 -18 -19 -20 20 -22 22 23 -25 25 -27 -28 -29 29 32 -32 -33 -34 34 35 38 -38 40 -40 -41 -42 -43
leaf_value=-0.77793745051186003 -1.6027057881429434 1.0248785370633622 64.190057883711106 -1.3895935392506864 232.27445366410689 2.152937594634019 -4.7062549506413909 90.548869993648552 -1.574395772301495 37.232280660081365 -1.0591684978767375 -5.0472790028303907 6.0787453890394705 28.541612653634889 68.109763011973726 20.968501287707156 26.282311398132563 7.0464412763640984 17.304277309146919 1.4698685215944198 36.567157845947705 44.577136256766842 1.1571734354257954 -0.70527200371524523 -1.4329495945493582 44.186206446742482 27.429224019411564 17.239020972519871 25.343566488421054 -1.100794446271522 3.6287075577280197 37.732993763925926 17.69780064658638 -0.82068316161775823 51.780012013465999 -1.9200362354006681 1.5779023468032032 2.3164721844948444 -1.7316163588193039 78.979175398413929 29.020762892463679 1.3265081807828012
leaf_weight=6978 7074 373 20 2186 21 35 27 26 132 21 844 34 23 34 32 34 25 53 24 36 20 28 1223 1248 187 23 34 27 28 73 241 21 20 6256 22 160 100 36 1060 20 35 1067
leaf_count=6978 7074 373 20 2186 21 35 27 26 132 21 844 34 23 34 32 34 25 53 24 36 20 28 1223 1248 187 23 34 27 28 73 241 21 20 6256 22 160 100 36 1060 20 35 1067
internal_value=0.0149342 0.982529 3.396 1.35697 7.1067 8.80527 15.0394 37.9004 10.8166 1.91392 1.08025 21.2762 21.6165 26.3668 42.7243 -0.183969 10.4005 15.6689 -1.17908 4.20746 7.92603 0.00420463 1.46447 1.00862 2.43984 8.20364 4.70744 0.989996 3.20724 8.39461 5.89143 15.2377 3.08282 -0.981171 -0.409219 1.38644 12.7762 24.6769 -0.394926 7.4438 15.6942 -0.498701
internal_weight=29961 15198 4383 3184 974 1199 508 78 430 953 932 54 177 142 55 878 52 87 2210 691 318 10815 2770 2742 1494 271 248 214 253 121 298 57 93 14763 7689 1433 193 93 1240 180 71 8045
internal_count=29961 15198 4383 3184 974 1199 508 78 430 953 932 54 177 142 55 878 52 87 2210 691 318 10815 2770 2742 1494 271 248 214 253 121 298 57 93 14763 7689 1433 193 93 1240 180 71 8045
is_linear=0
shrinkage=0.0443876


Tree=15
num_leaves=43
num_cat=0
split_feature=5 15 18 8 3 8 9 21 11 11 16 28 3 25 18 16 3 17 7 11 16 21 18 12 18 17 15 2 5 24 24 11 11 27 16 11 2 1 8 18 3 8
split_gain=1.38657e+07 2.58125e+07 3.28476e+07 3.30814e+08 2.03283e+07 8.84529e+06 7.58624e+06 7.674e+06 1.45076e+07 7.47749e+07 1.22333e+07 1.43318e+07 1.14327e+07 3.39182e+07 7.04039e+06 6.71687e+06 5.06662e+06 1.14883e+07 6.5642e+06 8.40146e+06 3.47032e+06 1.7257e+07 7.23748e+06 1.24053e+07 5.2205e+06 4.80848e+06 4.60646e+06 9.03053e+06 3.10595e+06 3.55171e+06 5.0617e+06 3.02284e+06 4.38538e+06 3.00722e+06 2.7022e+06 1.00345e+07 1.22718e+07 2.47123e+06 2.64029e+07 2.37777e+06 4.18674e+06 5.31603e+06
threshold=370.00000000000006 1.0000000180025095e-35 221.06000000000003 4466.5000000000009 21.500000000000004 17419.500000000004 1.0000000180025095e-35 2.5000000000000004 26752.970000000005 28047.500000000004 1.0000000180025095e-35 2000.5000000000002 18.500000000000004 1064.5000000000002 213.23500000000004 1.0000000180025095e-35 12.500000000000002 0.095254182754182723 1463.5000000000002 13890.080000000002 1.0000000180025095e-35 2.5000000000000004 367.19500000000005 1.5000000000000002 569.56500000000017 0.059909864187255059 1.0000000180025095e-35 7260.5000000000009 1820.5000000000002 115.50000000000001 67.500000000000014 13962.500000000002 19486.735000000004 17.500000000000004 1.0000000180025095e-35 30752.350000000002 7574.5000000000009 67.500000000000014 11600.500000000002 502.72000000000008 18.500000000000004 4466.5000000000009
decision_type=2 2 2 2 2 2 2 2 2 2 2 2 2 2 2 2 2 2 2 2 2 2 2 2 2 2 2 2 2 2 2 2 2 2 2 2 2 2 2 2 2 2
left_child=1 34 3 -3 14 15 20 37 10 -10 11 -9 -12 -14 33 16 -4 18 19 -18 21 24 28 -24 -2 -26 -27 -28 29 30 -23 -32 -33 -5 39 -36 -37 -8 -39 -1 -41 -42
right_child=6 2 5 4 -6 -7 7 8 9 -11 12 -13 13 -15 -16 -17 17 -19 -20 -21 -22 22 23 -25 25 26 27 -29 -30 -31 31 32 -34 -35 35 36 -38 38 -40 40 41 -43
leaf_value=-0.055994873268423943 -1.1366846755881352 159.88212384421661 3.7319133910418825 14.359006472479578 41.859230826514057 32.791546791383567 -0.28653060793750779 36.319597981170155 75.644438701213261 1.1784585792118178 -0.5803291815472279 5.8656592808190187 -6.2011656266702913 64.667481786926288 -26.788410696727155 0.2414189399343733 3.1320366720778816 34.578820702958588 3.1343799819913678 43.007840631634011 -1.9155443305571587 -1.9309220205206423 7.9045864961226782 48.339844524875716 22.238081622647872 0.53874584344015042 -2.8628543429709357 36.416093123223447 -1.0097811490455086 -4.6048495489506198 31.95618793746765 5.4392554175556791 27.127361997195717 -3.5161101022598027 1.5879224524590734 -1.1738384837188365 46.326459287887346 48.185480953383454 -2.6541727042913665 1.9352574676314909 32.415828759792845 0.40861701406680362
leaf_weight=5503 8221 29 350 21 20 20 5399 39 32 137 1178 130 36 20 23 563 21 37 143 20 6229 35 41 23 27 246 24 21 79 28 22 52 28 118 391 20 22 23 125 425 20 20
leaf_count=5503 8221 29 350 21 20 20 5399 39 32 137 1178 130 36 20 23 563 21 37 143 20 6229 35 41 23 27 246 24 21 79 28 22 52 28 118 391 20 22 23 125 425 20 20
internal_value=0.0157078 1.62989 7.16918 23.2318 0.7259 4.21521 -0.549137 0.645013 3.38156 15.6296 1.89642 13.0606 0.358399 19.779 -4.57114 3.68364 7.07146 12.3209 7.68735 23.1279 -1.11303 -0.547846 9.75775 22.9406 -0.920633 4.65126 2.95106 15.8488 6.22282 9.67138 12.601 17.5587 13.2641 -0.734784 0.447736 3.82955 24.1912 -0.130969 5.50881 0.201791 3.2463 16.8007
internal_weight=29961 7766 1365 211 182 1154 22195 7119 1572 169 1403 169 1234 56 162 1134 571 221 184 41 15076 8847 308 64 8539 318 291 45 244 165 137 102 80 139 6401 433 42 5547 148 5968 465 40
internal_count=29961 7766 1365 211 182 1154 22195 7119 1572 169 1403 169 1234 56 162 1134 571 221 184 41 15076 8847 308 64 8539 318 291 45 244 165 137 102 80 139 6401 433 42 5547 148 5968 465 40
is_linear=0
shrinkage=0.0443876


Tree=16
num_leaves=43
num_cat=0
split_feature=5 15 8 2 2 18 18 8 2 2 13 27 2 18 7 18 7 23 2 3 24 16 2 3 18 8 7 19 16 15 6 17 18 17 7 17 8 2 2 18 18 18
split_gain=1.26791e+07 2.36387e+07 3.1251e+07 3.40857e+07 4.29834e+08 8.42336e+06 7.09415e+06 6.13879e+06 5.3169e+06 5.77757e+07 1.41509e+07 3.40481e+07 3.78004e+06 3.9561e+06 5.04937e+06 1.24635e+07 3.27756e+07 3.60904e+06 6.49045e+06 3.60206e+06 3.89901e+07 3.39509e+06 4.42237e+06 9.16726e+06 3.20876e+06 3.10557e+06 7.88138e+06 8.08219e+06 3.03886e+06 1.39882e+07 7.23555e+06 6.84044e+06 4.81372e+06 7.05531e+06 3.61136e+06 3.06973e+06 1.2752e+07 2.91076e+06 3.35739e+06 6.10362e+06 9.38559e+06 2.84573e+06
threshold=370.00000000000006 1.0000000180025095e-35 17419.500000000004 10019.500000000002 10217.500000000002 221.06000000000003 321.57500000000005 849.00000000000011 9323.5000000000018 9383.5000000000018 1.5000000000000002 31.500000000000004 9443.5000000000018 438.37500000000006 1994.5000000000002 475.84500000000008 2171.5000000000005 4.5000000000000009 11133.500000000002 18.500000000000004 112.50000000000001 1.0000000180025095e-35 6634.5000000000009 12.500000000000002 211.67500000000004 9318.5000000000018 1798.5000000000002 0.015113768571798551 1.0000000180025095e-35 1.0000000180025095e-35 3.3750000000000004 0.10811417069828912 351.27000000000004 0.077368079810930065 1595.5000000000002 0.12591378263509415 2873.5000000000005 7154.5000000000009 6754.5000000000009 399.97000000000008 466.65000000000003 578.995
decision_type=2 2 2 2 2 2 2 2 2 2 2 2 2 2 2 2 2 2 2 2 2 2 2 2 2 2 2 2 2 2 2 2 2 2 2 2 2 2 2 2 2 2
left_child=1 -1 3 5 -5 24 -2 -7 19 -10 12 -12 -11 -14 41 16 -16 18 -6 28 -21 22 23 -9 -3 -24 27 -27 29 -8 31 32 33 -31 -35 -30 -37 38 -34 -40 -41 -15
right_child=6 2 -4 4 17 7 8 21 9 10 11 -13 13 14 15 -17 -18 -19 -20 20 -22 -23 25 -25 -26 26 -28 -29 35 30 -32 -33 37 34 -36 36 -38 -39 39 40 -42 -43
leaf_value=0.42840966174354217 -1.1794269589858506 -4.2854068715450424 53.309517865317495 199.40716556605437 27.628994006956813 25.804792120235412 -0.50298759705369489 5.3089267622437424 62.680190172738023 17.001838048482071 -2.0807567381015972 68.32700173447607 -0.92552826460056448 -1.2078087387245646 70.99457333616273 1.2962921814362285 -1.2973732768995525 -1.6302769195992881 0.77959131924273872 -3.7751392832851933 47.533455131409767 0.61222376095538622 1.2822303868810183 40.178827738353377 -22.510270350777446 42.46949171984167 -2.3286733410133778 10.119298874129488 -1.4833502965838106 34.161154197384917 -0.72404166923563951 30.817319239355992 2.8976363697008614 21.649074820371226 -2.2958258660985655 37.194909035784306 -1.5297275345089976 0.52231045638085227 -0.76542288148067983 48.391902717814027 7.7569319534041234 6.9592884862214959
leaf_weight=6401 13194 149 27 23 26 24 3126 47 30 27 38 20 1163 298 20 97 30 160 52 154 35 425 249 21 21 20 62 59 3231 32 152 30 66 20 30 20 83 113 25 20 25 116
leaf_count=6401 13194 149 27 23 26 24 3126 47 30 27 38 20 1163 298 20 97 30 160 52 154 35 425 249 21 21 20 62 59 3231 32 152 30 66 20 30 20 83 113 25 20 25 116
internal_value=0.016126 1.55969 6.86061 5.88537 20.2456 2.39023 -0.524009 4.09024 0.436751 2.56506 1.53508 22.9221 0.814358 0.551426 3.60959 10.6478 28.4199 2.19281 9.95876 -0.110011 5.92059 3.47238 6.11956 16.4911 -6.65162 4.27477 9.51462 18.7249 -0.274268 0.612612 7.39871 10.8116 8.91367 18.1892 7.51179 -1.24218 6.26639 5.80035 10.151 16.8569 26.4567 1.09147
internal_weight=29961 7766 1365 1338 261 1077 22195 907 9001 1839 1809 58 1751 1724 561 147 50 238 78 7162 189 883 458 68 170 390 141 79 6973 3639 513 361 331 82 50 3334 103 249 136 70 45 414
internal_count=29961 7766 1365 1338 261 1077 22195 907 9001 1839 1809 58 1751 1724 561 147 50 238 78 7162 189 883 458 68 170 390 141 79 6973 3639 513 361 331 82 50 3334 103 249 136 70 45 414
is_linear=0
shrinkage=0.0443876


end of trees

feature_importances:
Premium_Amt_Current_Yr=93
Days_Driving_At_Start_Date=56
Age_at_license=44
Policies_Terminated_Non_Payment=44
Car_Age_Contract=42
Power_Wt_Ratio=41
Cylinder_Capacity=39
Vehicle_Power_HP=37
Contract_Duration=34
Market_Value_EOY19=33
Vehicle_Wt_Kg=31
Age_at_contract=28
Ratio_Premium_Car_Value=28
Non_Continuation_Insurance_Flag=23
Time_Since_Last_Renewal=20
Yr_Vehicle_Registration=20
Years_Associates=18
Years_Driving=18
Customer_Loyalty=16
Age=14
Half_Yearly_Payment_Method=8
Max_Policy_Simultaneous_Force=7
Vehicle_Doors=5
Max_Product_Simultaneous_Held=4
Total_Policies_Entity=4
Multiple_Drivers_Regular_Flag=3
Issurance_Broker_Agent_Channel=2
Rural_Urban_Flag=2

parameters:
[boosting: gbdt]
[objective: regression]
[metric: l2]
[tree_learner: serial]
[device_type: cpu]
[data_sample_strategy: bagging]
[data: ]
[valid: ]
[num_iterations: 728]
[learning_rate: 0.0443876]
[num_leaves: 43]
[num_threads: 0]
[seed: 0]
[deterministic: 0]
[force_col_wise: 0]
[force_row_wise: 0]
[histogram_pool_size: -1]
[max_depth: 0]
[min_data_in_leaf: 20]
[min_sum_hessian_in_leaf: 0.000144028]
[bagging_fraction: 0.964069]
[pos_bagging_fraction: 1]
[neg_bagging_fraction: 1]
[bagging_freq: 0]
[bagging_seed: 3]
[bagging_by_query: 0]
[feature_fraction: 0.9725]
[feature_fraction_bynode: 1]
[feature_fraction_seed: 2]
[extra_trees: 0]
[extra_seed: 6]
[early_stopping_round: 0]
[early_stopping_min_delta: 0]
[first_metric_only: 0]
[max_delta_step: 0]
[lambda_l1: 1.0355e-08]
[lambda_l2: 0.969696]
[linear_lambda: 0]
[min_gain_to_split: 0.0202732]
[drop_rate: 0.1]
[max_drop: 50]
[skip_drop: 0.5]
[xgboost_dart_mode: 0]
[uniform_drop: 0]
[drop_seed: 4]
[top_rate: 0.2]
[other_rate: 0.1]
[min_data_per_group: 100]
[max_cat_threshold: 32]
[cat_l2: 10]
[cat_smooth: 10]
[max_cat_to_onehot: 4]
[top_k: 20]
[monotone_constraints: ]
[monotone_constraints_method: basic]
[monotone_penalty: 0]
[feature_contri: ]
[forcedsplits_filename: ]
[refit_decay_rate: 0.9]
[cegb_tradeoff: 1]
[cegb_penalty_split: 0]
[cegb_penalty_feature_lazy: ]
[cegb_penalty_feature_coupled: ]
[path_smooth: 0]
[interaction_constraints: ]
[verbosity: 1]
[saved_feature_importance_type: 0]
[use_quantized_grad: 0]
[num_grad_quant_bins: 4]
[quant_train_renew_leaf: 0]
[stochastic_rounding: 1]
[linear_tree: 0]
[max_bin: 276]
[max_bin_by_feature: ]
[min_data_in_bin: 3]
[bin_construct_sample_cnt: 200000]
[data_random_seed: 1]
[is_enable_sparse: 1]
[enable_bundle: 1]
[use_missing: 1]
[zero_as_missing: 0]
[feature_pre_filter: 1]
[pre_partition: 0]
[two_round: 0]
[header: 0]
[label_column: ]
[weight_column: ]
[group_column: ]
[ignore_column: ]
[categorical_feature: ]
[forcedbins_filename: ]
[precise_float_parser: 0]
[parser_config_file: ]
[objective_seed: 5]
[num_class: 1]
[is_unbalance: 0]
[scale_pos_weight: 1]
[sigmoid: 1]
[boost_from_average: 1]
[reg_sqrt: 0]
[alpha: 0.9]
[fair_c: 1]
[poisson_max_delta_step: 0.7]
[tweedie_variance_power: 1.36502]
[lambdarank_truncation_level: 30]
[lambdarank_norm: 1]
[label_gain: ]
[lambdarank_position_bias_regularization: 0]
[eval_at: ]
[multi_error_top_k: 1]
[auc_mu_weights: ]
[num_machines: 1]
[local_listen_port: 12400]
[time_out: 120]
[machine_list_filename: ]
[machines: ]
[gpu_platform_id: -1]
[gpu_device_id: -1]
[gpu_use_dp: 0]
[num_gpu: 1]

end of parameters

pandas_categorical:[]
