tree
version=v4
num_class=1
num_tree_per_iteration=1
label_index=0
max_feature_idx=28
objective=regression
feature_names=Age Age_at_contract Age_at_license Car_Age_Contract Car_Age_Contract_Cat_Standard Contract_Duration Customer_Loyalty Cylinder_Capacity Days_Driving_At_Start_Date Half_Yearly_Payment_Method Issurance_Broker_Agent_Channel Market_Value_EOY19 Max_Policy_Simultaneous_Force Max_Product_Simultaneous_Held Multiple_Drivers_Regular_Flag Non_Continuation_Insurance_Flag Policies_Terminated_Non_Payment Power_Wt_Ratio Premium_Amt_Current_Yr Ratio_Premium_Car_Value Rural_Urban_Flag Time_Since_Last_Renewal Total_Policies_Entity Vehicle_Doors Vehicle_Power_HP Vehicle_Wt_Kg Years_Associates Years_Driving Yr_Vehicle_Registration
feature_infos=[19:101] [18:91] [6575:23602] [0:68] [0:1] [155:14244] [1:15.1] [49:6788] [-4732:21413] [0:1] [0:1] [270.45999999999998:220675.79999999999] [1:17] [1:4] [0:1] [0:1] [0:7] [0:1.5833333333333333] [40.200000000000003:2143.8600000000001] [0.00087664282081770001:0.75057309768542491] [0:1] [1:4] [1:17] [0:6] [0:560] [43:7300] [1:40] [1:65] [1950:2018]
tree_sizes=3815 3854 3844 3833 3827 3839

Tree=0
num_leaves=43
num_cat=0
split_feature=5 15 16 5 18 8 26 17 3 6 2 0 18 5 26 11 2 21 16 27 28 25 25 25 0 9 28 17 17 0 18 18 19 25 11 13 2 18 17 0 18 7
split_gain=4.09008e+07 5.46962e+07 8.70594e+07 4.71574e+07 2.06661e+08 4.63705e+08 3.45523e+07 3.03383e+07 5.4966e+07 3.70333e+07 2.80112e+07 1.18574e+07 1.13865e+07 9.5962e+06 1.53574e+07 1.29366e+07 2.12282e+07 9.06451e+06 5.21332e+07 2.31016e+07 3.10081e+07 1.53392e+07 8.71647e+06 5.66152e+07 8.54316e+06 8.23282e+06 1.52388e+07 4.23914e+07 1.51871e+07 7.88523e+06 7.42062e+06 7.28452e+06 7.56693e+06 6.39246e+06 1.31416e+07 5.44914e+06 4.41035e+07 5.65632e+06 5.07333e+06 7.0722e+06 4.64124e+06 6.14623e+06
threshold=754.00000000000011 1.0000000180025095e-35 1.0000000180025095e-35 365.50000000000006 220.66500000000002 5535.5000000000009 2.5000000000000004 0.096291201793265072 12.500000000000002 2.1750000000000003 9410.5000000000018 56.500000000000007 323.39500000000004 536.00000000000011 1.5000000000000002 24637.500000000004 7120.5000000000009 2.5000000000000004 1.0000000180025095e-35 18.500000000000004 2001.5000000000002 1183.0000000000002 1576.0000000000002 1608.5000000000002 66.500000000000014 1.0000000180025095e-35 1996.5000000000002 0.075201434819139504 0.12633618931048554 50.500000000000007 401.05000000000001 276.06500000000005 0.024380571330558456 1299.5000000000002 20524.430000000004 1.5000000000000002 9298.5000000000018 324.29500000000007 0.076904934687953522 40.500000000000007 615.29000000000008 1794.5000000000002
decision_type=2 2 2 2 2 2 2 2 2 2 2 2 2 2 2 2 2 2 2 2 2 2 2 2 2 2 2 2 2 2 2 2 2 2 2 2 2 2 2 2 2 2
left_child=1 12 6 4 5 -4 13 9 29 10 11 38 -1 14 -3 30 -17 -2 19 20 -19 -22 -20 -24 -6 -5 27 -27 -28 -9 -16 -21 -33 -11 -35 37 -37 -14 39 -8 -39 -42
right_child=17 2 3 25 24 -7 7 8 -10 33 -12 -13 35 -15 15 16 -18 18 22 31 21 -23 23 -25 -26 26 28 -29 -30 -31 -32 32 -34 34 -36 36 -38 40 -40 -41 41 -43
leaf_value=72.208786761875146 71.21051696651125 79.155003176783467 333.18110547198512 70.651465251693992 76.328628794629154 75.43180882791529 118.88060818673429 81.855390896769038 169.43466523937707 76.241028583635853 144.11518047750292 130.65535246432194 92.420873438409373 73.427853536292304 83.984598808904792 90.739061039511583 148.56753663247264 158.27273934803364 70.838381414379995 73.634292208040762 73.844762837911148 118.85849682228293 139.14033303432922 71.939423061387956 102.96332372799597 70.872108206280942 73.638236347413653 148.40485195423543 110.12662836273068 116.09496393922066 108.48585715362883 84.642402364957675 109.53555318845029 121.21324104994517 83.170681347069376 72.621144419887045 143.06724247126618 74.197890060521274 84.162875075647264 87.938097503308825 74.794516524488685 86.066323549841513
leaf_weight=6875 12152 304 20 1501 486 40 28 35 30 144 35 20 35 166 140 33 20 20 2040 85 32 27 27 211 24 41 1043 20 22 21 29 116 30 21 101 106 20 3374 57 32 241 157
leaf_count=6875 12152 304 20 1501 486 40 28 35 30 144 35 20 35 166 140 33 20 20 2040 85 32 27 27 211 24 41 1043 20 22 21 29 116 30 21 101 106 20 3374 57 32 241 157
internal_value=73.385 74.9988 79.1624 75.3156 86.8773 164.114 89.2663 97.8587 121.88 93.0454 109.043 99.6483 73.2984 82.7347 85.6664 94.519 113.52 71.7185 74.1035 91.1516 111.738 94.8465 71.7769 79.7989 77.6358 72.8029 75.6708 97.0688 74.4247 95.2037 88.3652 83.9803 89.9622 82.6095 90.0445 75.203 84.2498 74.9009 93.9207 102.872 74.7335 79.2609
internal_weight=29961 15221 4413 3197 570 60 1216 524 86 438 172 137 10808 692 526 222 53 14740 2588 310 79 59 2278 238 510 2627 1126 61 1065 56 169 231 146 266 122 3933 126 3807 117 60 3772 398
internal_count=29961 15221 4413 3197 570 60 1216 524 86 438 172 137 10808 692 526 222 53 14740 2588 310 79 59 2278 238 510 2627 1126 61 1065 56 169 231 146 266 122 3933 126 3807 117 60 3772 398
is_linear=0
shrinkage=1


Tree=1
num_leaves=43
num_cat=0
split_feature=5 15 16 5 18 24 26 17 17 3 6 2 0 18 5 26 11 2 21 16 8 25 11 11 0 9 28 17 17 18 24 19 25 11 0 0 18 18 7 7 9 17
split_gain=3.74048e+07 5.01067e+07 7.96702e+07 4.31949e+07 1.89555e+08 4.54777e+08 3.16596e+07 2.78005e+07 5.40547e+07 5.76912e+07 3.39252e+07 2.5633e+07 1.08854e+07 1.04063e+07 8.78082e+06 1.40738e+07 1.18754e+07 1.94791e+07 8.30166e+06 4.77289e+07 2.02188e+07 5.10363e+07 8.4188e+06 4.6858e+07 7.83272e+06 7.53154e+06 1.3979e+07 3.88753e+07 1.39236e+07 6.80405e+06 6.08168e+06 9.58191e+06 5.8547e+06 1.20603e+07 5.37427e+06 4.35668e+07 5.19927e+06 4.69552e+06 6.64431e+06 1.3907e+07 2.40804e+07 4.65101e+06
threshold=754.00000000000011 1.0000000180025095e-35 1.0000000180025095e-35 365.50000000000006 220.66500000000002 90.500000000000014 2.5000000000000004 0.096291201793265072 0.11151965754196237 10.500000000000002 2.1750000000000003 9410.5000000000018 56.500000000000007 323.39500000000004 536.00000000000011 1.5000000000000002 24637.500000000004 7120.5000000000009 2.5000000000000004 1.0000000180025095e-35 3417.5000000000005 1183.0000000000002 25879.995000000006 26800.900000000005 66.500000000000014 1.0000000180025095e-35 1996.5000000000002 0.075201434819139504 0.12633618931048554 401.05000000000001 70.500000000000014 0.025120135204835803 1299.5000000000002 20524.430000000004 69.500000000000014 70.500000000000014 324.29500000000007 513.84000000000015 1751.0000000000002 1897.0000000000002 1.0000000180025095e-35 0.076904934687953522
decision_type=2 2 2 2 2 2 2 2 2 2 2 2 2 2 2 2 2 2 2 2 2 2 2 2 2 2 2 2 2 2 2 2 2 2 2 2 2 2 2 2 2 2
left_child=1 13 6 4 5 -4 14 10 9 -9 11 12 41 -1 15 -3 29 -18 -2 20 21 -20 -21 -24 -6 -5 27 -27 -28 -17 -22 -32 -12 -34 36 -36 -15 -38 -39 40 -40 -8
right_child=18 2 3 25 24 -7 7 8 -10 -11 32 -13 -14 34 -16 16 17 -19 19 22 30 -23 23 -25 -26 26 28 -29 -30 -31 31 -33 33 -35 35 -37 37 38 39 -41 -42 -43
leaf_value=-1.1239833427517869 -2.0779427643752943 5.5147290570700838 -0.8673734998317858 -2.6122501777589835 2.8132564989087192 254.31803189758116 28.220434729996985 29.230457072565443 8.2824068768261956 129.19444608935697 2.7301323195880607 67.675305433206432 54.845842554719503 18.238157390071564 0.040990450288942645 10.132372758479336 16.605772971786799 71.999714782218049 8.5869383171168376 -2.5213964805184199 -1.8544783339727504 92.233638009907935 50.85088642659332 -1.7778489724202784 28.31642925553194 -2.4038997430948843 0.24203422121041765 71.84391878800831 35.179633665072437 33.593255764051264 11.112890557652422 40.705533623064888 45.798993892293083 9.3554776719132313 67.544414804938043 -1.2951083393719938 0.44093025724475532 1.1077818923400815 66.573854313296977 4.3292885799736567 9.4927113016043325 10.307501965265644
leaf_weight=6875 12152 304 40 1501 486 20 60 24 40 22 144 35 20 35 166 140 33 20 39 2010 54 22 38 230 24 41 1043 20 22 29 171 24 21 101 21 103 2932 522 20 251 49 57
leaf_count=6875 12152 304 40 1501 486 20 60 24 40 22 144 35 20 35 166 140 33 20 39 2010 54 22 38 230 24 41 1043 20 22 29 171 24 21 101 21 103 2932 522 20 251 49 57
internal_value=0.00185526 1.54519 5.53022 1.85034 12.9157 86.8864 15.1959 23.4208 46.4157 78.7195 18.8132 34.1243 25.1375 -0.0822811 8.9437 11.7481 20.2227 38.4272 -1.59184 0.690585 17.0028 39.7258 -1.53553 5.84086 4.06487 -0.554468 2.18852 22.6829 0.995096 14.3269 11.3036 14.9385 8.82479 15.9402 1.73847 10.7968 1.44091 1.28049 4.20011 9.22589 26.7313 19.6501
internal_weight=29961 15221 4413 3197 570 60 1216 524 86 46 438 172 137 10808 692 526 222 53 14740 2588 310 61 2278 268 510 2627 1126 61 1065 169 249 195 266 122 3933 124 3809 3774 842 320 69 117
internal_count=29961 15221 4413 3197 570 60 1216 524 86 46 438 172 137 10808 692 526 222 53 14740 2588 310 61 2278 268 510 2627 1126 61 1065 169 249 195 266 122 3933 124 3809 3774 842 320 69 117
is_linear=0
shrinkage=0.0443876


Tree=2
num_leaves=43
num_cat=0
split_feature=5 15 16 5 18 25 26 6 17 3 6 2 17 17 18 18 5 26 18 2 21 16 27 28 17 11 11 0 8 27 7 25 18 7 28 13 2 18 25 17 18 7
split_gain=3.42143e+07 4.58975e+07 7.29063e+07 3.95667e+07 1.73873e+08 4.36821e+08 2.90079e+07 2.66126e+07 3.56893e+07 7.68307e+07 2.10326e+07 2.34678e+07 1.02528e+07 1.15689e+07 9.5157e+06 9.07448e+06 8.03473e+06 1.28976e+07 1.11087e+07 2.19907e+07 7.59989e+06 4.36842e+07 2.00368e+07 2.80607e+07 1.31248e+07 8.0261e+06 5.18836e+07 7.18136e+06 7.06635e+06 6.50331e+07 2.58411e+07 7.98592e+06 6.35684e+06 7.21138e+06 5.71541e+06 5.00839e+06 4.02899e+07 4.76274e+06 4.52723e+06 9.03243e+06 4.04345e+06 5.31001e+06
threshold=754.00000000000011 1.0000000180025095e-35 1.0000000180025095e-35 365.50000000000006 220.66500000000002 1132.5000000000002 2.5000000000000004 3.9750000000000005 0.096291201793265072 12.500000000000002 2.1750000000000003 9410.5000000000018 0.069315510407193207 0.062847871208913719 323.39500000000004 338.55500000000006 536.00000000000011 1.5000000000000002 312.78500000000003 9048.5000000000018 2.5000000000000004 1.0000000180025095e-35 18.500000000000004 2001.5000000000002 0.070033460855159158 26627.420000000002 27452.940000000006 66.500000000000014 3901.5000000000005 14.500000000000002 2145.5000000000005 1510.5000000000002 276.06500000000005 1598.5000000000002 2010.5000000000002 1.5000000000000002 9298.5000000000018 324.29500000000007 1330.5000000000002 0.075710520914159155 615.29000000000008 1794.5000000000002
decision_type=2 2 2 2 2 2 2 2 2 2 2 2 2 2 2 2 2 2 2 2 2 2 2 2 2 2 2 2 2 2 2 2 2 2 2 2 2 2 2 2 2 2
left_child=1 14 6 4 5 -4 16 8 10 15 11 12 13 -8 -1 -10 17 -3 -19 34 -2 22 23 -22 -25 -23 -27 -6 29 30 31 -5 -24 -34 -20 37 -37 -16 -12 -40 -39 -42
right_child=20 2 3 28 27 -7 7 -9 9 -11 38 -13 -14 -15 35 -17 -18 18 19 -21 21 25 32 24 -26 26 -28 -29 -30 -31 -32 -33 33 -35 -36 36 -38 40 39 -41 41 -43
leaf_value=-1.0740993951440114 -1.9857153595635813 5.2707219798921336 -2.7495821844160586 -2.1628582507440215 2.6886315665950522 247.30230382497285 18.667706620857142 2.4023047311533805 2.9937198200131943 125.34805455315514 4.9225007836113708 64.752347095454752 15.704180273049502 65.922329937066266 17.450105678568548 41.880070540951458 0.039181735266730015 9.3879550642612966 12.156270095537318 67.117295736444206 79.691821927283939 -2.360767207415825 -0.069549231492765762 47.721635376488514 4.0611648101827669 59.836194936684436 -1.795773210312628 27.108343736296373 -1.8562837497395817 80.370244410880559 38.590085947626108 25.718100101633159 31.888195773519108 9.2769931618050432 39.056324941762767 -0.77786779603357803 66.553259506770686 0.71999118217350433 6.6902713758380177 38.65095386341531 1.2943069455249252 11.771213033163249
leaf_weight=6875 12152 304 40 583 486 20 22 105 22 21 106 35 95 20 35 25 166 112 67 23 20 2043 85 20 39 30 205 24 1971 20 33 20 37 109 20 106 20 3374 45 28 241 157
leaf_count=6875 12152 304 40 583 486 20 22 105 22 21 106 35 95 20 35 25 166 112 67 23 20 2043 85 20 39 30 205 24 1971 20 33 20 37 109 20 106 20 3374 45 28 241 157
internal_value=0.0035987 1.47965 5.29363 1.77342 12.3638 83.2086 14.5399 22.4128 27.4102 56.695 21.5962 32.6497 24.0508 42.1498 -0.0779704 24.1064 8.55527 11.2378 19.3506 29.3237 -1.52061 0.663212 16.2689 35.4402 19.3937 -1.4665 6.2857 3.88706 -0.528182 3.45905 0.921787 -1.19831 9.59174 15.1798 18.7025 1.66313 10.3363 1.37351 10.8564 19.2951 1.21989 5.44572
internal_weight=29961 15221 4413 3197 570 60 1216 524 419 68 351 172 137 42 10808 47 692 526 222 110 14740 2588 310 79 59 2278 235 510 2627 656 636 603 231 146 87 3933 126 3807 179 73 3772 398
internal_count=29961 15221 4413 3197 570 60 1216 524 419 68 351 172 137 42 10808 47 692 526 222 110 14740 2588 310 79 59 2278 235 510 2627 656 636 603 231 146 87 3933 126 3807 179 73 3772 398
is_linear=0
shrinkage=0.0443876


Tree=3
num_leaves=43
num_cat=0
split_feature=5 15 16 5 18 3 26 6 17 17 6 2 18 0 18 5 26 28 21 16 27 28 25 25 25 9 8 8 7 0 25 18 7 0 0 18 17 0 18 7 7 9
split_gain=3.12935e+07 4.20563e+07 6.67179e+07 3.624e+07 1.59493e+08 4.34948e+08 2.65843e+07 2.4381e+07 3.27474e+07 7.07099e+07 1.93014e+07 2.4529e+07 1.36719e+07 1.01948e+07 8.69679e+06 7.35217e+06 1.182e+07 1.06283e+07 6.96105e+06 3.99998e+07 1.83914e+07 2.57376e+07 1.30625e+07 7.50296e+06 5.19063e+07 6.78657e+06 1.28268e+07 4.1168e+07 3.77099e+07 6.58416e+06 6.58026e+06 5.81468e+06 6.60537e+06 4.9019e+06 3.98509e+07 4.37769e+06 4.33223e+06 6.40738e+06 4.08163e+06 5.74437e+06 1.2783e+07 2.214e+07
threshold=754.00000000000011 1.0000000180025095e-35 1.0000000180025095e-35 365.50000000000006 220.66500000000002 11.500000000000002 2.5000000000000004 3.9750000000000005 0.096291201793265072 0.10448239571373896 2.0250000000000004 9410.5000000000018 361.82500000000005 56.500000000000007 323.39500000000004 536.00000000000011 1.5000000000000002 2000.5000000000002 2.5000000000000004 1.0000000180025095e-35 18.500000000000004 2001.5000000000002 1183.0000000000002 1576.0000000000002 1608.5000000000002 1.0000000180025095e-35 3901.5000000000005 3744.5000000000005 2145.5000000000005 66.500000000000014 1454.5000000000002 276.06500000000005 1598.5000000000002 69.500000000000014 70.500000000000014 324.29500000000007 0.076904934687953522 40.500000000000007 513.84000000000015 1751.0000000000002 1897.0000000000002 1.0000000180025095e-35
decision_type=2 2 2 2 2 2 2 2 2 2 2 2 2 2 2 2 2 2 2 2 2 2 2 2 2 2 2 2 2 2 2 2 2 2 2 2 2 2 2 2 2 2
left_child=1 14 6 4 5 -4 15 8 10 -10 11 13 -11 36 -1 16 -3 -18 -2 20 21 -20 -23 -21 -25 -5 27 28 30 -6 -27 -22 -33 35 -35 -16 37 -8 -37 -40 41 -41
right_child=18 2 3 25 29 -7 7 -9 9 12 -12 -13 -14 -15 33 -17 17 -19 19 23 31 22 -24 24 -26 26 -28 -29 -30 -31 -32 32 -34 34 -36 38 -38 -39 39 40 -42 -43
leaf_value=-1.0264295873594642 -1.8975812372584746 5.0375115858574091 237.6539148478881 -2.4558026438299989 2.5695273003635393 -9.0728934305870368 40.921439721511526 2.2966480375131928 114.03016935336069 -2.8265314503061751 10.718300373015369 66.102431778532818 46.127325938749955 51.627692328613577 16.719242090076946 0.037452456873486736 40.353943166027705 14.102300553661017 76.318072730918473 -2.27111440899326 -0.066496888364609263 -0.77446577631782954 40.72873471885574 62.862307807793378 -1.4828628861300224 -0.62896205087217971 -1.0098793576770455 68.081621203102216 62.764647467524647 25.951799479519238 25.154870049557946 30.508904455757804 8.8688412608547136 64.51505644133178 -1.3226072966641567 0.37626290520966582 8.3697066564411475 11.382274040768014 1.0058432602993919 63.5378307880517 3.8608923569675784 8.813632363754424
leaf_weight=6875 12152 304 21 1501 486 39 28 105 24 24 185 32 20 20 35 166 36 186 20 2040 85 32 27 27 211 278 787 21 20 24 20 37 109 21 103 2932 55 31 522 20 251 49
leaf_count=6875 12152 304 21 1501 486 39 28 105 24 24 185 32 20 20 35 166 36 186 20 2040 85 32 27 27 211 278 787 21 20 24 20 37 109 21 103 2932 55 31 522 20 251 49
internal_value=0.00524642 1.41689 5.06778 1.70028 11.8357 79.6878 13.9129 21.4497 26.2331 54.2847 20.664 31.6214 19.9401 22.9714 -0.0741276 8.18379 10.7499 18.5163 -1.45246 0.637569 15.5707 33.9379 18.57 -1.40035 6.04226 -0.502433 2.10135 9.30647 5.22991 3.71703 1.17747 9.17362 14.5181 1.59037 10.2414 1.3062 17.5509 25.8359 1.159 3.88108 8.55411 25.3364
internal_weight=29961 15221 4413 3197 570 60 1216 524 419 68 351 166 44 134 10808 692 526 222 14740 2588 310 79 59 2278 238 2627 1126 339 318 510 298 231 146 3933 124 3809 114 59 3774 842 320 69
internal_count=29961 15221 4413 3197 570 60 1216 524 419 68 351 166 44 134 10808 692 526 222 14740 2588 310 79 59 2278 238 2627 1126 339 318 510 298 231 146 3933 124 3809 114 59 3774 842 320 69
is_linear=0
shrinkage=0.0443876


Tree=4
num_leaves=43
num_cat=0
split_feature=5 15 16 5 18 2 6 24 2 6 8 18 3 18 0 2 6 3 21 16 27 28 17 11 11 8 9 28 25 17 6 18 24 18 19 19 5 7 6 19 7 18
split_gain=2.86216e+07 3.85206e+07 6.10198e+07 3.31891e+07 1.46287e+08 4.34055e+08 2.43114e+07 2.18826e+07 4.42958e+07 4.73853e+07 3.16196e+07 1.31626e+07 1.77335e+07 7.98919e+06 7.96247e+06 3.43418e+07 7.86381e+06 6.98429e+06 6.37558e+06 3.66197e+07 1.68737e+07 2.3613e+07 1.21541e+07 7.17424e+06 4.75438e+07 6.25809e+06 6.21446e+06 1.2836e+07 3.84503e+07 1.26095e+07 6.18782e+06 5.81181e+06 1.37403e+07 5.31875e+06 6.09653e+06 4.7204e+06 4.6612e+06 4.17267e+06 4.12711e+06 1.14885e+07 3.49627e+06 6.16368e+06
threshold=754.00000000000011 1.0000000180025095e-35 1.0000000180025095e-35 365.50000000000006 220.66500000000002 7960.5000000000009 1.675 104.50000000000001 8667.5000000000018 2.0250000000000004 14618.500000000002 287.76500000000004 12.500000000000002 350.50500000000005 69.500000000000014 12490.500000000002 1.8250000000000002 7.5000000000000009 2.5000000000000004 1.0000000180025095e-35 18.500000000000004 2001.5000000000002 0.070033460855159158 26627.420000000002 27452.940000000006 15139.000000000002 1.0000000180025095e-35 1996.5000000000002 1218.5000000000002 0.12633618931048554 2.9250000000000003 437.02000000000004 90.500000000000014 276.06500000000005 0.024380571330558456 0.013686307853085252 536.00000000000011 1895.5000000000002 1.2750000000000001 0.012874215325298302 1751.0000000000002 468.59500000000008
decision_type=2 2 2 2 2 2 2 2 2 2 2 2 2 2 2 2 2 2 2 2 2 2 2 2 2 2 2 2 2 2 2 2 2 2 2 2 2 2 2 2 2 2
left_child=1 13 6 4 5 -4 31 10 11 -10 16 -9 30 -1 40 -16 17 -8 -2 20 21 -20 -23 -21 -25 -6 -5 28 -28 -29 35 36 -33 -22 -35 -13 38 -37 -3 -40 -15 -42
right_child=18 2 3 26 25 -7 7 8 9 -11 -12 12 -14 14 15 -17 -18 -19 19 23 33 22 -24 24 -26 -27 27 29 -30 -31 -32 32 -34 34 -36 37 -38 -39 39 -41 41 -43
leaf_value=-0.83744683494944328 -1.8133588803433669 3.7847934289408234 -9.2203703014788019 -2.3468659296341285 2.5329668205670384 239.89280891814158 39.522073729472268 0.018263651283608271 103.59414755296521 24.253217395923173 52.30198722975976 5.7373065224850963 57.104495959079635 0.105233393252652 -0.15746320563475669 64.595776871430957 3.475761327433347 11.366630885900564 73.087150802715342 -2.1825758472212931 -0.063578515114989506 45.031312944877975 3.0430950438890303 57.254115739637335 -1.7438549368836218 27.306228152148012 -3.2765781330240262 0.15388906803771751 70.545728294907661 33.401777319385786 0.25102975307088821 43.708286860033915 6.4479685589457132 9.121944883169876 31.440763977046831 19.087134205410344 -2.4563615827728138 41.083982200824138 37.833365495273945 6.5850145324875644 0.99413844391449446 7.4117966766924264
leaf_weight=7697 12152 232 40 1501 490 20 23 53 28 32 34 23 28 1699 70 20 233 68 20 2043 85 20 39 30 205 20 41 1043 20 22 29 26 72 116 30 42 127 32 29 105 879 443
leaf_count=7697 12152 232 40 1501 490 20 23 53 28 32 34 23 28 1699 70 20 233 68 20 2043 85 20 39 30 205 20 41 1043 20 22 29 26 72 116 30 42 127 32 29 105 879 443
internal_value=0.00671813 1.35675 4.85081 1.63032 11.3297 76.3121 13.3098 19.4087 29.0172 62.3377 12.1835 19.1135 25.644 -0.0702142 1.82768 14.7673 7.82999 18.8245 -1.38736 0.612838 14.9011 32.4941 17.7744 -1.33708 5.99213 3.55444 -0.477643 2.01398 21.6526 0.87046 18.27 6.83882 16.6648 8.77372 13.8852 23.6013 4.85671 29.0077 7.39409 13.5709 1.43758 3.14854
internal_weight=29961 15221 4413 3197 570 60 1216 625 267 60 358 207 154 10808 3111 90 324 91 14740 2588 310 79 59 2278 235 510 2627 1126 61 1065 126 591 98 231 146 97 493 74 366 134 3021 1322
internal_count=29961 15221 4413 3197 570 60 1216 625 267 60 358 207 154 10808 3111 90 324 91 14740 2588 310 79 59 2278 235 510 2627 1126 61 1065 126 591 98 231 146 97 493 74 366 134 3021 1322
is_linear=0
shrinkage=0.0443876


Tree=5
num_leaves=43
num_cat=0
split_feature=5 15 18 18 8 18 21 16 3 25 25 5 12 16 24 5 2 0 25 16 15 2 27 24 3 11 7 18 6 23 28 11 19 27 18 23 8 8 3 28 25 18
split_gain=2.6405e+07 6.05419e+07 4.59661e+07 5.11867e+08 2.71801e+07 1.89301e+07 1.38099e+07 6.74989e+07 2.46505e+07 1.85968e+07 6.67934e+07 1.18872e+07 1.24336e+07 9.71059e+06 9.61036e+06 3.00553e+07 4.88176e+07 2.11168e+07 8.08067e+06 7.83004e+06 1.44655e+07 9.47903e+06 5.77728e+07 9.73924e+06 7.73451e+06 1.86888e+07 3.01008e+07 8.82706e+06 7.50413e+06 7.85694e+06 7.98165e+06 1.85468e+07 9.82036e+06 6.35222e+06 4.05966e+06 8.12792e+06 6.59904e+06 1.74118e+07 3.9932e+06 5.27899e+06 4.13572e+06 3.66253e+06
threshold=370.00000000000006 1.0000000180025095e-35 220.66500000000002 212.61000000000004 14939.000000000002 321.49500000000006 2.5000000000000004 1.0000000180025095e-35 18.500000000000004 1264.5000000000002 1181.0000000000002 1460.5000000000002 1.5000000000000002 1.0000000180025095e-35 135.50000000000003 2193.5000000000005 7209.5000000000009 32.500000000000007 1339.5000000000002 1.0000000180025095e-35 1.0000000180025095e-35 12972.500000000002 33.500000000000007 137.50000000000003 12.500000000000002 23335.000000000004 1994.5000000000002 437.02000000000004 3.4250000000000003 4.5000000000000009 2004.5000000000002 16645.475000000002 0.032847168583566462 45.500000000000007 506.49500000000006 4.5000000000000009 8015.5000000000009 1848.5000000000002 5.5000000000000009 2012.5000000000002 1350.5000000000002 658.73000000000013
decision_type=2 2 2 2 2 2 2 2 2 2 2 2 2 2 2 2 2 2 2 2 2 2 2 2 2 2 2 2 2 2 2 2 2 2 2 2 2 2 2 2 2 2
left_child=1 34 3 4 18 -2 19 9 14 10 -8 12 -11 24 -9 17 -17 -16 -3 20 21 41 23 -23 38 27 -27 -26 29 -22 31 -31 -32 -15 -1 36 37 -36 39 -4 -41 -7
right_child=5 2 13 -5 -6 6 7 8 -10 11 -12 -13 -14 33 15 16 -18 -19 -20 -21 28 22 -24 -25 25 26 -28 -29 -30 30 32 -33 -34 -35 35 -37 -38 -39 -40 40 -42 -43
leaf_value=0.099620162094711015 -1.8378775560078837 -4.8504494187825991 31.753431100963777 232.52224461390171 53.222875226413088 -0.6814421499555956 16.826599717246587 -1.364402930811706 35.956241376078793 14.422563913979873 101.06932417611759 -0.018814517047483461 49.914882983770191 2.3050187160669675 44.21831444714519 -3.1897005874559334 90.3218804138547 -2.2874738956147298 21.73103783757746 -1.9925541011626753 1.5941827871338141 -1.5665414179521944 79.248502083573285 30.399959721909251 6.7427115857264486 80.607220402641929 12.22347979848346 35.246036936637346 0.083339728715404321 1.3166942119877225 6.6160275769594774 50.867553785054952 38.341355420802948 27.196785282222361 -0.91736031687247221 0.77091410449364994 2.8848972994489328 42.872655170380412 3.5813802315987662 2.7063765822437253 21.015087871943184 4.92320177125504
leaf_weight=5925 13241 136 24 21 20 3478 61 1339 38 59 26 53 29 561 20 23 20 232 26 2673 87 179 20 20 156 21 31 24 133 25 122 36 22 20 33 348 61 38 227 72 36 245
leaf_count=5925 13241 136 24 21 20 3478 61 1339 38 59 26 53 29 561 20 23 20 232 26 2673 87 179 20 20 156 21 31 24 133 25 122 36 22 20 33 348 61 38 227 72 36 245
internal_value=0.00799724 2.23282 10.6803 30.133 5.67188 -0.772425 0.805642 4.16273 1.06687 26.765 42.8392 16.6221 26.5354 7.28882 0.234647 7.4734 41.3368 1.55881 -0.480366 -0.100839 1.05725 0.217503 9.1711 1.77801 11.291 17.5996 40.8101 10.7117 8.8279 12.7974 17.5221 30.8982 11.687 3.20577 0.418004 4.33993 13.6749 22.7814 7.17762 13.2908 8.94198 -0.311431
internal_weight=29961 7780 1375 203 182 22181 8940 1900 1672 228 87 141 88 1172 1634 295 43 252 162 7040 4367 3942 219 199 591 232 52 180 425 292 205 61 144 581 6405 480 132 71 359 132 108 3723
internal_count=29961 7780 1375 203 182 22181 8940 1900 1672 228 87 141 88 1172 1634 295 43 252 162 7040 4367 3942 219 199 591 232 52 180 425 292 205 61 144 581 6405 480 132 71 359 132 108 3723
is_linear=0
shrinkage=0.0443876


end of trees

feature_importances:
Premium_Amt_Current_Yr=36
Power_Wt_Ratio=19
Contract_Duration=18
Vehicle_Wt_Kg=18
Age=16
Age_at_license=14
Cylinder_Capacity=13
Policies_Terminated_Non_Payment=13
Customer_Loyalty=12
Market_Value_EOY19=12
Yr_Vehicle_Registration=11
Days_Driving_At_Start_Date=10
Car_Age_Contract=9
Years_Associates=8
Non_Continuation_Insurance_Flag=7
Years_Driving=7
Half_Yearly_Payment_Method=6
Ratio_Premium_Car_Value=6
Time_Since_Last_Renewal=6
Vehicle_Power_HP=6
Max_Product_Simultaneous_Held=2
Vehicle_Doors=2
Max_Policy_Simultaneous_Force=1

parameters:
[boosting: gbdt]
[objective: regression]
[metric: l2]
[tree_learner: serial]
[device_type: cpu]
[data_sample_strategy: bagging]
[data: ]
[valid: ]
[num_iterations: 728]
[learning_rate: 0.0443876]
[num_leaves: 43]
[num_threads: 0]
[seed: 0]
[deterministic: 0]
[force_col_wise: 0]
[force_row_wise: 0]
[histogram_pool_size: -1]
[max_depth: 0]
[min_data_in_leaf: 20]
[min_sum_hessian_in_leaf: 0.000144028]
[bagging_fraction: 0.964069]
[pos_bagging_fraction: 1]
[neg_bagging_fraction: 1]
[bagging_freq: 0]
[bagging_seed: 3]
[bagging_by_query: 0]
[feature_fraction: 0.9725]
[feature_fraction_bynode: 1]
[feature_fraction_seed: 2]
[extra_trees: 0]
[extra_seed: 6]
[early_stopping_round: 0]
[early_stopping_min_delta: 0]
[first_metric_only: 0]
[max_delta_step: 0]
[lambda_l1: 1.0355e-08]
[lambda_l2: 0.969696]
[linear_lambda: 0]
[min_gain_to_split: 0.0202732]
[drop_rate: 0.1]
[max_drop: 50]
[skip_drop: 0.5]
[xgboost_dart_mode: 0]
[uniform_drop: 0]
[drop_seed: 4]
[top_rate: 0.2]
[other_rate: 0.1]
[min_data_per_group: 100]
[max_cat_threshold: 32]
[cat_l2: 10]
[cat_smooth: 10]
[max_cat_to_onehot: 4]
[top_k: 20]
[monotone_constraints: ]
[monotone_constraints_method: basic]
[monotone_penalty: 0]
[feature_contri: ]
[forcedsplits_filename: ]
[refit_decay_rate: 0.9]
[cegb_tradeoff: 1]
[cegb_penalty_split: 0]
[cegb_penalty_feature_lazy: ]
[cegb_penalty_feature_coupled: ]
[path_smooth: 0]
[interaction_constraints: ]
[verbosity: 1]
[saved_feature_importance_type: 0]
[use_quantized_grad: 0]
[num_grad_quant_bins: 4]
[quant_train_renew_leaf: 0]
[stochastic_rounding: 1]
[linear_tree: 0]
[max_bin: 276]
[max_bin_by_feature: ]
[min_data_in_bin: 3]
[bin_construct_sample_cnt: 200000]
[data_random_seed: 1]
[is_enable_sparse: 1]
[enable_bundle: 1]
[use_missing: 1]
[zero_as_missing: 0]
[feature_pre_filter: 1]
[pre_partition: 0]
[two_round: 0]
[header: 0]
[label_column: ]
[weight_column: ]
[group_column: ]
[ignore_column: ]
[categorical_feature: ]
[forcedbins_filename: ]
[precise_float_parser: 0]
[parser_config_file: ]
[objective_seed: 5]
[num_class: 1]
[is_unbalance: 0]
[scale_pos_weight: 1]
[sigmoid: 1]
[boost_from_average: 1]
[reg_sqrt: 0]
[alpha: 0.9]
[fair_c: 1]
[poisson_max_delta_step: 0.7]
[tweedie_variance_power: 1.36502]
[lambdarank_truncation_level: 30]
[lambdarank_norm: 1]
[label_gain: ]
[lambdarank_position_bias_regularization: 0]
[eval_at: ]
[multi_error_top_k: 1]
[auc_mu_weights: ]
[num_machines: 1]
[local_listen_port: 12400]
[time_out: 120]
[machine_list_filename: ]
[machines: ]
[gpu_platform_id: -1]
[gpu_device_id: -1]
[gpu_use_dp: 0]
[num_gpu: 1]

end of parameters

pandas_categorical:[]
