tree
version=v4
num_class=1
num_tree_per_iteration=1
label_index=0
max_feature_idx=31
objective=regression
feature_names=Age Age_at_contract Age_at_license Car_Age_Contract Car_Age_Contract_Cat_Standard Contract_Duration Customer_Loyalty Cylinder_Capacity Days_Driving_At_Start_Date Half_Yearly_Payment_Method Issurance_Broker_Agent_Channel Market_Value_EOY19 Max_Policy_Simultaneous_Force Max_Product_Simultaneous_Held Multiple_Drivers_Regular_Flag Non_Continuation_Insurance_Flag Policies_Terminated_Non_Payment Power_Wt_Ratio Premium_Amt_Current_Yr Ratio_Premium_Car_Value Rural_Urban_Flag Time_Since_Last_Renewal Total_Policies_Entity Vehicle_Doors Vehicle_Power_HP Vehicle_Wt_Kg Years_Associates Years_Driving Yr_Vehicle_Registration oof_lc oof_halc oof_cs
feature_infos=[19:101] [18:91] [6575:22899] [0:67] [0:1] [32:14244] [1:15.550000000000001] [49:7480] [-4732:25943] [0:1] [0:1] [270.45999999999998:220675.79999999999] [1:17] [1:4] [0:1] [0:1] [0:7] [0:2.5172413793103448] [40.259999999999998:2143.8600000000001] [0.00082567981271379997:0.90841529246468999] [0:1] [1:4] [1:17] [0:6] [0:560] [43:7300] [1:40] [1:77] [1950:2018] [-92.595562137120012:1976.0375585246741] [-46.173809665313392:2342.7437900416048] [-0.063700694278060688:0.86355559045746211]
tree_sizes=2132 2404 2235 2313 2314 2238 2320 2501 2327 2325 2086 2075 2263 2499 2420

Tree=0
num_leaves=23
num_cat=0
split_feature=31 31 2 31 30 31 19 17 17 31 5 28 19 30 18 30 3 31 8 31 6 18
split_gain=8.79992e+08 6.84263e+08 1.30941e+09 1.76235e+08 1.26199e+08 8.73872e+07 1.43456e+08 6.74268e+07 1.01936e+08 4.78716e+07 3.42082e+07 3.59626e+07 2.93491e+07 2.51885e+07 1.63218e+07 1.60362e+07 1.19687e+07 9.92232e+06 9.67639e+06 8.12047e+06 2.84072e+06 1.58928e+06
threshold=0.3647377276890455 0.37164724248242526 7395.5000000000009 0.13660763894398537 452.75076355580455 0.13772606986067296 0.018486433358379354 0.07380790591122692 0.076313170118394863 0.23879522915768478 712.50000000000011 2000.5000000000002 0.034287986683273063 102.68317840053329 655.60500000000013 102.90984910374827 1.0000000180025095e-35 0.4905237422688789 2808.5000000000005 0.060584222506448938 1.675 747.62000000000012
decision_type=2 2 2 2 2 2 2 2 2 2 2 2 2 2 2 2 2 2 2 2 2 2
left_child=3 2 -2 13 10 6 -5 18 -9 14 17 -12 -11 19 -7 -15 -17 -3 -6 21 -21 -1
right_child=1 4 -4 5 7 9 -8 8 -10 12 11 -13 -14 15 -16 16 -18 -19 -20 20 -22 -23
leaf_value=118.85751704263843 125.7839750345033 137.03561645254024 736.75480021876331 124.33495117192778 199.34501718342253 128.13082590540358 325.33633013630435 336.85993905535292 202.36417896739448 138.74671489096067 221.71932612194152 160.41151560394721 167.88774806050856 163.08709493602424 147.23185821722203 133.11243140240461 123.53567099496176 155.06724883839681 157.21724784347069 125.4123082046615 121.33268399061772 134.30782314229862
leaf_weight=11729 35 369 27 36 28 4584 27 27 263 1782 51 225 164 49 203 682 3365 207 154 914 3934 29
leaf_count=11729 35 369 27 36 28 4584 27 27 263 1782 51 225 164 49 203 682 3365 207 154 914 3934 29
internal_value=126.58 177.83 391.865 123.997 167.807 133.208 210.483 195.15 214.888 132.485 152.659 171.741 141.203 120.974 128.941 125.603 125.15 143.516 163.699 119.832 122.102 118.896
internal_weight=28884 1386 62 27498 1324 6796 63 472 290 6733 852 276 1946 20702 4787 4096 4047 576 182 16606 4848 11758
internal_count=28884 1386 62 27498 1324 6796 63 472 290 6733 852 276 1946 20702 4787 4096 4047 576 182 16606 4848 11758
is_linear=0
shrinkage=1


Tree=1
num_leaves=26
num_cat=0
split_feature=31 18 8 31 29 31 27 28 29 31 31 17 31 18 28 17 8 18 31 29 11 28 1 18 18
split_gain=7.68647e+08 3.66914e+08 1.61974e+09 1.4875e+08 1.3491e+08 7.65712e+07 1.35733e+08 6.56859e+07 2.48427e+08 4.84036e+07 3.92687e+07 2.67417e+07 2.22109e+07 1.64811e+07 1.3823e+07 3.18586e+07 1.37806e+07 1.52041e+07 1.3414e+07 1.23754e+07 5.29775e+06 3.3721e+06 2.23696e+07 1.20072e+06 733841
threshold=0.3572030776104515 220.94000000000003 4472.5000000000009 0.13660763894398537 143.08410546166735 0.13772606986067296 26.500000000000004 2000.5000000000002 193.10995848362512 0.52170198436226201 0.23113233528920432 0.097433626308737017 0.059818962735890331 655.60500000000013 2017.5000000000002 0.097856702235172066 3806.0000000000005 281.66500000000008 0.47535946922763922 30.334364364317327 38407.000000000007 2015.5000000000002 27.500000000000004 186.39500000000001 587.05000000000007
decision_type=2 2 2 2 2 2 2 2 2 2 2 2 2 2 2 2 2 2 2 2 2 2 2 2 2
left_child=3 2 -2 12 16 6 -5 8 -6 -9 13 -12 21 -7 19 -16 17 -3 23 -14 -18 24 -23 -4 -1
right_child=1 4 18 5 7 10 -8 9 -10 -11 11 -13 14 -15 15 -17 20 -19 -20 -21 -22 22 -24 -25 -26
leaf_value=-7.2477638010559762 606.61069592481977 68.982356974511703 -4.9928854347182492 -5.4437788758044823 276.58764056233019 1.0297108401859176 190.07230344057953 23.778271417382136 50.767792959216379 62.14872329741619 9.6565983596279779 30.54001966252368 5.1599771359049242 20.716184049939582 0.57258455932849017 59.945327790247852 6.1271847098563841 19.696115768484614 55.956746819744716 -3.8476964464977068 35.742214075845936 44.323036502928367 -5.7033982900379367 14.665643377897167 -3.4726347689735304
leaf_weight=12033 27 35 27 36 27 4343 27 236 98 362 1825 312 733 193 183 50 419 122 38 6917 28 42 516 27 228
leaf_count=12033 27 35 27 36 27 4343 27 236 98 362 1825 312 733 193 183 50 419 122 38 6917 28 42 516 27 228
internal_value=-0.0190419 46.8235 157.708 -2.48768 36.8796 6.02117 78.3527 56.0905 99.5492 47.006 5.33825 12.7056 -5.25628 1.86735 -2.50286 13.314 13.8835 30.6844 25.9523 -2.98461 7.98245 -6.94948 -1.93779 4.83655 -7.17756
internal_weight=28884 1446 119 27438 1327 6736 63 723 125 598 6673 2137 20702 4536 7883 233 604 157 92 7650 447 12819 558 54 12261
internal_count=28884 1446 119 27438 1327 6736 63 723 125 598 6673 2137 20702 4536 7883 233 604 157 92 7650 447 12819 558 54 12261
is_linear=0
shrinkage=0.0659195


Tree=2
num_leaves=24
num_cat=0
split_feature=31 18 2 31 29 30 19 31 18 31 31 7 30 18 30 8 18 29 28 31 29 11 18
split_gain=6.70653e+08 3.20139e+08 1.59258e+09 1.29785e+08 1.1771e+08 8.25125e+07 1.14118e+08 6.68098e+07 1.35901e+08 3.42622e+07 3.40176e+07 2.40104e+07 2.055e+07 1.43799e+07 1.4045e+07 1.20238e+07 1.32658e+07 1.19122e+07 9.52165e+06 5.9281e+06 1.50101e+07 4.62239e+06 1.28106e+06
threshold=0.3572030776104515 220.94000000000003 10059.500000000002 0.13660763894398537 143.08410546166735 452.75076355580455 0.012711686171643751 0.13772606986067296 288.99500000000006 0.23113233528920432 0.6305312047971362 692.50000000000011 102.68317840053329 655.60500000000013 102.90984910374827 3806.0000000000005 281.66500000000008 215.10964353988609 2017.5000000000002 0.064250991751256856 24.24699321565372 38407.000000000007 747.62000000000012
decision_type=2 2 2 2 2 2 2 2 2 2 2 2 2 2 2 2 2 2 2 2 2 2 2
left_child=3 2 17 12 15 10 -7 8 -5 13 -6 -11 19 -9 -14 16 -3 -2 -16 22 -21 -17 -1
right_child=1 4 -4 7 5 6 -8 9 -10 11 -12 -13 14 -15 18 21 -18 -19 -20 20 -22 -23 -24
leaf_value=-6.7203286734977885 -6.6542171664317378 64.43537769843806 582.03312838913632 -10.659746049326706 23.431904500769065 150.62151452310792 56.403573581722064 0.96183301222598461 184.97682134413046 73.63440770735275 77.027835676772028 11.077589122381424 34.351495327318659 19.350599906049599 -2.0042110177122638 5.7232861297031379 18.397783065197757 41.706338109166524 10.853952738223983 10.991137051809169 -4.8631510331768064 33.38630189607963 6.9179031147947709
leaf_weight=12195 53 35 28 36 329 71 262 4343 27 27 61 2110 49 193 3779 419 122 38 268 277 4104 28 30
leaf_count=12195 53 35 28 36 329 71 262 4343 27 27 61 2110 49 193 3779 419 122 38 268 277 4104 28 30
internal_value=-0.0177784 43.737 147.313 -2.32369 34.4486 52.3932 76.493 5.62426 73.1882 4.98636 31.8153 11.868 -4.90979 1.74426 -0.72796 12.9684 28.6618 13.5408 -1.15271 -5.94127 -3.86072 7.45626 -6.68686
internal_weight=28884 1446 119 27438 1327 723 333 6736 63 6673 390 2137 20702 4536 4096 604 157 91 4047 16606 4381 447 12225
internal_count=28884 1446 119 27438 1327 723 333 6736 63 6673 390 2137 20702 4536 4096 604 157 91 4047 16606 4381 447 12225
is_linear=0
shrinkage=0.0659195


Tree=3
num_leaves=25
num_cat=0
split_feature=31 31 29 31 29 31 12 29 31 17 0 28 6 13 8 27 1 8 29 31 28 0 18 21
split_gain=5.99681e+08 6.60081e+08 1.28057e+09 1.13653e+08 1.12755e+08 5.77122e+07 1.80458e+08 5.74753e+07 4.68801e+07 4.53347e+07 1.48021e+08 3.529e+07 1.98217e+07 4.75714e+07 1.36465e+07 3.57078e+07 1.1444e+07 9.73421e+06 1.74477e+07 6.63999e+06 5.91544e+06 2.3628e+07 4.37419e+06 3.30227e+06
threshold=0.3647377276890455 0.37164724248242526 101.77920027768717 0.23113233528920432 143.08410546166735 0.65769896875749045 1.5000000000000002 151.49388595871426 0.074436282734339027 0.097433626308737017 28.500000000000004 2010.5000000000002 2.2250000000000005 1.5000000000000002 13226.500000000002 39.500000000000007 22.500000000000004 3302.5000000000005 97.009438075276719 0.07524692332052145 2015.5000000000002 30.500000000000004 587.05000000000007 2.5000000000000004
decision_type=2 2 2 2 2 2 2 2 2 2 2 2 2 2 2 2 2 2 2 2 2 2 2 2
left_child=3 2 -2 8 17 7 -7 -6 20 14 -11 -12 13 -10 16 -16 -5 18 -3 -14 22 -22 -1 -19
right_child=1 4 -4 9 5 6 -8 -9 12 10 11 -13 19 -15 15 -17 -18 23 -20 -21 21 -23 -24 -25
leaf_value=-6.192460772844016 -23.839557289400723 64.692644520647448 582.24593612097954 47.468742269463633 133.4755848541387 46.004499201919018 209.59277270164498 35.046156400061811 1.8008875075596724 171.99961992659522 12.105357509644167 82.642554467826173 18.693131964118557 48.118585826448417 84.153475123217447 11.277403615926112 5.6982925079755162 1.8243321886424486 5.7050918631852809 -3.569685687559391 37.3462419567635 -3.6934478173220806 1.9732497746268212 13.142104427303751
leaf_weight=13964 33 37 28 29 27 128 38 569 5737 31 258 35 59 98 36 155 1651 284 53 4363 67 676 291 185
leaf_count=13964 33 37 28 29 27 128 38 569 5737 31 258 35 59 98 36 155 1651 284 53 4363 67 676 291 185
internal_value=0.00544382 42.375 254.375 -2.1277 32.585 49.0802 83.4549 39.5057 -3.37818 12.26 35.0253 20.5319 0.0561396 2.57882 8.31765 25.0141 6.4194 10.0994 29.9566 -3.27264 -5.72688 0.00740773 -6.02577 6.28875
internal_weight=28832 1382 61 27450 1321 762 166 596 25255 2195 324 293 10257 5835 1871 191 1680 559 90 4422 14998 743 14255 469
internal_count=28832 1382 61 27450 1321 762 166 596 25255 2195 324 293 10257 5835 1871 191 1680 559 90 4422 14998 743 14255 469
is_linear=0
shrinkage=0.0659195


Tree=4
num_leaves=25
num_cat=0
split_feature=31 31 2 31 29 6 19 30 17 0 28 2 8 19 28 8 26 0 8 29 31 29 11 18
split_gain=5.23229e+08 5.75932e+08 1.18867e+09 9.91637e+07 9.83797e+07 5.19773e+07 9.71506e+07 4.29286e+07 3.95551e+07 1.29151e+08 3.07911e+07 2.21506e+07 2.05292e+08 1.93173e+07 1.21202e+07 1.20708e+07 2.54165e+07 1.05701e+07 8.49325e+06 1.52234e+07 6.91146e+06 1.51693e+07 3.01666e+06 986567
threshold=0.3647377276890455 0.37164724248242526 7432.5000000000009 0.23113233528920432 143.08410546166735 2.3750000000000004 0.012711686171643751 102.68317840053329 0.097433626308737017 28.500000000000004 2010.5000000000002 13078.500000000002 11590.500000000002 0.026098819637230302 2015.5000000000002 11801.500000000002 7.5000000000000009 24.500000000000004 3302.5000000000005 97.009438075276719 0.070864951743421264 24.24699321565372 31612.500000000004 747.62000000000012
decision_type=2 2 2 2 2 2 2 2 2 2 2 2 2 2 2 2 2 2 2 2 2 2 2 2
left_child=3 2 -2 7 18 6 -6 20 15 -10 -11 14 -13 -7 -9 17 -17 -5 19 -3 23 -22 -20 -1
right_child=1 4 -4 8 5 13 -8 11 9 10 -12 12 -14 -15 -16 16 -18 -19 22 -21 21 -23 -24 -25
leaf_value=-5.787246952731727 -21.708006660919462 60.428405748111459 564.12860125256395 39.797995534950296 120.2892981129242 14.988273840385281 44.685055301225923 -1.0823684239705786 160.66234699861877 11.307385082686739 77.195162231548451 2.8851814071476083 173.22987662901167 59.866096377981108 6.6727701407351008 12.800030749077376 71.843076730614882 4.6042533903533798 3.9076990664179281 5.3290318465028408 13.112691734599483 -3.6791174318750639 20.087431020003226 5.9861544429404541
leaf_weight=12945 34 37 27 38 91 228 392 6461 31 258 35 449 33 51 1013 264 36 1533 412 53 248 4075 57 31
leaf_count=12945 34 37 27 38 91 228 392 6461 31 258 35 449 33 51 1013 264 36 1533 412 53 248 4075 57 31
internal_value=0.00509361 39.5817 237.608 -1.98744 30.437 45.8449 58.9299 -3.15549 11.4518 32.7166 19.1785 0.852035 14.5486 23.1922 -0.0312618 7.76937 19.8857 5.45559 9.4337 27.982 -4.9986 -2.71581 5.8742 -5.75912
internal_weight=28832 1382 61 27450 1321 762 483 25255 2195 324 293 7956 482 279 7474 1871 300 1571 559 90 17299 4323 469 12976
internal_count=28832 1382 61 27450 1321 762 483 25255 2195 324 293 7956 482 279 7474 1871 300 1571 559 90 17299 4323 469 12976
is_linear=0
shrinkage=0.0659195


Tree=5
num_leaves=24
num_cat=0
split_feature=31 31 19 31 29 31 2 31 2 7 31 0 31 18 28 0 29 8 29 21 29 29 31
split_gain=4.56523e+08 5.02511e+08 1.14919e+09 8.77446e+07 8.58371e+07 5.91661e+07 1.24631e+08 5.04654e+07 1.30855e+08 4.36744e+07 3.41254e+07 4.4719e+07 1.47539e+07 1.18039e+07 9.63713e+06 3.02353e+07 7.79758e+06 7.41049e+06 1.32826e+07 2.89937e+06 1.73314e+06 3.3541e+07 478448
threshold=0.3647377276890455 0.37164724248242526 0.017767257297260454 0.13660763894398537 143.08410546166735 0.13772606986067296 8149.5000000000009 0.6305312047971362 9089.5000000000018 1974.5000000000002 0.23879522915768478 28.500000000000004 0.056283756066035064 655.60500000000013 2017.5000000000002 42.500000000000007 31.033380080220137 3302.5000000000005 97.009438075276719 2.5000000000000004 68.901279415902437 69.293447696198271 0.028810766667199228
decision_type=2 2 2 2 2 2 2 2 2 2 2 2 2 2 2 2 2 2 2 2 2 2 2
left_child=3 2 -2 12 17 6 -5 9 -9 -6 13 -12 20 -7 16 -16 -14 18 -3 -19 22 -22 -1
right_child=1 4 -4 5 7 10 -8 8 -10 -11 11 -13 14 -15 15 -17 -18 19 -20 -21 21 -23 -24
leaf_value=-5.9784324896408014 542.99821318514091 56.445247626924157 -33.025685362249178 -12.044266191886711 44.886582764178257 0.36962355268175545 175.30511349145488 38.564732734931532 155.5773282487219 4.9146756003115675 46.390238092584255 8.571307743222345 3.695042313889044 16.693328960477103 39.475157086273029 -8.6230586824002451 -2.9395967872950339 1.3037751953397723 4.9777601757381378 11.908666710367614 65.919429793140921 -5.9972848410948503 -5.1259335360241378
leaf_weight=6723 27 37 34 36 379 4547 27 153 57 173 147 1793 859 201 97 137 7409 284 53 185 30 464 4980
leaf_count=6723 27 37 34 36 379 4547 27 153 57 173 147 1793 859 201 97 137 7409 284 53 185 30 464 4980
internal_value=0.00476572 36.9726 221.947 -1.85642 28.4307 4.66952 68.2518 42.8229 70.3267 32.3592 4.07056 11.437 -3.98487 1.06067 -1.87693 11.3153 -2.25029 8.81186 26.1376 5.48698 -5.45423 -1.62958 -5.61567
internal_weight=28832 1382 61 27450 1321 6751 63 762 210 552 6688 1940 20699 4748 8502 234 8268 559 90 469 12197 494 11703
internal_count=28832 1382 61 27450 1321 6751 63 762 210 552 6688 1940 20699 4748 8502 234 8268 559 90 469 12197 494 11703
is_linear=0
shrinkage=0.0659195


Tree=6
num_leaves=25
num_cat=0
split_feature=31 18 25 30 31 7 19 31 8 31 0 31 5 25 19 30 30 0 30 29 5 31 29 18
split_gain=3.82861e+08 2.86871e+08 1.55205e+09 9.83307e+07 8.37369e+07 6.17294e+07 2.45707e+08 5.22072e+07 1.23892e+08 2.54722e+07 5.83234e+07 2.3924e+07 2.34017e+07 1.61035e+07 1.39426e+07 1.23632e+07 1.31964e+07 1.20493e+07 9.08732e+06 8.04015e+06 7.83323e+06 3.40057e+06 1.63296e+07 731255
threshold=0.3572030776104515 220.94000000000003 1355.5000000000002 452.75076355580455 0.13660763894398537 1968.5000000000002 0.012711686171643751 0.13772606986067296 8721.5000000000018 0.24684700542257093 28.500000000000004 0.40735534861484163 712.50000000000011 93.500000000000014 0.015461330730924351 102.68317840053329 102.90984910374827 34.500000000000007 299.45852874706719 203.92962908914146 730.50000000000011 0.070864951743421264 24.24699321565372 747.62000000000012
decision_type=2 2 2 2 2 2 2 2 2 2 2 2 2 2 2 2 2 2 2 2 2 2 2 2
left_child=4 2 18 11 15 6 -5 8 -6 13 -11 17 -13 -9 -7 21 -17 -3 -2 -20 -18 23 -23 -1
right_child=1 3 -4 5 7 14 -8 9 -10 10 -12 12 -14 -15 -16 16 20 -19 19 -21 -22 22 -24 -25
leaf_value=-5.0745216603830654 29.659688346540438 23.196482731323794 570.47789597787062 211.4483966614487 -15.601924408372732 -3.0204059947569317 41.94326156978525 49.976967182568579 171.19045782618386 55.746501326898873 7.8185984037298049 9.7157339901497259 36.770462317554703 1.5369159017360821 38.081601771774622 34.204199482760053 1.1390077181257787 -9.5585971181673379 12.52573888011788 -36.317023009960117 -4.9546648276359049 14.899107260618852 -3.8751485237513466 4.60525757102317
leaf_weight=12962 32 61 27 44 36 80 239 30 27 119 1514 377 220 4966 65 47 2707 244 27 32 1386 214 3396 34
leaf_count=12962 32 61 27 44 36 80 239 30 27 119 1514 377 220 4966 65 47 2707 244 27 32 1386 214 3396 34
internal_value=0.0631412 33.0988 131.603 24.3591 -1.68027 50.3794 68.299 4.73161 64.4553 4.16399 11.3113 12.0123 19.6858 1.82781 15.4049 -3.74854 -0.525652 -3.00745 1.3755 -13.9656 -0.924475 -4.55203 -2.76221 -5.0492
internal_weight=28886 1448 118 1330 27438 428 283 6692 63 6629 1633 902 597 4996 145 20746 4140 305 91 59 4093 16606 3610 12996
internal_count=28886 1448 118 1330 27438 428 283 6692 63 6629 1633 902 597 4996 145 20746 4140 305 91 59 4093 16606 3610 12996
is_linear=0
shrinkage=0.0659195


Tree=7
num_leaves=27
num_cat=0
split_feature=31 18 2 30 30 17 16 31 17 1 31 5 2 27 18 6 1 19 29 31 29 14 6 31 18 31
split_gain=3.34051e+08 2.503e+08 1.43021e+09 8.57946e+07 7.33317e+07 5.51598e+07 8.30645e+07 2.93404e+07 3.95997e+07 1.13537e+08 2.08738e+07 2.04182e+07 1.68858e+07 1.68831e+08 1.10318e+07 1.04044e+07 9.99149e+06 9.15129e+06 7.9884e+06 3.71596e+06 1.08087e+07 4.17783e+07 5.29321e+06 3.3734e+06 638028 595195
threshold=0.3572030776104515 220.94000000000003 10059.500000000002 452.75076355580455 102.68317840053329 0.07442613080454577 1.0000000180025095e-35 0.23113233528920432 0.097433626308737017 27.500000000000004 0.40735534861484163 712.50000000000011 13078.500000000002 33.500000000000007 249.65000000000001 2.2250000000000005 58.500000000000007 0.011885041016715902 256.85836841226075 0.070864951743421264 24.24699321565372 1.0000000180025095e-35 1.3750000000000002 0.46231416513804863 747.62000000000012 0.028810766667199228
decision_type=2 2 2 2 2 2 2 2 2 2 2 2 2 2 2 2 2 2 2 2 2 2 2 2 2 2
left_child=4 2 17 10 19 18 -7 12 16 -10 14 -12 15 -14 -3 -6 -9 23 -5 24 21 -21 -22 -2 25 -1
right_child=1 3 -4 5 7 6 -8 8 9 -11 11 -13 13 -15 -16 -17 -18 -19 -20 20 22 -23 -24 -25 -26 -27
leaf_value=-5.1880200289074487 -33.025444930930597 36.621004134145949 544.22498720873068 4.3584350057350942 2.0649688490110374 83.920599361737544 -10.532615299119637 4.3353210795246069 145.40497054711963 17.641312295934874 9.0752814782877547 34.34659710676992 2.2711595608232891 152.47592410369396 -6.7951967438109202 -3.1607669561032004 20.137385993961288 27.724331565944809 33.451312478928735 1.0997024583213382 2.2269360087715633 85.161872882546561 -4.306267702593078 -1.9846658454221122 4.3017021406582829 -4.2946208339986764
leaf_weight=6462 29 28 27 92 5017 212 50 1540 34 272 377 220 458 35 277 2471 196 30 74 225 636 29 3529 32 34 6500
leaf_count=6462 29 28 27 92 5017 212 50 1540 34 272 377 220 458 35 277 2471 196 30 74 225 636 29 3529 32 34 6500
internal_value=0.0589856 30.917 122.928 22.7534 -1.5695 47.0586 65.8952 2.92257 9.97353 31.8383 11.2205 18.3881 1.11852 12.9355 -2.80919 0.340503 6.11945 -2.08274 17.3279 -4.15486 -2.50354 10.6981 -3.30864 -16.7425 -4.71636 -4.74001
internal_weight=28886 1448 118 1330 27438 428 262 10023 2042 306 902 597 7981 493 305 7488 1736 91 166 17415 4419 254 4165 61 12996 12962
internal_count=28886 1448 118 1330 27438 428 262 10023 2042 306 902 597 7981 493 305 7488 1736 91 166 17415 4419 254 4165 61 12996 12962
is_linear=0
shrinkage=0.0659195


Tree=8
num_leaves=25
num_cat=0
split_feature=31 31 2 31 29 19 19 31 10 31 0 24 7 29 31 5 29 5 8 19 1 29 29 30
split_gain=2.91463e+08 1.81714e+08 1.55381e+09 6.58448e+07 5.95603e+07 5.75032e+07 2.04844e+08 4.56906e+07 1.23103e+08 2.23185e+07 2.00081e+07 9.42222e+07 2.00129e+07 1.72321e+07 9.79684e+06 7.9021e+06 1.0605e+07 4.61611e+06 7.25684e+06 3.65548e+06 2.25112e+06 1.38254e+06 2.67998e+07 745114
threshold=0.3572030776104515 0.37164724248242526 9720.5000000000018 0.13660763894398537 138.57149720781152 0.010944412260544151 0.012711686171643751 0.13772606986067296 1.0000000180025095e-35 0.3647377276890455 28.500000000000004 139.50000000000003 49.500000000000007 391.11187306342157 0.056283756066035064 754.00000000000011 31.033380080220137 365.50000000000006 3781.5000000000005 0.0147270793275337 71.500000000000014 69.192919657467698 69.696086366027956 113.63543893640569
decision_type=2 2 2 2 2 2 2 2 2 2 2 2 2 2 2 2 2 2 2 2 2 2 2 2
left_child=3 2 9 14 17 13 -7 8 -5 -2 11 -9 -12 -6 21 16 -16 19 -19 -3 -17 23 -23 -1
right_child=1 4 -4 7 5 6 -8 10 -10 -11 12 -13 -14 -15 15 20 -18 18 -20 -21 -22 22 -24 -25
leaf_value=-4.5156033047891109 16.149464582268244 -6.8349016166340633 547.90864975927173 -19.709828870718077 6.5824630491289362 154.667538242923 28.849832338970291 6.8813786951119686 166.48651483780515 -46.145747886175116 59.34472064656655 106.52556322678008 2.4700656701675636 -51.035214908092328 11.753497086177559 -3.8699646524481932 -0.58827413900973013 44.295936489212423 7.6483879481503667 6.1751975453759664 12.921081184665415 56.291855459632202 -5.2935769197415663 -6.9078704704133358
leaf_weight=11154 49 143 27 36 67 62 604 398 27 51 27 46 6158 34 326 3957 4204 30 108 273 35 33 441 596
leaf_count=11154 49 143 27 36 67 62 604 398 27 51 27 46 6158 34 326 3957 4204 30 108 273 35 33 441 596
internal_value=0.0551035 28.8791 104.192 -1.46604 21.6383 33.5342 40.5631 4.21971 60.0918 -15.6214 3.68869 17.2054 2.71837 -12.8143 -3.30008 -1.58444 0.299903 5.16869 15.6159 1.70296 -3.72274 -4.49614 -1.00572 -4.63695
internal_weight=28886 1448 127 27438 1321 767 666 6692 63 100 6629 444 6185 101 20746 8522 4530 554 138 416 3992 12224 474 11750
internal_count=28886 1448 127 27438 1321 767 666 6692 63 100 6629 444 6185 101 20746 8522 4530 554 138 416 3992 12224 474 11750
is_linear=0
shrinkage=0.0659195


Tree=9
num_leaves=25
num_cat=0
split_feature=31 31 6 31 31 2 8 19 30 19 17 19 30 2 2 29 24 8 18 30 17 31 29 18
split_gain=2.69546e+08 4.11925e+08 1.11318e+09 6.11214e+07 5.79662e+07 1.04132e+08 1.68668e+08 3.02235e+07 3.77882e+07 2.32972e+07 2.49118e+07 1.72802e+07 1.71888e+07 2.16969e+07 1.84866e+08 1.46134e+07 1.32119e+07 1.39395e+08 1.10582e+07 9.18781e+06 6.46965e+06 2.87261e+06 1.27734e+07 586582
threshold=0.3647377276890455 0.37164724248242526 2.5250000000000008 0.19550206385805211 0.65769896875749045 9089.5000000000018 4970.0000000000009 0.011220824243400552 436.39830687994657 0.034287986683273063 0.099831481092377258 0.036433296437341257 102.68317840053329 13078.500000000002 13233.500000000002 340.47073667735975 139.50000000000003 2450.5000000000005 125.34000000000002 102.90984910374827 0.077929863901086915 0.074436282734339027 24.24699321565372 766.96000000000015
decision_type=2 2 2 2 2 2 2 2 2 2 2 2 2 2 2 2 2 2 2 2 2 2 2 2
left_child=3 2 -2 12 7 20 -7 15 -9 16 11 -11 21 19 -15 -3 18 -18 -5 -14 -6 23 -23 -1
right_child=1 4 -4 9 5 6 -8 8 -10 10 -12 -13 13 14 -16 -17 17 -19 -20 -21 -22 22 -24 -25
leaf_value=-4.1393301859586957 -50.812771791964487 0.7797614604188321 512.51752535796629 28.215783053986588 37.760582253246326 15.367517105643035 248.36795349230667 11.317653466039943 40.165752257999529 50.919509520732547 77.711766025181149 8.4719545139973604 26.167639726283056 181.78512716438195 2.9349716252704439 -43.473925042490087 155.50634473506221 5.3870130004777508 2.9041558762749125 -0.89322387995392838 8.6819625793873083 13.694950350379335 -2.9923346919914584 5.2456427918322621
leaf_weight=13401 35 155 27 77 67 27 27 657 282 53 34 195 55 27 359 41 29 367 2887 6218 66 211 3602 29
leaf_count=13401 35 155 27 77 67 27 27 657 282 53 34 195 55 27 359 41 29 367 2887 6218 66 211 3602 29
internal_value=0.0713212 28.4581 194.519 -1.35503 20.6697 54.6761 131.873 15.0668 19.9814 6.60005 24.7987 17.5438 -2.56716 0.277444 15.4462 -8.47778 5.07264 16.3815 3.56173 -0.655951 23.331 -3.66571 -2.0689 -4.11906
internal_weight=28928 1384 62 27544 1322 187 54 1135 939 3642 282 248 23902 6659 386 196 3360 396 2964 6273 133 17243 3813 13430
internal_count=28928 1384 62 27544 1322 187 54 1135 939 3642 282 248 23902 6659 386 196 3360 396 2964 6273 133 17243 3813 13430
is_linear=0
shrinkage=0.0659195


Tree=10
num_leaves=22
num_cat=0
split_feature=31 31 30 31 31 11 31 7 30 30 0 18 9 31 31 18 2 29 0 11 30
split_gain=2.35182e+08 3.59412e+08 1.16006e+09 5.36512e+07 5.05765e+07 9.68074e+07 4.39351e+07 1.18037e+08 2.68289e+07 3.36622e+07 2.57441e+07 2.0184e+07 1.59561e+07 1.3288e+07 7.63779e+06 5.62279e+06 2.49417e+07 5.37384e+06 1.34753e+06 3.13121e+07 1.03731e+06
threshold=0.3647377276890455 0.37164724248242526 251.72898328403645 0.13660763894398537 0.65769896875749045 29100.505000000001 0.13772606986067296 1869.0000000000002 1177.966770406307 452.75076355580455 54.500000000000007 526.42500000000007 1.0000000180025095e-35 0.24684700542257093 0.056283756066035064 444.34000000000009 11252.000000000002 27.153577647619539 30.500000000000004 25173.500000000004 102.68317840053329
decision_type=2 2 2 2 2 2 2 2 2 2 2 2 2 2 2 2 2 2 2 2 2
left_child=3 2 -2 14 8 10 7 -5 9 -3 -6 13 -13 -8 18 17 -17 -16 19 -1 -20
right_child=1 4 -4 6 5 -7 11 -9 -10 -11 -12 12 -14 -15 15 16 -18 -19 20 -21 -22
leaf_value=-4.4001034342634968 -68.745540522391977 8.828037973431293 506.32291518476143 -23.649212654607556 14.768378987048791 153.52728444702242 0.33261713693976475 162.19407195710238 -39.651554471590863 34.632269437484446 79.747598376314897 25.330680443305418 5.3004394894313851 7.5613828618311691 4.1785250124764284 -0.44761971711609033 29.827784510788192 -2.6606088202844038 -3.9547215016773785 63.583548789212585 -6.2374915157547441
leaf_weight=584 35 792 27 33 120 33 4554 27 39 304 34 302 404 1459 540 1214 131 6614 10710 31 941
leaf_count=584 35 792 27 33 120 33 4554 27 39 304 34 302 404 1459 540 1214 131 6614 10710 31 941
internal_value=0.0666269 26.5822 181.697 -1.2657 19.3072 51.0721 3.82612 59.9833 14.0736 15.9855 29.1154 3.32462 13.8687 2.08661 -2.92799 -1.4092 2.50118 -2.14437 -3.98035 -0.973053 -4.13909
internal_weight=28928 1384 62 27544 1322 187 6779 60 1135 1096 154 6719 706 6013 20765 8499 1345 7154 12266 615 11651
internal_count=28928 1384 62 27544 1322 187 6779 60 1135 1096 154 6719 706 6013 20765 8499 1345 7154 12266 615 11651
is_linear=0
shrinkage=0.0659195


Tree=11
num_leaves=22
num_cat=0
split_feature=31 31 0 31 6 26 11 7 18 0 11 3 5 18 29 24 30 26 25 27 18
split_gain=2.05199e+08 3.13593e+08 1.13489e+09 4.7865e+07 4.69397e+07 6.30304e+07 6.18375e+07 2.1545e+07 1.81367e+07 1.59944e+07 8.55154e+07 1.54783e+07 1.39409e+07 1.93615e+07 5.82231e+07 1.09201e+07 7.66595e+06 3.8858e+06 2.22803e+06 2.7812e+07 1.71065e+06
threshold=0.3647377276890455 0.37164724248242526 42.500000000000007 0.19550206385805211 2.3250000000000006 1.5000000000000002 23344.155000000002 557.50000000000011 190.79000000000005 28.500000000000004 24190.370000000006 1.0000000180025095e-35 730.50000000000011 323.10500000000008 40.181287578976999 219.00000000000003 234.29852881847845 1.5000000000000002 1556.5000000000002 11.500000000000002 610.32000000000005
decision_type=2 2 2 2 2 2 2 2 2 2 2 2 2 2 2 2 2 2 2 2 2
left_child=3 2 -2 12 5 16 -7 -5 -6 10 -9 -10 13 17 -15 -11 -3 -1 20 -20 -14
right_child=1 4 -4 7 8 6 -8 9 11 15 -12 -13 18 14 -16 -17 -18 -19 19 -21 -22
leaf_value=0.10086928301352611 480.48429977828567 12.060522644976928 -86.217417346436363 63.456436083140325 -36.446514281125332 27.503704291044397 78.619804459206719 2.6999875722705786 52.48422958162422 3.7891709468372929 94.235375653475913 5.3179736332890917 -3.8734740775854397 34.254441226135611 1.3344408946981721 45.880736827479637 -15.587887386946138 -3.4642095764113403 58.754864091681739 -2.4056216414281204 0.48150737707411073
leaf_weight=1986 28 75 34 28 43 380 141 229 32 3303 55 547 13124 257 2548 27 104 4013 33 1537 404
leaf_count=1986 28 75 34 28 43 380 141 229 32 3303 55 547 13124 257 2548 27 104 4013 33 1537 404
internal_value=0.0622399 24.83 169.721 -1.18227 18.0346 29.7434 41.3377 5.85747 4.85734 5.41118 20.4275 7.92495 -2.25493 -0.170141 4.35067 4.13049 -4.00334 -2.28397 -3.47061 -1.12 -3.74342
internal_weight=28928 1384 62 27544 1322 700 521 3642 622 3614 284 579 23902 8804 2805 3330 179 5999 15098 1570 13528
internal_count=28928 1384 62 27544 1322 700 521 3642 622 3614 284 579 23902 8804 2805 3330 179 5999 15098 1570 13528
is_linear=0
shrinkage=0.0659195


Tree=12
num_leaves=24
num_cat=0
split_feature=31 31 11 6 26 24 31 31 9 31 27 19 3 17 11 31 26 29 2 29 28 1 30
split_gain=1.79528e+08 2.6553e+08 1.13077e+09 4.23013e+07 5.33483e+07 6.01894e+07 3.89877e+07 3.84108e+07 1.22678e+08 1.49143e+07 1.87272e+07 1.45403e+07 1.10557e+07 9.65549e+06 7.42257e+06 5.97001e+06 5.81396e+06 1.24153e+07 4.8687e+06 4.27356e+06 1.50671e+06 1.68022e+07 595364
threshold=0.3647377276890455 0.37164724248242526 18943.835000000003 2.3250000000000006 1.5000000000000002 109.50000000000001 0.13660763894398537 0.13772606986067296 1.0000000180025095e-35 0.23879522915768478 49.500000000000007 0.0094871824199764514 1.0000000180025095e-35 0.071087192371381211 16061.350000000002 0.059818962735890331 2.5000000000000004 27.153577647619539 8827.5000000000018 223.91063831292951 2015.5000000000002 27.500000000000004 101.95925235385759
decision_type=2 2 2 2 2 2 2 2 2 2 2 2 2 2 2 2 2 2 2 2 2 2 2
left_child=6 2 -2 4 14 -6 15 8 -8 13 -11 19 -13 -9 -3 20 17 -17 -18 -5 22 -22 -1
right_child=1 3 -4 11 5 -7 7 9 -10 10 -12 12 -14 -15 -16 16 18 -19 -20 -21 21 -23 -24
leaf_value=-3.4528889570211665 465.75991393704601 21.444901435931619 -103.76823796064687 -10.387715233756069 20.665221423565857 66.46178504294538 -29.535760004107917 -3.2760478197474616 159.92542178971024 6.8469105217677582 62.130450997780194 47.478555904861174 6.2935687317354772 2.9500975890430365 -10.551858955716476 21.101687352646419 -3.7285761690539512 0.26623812115397227 0.97521182524381678 -41.576088773040972 40.004323474051709 -3.3489383990358164 -5.12330180637169
leaf_weight=11185 28 41 33 60 316 206 33 1672 27 1912 27 30 506 3069 136 130 3687 2820 1291 28 42 517 1011
leaf_count=11185 28 41 33 60 316 206 33 1672 27 1912 27 30 506 3069 136 130 3687 2820 1291 28 42 517 1011
internal_value=0.0329208 23.1972 157.662 16.9972 28.134 38.7384 -1.13615 3.21793 55.7246 2.7463 7.61679 4.52164 8.5989 0.754333 -3.13998 -2.55502 -1.13449 1.18443 -2.50869 -20.3122 -3.43797 -0.0914694 -3.59136
internal_weight=28807 1384 61 1323 699 522 27423 6740 60 6680 1939 624 536 4741 177 20683 7928 2950 4978 88 12755 559 12196
internal_count=28807 1384 61 1323 699 522 27423 6740 60 6680 1939 624 536 4741 177 20683 7928 2950 4978 88 12755 559 12196
is_linear=0
shrinkage=0.0659195


Tree=13
num_leaves=27
num_cat=0
split_feature=29 29 19 30 31 30 17 11 28 19 7 30 29 14 29 31 19 29 6 31 17 31 6 24 29 31
split_gain=1.57257e+08 4.06087e+08 2.2941e+09 4.0887e+07 3.74895e+07 3.4975e+07 3.48449e+07 4.09691e+07 3.74865e+07 1.92674e+07 3.9638e+07 2.19217e+08 1.49401e+07 1.07366e+07 2.04949e+07 1.72523e+07 6.97462e+06 5.35488e+06 1.86888e+06 1.27894e+07 1.5229e+07 5.24357e+06 1.22983e+06 911193 5.80338e+06 843585
threshold=174.8438477285998 193.10995848362512 0.011831499401657153 487.77770458150593 0.41900297218558857 102.68317840053329 0.086719948094844859 25871.440000000006 2010.5000000000002 0.014593726866776452 1994.5000000000002 106.28243933001447 65.041199550481068 1.0000000180025095e-35 291.00218594255756 0.3572030776104515 0.0023566800633296504 27.153577647619539 1.675 0.15292081797482679 0.076402586749585069 0.07732381109817453 2.3250000000000006 128.50000000000003 19.125269651148304 0.13477404782544344
decision_type=2 2 2 2 2 2 2 2 2 2 2 2 2 2 2 2 2 2 2 2 2 2 2 2 2 2
left_child=5 2 -2 22 13 18 8 -8 -6 16 12 -12 -11 15 -15 -3 -7 -18 19 21 -21 -1 -4 25 -25 -20
right_child=1 4 3 -5 6 9 7 -9 -10 10 11 -13 -14 14 -16 -17 17 -19 23 20 -22 -23 -24 24 -26 -27
leaf_value=-3.3838614008197667 640.38204055549545 -1.8733207533687273 0.4782808192723661 84.725855600608014 -0.54945909797796944 25.908714826293583 70.892930290333169 2.4905826888932068 58.824038998182658 -2.641748440142123 163.79150773214425 9.8032080436958164 4.5326524564978277 -6.6336586382816449 50.47011779958865 -34.319023630595403 16.343061887011984 -2.4687256597189182 -3.1945755169470327 -4.5213750652347953 65.490266078504533 3.7192958294029559 -12.837326472351881 12.98303943313222 -2.7757212836193834 -5.6165224111212071
leaf_weight=2174 30 439 81 27 289 39 104 60 55 1936 42 922 3619 72 44 85 67 3527 12434 27 27 570 48 110 1321 658
leaf_count=2174 30 439 81 27 289 39 104 60 55 1936 42 922 3619 72 44 85 67 3527 12434 27 27 570 48 110 1321 658
internal_value=0.0307544 22.1334 112.489 10.9634 7.49363 -1.04248 20.8643 45.8681 8.94373 2.02973 4.17356 16.5126 2.03227 -3.11941 15.027 -7.13659 -1.81714 -2.11802 -2.84313 -1.28313 30.4857 -1.90835 -4.47649 -3.14368 -1.56434 -3.3163
internal_weight=28807 1334 186 156 1148 27473 508 164 344 10152 6519 964 5555 640 116 524 3633 3594 17321 2798 54 2744 129 14523 1431 13092
internal_count=28807 1334 186 156 1148 27473 508 164 344 10152 6519 964 5555 640 116 524 3633 3594 17321 2798 54 2744 129 14523 1431 13092
is_linear=0
shrinkage=0.0659195


Tree=14
num_leaves=26
num_cat=0
split_feature=31 18 31 31 30 7 31 2 0 11 18 5 18 13 30 30 8 17 4 29 28 19 25 25 18
split_gain=1.42019e+08 2.62189e+08 1.3487e+09 1.74627e+08 3.82575e+07 5.63741e+07 3.08978e+07 2.12926e+07 7.56441e+07 8.57368e+07 2.8253e+07 1.33707e+07 1.6931e+07 4.31557e+07 1.30713e+07 1.1088e+07 9.89688e+06 9.09651e+06 8.35126e+06 7.24154e+06 3.79807e+06 2.69787e+06 1.22676e+06 2.44978e+07 930811
threshold=0.3647377276890455 220.94000000000003 0.40735534861484163 0.37164724248242526 452.75076355580455 1968.5000000000002 0.23113233528920432 7250.5000000000009 28.500000000000004 19171.145000000004 146.01000000000002 730.50000000000011 302.86500000000007 1.5000000000000002 196.75945519246469 725.05349799939916 3499.5000000000005 0.10257329948865097 1.0000000180025095e-35 90.309332957949906 2017.5000000000002 0.0087824866171920032 1556.5000000000002 1560.5000000000002 610.32000000000005
decision_type=2 2 2 2 2 2 2 2 2 2 2 2 2 2 2 2 2 2 2 2 2 2 2 2 2
left_child=6 2 -2 18 14 -6 11 16 9 -9 -10 12 20 -14 -5 21 17 -8 -3 -18 -1 -4 24 -24 -13
right_child=1 3 15 4 5 -7 7 8 10 -11 -12 22 13 -15 -16 -17 19 -19 -20 -21 -22 -23 23 -25 -26
leaf_value=-2.2719398869256642 522.95103034880617 -126.18185898376905 -11.055389398538791 26.422468352698154 51.124457529104646 -0.053176058580100154 -9.2044476432986695 20.147586141320645 64.077042254737108 170.70710357061375 6.335268630744312 -3.1885670518817189 2.2946743223453594 41.345968649663213 4.9500699461617987 -47.14557133822457 -3.7797362102504772 -51.903852790276161 -75.22154654682447 9.312448866235874 8.5288228619785098 18.147576632389779 49.131454967092104 -2.4784506796220667 -0.043667052151009404
leaf_weight=5817 27 29 27 152 274 142 110 42 38 27 1186 13231 3872 127 650 28 444 27 27 313 145 28 41 1581 422
leaf_count=5817 27 29 27 152 274 142 110 42 38 27 1186 13231 3872 127 650 28 444 27 27 313 145 28 41 1581 422
internal_value=0.0287332 20.6316 118.274 12.2007 17.4339 33.6553 -1.01106 6.50527 11.9137 79.066 8.12803 -1.66244 0.216529 3.53489 9.01972 -13.3795 -1.31703 -17.6204 -101.616 1.63355 -2.00925 3.81167 -2.88774 -1.17381 -3.09136
internal_weight=28807 1384 110 1274 1218 416 27423 2187 1293 69 1224 25236 9961 3999 802 83 894 137 56 757 5962 55 15275 1622 13653
internal_count=28807 1384 110 1274 1218 416 27423 2187 1293 69 1224 25236 9961 3999 802 83 894 137 56 757 5962 55 15275 1622 13653
is_linear=0
shrinkage=0.0659195


end of trees

feature_importances:
oof_cs=86
oof_lc=40
Premium_Amt_Current_Yr=31
oof_halc=29
Ratio_Premium_Car_Value=20
Age_at_license=15
Days_Driving_At_Start_Date=15
Age=14
Power_Wt_Ratio=14
Yr_Vehicle_Registration=13
Market_Value_EOY19=11
Customer_Loyalty=10
Contract_Duration=8
Cylinder_Capacity=8
Age_at_contract=6
Vehicle_Power_HP=5
Vehicle_Wt_Kg=5
Years_Associates=5
Years_Driving=5
Car_Age_Contract=3
Half_Yearly_Payment_Method=2
Max_Product_Simultaneous_Held=2
Multiple_Drivers_Regular_Flag=2
Time_Since_Last_Renewal=2
Car_Age_Contract_Cat_Standard=1
Issurance_Broker_Agent_Channel=1
Max_Policy_Simultaneous_Force=1
Policies_Terminated_Non_Payment=1

parameters:
[boosting: gbdt]
[objective: regression]
[metric: l2]
[tree_learner: serial]
[device_type: cpu]
[data_sample_strategy: bagging]
[data: ]
[valid: ]
[num_iterations: 1340]
[learning_rate: 0.0659195]
[num_leaves: 27]
[num_threads: 0]
[seed: 0]
[deterministic: 0]
[force_col_wise: 0]
[force_row_wise: 0]
[histogram_pool_size: -1]
[max_depth: 5]
[min_data_in_leaf: 27]
[min_sum_hessian_in_leaf: 0.000190817]
[bagging_fraction: 0.963794]
[pos_bagging_fraction: 1]
[neg_bagging_fraction: 1]
[bagging_freq: 3]
[bagging_seed: 3]
[bagging_by_query: 0]
[feature_fraction: 0.984182]
[feature_fraction_bynode: 1]
[feature_fraction_seed: 2]
[extra_trees: 0]
[extra_seed: 6]
[early_stopping_round: 0]
[early_stopping_min_delta: 0]
[first_metric_only: 0]
[max_delta_step: 0]
[lambda_l1: 0.033974]
[lambda_l2: 0.00233896]
[linear_lambda: 0]
[min_gain_to_split: 0.0505393]
[drop_rate: 0.1]
[max_drop: 50]
[skip_drop: 0.5]
[xgboost_dart_mode: 0]
[uniform_drop: 0]
[drop_seed: 4]
[top_rate: 0.2]
[other_rate: 0.1]
[min_data_per_group: 100]
[max_cat_threshold: 32]
[cat_l2: 10]
[cat_smooth: 10]
[max_cat_to_onehot: 4]
[top_k: 20]
[monotone_constraints: ]
[monotone_constraints_method: basic]
[monotone_penalty: 0]
[feature_contri: ]
[forcedsplits_filename: ]
[refit_decay_rate: 0.9]
[cegb_tradeoff: 1]
[cegb_penalty_split: 0]
[cegb_penalty_feature_lazy: ]
[cegb_penalty_feature_coupled: ]
[path_smooth: 0]
[interaction_constraints: ]
[verbosity: 1]
[saved_feature_importance_type: 0]
[use_quantized_grad: 0]
[num_grad_quant_bins: 4]
[quant_train_renew_leaf: 0]
[stochastic_rounding: 1]
[linear_tree: 0]
[max_bin: 457]
[max_bin_by_feature: ]
[min_data_in_bin: 3]
[bin_construct_sample_cnt: 200000]
[data_random_seed: 1]
[is_enable_sparse: 1]
[enable_bundle: 1]
[use_missing: 1]
[zero_as_missing: 0]
[feature_pre_filter: 1]
[pre_partition: 0]
[two_round: 0]
[header: 0]
[label_column: ]
[weight_column: ]
[group_column: ]
[ignore_column: ]
[categorical_feature: ]
[forcedbins_filename: ]
[precise_float_parser: 0]
[parser_config_file: ]
[objective_seed: 5]
[num_class: 1]
[is_unbalance: 0]
[scale_pos_weight: 1]
[sigmoid: 1]
[boost_from_average: 1]
[reg_sqrt: 0]
[alpha: 0.9]
[fair_c: 1]
[poisson_max_delta_step: 0.7]
[tweedie_variance_power: 1.4038]
[lambdarank_truncation_level: 30]
[lambdarank_norm: 1]
[label_gain: ]
[lambdarank_position_bias_regularization: 0]
[eval_at: ]
[multi_error_top_k: 1]
[auc_mu_weights: ]
[num_machines: 1]
[local_listen_port: 12400]
[time_out: 120]
[machine_list_filename: ]
[machines: ]
[gpu_platform_id: -1]
[gpu_device_id: -1]
[gpu_use_dp: 0]
[num_gpu: 1]

end of parameters

pandas_categorical:[]
