tree
version=v4
num_class=1
num_tree_per_iteration=1
label_index=0
max_feature_idx=31
objective=regression
feature_names=Age Age_at_contract Age_at_license Car_Age_Contract Car_Age_Contract_Cat_Standard Contract_Duration Customer_Loyalty Cylinder_Capacity Days_Driving_At_Start_Date Half_Yearly_Payment_Method Issurance_Broker_Agent_Channel Market_Value_EOY19 Max_Policy_Simultaneous_Force Max_Product_Simultaneous_Held Multiple_Drivers_Regular_Flag Non_Continuation_Insurance_Flag Policies_Terminated_Non_Payment Power_Wt_Ratio Premium_Amt_Current_Yr Ratio_Premium_Car_Value Rural_Urban_Flag Time_Since_Last_Renewal Total_Policies_Entity Vehicle_Doors Vehicle_Power_HP Vehicle_Wt_Kg Years_Associates Years_Driving Yr_Vehicle_Registration oof_lc oof_halc oof_cs
feature_infos=[19:101] [18:91] [6575:23602] [0:68] [0:1] [32:14244] [1:15.550000000000001] [49:6788] [-4732:25943] [0:1] [0:1] [270.45999999999998:220675.79999999999] [1:17] [1:4] [0:1] [0:1] [0:7] [0:2.5172413793103448] [40.200000000000003:2143.8600000000001] [0.00082567981271379997:0.90841529246468999] [0:1] [1:4] [1:17] [0:6] [0:580] [43:7300] [1:40] [1:77] [1950:2018] [-92.595562137120012:1976.0375585246741] [-111.64359734025822:2760.0999408713242] [-0.063700694278060688:0.86709526902614686]
tree_sizes=2478 2498 2410 2229 2319 2154 2244 2331 2327

Tree=0
num_leaves=27
num_cat=0
split_feature=31 18 8 31 30 31 31 31 31 18 17 27 19 5 19 1 8 31 31 28 2 25 14 31 31 13
split_gain=1.04214e+09 3.05227e+08 1.60571e+09 2.04776e+08 1.73798e+08 9.20355e+07 2.28774e+08 7.84586e+07 5.93049e+07 1.09676e+08 4.23846e+07 1.23803e+08 3.30947e+07 3.23118e+07 3.95918e+07 3.07174e+07 2.12595e+07 1.72948e+07 1.05704e+07 7.40364e+06 1.09775e+07 7.18121e+06 2.91973e+06 961048 1.97297e+06 1.25595e+06
threshold=0.35705172759285281 221.39000000000001 4722.5000000000009 0.10508401256649096 486.95732333564075 0.52097691350714093 0.55437891532508121 0.23451788400466697 0.1057878284887591 334.82500000000005 0.097534773578808118 8.5000000000000018 0.021300339012465554 365.50000000000006 0.022282485395038854 67.500000000000014 13172.500000000002 0.36478708919917818 0.059101502574735398 2016.5000000000002 6817.5000000000009 1286.5000000000002 1.0000000180025095e-35 0.041912914681718857 0.043197929337235548 2.5000000000000004
decision_type=2 2 2 2 2 2 2 2 2 2 2 2 2 2 2 2 2 2 2 2 2 2 2 2 2 2
left_child=3 2 -2 18 13 12 -7 8 9 -5 16 -12 -6 17 -15 -10 -9 -3 23 22 -21 -4 -20 25 -25 -1
right_child=1 4 21 7 5 6 -8 10 15 -11 11 -13 -14 14 -16 -17 -18 -19 19 20 -22 -23 -24 24 -26 -27
leaf_value=121.26879127853992 731.34079938888317 193.15859460833133 130.6991999467696 120.92191091103375 151.16152019232027 385.52371369694862 208.97242202472404 139.94352569532157 129.97862806851722 295.65088912678107 303.98386342899045 155.68547204423567 210.6022579968951 161.69298648734502 214.66534108563832 152.38951842144618 164.08112147538992 145.9349581411002 123.8847280898266 153.06718728939347 126.42025981508607 169.79345762132826 128.34084388840853 128.18884442798756 122.15438426358877 132.43134691638522
leaf_weight=9571 27 36 49 37 115 37 231 1600 6550 27 27 260 63 243 82 277 176 527 4760 99 209 35 738 257 2806 44
leaf_count=9571 27 36 49 37 115 37 231 1600 6550 27 27 260 63 243 82 277 176 527 4760 99 209 35 738 257 2806 44
internal_value=129.548 184.111 289.138 126.674 175.371 208.945 233.349 134.856 131.48 194.639 146.134 169.638 172.2 158.509 175.059 130.888 142.336 148.955 122.711 125.04 134.985 146.989 124.483 121.644 122.661 121.32
internal_weight=28883 1445 111 27438 1334 446 268 8954 6891 64 2063 287 178 888 325 6827 1776 563 18484 5806 308 84 5498 12678 3063 9615
internal_count=28883 1445 111 27438 1334 446 268 8954 6891 64 2063 287 178 888 325 6827 1776 563 18484 5806 308 84 5498 12678 3063 9615
is_linear=0
shrinkage=1


Tree=1
num_leaves=27
num_cat=0
split_feature=31 31 2 31 31 19 17 31 5 19 31 11 0 2 1 8 28 4 31 31 29 14 28 31 31 13
split_gain=9.09282e+08 3.06515e+08 1.73942e+09 1.78668e+08 1.01699e+08 1.2668e+08 8.55677e+07 6.92855e+07 5.95528e+07 7.66402e+07 5.10961e+07 1.06287e+08 4.99976e+07 1.19339e+08 4.13164e+07 1.87437e+07 1.1788e+07 9.75701e+06 9.34545e+06 9.22702e+06 1.60246e+07 3.93038e+07 7.88876e+06 868932 1.7099e+06 1.09583e+06
threshold=0.35705172759285281 0.37184886136398848 9792.5000000000018 0.10508401256649096 0.52097691350714093 0.038125003957063405 0.095260557053009856 0.24636644879144873 714.50000000000011 0.021300339012465554 0.1057878284887591 16061.350000000002 28.500000000000004 7278.5000000000009 67.500000000000014 12768.500000000002 2005.5000000000002 1.0000000180025095e-35 0.36478708919917818 0.059544558461879664 24.783964244489805 1.0000000180025095e-35 2016.5000000000002 0.041912914681718857 0.043197929337235548 2.5000000000000004
decision_type=2 2 2 2 2 2 2 2 2 2 2 2 2 2 2 2 2 2 2 2 2 2 2 2 2 2
left_child=3 2 17 19 8 6 -6 10 16 -10 11 -5 13 -9 -12 -14 -3 -2 -19 23 21 -21 -22 25 -25 -1
right_child=1 4 -4 7 5 -7 -8 12 9 -11 14 -13 15 -15 -16 -17 -18 18 -20 20 22 -23 -24 24 -26 -27
leaf_value=-7.6464984225657284 -5.0729996182146664 8.7176236639985483 618.08206550008401 160.32633890728698 45.510127060153032 199.54528823540417 123.17225638614499 1.0364054097560456 31.715339837391184 125.16184060960039 0.70599291064744663 -11.681288501792952 11.062140630806233 132.15528437921998 26.146191230538854 32.267811360954013 29.214710448973754 65.531040807853117 12.07344174102683 1.0979099213810219 -5.6162294921333134 67.036207854294702 5.2987569934852203 -1.182612042989819 -6.795041126168524 2.780237963895793
leaf_weight=9571 40 387 27 27 468 28 71 70 136 53 6911 37 1358 53 289 209 178 27 30 309 5082 45 305 257 2871 44
leaf_count=9571 40 387 27 27 468 28 71 70 136 53 6911 37 1358 53 289 209 178 27 30 309 5082 45 305 257 2871 44
internal_value=0.0866747 51.0531 150.146 -2.59743 41.7512 62.843 55.7407 5.04534 25.8902 57.9212 2.2484 60.8876 17.0672 57.5362 1.72714 13.8905 15.1752 19.884 37.3972 -6.29974 -4.10547 9.48029 -4.99824 -7.2883 -6.33392 -7.59878
internal_weight=28883 1445 124 27438 1321 567 539 8954 754 189 7264 64 1690 123 7200 1567 565 97 57 18484 5741 354 5387 12743 3128 9615
internal_count=28883 1445 124 27438 1321 567 539 8954 754 189 7264 64 1690 123 7200 1567 565 97 57 18484 5741 354 5387 12743 3128 9615
is_linear=0
shrinkage=0.0659195


Tree=2
num_leaves=26
num_cat=0
split_feature=31 18 2 31 30 31 31 31 31 17 8 18 12 29 2 1 11 31 29 14 29 28 31 31 13
split_gain=7.93359e+08 2.73707e+08 1.52569e+09 1.55889e+08 1.49092e+08 7.51624e+07 2.00287e+08 6.07913e+07 4.51908e+07 1.05709e+08 3.87584e+07 3.7087e+07 2.96887e+07 2.73618e+07 3.2062e+07 2.26791e+07 1.73184e+07 8.05302e+06 1.43008e+07 3.20386e+07 6.87969e+06 6.84205e+06 729783 1.50286e+06 956122
threshold=0.35705172759285281 221.39000000000001 9225.5000000000018 0.10508401256649096 486.95732333564075 0.52097691350714093 0.55437891532508121 0.23451788400466697 0.1057878284887591 0.081043321913647715 17119.500000000004 433.52500000000003 1.5000000000000002 311.58408570955231 9792.5000000000018 67.500000000000014 12590.600000000002 0.059101502574735398 24.783964244489805 1.0000000180025095e-35 215.99127863115055 2016.5000000000002 0.041912914681718857 0.043197929337235548 2.5000000000000004
decision_type=2 2 2 2 2 2 2 2 2 2 2 2 2 2 2 2 2 2 2 2 2 2 2 2 2
left_child=3 2 20 17 13 12 -7 8 9 -5 11 -9 -6 16 -15 -10 -3 22 19 -19 -2 -20 24 -24 -1
right_child=1 4 -4 7 5 6 -8 10 15 -11 -12 -13 -14 14 -16 -17 -18 18 21 -21 -22 -23 23 -25 -26
leaf_value=-7.142445080534344 -8.1549189941910658 53.805507132641267 578.18681916396247 -15.497029478409837 71.541815994232891 234.94722343319384 69.753282626561059 8.5584837245628815 0.44265207261112294 156.04259970928433 89.016797286667185 29.448410908799964 16.134357239226187 34.342887660241388 114.70313150235984 19.699248348518037 16.338761459862514 1.2566240431892486 -5.2648227317385459 59.612077568745626 29.844479870413135 4.8658525287033898 -1.104655704832761 -6.3713582618060967 2.5969763692157839
leaf_weight=9571 47 58 27 37 68 37 231 1548 6550 27 30 485 110 94 28 277 708 314 5138 47 37 307 257 2806 44
leaf_count=9571 47 58 27 37 68 37 231 1548 6550 27 30 485 110 94 28 277 708 314 5138 47 37 307 257 2806 44
internal_value=0.0809701 47.6878 147.145 -2.42621 39.4119 70.5077 92.5618 4.71276 1.74085 56.8743 14.6397 13.5421 37.3019 23.7939 52.7881 1.22398 19.1758 -5.88446 -3.85125 8.85449 8.58325 -4.69363 -6.81559 -5.92946 -7.09787
internal_weight=28883 1445 111 27438 1334 446 268 8954 6891 64 2063 2033 178 888 122 6827 766 18484 5806 361 84 5445 12678 3063 9615
internal_count=28883 1445 111 27438 1334 446 268 8954 6891 64 2063 2033 178 888 122 6827 766 18484 5806 361 84 5445 12678 3063 9615
is_linear=0
shrinkage=0.0659195


Tree=3
num_leaves=24
num_cat=0
split_feature=31 31 29 31 31 19 17 31 5 19 0 24 31 2 29 18 21 31 29 18 28 13 31
split_gain=6.94291e+08 7.16302e+08 1.36986e+09 1.40577e+08 8.21599e+07 1.07023e+08 7.30046e+07 5.66191e+07 4.99447e+07 6.05041e+07 4.79792e+07 8.02492e+07 3.82986e+07 1.09575e+08 3.17326e+07 1.91089e+07 1.11176e+07 7.7513e+06 1.0225e+07 2.56436e+07 7.88701e+06 646912 465205
threshold=0.36478708919917818 0.37184886136398848 101.67860934915105 0.10508401256649096 0.52097691350714093 0.037621514763285506 0.095260557053009856 0.24636644879144873 714.50000000000011 0.021300339012465554 30.500000000000004 135.50000000000003 0.1057878284887591 7890.5000000000009 120.44621786795746 110.855 2.5000000000000004 0.056340019745958876 24.783964244489805 323.38500000000005 2016.5000000000002 2.5000000000000004 0.041912914681718857
decision_type=2 2 2 2 2 2 2 2 2 2 2 2 2 2 2 2 2 2 2 2 2 2 2
left_child=3 2 -2 17 8 6 -6 12 16 -10 11 -9 13 -5 -14 -12 -3 21 19 -19 -20 22 -1
right_child=1 4 -4 7 5 -7 -8 10 9 -11 15 -13 14 -15 -16 -17 -18 18 20 -21 -22 -23 -24
leaf_value=-6.6879857926880346 -16.478089520560349 6.4629337432136564 616.62948523568821 -20.910337997341305 38.208820615040814 175.70658831648046 109.54028346015204 27.757358428486686 27.000359694867253 108.76425672352423 65.228421439206073 142.97689129018812 0.42914164226901186 153.73754040400064 18.722236342176302 10.27405932468797 28.620101965302048 -5.2157894134123604 -4.8898520124952922 29.255140071602959 5.6910639828997951 0.8235575974556929 -5.6926591045218782
leaf_weight=9539 33 437 27 37 465 30 72 172 138 55 28 31 6714 27 439 1519 127 280 5547 141 324 53 2596
leaf_count=9539 33 437 27 37 465 30 72 172 138 55 28 31 6714 27 439 1519 127 280 5547 141 324 53 2596
internal_value=0.109991 45.6648 268.433 -2.18709 35.5691 54.5429 47.7733 4.58545 21.3573 50.302 15.2227 45.3539 2.00608 52.7721 1.55185 11.2688 11.4523 -5.47331 -3.59432 6.3292 -4.30593 -6.44332 -6.47506
internal_weight=28831 1384 60 27447 1324 567 537 8967 757 193 1750 203 7217 64 7153 1547 564 18480 6292 421 5871 12188 12135
internal_count=28831 1384 60 27447 1324 567 537 8967 757 193 1750 203 7217 64 7153 1547 564 18480 6292 421 5871 12188 12135
is_linear=0
shrinkage=0.0659195


Tree=4
num_leaves=25
num_cat=0
split_feature=31 31 2 31 30 18 7 31 0 2 31 28 1 5 31 8 30 18 31 29 18 28 13 0
split_gain=6.05776e+08 6.24986e+08 1.26119e+09 1.22655e+08 1.08225e+08 1.04714e+08 7.44488e+07 4.94007e+07 4.18625e+07 7.62649e+07 3.34162e+07 1.05592e+08 3.06426e+07 3.05127e+07 3.18819e+07 1.73613e+07 1.65826e+07 1.33177e+07 6.76306e+06 8.92143e+06 2.23742e+07 6.88147e+06 564436 427040
threshold=0.36478708919917818 0.37184886136398848 7997.5000000000009 0.10508401256649096 486.95732333564075 309.21500000000009 1977.0000000000002 0.24636644879144873 30.500000000000004 7305.5000000000009 0.1057878284887591 2003.5000000000002 67.500000000000014 714.50000000000011 0.65654666856402233 12768.500000000002 895.64676999221012 241.59500000000003 0.056340019745958876 24.783964244489805 323.38500000000005 2016.5000000000002 2.5000000000000004 30.500000000000004
decision_type=2 2 2 2 2 2 2 2 2 2 2 2 2 2 2 2 2 2 2 2 2 2 2 2
left_child=3 2 -2 18 13 16 -7 10 9 -9 11 -5 -12 17 -15 -10 -6 -3 22 20 -20 -21 23 -1
right_child=1 4 -4 7 5 6 -8 8 15 -11 12 -13 -14 14 -16 -17 -18 -19 19 21 -22 -23 -24 -25
leaf_value=-4.3275402733158588 -22.637168708027232 -14.201392402890086 584.84025003357874 148.40703485736046 32.389683904091058 104.09313625782173 34.770322415991657 14.633999764913355 7.6675104532505074 101.23529900276594 0.55787573527403045 -23.036935170968189 22.326130589883086 29.735279927229193 105.35137463563099 27.58639783227007 -9.9410974375325676 14.484232047607472 -4.8719699860369969 -4.5675153820014964 27.326688277668765 5.3159139879635697 0.76927105490236303 -6.1371015036224206
leaf_weight=596 33 82 27 27 118 206 100 138 1325 65 6860 37 293 236 27 222 61 494 280 5547 141 324 53 11539
leaf_count=596 33 82 27 27 118 206 100 138 1325 65 6860 37 293 236 27 222 61 494 280 5547 141 324 53 11539
internal_value=0.102749 42.6547 250.74 -2.04291 33.2244 58.0124 81.4391 4.28319 14.2193 42.3643 1.87385 49.2937 1.44955 18.8951 37.499 10.526 17.9642 10.4005 -5.11251 -3.35739 5.91199 -4.02208 -6.01858 -6.04823
internal_weight=28831 1384 60 27447 1324 485 306 8967 1750 203 7217 64 7153 839 263 1547 179 576 18480 6292 421 5871 12188 12135
internal_count=28831 1384 60 27447 1324 485 306 8967 1750 203 7217 64 7153 839 263 1547 179 576 18480 6292 421 5871 12188 12135
is_linear=0
shrinkage=0.0659195


Tree=5
num_leaves=23
num_cat=0
split_feature=31 31 29 31 30 18 1 31 8 31 18 18 17 5 11 19 29 30 18 31 29 23
split_gain=5.28546e+08 5.45312e+08 1.19687e+09 1.08226e+08 9.44268e+07 9.13641e+07 6.64618e+07 4.10594e+07 3.72632e+07 2.97983e+07 1.04797e+08 2.7624e+07 6.12299e+07 2.66227e+07 3.12738e+07 2.61367e+07 1.79979e+07 1.44685e+07 1.16198e+07 5.93804e+06 1.57321e+07 3.075e+06
threshold=0.36478708919917818 0.37184886136398848 101.67860934915105 0.22724949048194132 486.95732333564075 309.21500000000009 50.500000000000007 0.10508401256649096 17609.500000000004 0.1057878284887591 334.82500000000005 385.68000000000006 0.097534773578808118 714.50000000000011 12876.840000000002 0.0048124814187748511 82.204168684374494 895.64676999221012 241.59500000000003 0.073292085597822396 24.783964244489805 5.5000000000000009
decision_type=2 2 2 2 2 2 2 2 2 2 2 2 2 2 2 2 2 2 2 2 2 2
left_child=3 2 -2 7 13 17 -7 19 11 10 -9 15 -13 18 -15 -5 -11 -6 -3 21 -21 -1
right_child=1 4 -4 8 5 6 -8 9 -10 16 -12 12 -14 14 -16 -17 -18 -19 -20 20 -22 -23
leaf_value=-5.4240022428134251 -32.100619320998007 -13.26527039471282 559.68113827791888 65.481065214655871 30.254614182051107 56.706466011907914 124.81234485102813 -26.013274080845761 87.133911574738718 -0.67854085628584504 144.78439849456112 12.528682521108509 62.042461374861183 102.2292565301785 27.337869445961314 4.3444353886408047 8.7067436917254497 -9.2858102854589184 13.529443082195259 14.812774508114101 -3.4844232737485767 9.7838092999683344
leaf_weight=14745 33 82 27 31 118 219 87 37 28 5468 27 657 130 27 236 1529 1060 61 494 217 3460 58
leaf_count=14745 33 82 27 31 118 219 87 37 28 5468 27 657 130 27 236 1529 1060 61 494 217 3460 58
internal_value=0.0959818 39.843 234.213 -1.90824 31.0343 54.1883 76.0707 -3.18225 11.5409 1.28426 46.0446 10.639 20.7077 17.6496 35.0272 5.55943 0.84542 16.78 9.71488 -4.77549 -2.4046 -5.36441
internal_weight=28831 1384 60 27447 1324 485 306 25072 2375 6592 64 2347 787 839 263 1560 6528 179 576 18480 3677 14803
internal_count=28831 1384 60 27447 1324 485 306 25072 2375 6592 64 2347 787 839 263 1560 6528 179 576 18480 3677 14803
is_linear=0
shrinkage=0.0659195


Tree=6
num_leaves=24
num_cat=0
split_feature=31 18 25 31 30 11 29 31 31 8 0 7 30 19 6 12 31 31 8 29 31 31 13
split_gain=4.15199e+08 2.43445e+08 1.41232e+09 8.7067e+07 7.60207e+07 7.70516e+07 6.62998e+07 3.26485e+07 3.08773e+07 2.85905e+07 2.55709e+07 1.07432e+08 2.3884e+07 2.21923e+07 1.94313e+07 7.77352e+07 1.73229e+07 1.40241e+07 1.81415e+06 1.08522e+06 1.06031e+06 1.26842e+06 616188
threshold=0.35705172759285281 221.39000000000001 1355.5000000000002 0.22724949048194132 486.95732333564075 11755.000000000002 143.30587896832259 0.07454057129206694 0.40842913679566323 17236.500000000004 28.500000000000004 1994.5000000000002 197.30304333374369 0.0054376511750925012 2.2250000000000005 2.5000000000000004 0.074902338937439625 0.36478708919917818 9735.5000000000018 195.1498367470717 0.041912914681718857 0.043197929337235548 2.5000000000000004
decision_type=2 2 2 2 2 2 2 2 2 2 2 2 2 2 2 2 2 2 2 2 2 2 2
left_child=3 2 18 7 8 -6 -7 20 17 10 11 -5 -10 -12 15 -9 -16 -3 19 -2 22 -22 -1
right_child=1 4 -4 9 5 6 -8 14 12 -11 13 -13 -14 -15 16 -17 -18 -19 -20 -21 21 -23 -24
leaf_value=-5.4696974245620886 -10.776117694298589 31.326372410793052 514.80711141294773 11.911779854831021 156.76935822982074 -5.1954910766058626 56.69549376011441 0.75642572372559136 58.768347283260631 77.674700334247916 62.796310517065955 154.52947393816481 19.005405150050219 6.6135129846608169 49.097723242102191 39.619313373983289 -3.8680823295586828 -8.3024571175186157 0.74180311423720169 -29.299527492392322 0.31664110431442521 -4.5006849267205702 2.1779173444553739
leaf_weight=9565 28 46 30 153 27 99 313 5574 75 27 31 27 526 2098 27 233 4262 248 28 27 249 5146 46
leaf_count=9565 28 46 30 153 27 99 313 5574 75 27 31 27 526 2098 27 233 4262 248 28 27 249 5146 46
internal_value=-0.120211 34.2948 127.194 -1.93516 26.4252 48.894 41.8237 -3.06794 15.4041 10.2374 9.44875 33.3062 23.9677 7.43165 -0.169602 2.31578 -3.53463 -2.10182 -12.917 -19.8703 -5.01794 -4.27835 -5.43309
internal_weight=28885 1447 113 27438 1334 439 412 25102 895 2336 2309 180 601 2129 10096 5807 4289 294 83 55 15006 5395 9611
internal_count=28885 1447 113 27438 1334 439 412 25102 895 2336 2309 180 601 2129 10096 5807 4289 294 83 55 15006 5395 9611
is_linear=0
shrinkage=0.0659195


Tree=7
num_leaves=25
num_cat=0
split_feature=31 18 18 31 31 11 29 17 1 17 31 31 5 6 12 31 18 18 11 6 27 31 3 18
split_gain=3.62265e+08 2.1241e+08 1.37298e+09 7.60828e+07 6.72208e+07 9.48438e+07 6.89013e+07 2.97618e+07 8.61976e+07 3.41802e+07 2.92376e+07 2.70961e+07 2.29247e+07 1.75282e+07 6.52834e+07 1.35492e+07 1.13946e+07 1.04089e+07 3.6384e+06 3.52778e+06 1.34988e+06 859100 1.05526e+06 153769
threshold=0.35705172759285281 221.39000000000001 201.38500000000002 0.23050256640891101 0.52097691350714093 11894.500000000002 143.30587896832259 0.097534773578808118 27.500000000000004 0.10003335557038028 0.073292085597822396 0.38867381413991703 365.50000000000006 2.2250000000000005 2.5000000000000004 0.36478708919917818 108.72000000000001 563.67500000000007 16895.725000000002 2.3250000000000006 23.500000000000004 0.028924522294194763 14.500000000000002 774.2850000000002
decision_type=2 2 2 2 2 2 2 2 2 2 2 2 2 2 2 2 2 2 2 2 2 2 2 2
left_child=3 2 19 10 11 -6 -7 16 -9 -10 21 15 -13 14 -12 -3 -5 -18 -15 -2 -21 23 -23 -1
right_child=1 4 -4 7 5 6 -8 8 9 -11 13 12 -14 18 -16 -17 17 -19 -20 20 -22 22 -24 -25
leaf_value=-5.2656090931052351 6.6100136370549114 21.543823349741871 519.13711705420565 49.357387284487238 163.15215430159606 -4.8164610985006684 50.678316597651047 137.08897619602936 74.081084725219 8.2449664935169285 0.75150551606470695 10.759093733468774 38.596982117021589 -5.6698959457882854 35.567466778072067 -16.123253936179729 4.6537665981770795 21.537160445689121 -1.7957644360889964 -31.619837818953275 -11.457466207031551 -4.5743227467476943 -2.478954819265168 -0.28119078626569177
leaf_weight=6981 27 55 28 27 27 131 377 29 40 239 5727 381 194 1718 244 169 1701 175 2723 31 27 6565 1242 27
leaf_count=6981 27 55 28 27 27 131 377 29 40 239 5727 381 194 1718 244 169 1701 175 2723 31 27 6565 1242 27
internal_value=-0.11228 32.0341 118.811 -1.80759 24.6833 42.7669 36.3677 9.91757 28.928 17.6844 -2.83524 12.5747 20.1515 -0.158312 2.17424 -6.8745 6.84071 6.22874 -3.29447 -13.0724 -22.2348 -4.71658 -4.24098 -5.24641
internal_weight=28885 1447 113 27438 1334 535 508 2211 308 279 25227 799 575 10412 5971 224 1903 1876 4441 85 58 14815 7807 7008
internal_count=28885 1447 113 27438 1334 535 508 2211 308 279 25227 799 575 10412 5971 224 1903 1876 4441 85 58 14815 7807 7008
is_linear=0
shrinkage=0.0659195


Tree=8
num_leaves=25
num_cat=0
split_feature=31 31 19 31 27 22 26 17 2 31 31 21 29 6 12 31 31 8 8 6 29 31 3 13
split_gain=3.1608e+08 2.02413e+08 1.61975e+09 6.63829e+07 5.8261e+07 6.26851e+07 7.22172e+07 2.59676e+07 8.03401e+07 8.20857e+07 2.55353e+07 1.96559e+07 1.81197e+07 1.51097e+07 5.64544e+07 1.50993e+07 1.28006e+07 1.19015e+07 2.89066e+07 8.87129e+06 4.56968e+06 832583 1.01582e+06 565469
threshold=0.35705172759285281 0.37184886136398848 0.012261203406226251 0.23050256640891101 47.500000000000007 1.5000000000000002 1.5000000000000002 0.097534773578808118 7261.5000000000009 0.26502745169252395 0.07454057129206694 2.5000000000000004 118.21282670948924 2.2250000000000005 2.5000000000000004 0.074902338937439625 0.36478708919917818 13172.500000000002 13690.500000000002 4.575000000000002 97.624703913575118 0.040702337406675615 14.500000000000002 2.5000000000000004
decision_type=2 2 2 2 2 2 2 2 2 2 2 2 2 2 2 2 2 2 2 2 2 2 2 2
left_child=3 2 -2 10 5 6 -3 17 20 -10 21 -7 16 14 -12 -15 -4 19 -19 -5 -9 23 -23 -1
right_child=1 4 12 7 -6 11 -8 8 9 -11 13 -13 -14 15 -16 -17 -18 18 -20 -21 -22 22 -24 -25
leaf_value=-4.7962959052296901 562.30061799967973 -5.5259965834138862 41.358333709820748 6.4548323981013507 116.37872807350136 -2.0272691901381026 47.545794855009262 -17.912088978630589 110.37329952461242 15.41788429865005 0.72969198642928756 21.756028863186291 -49.41064214264216 46.083909283953822 33.180377742552253 -3.3638441045483818 -19.237343826611497 82.742749782419992 11.002095529824379 -8.0052720677687734 5.3660167694137053 -4.1406819591497115 -1.7610812316318605 2.610840243995558
leaf_weight=9313 27 145 28 1510 28 436 481 84 74 85 5636 231 38 27 243 4315 33 29 154 210 65 4714 934 45
leaf_count=9313 27 145 28 1510 28 436 481 84 74 85 5636 231 38 27 243 4315 33 29 154 210 65 4714 934 45
internal_value=-0.104873 29.9225 109.752 -1.68843 22.3081 20.2708 35.2528 9.26383 27.0212 59.612 -2.64834 6.20957 -13.6812 -0.107148 2.07101 -3.05634 8.57755 6.38978 22.3718 4.68934 -7.75727 -4.37921 -3.74717 -4.76068
internal_weight=28885 1447 126 27438 1321 1293 626 2211 308 159 25227 667 99 10221 5879 4342 61 1903 183 1720 149 15006 5648 9358
internal_count=28885 1447 126 27438 1321 1293 626 2211 308 159 25227 667 99 10221 5879 4342 61 1903 183 1720 149 15006 5648 9358
is_linear=0
shrinkage=0.0659195


end of trees

feature_importances:
oof_cs=73
Premium_Amt_Current_Yr=19
oof_lc=16
Days_Driving_At_Start_Date=10
Age_at_license=9
Ratio_Premium_Car_Value=9
Power_Wt_Ratio=8
oof_halc=8
Max_Product_Simultaneous_Held=7
Yr_Vehicle_Registration=7
Age_at_contract=6
Contract_Duration=6
Market_Value_EOY19=6
Age=5
Customer_Loyalty=5
Max_Policy_Simultaneous_Force=4
Multiple_Drivers_Regular_Flag=3
Years_Driving=3
Car_Age_Contract=2
Cylinder_Capacity=2
Time_Since_Last_Renewal=2
Vehicle_Wt_Kg=2
Car_Age_Contract_Cat_Standard=1
Total_Policies_Entity=1
Vehicle_Doors=1
Vehicle_Power_HP=1
Years_Associates=1

parameters:
[boosting: gbdt]
[objective: regression]
[metric: l2]
[tree_learner: serial]
[device_type: cpu]
[data_sample_strategy: bagging]
[data: ]
[valid: ]
[num_iterations: 1340]
[learning_rate: 0.0659195]
[num_leaves: 27]
[num_threads: 0]
[seed: 0]
[deterministic: 0]
[force_col_wise: 0]
[force_row_wise: 0]
[histogram_pool_size: -1]
[max_depth: 5]
[min_data_in_leaf: 27]
[min_sum_hessian_in_leaf: 0.000190817]
[bagging_fraction: 0.963794]
[pos_bagging_fraction: 1]
[neg_bagging_fraction: 1]
[bagging_freq: 3]
[bagging_seed: 3]
[bagging_by_query: 0]
[feature_fraction: 0.984182]
[feature_fraction_bynode: 1]
[feature_fraction_seed: 2]
[extra_trees: 0]
[extra_seed: 6]
[early_stopping_round: 0]
[early_stopping_min_delta: 0]
[first_metric_only: 0]
[max_delta_step: 0]
[lambda_l1: 0.033974]
[lambda_l2: 0.00233896]
[linear_lambda: 0]
[min_gain_to_split: 0.0505393]
[drop_rate: 0.1]
[max_drop: 50]
[skip_drop: 0.5]
[xgboost_dart_mode: 0]
[uniform_drop: 0]
[drop_seed: 4]
[top_rate: 0.2]
[other_rate: 0.1]
[min_data_per_group: 100]
[max_cat_threshold: 32]
[cat_l2: 10]
[cat_smooth: 10]
[max_cat_to_onehot: 4]
[top_k: 20]
[monotone_constraints: ]
[monotone_constraints_method: basic]
[monotone_penalty: 0]
[feature_contri: ]
[forcedsplits_filename: ]
[refit_decay_rate: 0.9]
[cegb_tradeoff: 1]
[cegb_penalty_split: 0]
[cegb_penalty_feature_lazy: ]
[cegb_penalty_feature_coupled: ]
[path_smooth: 0]
[interaction_constraints: ]
[verbosity: 1]
[saved_feature_importance_type: 0]
[use_quantized_grad: 0]
[num_grad_quant_bins: 4]
[quant_train_renew_leaf: 0]
[stochastic_rounding: 1]
[linear_tree: 0]
[max_bin: 457]
[max_bin_by_feature: ]
[min_data_in_bin: 3]
[bin_construct_sample_cnt: 200000]
[data_random_seed: 1]
[is_enable_sparse: 1]
[enable_bundle: 1]
[use_missing: 1]
[zero_as_missing: 0]
[feature_pre_filter: 1]
[pre_partition: 0]
[two_round: 0]
[header: 0]
[label_column: ]
[weight_column: ]
[group_column: ]
[ignore_column: ]
[categorical_feature: ]
[forcedbins_filename: ]
[precise_float_parser: 0]
[parser_config_file: ]
[objective_seed: 5]
[num_class: 1]
[is_unbalance: 0]
[scale_pos_weight: 1]
[sigmoid: 1]
[boost_from_average: 1]
[reg_sqrt: 0]
[alpha: 0.9]
[fair_c: 1]
[poisson_max_delta_step: 0.7]
[tweedie_variance_power: 1.4038]
[lambdarank_truncation_level: 30]
[lambdarank_norm: 1]
[label_gain: ]
[lambdarank_position_bias_regularization: 0]
[eval_at: ]
[multi_error_top_k: 1]
[auc_mu_weights: ]
[num_machines: 1]
[local_listen_port: 12400]
[time_out: 120]
[machine_list_filename: ]
[machines: ]
[gpu_platform_id: -1]
[gpu_device_id: -1]
[gpu_use_dp: 0]
[num_gpu: 1]

end of parameters

pandas_categorical:[]
