tree
version=v4
num_class=1
num_tree_per_iteration=1
label_index=0
max_feature_idx=31
objective=regression
feature_names=Age Age_at_contract Age_at_license Car_Age_Contract Car_Age_Contract_Cat_Standard Contract_Duration Customer_Loyalty Cylinder_Capacity Days_Driving_At_Start_Date Half_Yearly_Payment_Method Issurance_Broker_Agent_Channel Market_Value_EOY19 Max_Policy_Simultaneous_Force Max_Product_Simultaneous_Held Multiple_Drivers_Regular_Flag Non_Continuation_Insurance_Flag Policies_Terminated_Non_Payment Power_Wt_Ratio Premium_Amt_Current_Yr Ratio_Premium_Car_Value Rural_Urban_Flag Time_Since_Last_Renewal Total_Policies_Entity Vehicle_Doors Vehicle_Power_HP Vehicle_Wt_Kg Years_Associates Years_Driving Yr_Vehicle_Registration oof_lc oof_halc oof_cs
feature_infos=[19:101] [18:91] [6575:23602] [0:68] [0:1] [32:14244] [1:15.550000000000001] [49:7480] [-3660:25943] [0:1] [0:1] [270.45999999999998:220675.79999999999] [1:17] [1:4] [0:1] [0:1] [0:7] [0:2.5172413793103448] [40.200000000000003:2116.6900000000001] [0.00087664282081770001:0.7524957479849147] [0:1] [1:4] [1:17] [0:6] [0:580] [43:6200] [1:40] [1:77] [1950:2018] [-92.595562137120012:1976.0375585246741] [-111.64359734025822:2760.0999408713242] [-0.060768058402224677:0.86709526902614686]
tree_sizes=2220 2159 2235 2331 2326 2256 2228 2266 2498

Tree=0
num_leaves=24
num_cat=0
split_feature=31 31 25 30 31 19 28 18 31 1 31 5 30 17 21 30 30 31 28 31 31 24 13
split_gain=9.80878e+08 7.33122e+08 1.37483e+09 1.99602e+08 1.92203e+08 1.33828e+08 6.80732e+07 5.98694e+07 1.49183e+08 1.00085e+08 3.26265e+07 4.34602e+07 2.62166e+07 2.42227e+07 1.46145e+07 1.39075e+07 1.1976e+07 2.35028e+07 1.23386e+07 1.00909e+07 5.24603e+06 3.37341e+06 709518
threshold=0.35909272481871862 0.36597517695502974 1355.5000000000002 526.91543223972405 0.10425660594567242 0.035703457887699803 2000.5000000000002 334.67500000000007 0.10568990791526008 67.500000000000014 0.65268404347177233 730.50000000000011 508.31902579290818 0.090936655824466611 2.5000000000000004 102.61201690568565 102.79383978696809 0.067413364882315932 2015.5000000000002 0.16073355439032147 0.060441043522900834 121.50000000000001 2.5000000000000004
decision_type=2 2 2 2 2 2 2 2 2 2 2 2 2 2 2 2 2 2 2 2 2 2 2
left_child=4 2 -2 10 15 6 -5 12 -9 -10 14 -12 19 -14 -3 20 17 -17 -18 -6 22 -22 -1
right_child=1 3 -4 5 7 -7 -8 8 9 -11 11 -13 13 -15 -16 16 18 -19 -20 -21 21 -23 -24
leaf_value=123.4479800201518 141.78379841783902 147.29507062700696 760.41975222082112 261.32449989495433 128.17266363310731 349.42697403326468 189.41556176024329 258.4610860208403 139.63732601971813 203.74478641673375 158.76938083689865 267.00809567627073 143.98690775184483 220.22297925289024 164.32752159886792 122.83389783795928 126.36290839056022 204.19140254810998 137.61331890948495 134.05948909452692 125.45947014037735 130.8922917448653 130.63473919573659
leaf_weight=11724 37 504 27 70 2223 29 313 48 3628 109 40 27 55 27 387 36 2110 27 530 2937 3353 583 60
leaf_count=11724 37 504 27 70 2223 29 313 48 3628 109 40 27 55 27 387 36 2110 27 530 2937 3353 583 60
internal_value=131.569 184.717 402.784 174.53 128.793 212.898 202.559 136.673 142.99 141.507 158.029 202.391 132.111 169.091 154.693 124.932 129.299 157.703 128.622 131.523 124.181 126.264 123.485
internal_weight=28884 1434 64 1370 27450 412 383 9027 3785 3737 958 67 5242 82 891 18423 2703 63 2640 5160 15720 3936 11784
internal_count=28884 1434 64 1370 27450 412 383 9027 3785 3737 958 67 5242 82 891 18423 2703 63 2640 5160 15720 3936 11784
is_linear=0
shrinkage=1


Tree=1
num_leaves=23
num_cat=0
split_feature=31 31 18 31 31 19 6 18 18 1 29 5 25 11 31 31 28 17 18 0 11 13
split_gain=8.55827e+08 6.39662e+08 1.40002e+09 1.67698e+08 1.14864e+08 1.00242e+08 9.39696e+07 5.22365e+07 1.37139e+08 8.71462e+07 5.03092e+07 4.81388e+07 1.66821e+07 1.231e+07 1.15254e+07 1.01979e+07 1.01623e+07 3.14984e+07 7.73042e+06 4.0971e+06 3.14009e+07 668401
threshold=0.35909272481871862 0.36597517695502974 303.37500000000006 0.10425660594567242 0.5199457219031598 0.037254538395744753 2.0250000000000004 334.67500000000007 335.93000000000006 67.500000000000014 302.5721728409016 697.00000000000011 82.500000000000014 21049.995000000006 0.05625652206634834 0.16073355439032147 2017.5000000000002 0.10003335557038028 358.75000000000006 30.500000000000004 25173.500000000004 2.5000000000000004
decision_type=2 2 2 2 2 2 2 2 2 2 2 2 2 2 2 2 2 2 2 2 2 2
left_child=3 2 -2 14 10 6 -6 12 -9 -10 13 -12 -5 -3 19 -14 18 -18 -16 20 -1 -21
right_child=1 4 -4 7 5 -7 -8 8 9 -11 11 -13 15 -15 16 -17 17 -19 -20 21 -22 -23
leaf_value=-5.5098179403928507 614.29812919765561 24.860725474319672 -9.9780626951607516 51.312375418498156 85.562352525721494 180.28336166226802 30.133732322856211 153.52467950811865 7.8765201737421391 67.167188338555206 26.800510371875568 109.6381917268663 -3.1103483561399656 6.9643326929028619 -5.8256866187533047 2.7911808934883422 -1.6592279785839874 74.829549181859107 -0.73208734337100401 -7.6206192725472501 62.597075017496444 -0.52634241436072682
leaf_weight=575 27 392 37 28 253 30 280 29 3645 111 70 54 2204 291 4159 3010 121 29 1880 11570 31 58
leaf_count=575 27 392 37 28 253 30 280 29 3645 111 70 54 2204 291 4159 3010 121 29 1880 11570 31 58
internal_value=0.0629391 49.7078 253.401 -2.53053 40.1918 63.044 56.4444 4.8301 10.7314 9.62876 24.2489 62.8764 0.569079 17.2358 -6.13714 0.296556 -3.81902 13.1295 -4.24 -7.30984 -2.02557 -7.58523
internal_weight=28884 1434 64 27450 1370 563 533 9027 3785 3756 807 124 5242 683 18423 5214 6189 150 6039 12234 606 11628
internal_count=28884 1434 64 27450 1370 563 533 9027 3785 3756 807 124 5242 683 18423 5214 6189 150 6039 12234 606 11628
is_linear=0
shrinkage=0.0659195


Tree=2
num_leaves=24
num_cat=0
split_feature=31 31 8 30 31 19 2 31 18 17 1 29 29 1 8 7 28 17 21 18 18 11 31
split_gain=7.46718e+08 5.58117e+08 1.36279e+09 1.65594e+08 1.46935e+08 9.24605e+07 8.79281e+07 5.20805e+07 4.86706e+07 8.70147e+07 2.48451e+07 2.6839e+08 2.02987e+07 2.48532e+07 1.71259e+07 1.22e+07 1.05228e+07 2.00646e+07 1.00958e+07 5.35054e+06 1.52052e+07 3.78941e+06 1.26248e+06
threshold=0.35909272481871862 0.36597517695502974 6501.0000000000009 472.12557186625241 0.09639227548771169 0.037254538395744753 9056.5000000000018 0.24624711431670224 431.22000000000008 0.10641729581331501 67.500000000000014 44.314364345441469 314.34415339935339 31.500000000000004 3891.5000000000005 1685.5000000000002 2017.5000000000002 0.100387602722233 2.5000000000000004 358.75000000000006 359.60000000000008 19260.005000000001 0.030601306450020072
decision_type=2 2 2 2 2 2 2 2 2 2 2 2 2 2 2 2 2 2 2 2 2 2 2
left_child=4 2 -2 12 16 6 -5 10 15 -10 14 -12 18 -14 -6 -9 19 21 -3 22 -21 -18 -1
right_child=1 3 -4 5 7 -7 -8 8 9 -11 11 -13 13 -15 -16 -17 17 -19 -20 20 -22 -23 -24
leaf_value=-7.4299741419205176 592.76457868024863 9.783852820727148 -23.154287762228808 42.098494194508348 6.8381912659207194 177.90810452688217 104.65001854193203 17.107824573155476 23.392006978377918 118.34783714610137 218.77458618445709 2.0317815471539737 101.14512885688798 28.942787404987303 -0.51841653282652289 3.3324358970851575 15.874281782821768 53.1792693725478 25.338724075826622 42.032266439266458 -4.3202025751927646 -8.0645745099995452 -6.1554413768357437
leaf_weight=6164 27 445 37 334 1784 31 138 424 389 47 27 308 27 89 5999 819 40 37 306 31 3809 102 7470
leaf_count=6164 27 445 37 334 1784 31 138 424 389 47 27 308 27 89 5999 819 40 37 306 31 3809 102 7470
internal_value=0.0587981 46.4312 236.699 37.5424 -2.36372 67.6309 60.3873 4.11022 14.6785 33.6287 1.92444 19.502 20.0861 45.7502 1.16785 8.03139 -5.9566 9.9449 16.1219 -6.1195 -3.94598 -1.32107 -6.73167
internal_weight=28884 1434 64 1370 27450 503 472 9797 1679 436 8118 335 867 116 7783 1243 17653 179 751 17474 3840 142 13634
internal_count=28884 1434 64 1370 27450 503 472 9797 1679 436 8118 335 867 116 7783 1243 17653 179 751 17474 3840 142 13634
is_linear=0
shrinkage=0.0659195


Tree=3
num_leaves=25
num_cat=0
split_feature=31 31 25 31 31 19 6 18 31 24 1 29 25 28 31 28 0 31 2 29 0 8 29 13
split_gain=6.40935e+08 4.89682e+08 1.26428e+09 1.22148e+08 1.14882e+08 9.57173e+07 7.7124e+07 4.47278e+07 1.01572e+08 1.96973e+08 6.9379e+07 3.18562e+07 4.60517e+07 1.10659e+07 9.28098e+06 8.56451e+06 1.71388e+07 8.02645e+06 6.13067e+06 5.87236e+06 3.21501e+06 2.66901e+07 2.00996e+06 599007
threshold=0.35909272481871862 0.36597517695502974 1355.5000000000002 0.10425660594567242 0.5199457219031598 0.037825191891866505 2.0250000000000004 325.88500000000005 0.10568990791526008 99.500000000000014 67.500000000000014 421.05094959504856 1263.5000000000002 2014.5000000000002 0.05625652206634834 2016.5000000000002 42.500000000000007 0.16073355439032147 6989.5000000000009 17.134171618475321 30.500000000000004 2999.5000000000005 54.34360965948138 2.5000000000000004
decision_type=2 2 2 2 2 2 2 2 2 2 2 2 2 2 2 2 2 2 2 2 2 2 2 2
left_child=3 2 -2 14 11 6 -6 17 9 -9 -10 13 -13 -3 20 19 -17 22 -19 -16 21 -1 -5 -22
right_child=1 4 -4 7 5 -7 -8 8 10 -11 -12 12 -14 -15 15 16 -18 18 -20 -21 23 -23 -24 -25
leaf_value=-6.740164351501261 -29.078191652483842 12.480117722362534 564.16240757389141 -6.6885440835671783 78.19288588933351 176.51719390182365 27.669993746968462 -17.606693119168657 6.3954758021124283 225.92529309625533 58.133266772564198 116.47946097790491 12.719106886622084 44.601313010591319 7.0609797015052393 24.43673212872821 -6.1798492915721344 -2.1088016521041268 4.3168349228601572 -4.2447356170125978 -6.6788029230498314 36.558627277813891 -2.0504616568151084 0.095358744013417138
leaf_weight=532 37 686 27 548 248 28 279 31 3870 27 116 34 41 50 207 141 182 984 1874 5612 11584 70 1567 57
leaf_count=532 37 686 27 548 248 28 279 31 3870 27 116 34 41 50 207 141 182 984 1874 5612 11584 70 1567 57
internal_value=-0.0262212 42.9973 221.207 -2.27145 34.6475 57.7564 51.4457 4.01298 9.16141 95.7661 7.90118 18.8331 59.7593 14.6624 -5.35368 -3.26261 7.18536 -0.173683 2.10451 -3.84255 -6.40271 -1.70529 -3.2522 -6.64563
internal_weight=28832 1430 64 27402 1366 555 527 9017 4044 58 3986 811 75 736 18385 6142 323 4973 2858 5819 12243 602 2115 11641
internal_count=28832 1430 64 27402 1366 555 527 9017 4044 58 3986 811 75 736 18385 6142 323 4973 2858 5819 12243 602 2115 11641
is_linear=0
shrinkage=0.0659195


Tree=4
num_leaves=25
num_cat=0
split_feature=31 31 18 30 31 1 2 31 17 0 6 21 8 6 28 28 0 8 28 31 29 31 3 31
split_gain=5.59223e+08 4.27257e+08 1.26132e+09 1.46172e+08 1.06752e+08 8.03797e+07 8.07889e+07 4.19813e+07 3.99737e+07 9.45855e+07 2.31673e+07 5.45154e+07 1.85945e+07 1.40186e+07 1.53144e+07 9.2227e+06 1.86196e+07 5.3362e+07 6.8187e+06 3.98073e+06 6.74606e+06 3.14132e+06 2.28444e+06 887420
threshold=0.35909272481871862 0.36597517695502974 303.37500000000006 472.12557186625241 0.09639227548771169 66.500000000000014 9056.5000000000018 0.24624711431670224 0.10641729581331501 31.500000000000004 2.2250000000000005 2.5000000000000004 787.50000000000011 3.8250000000000006 2009.5000000000002 2015.5000000000002 30.500000000000004 2704.5000000000005 2017.5000000000002 0.065344742912292003 17.134171618475321 0.1509284173032365 13.500000000000002 0.03090457398232244
decision_type=2 2 2 2 2 2 2 2 2 2 2 2 2 2 2 2 2 2 2 2 2 2 2 2
left_child=4 2 -2 13 15 6 -5 10 12 -10 11 -6 -9 14 -3 19 17 -17 -18 23 -21 -12 -15 -1
right_child=1 3 -4 5 7 -7 -8 8 9 -11 21 -13 -14 22 -16 16 18 -19 -20 20 -22 -23 -24 -25
leaf_value=-6.5698445417893891 549.17989063245955 17.019136119235096 -43.364464543811081 37.16775954509302 2.6028437841825962 169.14017092495283 97.577685402595819 47.194301251801797 157.7103042019645 19.377972524279592 -4.6994786833635027 32.24836918320613 8.5097576387542588 7.055089061512593 49.034056685898229 -6.8054159206474463 -4.6013532193968887 107.04677551532332 10.273218868405538 10.684231059823738 -4.1747383809108145 -0.66630152552086219 -7.0059400295020282 -5.4783379708073747
leaf_weight=7159 27 587 37 341 4431 28 134 56 27 105 1741 287 1505 112 73 53 676 27 167 138 3502 1620 91 5908
leaf_count=7159 27 587 37 341 4431 28 134 56 27 105 1741 287 1505 112 73 53 676 27 167 138 3502 1620 91 5908
internal_value=-0.0244856 40.1631 206.626 32.3636 -2.12172 60.6086 54.2101 3.40471 12.8431 47.6755 1.42683 4.40622 9.89761 15.9009 20.5603 -5.18492 1.22961 31.6217 -1.65465 -5.5393 -3.6114 -2.75549 0.75185 -6.07634
internal_weight=28832 1430 64 1366 27402 503 475 9772 1693 132 8079 4718 1561 863 660 17630 923 80 843 16707 3640 3361 203 13067
internal_count=28832 1430 64 1366 27402 503 475 9772 1693 132 8079 4718 1561 863 660 17630 923 80 843 16707 3640 3361 203 13067
is_linear=0
shrinkage=0.0659195


Tree=5
num_leaves=24
num_cat=0
split_feature=31 31 8 30 19 31 28 18 18 1 31 5 28 30 18 18 29 28 28 31 29 17 31
split_gain=4.87928e+08 3.72789e+08 1.24017e+09 1.28349e+08 1.14065e+08 9.36506e+07 5.64131e+07 3.83481e+07 1.20124e+08 6.50547e+07 3.46616e+07 3.24281e+07 1.24628e+07 8.61386e+06 1.12386e+07 3.28667e+07 8.08173e+06 5.69171e+06 4.5929e+06 2.61719e+06 8.94813e+06 1.01441e+06 542693
threshold=0.35909272481871862 0.36597517695502974 6501.0000000000009 526.91543223972405 0.036879997430675403 0.10425660594567242 2000.5000000000002 334.67500000000007 335.93000000000006 67.500000000000014 0.65268404347177233 730.50000000000011 2010.5000000000002 102.61201690568565 412.43500000000006 417.11500000000007 60.997454584103117 2001.5000000000002 2017.5000000000002 0.065344742912292003 17.134171618475321 0.058452115297693362 0.03090457398232244
decision_type=2 2 2 2 2 2 2 2 2 2 2 2 2 2 2 2 2 2 2 2 2 2 2
left_child=5 2 -2 10 6 13 -5 16 -9 -10 12 -12 -3 19 18 -16 21 -18 -15 22 -21 -7 -1
right_child=1 3 -4 4 -6 7 -8 8 9 -11 11 -13 -14 14 15 -17 17 -19 -20 20 -22 -23 -24
leaf_value=-6.0952668283905407 532.67668373134472 10.870938063223091 -54.8786954607531 106.7487306231147 191.9056134770012 -0.25004942345197018 40.211600283717544 142.22419278416197 6.0254936836139166 57.03204448615832 20.498334292083708 115.38500379694044 36.01685174766974 -5.4769600933361726 67.086435887684559 2.0495499939486694 -2.7180716311952664 3.0953779955731173 7.3256115038200837 13.82709101084316 -4.2954103129971806 -4.9114859469839063 -5.2169477400855726
leaf_weight=6959 27 794 37 67 27 241 319 29 3637 112 34 29 96 1570 35 955 1002 2714 132 123 3159 1282 5452
leaf_count=6959 27 794 37 67 27 241 319 29 3637 112 34 29 96 1570 35 955 1002 2714 132 123 3159 1282 5452
internal_value=-0.022865 37.5157 193.007 30.2303 60.9244 -1.98185 51.7614 3.52089 8.58319 7.54933 16.9283 64.179 13.5834 -4.68069 -1.23563 4.34899 -0.129691 1.52781 -4.48404 -5.27166 -3.61622 -4.17386 -5.70943
internal_weight=28832 1430 64 1366 413 27402 386 9017 3778 3749 953 63 890 18385 2692 990 5239 3716 1702 15693 3282 1523 12411
internal_count=28832 1430 64 1366 413 27402 386 9017 3778 3749 953 63 890 18385 2692 990 5239 3716 1702 15693 3282 1523 12411
is_linear=0
shrinkage=0.0659195


Tree=6
num_leaves=24
num_cat=0
split_feature=31 18 2 30 19 30 30 19 28 31 31 18 31 18 29 31 6 28 29 11 31 13 8
split_gain=4.25498e+08 3.36776e+08 1.56967e+09 1.47805e+08 9.38402e+07 8.90536e+07 8.2726e+07 1.26616e+08 6.77966e+07 6.04205e+07 5.14867e+07 4.0599e+07 2.56541e+07 1.47912e+07 1.06528e+07 7.40595e+06 1.79146e+07 1.44066e+08 5.382e+06 1.20927e+06 502175 1.13666e+06 29730.5
threshold=0.35909272481871862 221.14500000000001 10061.000000000002 526.91543223972405 0.036879997430675403 105.60928664720112 106.10700995167936 0.017043573859592754 2000.5000000000002 0.36597517695502974 0.24624711431670224 431.22000000000008 0.65268404347177233 412.43500000000006 214.9987809164007 0.06968698920424532 1.3750000000000002 1996.5000000000002 17.134171618475321 17724.425000000003 0.028617552370569666 2.5000000000000004 18995.500000000004
decision_type=2 2 2 2 2 2 2 2 2 2 2 2 2 2 2 2 2 2 2 2 2 2 2
left_child=5 2 14 9 8 15 7 -7 -5 -3 13 -12 -11 -8 19 20 17 -17 -18 -2 22 -22 -1
right_child=1 3 -4 4 -6 6 10 -9 -10 12 11 -13 -14 -15 -16 16 18 -19 -20 -21 21 -23 -24
leaf_value=-5.7402813606319958 -17.87762893028761 -58.750565013259958 582.98030227292986 115.82609889773057 179.22908988354382 -6.0442165745126761 -1.094863109393799 186.43491034001707 38.122380140830501 12.48057962641872 7.3933661115414964 31.196090835719385 54.016038628265896 5.3558050988844341 37.901663459259169 150.81616016272781 7.7099026294429542 1.2801383886027389 -4.5825583130773655 1.8508782581322507 -4.9745541486356624 7.4793241370135055 -3.5868821894402014
leaf_weight=6493 27 50 27 59 27 33 5579 27 282 840 1180 423 70 2136 37 29 161 807 4000 27 6512 32 28
leaf_count=6493 27 50 27 59 27 33 5579 27 282 840 1180 423 70 2136 37 29 161 807 4000 27 6512 32 28
internal_value=0.0464185 34.8983 141.62 25.4153 60.935 -1.79017 3.42148 80.5752 51.5674 11.7992 2.92466 13.6745 15.6757 0.691091 10.6557 -4.49612 -2.33777 6.4678 -4.10693 -8.01368 -5.32163 -4.91365 -5.73104
internal_weight=28886 1446 118 1328 368 27440 9378 60 341 960 9318 1603 910 7715 91 18062 4997 836 4161 54 13065 6544 6521
internal_count=28886 1446 118 1328 368 27440 9378 60 341 960 9318 1603 910 7715 91 18062 4997 836 4161 54 13065 6544 6521
is_linear=0
shrinkage=0.0659195


Tree=7
num_leaves=24
num_cat=0
split_feature=31 31 7 30 19 31 18 18 18 1 29 14 17 31 31 30 30 27 3 31 29 5 13
split_gain=3.71252e+08 3.47319e+08 1.28106e+09 9.02415e+07 8.78736e+07 7.92241e+07 5.35243e+07 3.43155e+07 1.16345e+08 5.51638e+07 2.45096e+07 4.11015e+07 9.26932e+06 7.29351e+06 5.72647e+06 5.62149e+06 1.07764e+07 2.38478e+07 7.35144e+06 1.97483e+06 5.40794e+06 1.81165e+06 473739
threshold=0.35909272481871862 0.36597517695502974 1755.5000000000002 526.91543223972405 0.036879997430675403 0.10425660594567242 259.24000000000007 334.67500000000007 335.93000000000006 67.500000000000014 235.14493092029446 1.0000000180025095e-35 0.06695494620442316 0.16073355439032147 0.16208170802058391 102.61201690568565 102.79383978696809 13.500000000000002 1.0000000180025095e-35 0.060441043522900834 17.134171618475321 370.00000000000006 2.5000000000000004
decision_type=2 2 2 2 2 2 2 2 2 2 2 2 2 2 2 2 2 2 2 2 2 2 2
left_child=5 2 -2 10 6 15 -5 13 -9 -10 12 -12 -3 21 -15 19 17 -17 -18 22 -21 -7 -1
right_child=1 3 -4 4 -6 7 -8 8 9 -11 11 -13 -14 14 -16 16 18 -19 -20 20 -22 -23 -24
leaf_value=-5.0792754369008781 525.50890243675792 19.732843975067173 -82.666292884586994 -3.118209723053754 166.45706380815935 -1.4728260994390285 56.286408822091474 144.51491353253914 5.8188086623814899 53.621985827903877 23.197676715995481 108.46902715188006 3.9028091940503322 25.642572977568658 1.6870968700353779 72.467953321813908 4.9446793555976196 -9.0084290649765233 -3.7682575935963025 8.8468531821899212 -3.8348338514031903 -5.364802037516009 0.94480826176259658
leaf_weight=11762 27 236 34 84 27 1371 306 27 3650 108 200 28 504 44 2978 27 527 37 2088 152 3775 837 57
leaf_count=11762 27 236 34 84 27 1371 306 27 3650 108 200 28 504 44 2978 27 527 37 2088 152 3775 837 57
internal_value=0.0433656 32.5979 186.536 25.8177 51.4543 -1.67216 43.4916 3.39158 8.17231 7.19264 14.7737 33.6706 8.95136 -0.0682765 2.03591 -4.14975 -1.35827 25.3658 -2.01234 -4.62469 -3.34397 -2.94819 -5.05022
internal_weight=28886 1446 61 1385 417 27440 390 9015 3785 3758 968 228 740 5230 3022 18425 2679 64 2615 15746 3927 2208 11819
internal_count=28886 1446 61 1385 417 27440 390 9015 3785 3758 968 228 740 5230 3022 18425 2679 64 2615 15746 3927 2208 11819
is_linear=0
shrinkage=0.0659195


Tree=8
num_leaves=27
num_cat=0
split_feature=31 29 29 19 8 31 3 31 28 31 5 22 12 7 28 22 27 28 0 7 28 0 30 31 29 30
split_gain=3.29648e+08 1.78714e+08 1.08295e+09 2.66926e+09 1.19947e+08 4.16424e+07 4.30043e+07 3.65377e+07 3.73434e+07 3.32833e+07 2.04054e+07 1.76323e+07 1.14266e+08 2.78475e+08 2.64308e+07 1.62387e+07 1.3784e+07 6.14232e+06 1.41302e+07 5.12668e+07 4.84469e+06 3.09373e+06 5.57292e+06 2.44995e+06 5.54471e+06 1.04223e+06
threshold=0.24624711431670224 176.71918550107821 191.232884803763 0.013071304563492002 16433.500000000004 0.24848860277577642 12.500000000000002 0.41860072558517003 2011.5000000000002 0.09639227548771169 730.50000000000011 1.5000000000000002 2.5000000000000004 1996.5000000000002 1996.5000000000002 2.5000000000000004 22.500000000000004 2015.5000000000002 30.500000000000004 1396.5000000000002 2017.5000000000002 57.500000000000007 113.65586744069242 0.068752054866164133 17.134171618475321 187.04529879797741
decision_type=2 2 2 2 2 2 2 2 2 2 2 2 2 2 2 2 2 2 2 2 2 2 2 2 2 2
left_child=9 4 3 -3 5 6 -2 10 -9 17 -4 12 14 -14 -11 -7 -5 23 19 -19 -20 22 -13 -1 -25 -23
right_child=1 2 7 16 -6 15 -8 8 -10 11 -12 21 13 -15 -16 -17 -18 18 20 -21 -22 25 -24 24 -26 -27
leaf_value=-4.697554888141231 7.7721203383634112 796.02784381670256 -6.0138294324258803 53.110067646166975 145.72274634154184 11.005136872428741 122.30302751198802 24.227020985093542 74.889821976386628 29.852417450235279 34.837171718568761 -4.2166319833422419 6.0151408204617081 175.69617063741529 0.50274178953365878 -1.1618161286226647 -8.1927764636986353 -8.4672509370078775 -3.8110183397563917 101.79790779498299 8.8059163433360297 -4.5460911739399501 1.6318047110887783 11.236275631061588 -3.2091472540013992 -10.674864685231903
leaf_weight=13563 29 28 243 34 28 1430 28 434 74 138 68 1333 160 57 3939 715 30 57 683 27 164 799 1510 120 3053 142
leaf_count=13563 29 28 243 34 28 1430 28 434 74 138 68 1333 160 57 3939 715 30 57 683 27 164 799 1510 120 3053 142
internal_value=0.040513 20.2013 44.8022 259.24 10.1513 8.42726 64.0357 20.7133 31.6074 -2.41919 2.91841 1.08599 3.97707 50.5872 1.4962 6.94949 24.3751 -4.02189 1.18945 26.9769 -1.36805 -2.19475 -1.11036 -4.31179 -2.66283 -5.47097
internal_weight=28886 3141 911 92 2230 2202 57 819 508 25745 311 8078 4294 217 4077 2145 64 17667 931 84 847 3784 2843 16736 3173 941
internal_count=28886 3141 911 92 2230 2202 57 819 508 25745 311 8078 4294 217 4077 2145 64 17667 931 84 847 3784 2843 16736 3173 941
is_linear=0
shrinkage=0.0659195


end of trees

feature_importances:
oof_cs=56
Premium_Amt_Current_Yr=20
Yr_Vehicle_Registration=19
oof_lc=16
oof_halc=16
Ratio_Premium_Car_Value=9
Age_at_contract=8
Days_Driving_At_Start_Date=8
Age=7
Power_Wt_Ratio=7
Contract_Duration=5
Customer_Loyalty=5
Max_Product_Simultaneous_Held=5
Age_at_license=4
Cylinder_Capacity=4
Market_Value_EOY19=4
Vehicle_Wt_Kg=4
Car_Age_Contract=3
Time_Since_Last_Renewal=3
Total_Policies_Entity=2
Vehicle_Power_HP=2
Years_Driving=2
Max_Policy_Simultaneous_Force=1
Multiple_Drivers_Regular_Flag=1

parameters:
[boosting: gbdt]
[objective: regression]
[metric: l2]
[tree_learner: serial]
[device_type: cpu]
[data_sample_strategy: bagging]
[data: ]
[valid: ]
[num_iterations: 1340]
[learning_rate: 0.0659195]
[num_leaves: 27]
[num_threads: 0]
[seed: 0]
[deterministic: 0]
[force_col_wise: 0]
[force_row_wise: 0]
[histogram_pool_size: -1]
[max_depth: 5]
[min_data_in_leaf: 27]
[min_sum_hessian_in_leaf: 0.000190817]
[bagging_fraction: 0.963794]
[pos_bagging_fraction: 1]
[neg_bagging_fraction: 1]
[bagging_freq: 3]
[bagging_seed: 3]
[bagging_by_query: 0]
[feature_fraction: 0.984182]
[feature_fraction_bynode: 1]
[feature_fraction_seed: 2]
[extra_trees: 0]
[extra_seed: 6]
[early_stopping_round: 0]
[early_stopping_min_delta: 0]
[first_metric_only: 0]
[max_delta_step: 0]
[lambda_l1: 0.033974]
[lambda_l2: 0.00233896]
[linear_lambda: 0]
[min_gain_to_split: 0.0505393]
[drop_rate: 0.1]
[max_drop: 50]
[skip_drop: 0.5]
[xgboost_dart_mode: 0]
[uniform_drop: 0]
[drop_seed: 4]
[top_rate: 0.2]
[other_rate: 0.1]
[min_data_per_group: 100]
[max_cat_threshold: 32]
[cat_l2: 10]
[cat_smooth: 10]
[max_cat_to_onehot: 4]
[top_k: 20]
[monotone_constraints: ]
[monotone_constraints_method: basic]
[monotone_penalty: 0]
[feature_contri: ]
[forcedsplits_filename: ]
[refit_decay_rate: 0.9]
[cegb_tradeoff: 1]
[cegb_penalty_split: 0]
[cegb_penalty_feature_lazy: ]
[cegb_penalty_feature_coupled: ]
[path_smooth: 0]
[interaction_constraints: ]
[verbosity: 1]
[saved_feature_importance_type: 0]
[use_quantized_grad: 0]
[num_grad_quant_bins: 4]
[quant_train_renew_leaf: 0]
[stochastic_rounding: 1]
[linear_tree: 0]
[max_bin: 457]
[max_bin_by_feature: ]
[min_data_in_bin: 3]
[bin_construct_sample_cnt: 200000]
[data_random_seed: 1]
[is_enable_sparse: 1]
[enable_bundle: 1]
[use_missing: 1]
[zero_as_missing: 0]
[feature_pre_filter: 1]
[pre_partition: 0]
[two_round: 0]
[header: 0]
[label_column: ]
[weight_column: ]
[group_column: ]
[ignore_column: ]
[categorical_feature: ]
[forcedbins_filename: ]
[precise_float_parser: 0]
[parser_config_file: ]
[objective_seed: 5]
[num_class: 1]
[is_unbalance: 0]
[scale_pos_weight: 1]
[sigmoid: 1]
[boost_from_average: 1]
[reg_sqrt: 0]
[alpha: 0.9]
[fair_c: 1]
[poisson_max_delta_step: 0.7]
[tweedie_variance_power: 1.4038]
[lambdarank_truncation_level: 30]
[lambdarank_norm: 1]
[label_gain: ]
[lambdarank_position_bias_regularization: 0]
[eval_at: ]
[multi_error_top_k: 1]
[auc_mu_weights: ]
[num_machines: 1]
[local_listen_port: 12400]
[time_out: 120]
[machine_list_filename: ]
[machines: ]
[gpu_platform_id: -1]
[gpu_device_id: -1]
[gpu_use_dp: 0]
[num_gpu: 1]

end of parameters

pandas_categorical:[]
