tree
version=v4
num_class=1
num_tree_per_iteration=1
label_index=0
max_feature_idx=31
objective=regression
feature_names=Age Age_at_contract Age_at_license Car_Age_Contract Car_Age_Contract_Cat_Standard Contract_Duration Customer_Loyalty Cylinder_Capacity Days_Driving_At_Start_Date Half_Yearly_Payment_Method Issurance_Broker_Agent_Channel Market_Value_EOY19 Max_Policy_Simultaneous_Force Max_Product_Simultaneous_Held Multiple_Drivers_Regular_Flag Non_Continuation_Insurance_Flag Policies_Terminated_Non_Payment Power_Wt_Ratio Premium_Amt_Current_Yr Ratio_Premium_Car_Value Rural_Urban_Flag Time_Since_Last_Renewal Total_Policies_Entity Vehicle_Doors Vehicle_Power_HP Vehicle_Wt_Kg Years_Associates Years_Driving Yr_Vehicle_Registration oof_lc oof_halc oof_cs
feature_infos=[19:101] [18:91] [6575:23602] [0:68] [0:1] [32:14244] [1:15.1] [49:7480] [-3660:25943] [0:1] [0:1] [270.45999999999998:220675.79999999999] [1:17] [1:4] [0:1] [0:1] [0:7] [0:2.5172413793103448] [40.200000000000003:2116.6900000000001] [0.00082567981271379997:0.7524957479849147] [0:1] [1:4] [1:17] [0:6] [0:580] [43:7300] [1:40] [1:77] [1950:2018] [-52.876587401090561:919.45679527462005] [-168.56598667505557:2076.8856524013454] [-0.06042369401346178:0.87644450801800788]
tree_sizes=845 885 884 881 887 881 886 884 887 887 892 896 894 895 895 889 895 889 889 887 891 891 892 889 886 893 891 889 888 893 895 892 892 901 892 896 891 890 893 889 897 890 904 890 868 894 871 899 871 792 803 805 808 806 875 801 881 880 797 882 882 890 892 882 886 871 892 878 810 876 797 892

Tree=0
num_leaves=8
num_cat=0
split_feature=31 31 31 31 31 31 31
split_gain=251.086 57.6962 38.3377 9.81333 6.05277 5.70157 5.20184
threshold=0.24772393137849522 0.1054775124672261 0.46728621340413995 0.059520710137654122 0.14582614862206697 0.56897188803650389 0.34045233678040127
decision_type=2 2 2 2 2 2 2
left_child=1 3 6 -1 -3 -4 -2
right_child=2 4 5 -5 -6 -7 -8
leaf_value=0.10726139053975572 0.11892251975045909 0.11122356031160543 0.12874713684508651 0.10956969033116228 0.1140370512766618 0.13674917062147557 0.12372466089116155
leaf_weight=9416 1060 2035 297 4490 3324 291 574
leaf_count=9416 1060 2035 297 4490 3324 291 574
internal_value=0.110879 0.109387 0.123811 0.108007 0.112969 0.132707 0.120609
internal_weight=21487 19265 2222 13906 5359 588 1634
internal_count=21487 19265 2222 13906 5359 588 1634
is_linear=0
shrinkage=1


Tree=1
num_leaves=8
num_cat=0
split_feature=31 31 31 31 31 31 31
split_gain=231.098 53.1031 35.2857 9.03211 5.57092 5.29985 4.78773
threshold=0.24772393137849522 0.1054775124672261 0.46728621340413995 0.059520710137654122 0.14582614862206697 0.61337358725133639 0.34045233678040127
decision_type=2 2 2 2 2 2 2
left_child=1 3 6 -1 -3 -4 -2
right_child=2 4 5 -5 -6 -7 -8
leaf_value=-0.0034086715439384341 0.0077786738553907971 0.00039251775116405055 0.018327921321427788 -0.0011941563735092526 0.0030916987944451151 0.026564516391626599 0.012385707691812886
leaf_weight=9416 1060 2035 397 4490 3324 191 574
leaf_count=9416 1060 2035 397 4490 3324 191 574
internal_value=6.15519e-05 -0.00136944 0.0124684 -0.00269364 0.00206673 0.0210034 0.00939706
internal_weight=21487 19265 2222 13906 5359 588 1634
internal_count=21487 19265 2222 13906 5359 588 1634
is_linear=0
shrinkage=0.0406293


Tree=2
num_leaves=8
num_cat=0
split_feature=31 31 31 31 31 31 31
split_gain=212.701 48.9708 32.4767 10.4362 4.95169 4.40659 3.17227
threshold=0.24772393137849522 0.11915791276762304 0.46728621340413995 0.059520710137654122 0.56897188803650389 0.34045233678040127 0.18015885649625887
decision_type=2 2 2 2 2 2 2
left_child=1 3 5 -1 -4 -2 -3
right_child=2 6 4 -5 -6 -7 -8
leaf_value=-0.0032701796324824998 0.0074626322245982379 0.0014209444929717218 0.016459473156040287 -0.0010094201438280608 0.023916741640097654 0.011882484974085736 0.0035774717242219247
leaf_weight=9416 1060 2630 297 5250 291 574 1969
leaf_count=9416 1060 2630 297 5250 291 574 1969
internal_value=5.90511e-05 -0.0013138 0.0119618 -0.00246089 0.0201501 0.00901526 0.00234423
internal_weight=21487 19265 2222 14666 588 1634 4599
internal_count=21487 19265 2222 14666 588 1634 4599
is_linear=0
shrinkage=0.0406293


Tree=3
num_leaves=8
num_cat=0
split_feature=31 31 31 31 31 31 31
split_gain=195.768 45.1168 29.8913 7.60981 4.78188 4.60211 4.05579
threshold=0.24772393137849522 0.1054775124672261 0.46728621340413995 0.059520710137654122 0.14582614862206697 0.61337358725133639 0.34045233678040127
decision_type=2 2 2 2 2 2 2
left_child=1 3 6 -1 -3 -4 -2
right_child=2 4 5 -5 -6 -7 -8
leaf_value=-0.0031373146126556992 0.0071594308346133772 0.00035571561658763944 0.016838216396478832 -0.001104626612873953 0.002856451857812236 0.024513498711419786 0.011399708102582244
leaf_weight=9416 1060 2035 397 4490 3324 191 574
leaf_count=9416 1060 2035 397 4490 3324 191 574
internal_value=5.66519e-05 -0.00126042 0.0114758 -0.002481 0.00190683 0.0193314 0.00864898
internal_weight=21487 19265 2222 13906 5359 588 1634
internal_count=21487 19265 2222 13906 5359 588 1634
is_linear=0
shrinkage=0.0406293


Tree=4
num_leaves=8
num_cat=0
split_feature=31 31 31 31 31 31 31
split_gain=180.183 41.5754 27.5117 9.11823 4.30045 3.75799 2.59793
threshold=0.24772393137849522 0.12107003584340137 0.46728621340413995 0.064756252010957457 0.56897188803650389 0.35561585784801869 0.18015885649625887
decision_type=2 2 2 2 2 2 2
left_child=1 3 5 -1 -4 -2 -3
right_child=2 6 4 -5 -6 -7 -8
leaf_value=-0.0029374859886196645 0.0070372337386741656 0.0013483953299225728 0.015106611117356195 -0.00076550237780711853 0.022056216750743336 0.011309844421621062 0.0033160657959609889
leaf_weight=10100 1152 2532 297 4664 291 482 1969
leaf_count=10100 1152 2532 297 4664 291 482 1969
internal_value=5.43501e-05 -0.00120921 0.0110096 -0.00225135 0.018546 0.00829758 0.00220917
internal_weight=21487 19265 2222 14764 588 1634 4501
internal_count=21487 19265 2222 14764 588 1634 4501
is_linear=0
shrinkage=0.0406293


Tree=5
num_leaves=8
num_cat=0
split_feature=31 31 31 31 31 31 31
split_gain=165.839 38.3249 25.3216 6.3552 4.32679 3.99621 3.47019
threshold=0.24772393137849522 0.09093255772750429 0.46728621340413995 0.14582614862206697 0.059520710137654122 0.61337358725133639 0.34045233678040127
decision_type=2 2 2 2 2 2 2
left_child=1 4 6 -3 -1 -4 -2
right_child=2 3 5 -5 -6 -7 -8
leaf_value=-0.0028904997794897544 0.0065826300943935736 7.852048652468927e-05 0.01546919798817189 0.00263825581918557 -0.0012060910994843139 0.022621402679740034 0.010504858165977167
leaf_weight=9416 1060 3089 397 3324 3436 191 574
leaf_count=9416 1060 3089 397 3324 3436 191 574
internal_value=5.21419e-05 -0.00116008 0.0105623 0.00140529 -0.00244017 0.0177924 0.00796045
internal_weight=21487 19265 2222 6413 12852 588 1634
internal_count=21487 19265 2222 6413 12852 588 1634
is_linear=0
shrinkage=0.0406293


Tree=6
num_leaves=8
num_cat=0
split_feature=31 31 31 31 31 31 31
split_gain=152.637 35.3664 23.3058 5.93161 3.73992 3.73488 3.21579
threshold=0.24772393137849522 0.1054775124672261 0.46728621340413995 0.059520710137654122 0.14582614862206697 0.56897188803650389 0.35561585784801869
decision_type=2 2 2 2 2 2 2
left_child=1 3 6 -1 -3 -4 -2
right_child=2 4 5 -5 -6 -7 -8
leaf_value=-0.0027730608959110866 0.0064711419783317096 0.00031950003883762134 0.013864337629332186 -0.00097845072883273772 0.0025310653440467068 0.020340855715044719 0.010423528516826285
leaf_weight=9416 1152 2035 297 4490 3324 291 482
leaf_count=9416 1152 2035 297 4490 3324 291 482
internal_value=5.00234e-05 -0.00111295 0.0101331 -0.00219361 0.00169126 0.0170696 0.00763702
internal_weight=21487 19265 2222 13906 5359 588 1634
internal_count=21487 19265 2222 13906 5359 588 1634
is_linear=0
shrinkage=0.0406293


Tree=7
num_leaves=8
num_cat=0
split_feature=31 31 31 31 31 31 31
split_gain=140.486 32.6176 21.4504 7.13165 3.47006 3.00977 2.16827
threshold=0.24772393137849522 0.12107003584340137 0.46728621340413995 0.064756252010957457 0.61337358725133639 0.32737293887156166 0.18015885649625887
decision_type=2 2 2 2 2 2 2
left_child=1 3 5 -1 -4 -2 -3
right_child=2 6 4 -5 -6 -7 -8
leaf_value=-0.002597604164445546 0.0058785330951450446 0.0011736984564247105 0.014211116228593232 -0.00067674177083235608 0.020875876894805856 0.0094263055608295298 0.0029713107300187603
leaf_weight=10100 967 2532 397 4664 191 667 1969
leaf_count=10100 967 2532 397 4664 191 667 1969
internal_value=4.7991e-05 -0.00106773 0.00972142 -0.0019908 0.016376 0.00732674 0.00196008
internal_weight=21487 19265 2222 14764 588 1634 4501
internal_count=21487 19265 2222 14764 588 1634 4501
is_linear=0
shrinkage=0.0406293


Tree=8
num_leaves=8
num_cat=0
split_feature=31 31 31 31 31 31 31
split_gain=129.302 30.1124 19.7428 4.94562 3.59365 3.24371 2.77391
threshold=0.24772393137849522 0.09093255772750429 0.46728621340413995 0.14582614862206697 0.03543936287294721 0.56897188803650389 0.35561585784801869
decision_type=2 2 2 2 2 2 2
left_child=1 4 6 -3 -1 -4 -2
right_child=2 3 5 -5 -6 -7 -8
leaf_value=-0.0028830178088815029 0.0059462357888542296 7.9191791911090043e-05 0.012723653133637889 0.0023372798650659094 -0.0015214828899228045 0.018759302785987562 0.0096170441057397259
leaf_weight=6018 1152 3089 297 3324 6834 291 482
leaf_count=6018 1152 3089 297 3324 6834 291 482
internal_value=4.60412e-05 -0.00102435 0.00932645 0.00124961 -0.00215903 0.0157107 0.00702906
internal_weight=21487 19265 2222 6413 12852 588 1634
internal_count=21487 19265 2222 6413 12852 588 1634
is_linear=0
shrinkage=0.0406293


Tree=9
num_leaves=8
num_cat=0
split_feature=31 31 31 31 31 31 31
split_gain=119.009 27.7465 18.1711 5.96898 3.01317 2.59751 2.02318
threshold=0.24772393137849522 0.11915791276762304 0.46728621340413995 0.064756252010957457 0.61337358725133639 0.32737293887156166 0.18015885649625887
decision_type=2 2 2 2 2 2 2
left_child=1 3 5 -1 -4 -2 -3
right_child=2 6 4 -5 -6 -7 -8
leaf_value=-0.0023972875847789827 0.0053981008438406227 0.0010334119141628799 0.013055006109063804 -0.00062711087943777787 0.019265527665205281 0.0086939539337597023 0.002755626406234129
leaf_weight=10100 967 2630 397 4566 191 667 1969
leaf_count=10100 967 2630 397 4566 191 667 1969
internal_value=4.41706e-05 -0.00098273 0.00894752 -0.00184617 0.0150724 0.00674347 0.00177075
internal_weight=21487 19265 2222 14666 588 1634 4599
internal_count=21487 19265 2222 14666 588 1634 4599
is_linear=0
shrinkage=0.0406293


Tree=10
num_leaves=8
num_cat=0
split_feature=31 31 31 31 31 16 31
split_gain=105.558 20.6439 16.5562 4.46432 3.41812 2.91957 1.44321
threshold=0.22214561107498562 0.46728621340413995 0.063192133492228991 0.14829381677019068 0.34045233678040127 1.0000000180025095e-35 0.021773090424470832
decision_type=2 2 2 2 2 2 2
left_child=2 4 6 -4 -2 -3 -1
right_child=1 5 3 -5 -6 -7 -8
leaf_value=-0.0029440436439545732 0.0045130296770069791 0.015513502701256178 -0.0004991681458010374 0.0015173792272130029 0.00813842680038083 0.0086350995912877863 -0.0019386227255151715
leaf_weight=3880 1677 458 6135 2572 577 131 6003
leaf_count=3880 1677 458 6135 2572 577 131 6003
internal_value=-8.02283e-05 0.00721091 -0.00119527 9.65089e-05 0.00544109 0.0139837 -0.00233334
internal_weight=21433 2843 18590 8707 2254 589 9883
internal_count=21433 2843 18590 8707 2254 589 9883
is_linear=0
shrinkage=0.0406293


Tree=11
num_leaves=8
num_cat=0
split_feature=31 31 31 31 31 16 31
split_gain=97.155 19.0005 15.3265 3.14601 3.02872 2.68715 2.16283
threshold=0.22214561107498562 0.46728621340413995 0.089866139594570044 0.34045233678040127 0.033524972079522021 1.0000000180025095e-35 0.14829381677019068
decision_type=2 2 2 2 2 2 2
left_child=2 3 4 -2 -1 -3 -4
right_child=1 5 6 -5 -6 -7 -8
leaf_value=-0.0026340777551692143 0.0043296686697404741 0.014883199968478828 -0.00011747366022973408 0.0078077685024045499 -0.0013738946764342188 0.0082842614698616489 0.0014557292210707533
leaf_weight=5699 1677 458 3285 577 7034 131 2572
leaf_count=5699 1677 458 3285 577 7034 131 2572
internal_value=-7.69686e-05 0.00691793 -0.00114671 0.00522003 -0.00193792 0.0134155 0.000573371
internal_weight=21433 2843 18590 2254 12733 589 5857
internal_count=21433 2843 18590 2254 12733 589 5857
is_linear=0
shrinkage=0.0406293


Tree=12
num_leaves=8
num_cat=0
split_feature=31 31 31 31 31 16 31
split_gain=89.4207 17.4879 14.1756 3.76918 2.89557 2.47323 1.23185
threshold=0.22214561107498562 0.46728621340413995 0.063192133492228991 0.12107003584340137 0.34045233678040127 1.0000000180025095e-35 0.021773090424470832
decision_type=2 2 2 2 2 2 2
left_child=2 4 6 -4 -2 -3 -1
right_child=1 5 3 -5 -6 -7 -8
leaf_value=-0.0027174084598425184 0.0041537572321199336 0.014278505706683223 -0.00065550410926334761 0.0010470958494899355 0.0074905440059637044 0.0079476781436875685 -0.0017885229324982157
leaf_weight=3880 1677 458 4868 3839 577 131 6003
leaf_count=3880 1677 458 4868 3839 577 131 6003
internal_value=-7.38415e-05 0.00663686 -0.00110012 9.51886e-05 0.00500794 0.0128705 -0.0021532
internal_weight=21433 2843 18590 8707 2254 589 9883
internal_count=21433 2843 18590 8707 2254 589 9883
is_linear=0
shrinkage=0.0406293


Tree=13
num_leaves=8
num_cat=0
split_feature=31 31 31 31 31 16 31
split_gain=82.3021 16.0957 13.0656 3.04704 2.66506 2.27634 1.51994
threshold=0.22214561107498562 0.46728621340413995 0.070580140659163085 0.14829381677019068 0.34045233678040127 1.0000000180025095e-35 0.033524972079522021
decision_type=2 2 2 2 2 2 2
left_child=2 4 6 -4 -2 -3 -1
right_child=1 5 3 -5 -6 -7 -8
leaf_value=-0.002428696371094071 0.0039849933224005568 0.013698380897966978 -0.00035291475595632761 0.0013540412888022944 0.0071862088201609881 0.0076247695984893475 -0.0014616241260843883
leaf_weight=5699 1677 458 5250 2572 577 131 5069
leaf_count=5699 1677 458 5250 2572 577 131 5069
internal_value=-7.08413e-05 0.00636721 -0.00105542 0.00020836 0.00480447 0.0123475 -0.00197345
internal_weight=21433 2843 18590 7822 2254 589 10768
internal_count=21433 2843 18590 7822 2254 589 10768
is_linear=0
shrinkage=0.0406293


Tree=14
num_leaves=8
num_cat=0
split_feature=31 31 31 31 31 16 31
split_gain=75.7502 14.8144 12.0913 2.4529 2.37056 2.09512 1.72845
threshold=0.22214561107498562 0.46728621340413995 0.089866139594570044 0.34045233678040127 0.036104239815466732 1.0000000180025095e-35 0.17270881255586576
decision_type=2 2 2 2 2 2 2
left_child=2 3 4 -2 -1 -3 -4
right_child=1 5 6 -5 -6 -7 -8
leaf_value=-0.0022947534607029099 0.0038230856672183118 0.013141824967503175 8.1463575400759269e-05 0.0068942381046585731 -0.0011849292045822801 0.0073149804806031948 0.0016382589383283255
leaf_weight=6085 1677 458 4225 577 6648 131 1632
leaf_count=6085 1677 458 4225 577 6648 131 1632
internal_value=-6.79631e-05 0.00610852 -0.00101254 0.00460927 -0.00171531 0.0118459 0.000515251
internal_weight=21433 2843 18590 2254 12733 589 5857
internal_count=21433 2843 18590 2254 12733 589 5857
is_linear=0
shrinkage=0.0406293


Tree=15
num_leaves=8
num_cat=0
split_feature=31 31 31 31 26 6 31
split_gain=69.7199 13.6765 11.2075 3.01102 2.93813 1.39535 0.995971
threshold=0.22214561107498562 0.41137836925040189 0.063192133492228991 0.12107003584340137 1.5000000000000002 1.4500000000000002 0.021773090424470832
decision_type=2 2 2 2 2 2 2
left_child=2 5 6 -4 -3 -2 -1
right_child=1 4 3 -5 -6 -7 -8
leaf_value=-0.0024150917059318489 0.0027023111561385212 0.0022232095578994964 -0.00057953006523965057 0.00094222945422705348 0.011251280515409001 0.004914527184833364 -0.0015798602009237058
leaf_weight=3880 722 65 4868 3839 704 1352 6003
leaf_count=3880 722 65 4868 3839 704 1352 6003
internal_value=-6.52018e-05 0.00586033 -0.000971403 9.14283e-05 0.0104882 0.00414441 -0.00190777
internal_weight=21433 2843 18590 8707 769 2074 9883
internal_count=21433 2843 18590 8707 769 2074 9883
is_linear=0
shrinkage=0.0406293


Tree=16
num_leaves=8
num_cat=0
split_feature=31 31 31 31 31 16 31
split_gain=64.1696 12.6397 10.3153 2.82154 2.16117 1.92366 0.916684
threshold=0.22214561107498562 0.46728621340413995 0.063192133492228991 0.14829381677019068 0.34045233678040127 1.0000000180025095e-35 0.021773090424470832
decision_type=2 2 2 2 2 2 2
left_child=2 4 6 -4 -2 -3 -1
right_child=1 5 3 -5 -6 -7 -8
leaf_value=-0.0023169682948533128 0.0034994364710768805 0.012163565030621255 -0.000385847520752642 0.0012173009365873139 0.0063821811241407444 0.0065802465389352503 -0.0015156716990827586
leaf_weight=3880 1677 458 6135 2572 577 131 6003
leaf_count=3880 1677 458 6135 2572 577 131 6003
internal_value=-6.25527e-05 0.00562223 -0.000931936 8.77137e-05 0.00423739 0.0109218 -0.00183026
internal_weight=21433 2843 18590 8707 2254 589 9883
internal_count=21433 2843 18590 8707 2254 589 9883
is_linear=0
shrinkage=0.0406293


Tree=17
num_leaves=8
num_cat=0
split_feature=31 31 31 6 31 16 5
split_gain=59.0612 11.6335 9.55991 2.002 1.86851 1.77052 1.42653
threshold=0.22214561107498562 0.46728621340413995 0.089866139594570044 1.4500000000000002 0.033524972079522021 1.0000000180025095e-35 435.50000000000006
decision_type=2 2 2 2 2 2 2
left_child=2 3 4 -2 -1 -3 -4
right_child=1 5 6 -5 -6 -7 -8
leaf_value=-0.002065748244368522 0.0023708850602338852 0.011669367953661336 0.0010870072513113702 0.0049305667594773221 -0.0010759388659861533 0.0063128960889190337 -0.00018135757766778532
leaf_weight=5699 762 458 2982 1492 7034 131 2875
leaf_count=5699 762 458 2982 1492 7034 131 2875
internal_value=-6.00112e-05 0.0053938 -0.000894072 0.00406523 -0.00151895 0.010478 0.000464411
internal_weight=21433 2843 18590 2254 12733 589 5857
internal_count=21433 2843 18590 2254 12733 589 5857
is_linear=0
shrinkage=0.0406293


Tree=18
num_leaves=8
num_cat=0
split_feature=31 31 31 26 31 29 31
split_gain=54.3595 10.8357 8.83235 2.55018 2.44752 1.29089 0.783304
threshold=0.22214561107498562 0.41137836925040189 0.063192133492228991 1.5000000000000002 0.14829381677019068 203.88538207862433 0.021773090424470832
decision_type=2 2 2 2 2 2 2
left_child=2 5 6 -3 -4 -2 -1
right_child=1 3 4 -5 -6 -7 -8
leaf_value=-0.002138901561578717 0.0030579488607411108 0.0015939224714036353 -0.00035529202519532993 0.010004870515441088 0.0011378239967871657 0.0053906343319565179 -0.0013981906005992163
leaf_weight=3880 1550 65 6135 704 2572 524 6003
leaf_count=3880 1550 65 6135 704 2572 524 6003
internal_value=-5.7573e-05 0.00517466 -0.000857747 0.00929393 8.57663e-05 0.00364731 -0.00168899
internal_weight=21433 2843 18590 769 8707 2074 9883
internal_count=21433 2843 18590 769 8707 2074 9883
is_linear=0
shrinkage=0.0406293


Tree=19
num_leaves=8
num_cat=0
split_feature=31 31 31 26 31 30 3
split_gain=50.0321 9.97311 8.19769 2.34717 2.23238 1.22388 1.21852
threshold=0.22214561107498562 0.41137836925040189 0.11357137289468711 1.5000000000000002 0.036104239815466732 64.433715235382451 1.5000000000000002
decision_type=2 2 2 2 2 2 2
left_child=2 6 4 -3 -1 -4 -2
right_child=1 3 5 -5 -6 -7 -8
leaf_value=-0.0018759775743951066 -0.00049252277412360258 0.001529162192493693 -0.0011544844838088384 0.0095983798719111516 -0.00085117183810394514 0.00100349765722407 0.0037420882372740522
leaf_weight=6085 119 65 491 704 8288 3726 1955
leaf_count=6085 119 65 491 704 8288 3726 1955
internal_value=-5.52339e-05 0.00496441 -0.000822897 0.00891633 -0.00128504 0.000752236 0.00349912
internal_weight=21433 2843 18590 769 14373 4217 2074
internal_count=21433 2843 18590 769 14373 4217 2074
is_linear=0
shrinkage=0.0406293


Tree=20
num_leaves=8
num_cat=0
split_feature=31 31 31 18 31 31 31
split_gain=47.7378 10.5325 9.88218 2.08902 2.08647 2.01792 1.85062
threshold=0.24772393137849522 0.088725715357539939 0.56897188803650389 315.71500000000009 0.38968124462362669 0.16760153588349885 0.056472768202864294
decision_type=2 2 2 2 2 2 2
left_child=1 6 4 -4 -2 -3 -1
right_child=2 5 3 -5 -6 -7 -8
leaf_value=-0.0016617613009118203 0.0036624525757805661 0.00010457043547951185 0.0075386087071168681 0.014750371150615192 0.006567500590697958 0.0015702103311864206 -0.00057422079410147627
leaf_weight=9003 1366 4175 98 205 582 2467 3622
leaf_count=9003 1366 4175 98 205 582 2467 3622
internal_value=-6.62557e-06 -0.000660735 0.00559209 0.0124179 0.00453039 0.000648945 -0.00134976
internal_weight=21518 19267 2251 303 1948 6642 12625
internal_count=21518 19267 2251 303 1948 6642 12625
is_linear=0
shrinkage=0.0406293


Tree=21
num_leaves=8
num_cat=0
split_feature=31 31 31 18 31 31 31
split_gain=43.9375 9.69407 9.09548 1.92271 1.92037 1.85727 1.70329
threshold=0.24772393137849522 0.088725715357539939 0.56897188803650389 315.71500000000009 0.38968124462362669 0.16760153588349885 0.056472768202864294
decision_type=2 2 2 2 2 2 2
left_child=1 6 4 -4 -2 -3 -1
right_child=2 5 3 -5 -6 -7 -8
leaf_value=-0.0015942451115138971 0.0035136501171138613 0.0001003217994451372 0.0072323201485770374 0.014151073074723524 0.0063006678225651282 0.0015064139472919925 -0.00055089066145402724
leaf_weight=9003 1366 4175 98 205 582 2467 3622
leaf_count=9003 1366 4175 98 205 582 2467 3622
internal_value=-6.35635e-06 -0.000633889 0.00536489 0.0119133 0.00434632 0.000622579 -0.00129492
internal_weight=21518 19267 2251 303 1948 6642 12625
internal_count=21518 19267 2251 303 1948 6642 12625
is_linear=0
shrinkage=0.0406293


Tree=22
num_leaves=8
num_cat=0
split_feature=31 31 31 15 18 31 31
split_gain=40.4397 8.92234 8.37141 1.79925 1.76965 1.70942 1.5677
threshold=0.24772393137849522 0.088725715357539939 0.56897188803650389 1.0000000180025095e-35 315.71500000000009 0.16760153588349885 0.056472768202864294
decision_type=2 2 2 2 2 2 2
left_child=1 6 3 -2 -4 -3 -1
right_child=2 5 4 -5 -6 -7 -8
leaf_value=-0.0015294720485296395 0.0025920907282931923 9.6245809914276349e-05 0.0069384758616858012 0.0051361702924349138 0.013576125702265905 0.0014452093670209102 -0.0005285083676450391
leaf_weight=9003 740 4175 98 1208 205 2467 3622
leaf_count=9003 740 4175 98 1208 205 2467 3622
internal_value=-6.09811e-06 -0.000608135 0.00514692 0.00416973 0.0114293 0.000597284 -0.0012423
internal_weight=21518 19267 2251 1948 303 6642 12625
internal_count=21518 19267 2251 1948 303 6642 12625
is_linear=0
shrinkage=0.0406293


Tree=23
num_leaves=8
num_cat=0
split_feature=31 31 31 31 18 31 31
split_gain=37.2204 8.21205 7.70498 1.71067 1.62877 1.57334 1.4429
threshold=0.24772393137849522 0.088725715357539939 0.56897188803650389 0.38968124462362669 315.71500000000009 0.16760153588349885 0.056472768202864294
decision_type=2 2 2 2 2 2 2
left_child=1 6 3 -2 -4 -3 -1
right_child=2 5 4 -5 -6 -7 -8
leaf_value=-0.0014673307354719971 0.0032144257143064399 9.2335328326616426e-05 0.0066565707378434223 0.0058448774803851319 0.013024536971397082 0.001386491637115623 -0.00050703543284098612
leaf_weight=9003 1366 4175 98 582 205 2467 3622
leaf_count=9003 1366 4175 98 582 205 2467 3622
internal_value=-5.85035e-06 -0.000583427 0.0049378 0.00400032 0.0109649 0.000573016 -0.00119183
internal_weight=21518 19267 2251 1948 303 6642 12625
internal_count=21518 19267 2251 1948 303 6642 12625
is_linear=0
shrinkage=0.0406293


Tree=24
num_leaves=8
num_cat=0
split_feature=31 31 31 0 18 31 31
split_gain=34.2574 7.56389 7.0916 1.63097 1.49911 1.4418 1.3492
threshold=0.24772393137849522 0.092015322005751576 0.56897188803650389 51.500000000000007 315.71500000000009 0.056472768202864294 0.16760153588349885
decision_type=2 2 2 2 2 2 2
left_child=1 5 3 -2 -4 -1 -3
right_child=2 6 4 -5 -6 -7 -8
leaf_value=-0.0014077140998049755 0.002982697131769635 0.00011589419114404052 0.0063861188690265682 0.0054540936440928382 0.012495359125464749 -0.00047258494189221468 0.0013301593593108734
leaf_weight=9003 1274 3896 98 674 205 3901 2467
leaf_count=9003 1274 3896 98 674 205 3901 2467
internal_value=-5.61267e-06 -0.000559723 0.00473719 0.00383779 0.0105194 -0.00112502 0.000586677
internal_weight=21518 19267 2251 1948 303 12904 6363
internal_count=21518 19267 2251 1948 303 12904 6363
is_linear=0
shrinkage=0.0406293


Tree=25
num_leaves=8
num_cat=0
split_feature=31 31 31 15 18 31 31
split_gain=31.5302 6.96175 6.52705 1.59276 1.37977 1.32702 1.24179
threshold=0.24772393137849522 0.092015322005751576 0.56897188803650389 1.0000000180025095e-35 315.71500000000009 0.056472768202864294 0.16760153588349885
decision_type=2 2 2 2 2 2 2
left_child=1 5 3 -2 -4 -1 -3
right_child=2 6 4 -5 -6 -7 -8
leaf_value=-0.001350519630499151 0.0021975113896487829 0.00011118547109736636 0.0061266555864595484 0.0045911522217589118 0.011987682085836292 -0.00045338404640983776 0.0012761159772575941
leaf_weight=9003 740 3896 98 1208 205 3901 2467
leaf_count=9003 740 3896 98 1208 205 3901 2467
internal_value=-5.38458e-06 -0.000536982 0.00454472 0.00368186 0.010092 -0.00107931 0.000562841
internal_weight=21518 19267 2251 1948 303 12904 6363
internal_count=21518 19267 2251 1948 303 12904 6363
is_linear=0
shrinkage=0.0406293


Tree=26
num_leaves=8
num_cat=0
split_feature=31 31 31 31 18 31 16
split_gain=29.0202 6.41035 6.00745 1.52354 1.26993 1.22465 1.15436
threshold=0.24772393137849522 0.088725715357539939 0.56897188803650389 0.38968124462362669 315.71500000000009 0.16760153588349885 1.0000000180025095e-35
decision_type=2 2 2 2 2 2 2
left_child=1 6 3 -2 -4 -3 -1
right_child=2 5 4 -5 -6 -7 -8
leaf_value=-0.00070219750020055914 0.0027906081010541069 8.2488385107452384e-05 0.0058777338280728399 0.0052730160596189436 0.011500630923886191 0.0012242683433353486 -0.0014833248517465238
leaf_weight=6960 1366 4175 98 582 205 2467 5665
leaf_count=6960 1366 4175 98 582 205 2467 5665
internal_value=-5.1658e-06 -0.000515164 0.00436007 0.00353227 0.009682 0.000506573 -0.0010527
internal_weight=21518 19267 2251 1948 303 6642 12625
internal_count=21518 19267 2251 1948 303 6642 12625
is_linear=0
shrinkage=0.0406293


Tree=27
num_leaves=8
num_cat=0
split_feature=31 31 31 28 1 5 31
split_gain=26.7099 5.90446 5.52921 1.49714 1.25317 1.21014 1.19344
threshold=0.24772393137849522 0.092015322005751576 0.56897188803650389 2016.5000000000002 38.500000000000007 2911.5000000000005 0.056472768202864294
decision_type=2 2 2 2 2 2 2
left_child=1 6 3 -2 -4 -3 -1
right_child=2 5 4 -5 -6 -7 -8
leaf_value=-0.0012508824742529481 0.0035734415957478487 0.00062035072910363953 0.011962614923833602 -0.0034807368543852942 0.006735408367261277 -0.0025678839493056779 -0.00040009821081820864
leaf_weight=9003 1897 6160 148 51 155 203 3901
leaf_count=9003 1897 6160 148 51 155 203 3901
internal_value=-4.95592e-06 -0.000494234 0.00418292 0.00338876 0.00928863 0.000518636 -0.000993682
internal_weight=21518 19267 2251 1948 303 6363 12904
internal_count=21518 19267 2251 1948 303 6363 12904
is_linear=0
shrinkage=0.0406293


Tree=28
num_leaves=8
num_cat=0
split_feature=31 31 31 31 0 5 19
split_gain=24.5836 5.50768 5.08904 1.67313 1.4901 1.25759 1.20433
threshold=0.24772393137849522 0.12107003584340137 0.56897188803650389 0.056472768202864294 51.500000000000007 761.50000000000011 0.024264270463213354
decision_type=2 2 2 2 2 2 2
left_child=1 3 4 -1 -2 -3 -4
right_child=2 5 6 -5 -6 -7 -8
leaf_value=-0.0012000600333587459 0.0024337455069309444 0.0010679674025225758 0.0074681700844135218 -0.00031268159892329029 0.0047959988391477306 -0.00075969078948957011 0.013457901902975262
leaf_weight=9003 1274 3774 230 5746 674 744 73
leaf_count=9003 1274 3774 230 5746 674 744 73
internal_value=-4.75458e-06 -0.000474153 0.00401297 -0.00085435 0.00325108 0.000766998 0.00891124
internal_weight=21518 19267 2251 14749 1948 4518 303
internal_count=21518 19267 2251 14749 1948 4518 303
is_linear=0
shrinkage=0.0406293


Tree=29
num_leaves=8
num_cat=0
split_feature=31 31 31 31 15 3 25
split_gain=22.6266 5.06923 4.68391 1.53994 1.42016 1.1765 1.16148
threshold=0.24772393137849522 0.12107003584340137 0.56897188803650389 0.056472768202864294 1.0000000180025095e-35 9.5000000000000018 1070.5000000000002
decision_type=2 2 2 2 2 2 2
left_child=1 3 4 -1 -2 -3 -4
right_child=2 5 6 -5 -6 -7 -8
leaf_value=-0.0011513024489646431 0.0017173660048240196 -0.00026061972265863754 0.015293889777936651 -0.00029997758453967772 0.0039775951804703804 0.0011672224596373298 0.0076110100415128562
leaf_weight=9003 740 1365 37 5746 1208 3153 266
leaf_count=9003 740 1365 37 5746 1208 3153 266
internal_value=-4.5614e-06 -0.000454889 0.00384993 -0.000819638 0.00311899 0.000735836 0.00854918
internal_weight=21518 19267 2251 14749 1948 4518 303
internal_count=21518 19267 2251 14749 1948 4518 303
is_linear=0
shrinkage=0.0406293


Tree=30
num_leaves=8
num_cat=0
split_feature=31 29 19 31 7 31 16
split_gain=20.5587 6.65832 2.89319 2.19674 1.576 1.02415 0.272884
threshold=0.16760153588349885 306.35349428936468 0.024633393899813404 0.033524972079522021 1388.5000000000002 0.11357137289468711 1.0000000180025095e-35
decision_type=2 2 2 2 2 2 2
left_child=3 4 -3 6 -2 -5 -1
right_child=1 2 -4 5 -6 -7 -8
leaf_value=-0.00092376588155860194 -0.00047403129880181275 0.0047877774680082745 0.011317368867498468 -0.00050451406875047587 0.0020842248991949407 0.00044327751374056816 -0.0015004191337377967
leaf_weight=2199 448 517 143 8680 3527 2403 3528
leaf_count=2199 448 517 143 8680 3527 2403 3528
internal_value=2.7677e-05 0.00242338 0.00620252 -0.000632887 0.0017959 -0.000299015 -0.001279
internal_weight=21445 4635 660 16810 3975 11083 5727
internal_count=21445 4635 660 16810 3975 11083 5727
is_linear=0
shrinkage=0.0406293


Tree=31
num_leaves=8
num_cat=0
split_feature=31 29 19 31 7 5 16
split_gain=18.922 6.12827 2.66286 2.02186 1.5255 0.956436 0.25116
threshold=0.16760153588349885 306.35349428936468 0.024633393899813404 0.033524972079522021 2994.0000000000005 435.50000000000006 1.0000000180025095e-35
decision_type=2 2 2 2 2 2 2
left_child=3 4 -3 6 -2 -5 -1
right_child=1 2 -4 5 -6 -7 -8
leaf_value=-0.00088623398087857221 0.0018071397181727233 0.0045932534277355443 0.010857552194219132 0.0005128394123925258 -0.005800251328748173 -0.00046500046113665417 -0.0014394581293202164
leaf_weight=2199 3931 517 143 2019 44 9064 3528
leaf_count=2199 3931 517 143 2019 44 9064 3528
internal_value=2.65525e-05 0.00232492 0.00595052 -0.000607173 0.00172293 -0.000286866 -0.00122704
internal_weight=21445 4635 660 16810 3975 11083 5727
internal_count=21445 4635 660 16810 3975 11083 5727
is_linear=0
shrinkage=0.0406293


Tree=32
num_leaves=8
num_cat=0
split_feature=31 29 19 31 7 30 16
split_gain=17.4157 5.64041 2.45088 1.91046 1.4551 1.06629 1.03428
threshold=0.16760153588349885 306.35349428936468 0.024633393899813404 0.088725715357539939 1388.5000000000002 9.9540244105337354 1.0000000180025095e-35
decision_type=2 2 2 2 2 2 2
left_child=3 4 -3 6 -2 -5 -1
right_child=1 2 -4 5 -6 -7 -8
leaf_value=-0.00049934907784076796 -0.00052819450047459585 0.0044066328175749857 0.010416417635211539 0.0072405632107867268 0.0019299773548144795 0.00011855718221566096 -0.0012367667661006994
leaf_weight=7028 448 517 143 35 3527 4072 5675
leaf_count=7028 448 517 143 35 3527 4072 5675
internal_value=2.54737e-05 0.00223046 0.00570875 -0.000582504 0.00165293 0.000179251 -0.000828787
internal_weight=21445 4635 660 16810 3975 4107 12703
internal_count=21445 4635 660 16810 3975 4107 12703
is_linear=0
shrinkage=0.0406293


Tree=33
num_leaves=8
num_cat=0
split_feature=31 30 31 31 6 31 16
split_gain=16.0293 5.24157 1.93286 1.76773 1.21778 0.84964 0.205804
threshold=0.16760153588349885 514.73750777546854 0.61337358725133639 0.033524972079522021 1.3750000000000002 0.11357137289468711 1.0000000180025095e-35
decision_type=2 2 2 2 2 2 2
left_child=3 4 -3 6 -2 -5 -1
right_child=1 2 -4 5 -6 -7 -8
leaf_value=-0.00082993866567202771 0.00051564816482286603 0.0041148495648082681 0.0090751019913874829 -0.00044650990275335204 0.0020388859588098894 0.0004167642008978027 -0.0013307250723210036
leaf_weight=2199 1327 650 162 8680 2496 2403 3528
leaf_count=2199 1327 650 162 8680 2496 2403 3528
internal_value=2.44387e-05 0.00213984 0.00510446 -0.000558837 0.00151016 -0.000259336 -0.00113844
internal_weight=21445 4635 812 16810 3823 11083 5727
internal_count=21445 4635 812 16810 3823 11083 5727
is_linear=0
shrinkage=0.0406293


Tree=34
num_leaves=8
num_cat=0
split_feature=31 29 19 31 7 27 31
split_gain=14.7532 4.88264 2.23186 1.65092 1.41525 0.809322 0.579395
threshold=0.16760153588349885 306.35349428936468 0.024633393899813404 0.067276293638051862 2994.0000000000005 45.500000000000007 0.02426887579004346
decision_type=2 2 2 2 2 2 2
left_child=3 4 -3 6 -2 -5 -1
right_child=1 2 -4 5 -6 -7 -8
leaf_value=-0.0012165531584710282 0.0015966694607211101 0.004046541423183378 0.0097815122381039541 9.3900663485446833e-05 -0.0057306728586819945 -0.0018691292318111562 -0.00060043415432033597
leaf_weight=4236 3931 517 143 5988 44 368 6218
leaf_count=4236 3931 517 143 5988 44 368 6218
internal_value=2.34458e-05 0.0020529 0.00528912 -0.000536132 0.00151556 -1.97549e-05 -0.000850088
internal_weight=21445 4635 660 16810 3975 6356 10454
internal_count=21445 4635 660 16810 3975 6356 10454
is_linear=0
shrinkage=0.0406293


Tree=35
num_leaves=8
num_cat=0
split_feature=31 30 31 31 6 30 16
split_gain=13.5787 4.57853 1.72298 1.54388 1.11828 0.984213 0.877503
threshold=0.16760153588349885 514.73750777546854 0.61337358725133639 0.088725715357539939 1.3750000000000002 9.9540244105337354 1.0000000180025095e-35
decision_type=2 2 2 2 2 2 2
left_child=3 4 -3 6 -2 -5 -1
right_child=1 2 -4 5 -6 -7 -8
leaf_value=-0.00043230306718358171 0.00042796763273793222 0.0038059319397936403 0.0084891326139883271 0.0069545191297493035 0.0018876494461465649 0.00011212232566077922 -0.0011115344973857359
leaf_weight=7028 1327 650 162 35 2496 4072 5675
leaf_count=7028 1327 650 162 35 2496 4072 5675
internal_value=2.24932e-05 0.00196949 0.00474027 -0.000514349 0.00138098 0.000170433 -0.000735746
internal_weight=21445 4635 812 16810 3823 4107 12703
internal_count=21445 4635 812 16810 3823 4107 12703
is_linear=0
shrinkage=0.0406293


Tree=36
num_leaves=8
num_cat=0
split_feature=31 29 19 31 7 5 6
split_gain=12.4978 4.22495 2.03273 1.43228 1.34284 0.803161 0.182106
threshold=0.16760153588349885 306.35349428936468 0.024633393899813404 0.026685249510834438 1388.5000000000002 435.50000000000006 1.2750000000000001
decision_type=2 2 2 2 2 2 2
left_child=3 4 -3 6 -2 -5 -1
right_child=1 2 -4 5 -6 -7 -8
leaf_value=0.0010505004555587385 -0.00070566832829720963 0.0037140011192963005 0.009187162015909257 0.00047464027877275105 0.0016557783604308411 -0.00040994814737142164 -0.0011318969312334758
leaf_weight=64 448 517 143 2034 3527 10146 4566
leaf_count=64 448 517 143 2034 3527 10146 4566
internal_value=2.15793e-05 0.00188947 0.00489985 -0.000493452 0.00138963 -0.000262226 -0.00110173
internal_weight=21445 4635 660 16810 3975 12180 4630
internal_count=21445 4635 660 16810 3975 12180 4630
is_linear=0
shrinkage=0.0406293


Tree=37
num_leaves=8
num_cat=0
split_feature=31 30 31 31 28 30 16
split_gain=11.5028 3.99613 1.53537 1.34525 1.04581 0.90843 0.781233
threshold=0.16760153588349885 514.73750777546854 0.61337358725133639 0.088725715357539939 2010.5000000000002 9.9540244105337354 1.0000000180025095e-35
decision_type=2 2 2 2 2 2 2
left_child=3 4 -3 6 -2 -5 -1
right_child=1 2 -4 5 -6 -7 -8
leaf_value=-0.0003937533140189584 0.0014964411503935737 0.0035192623152620482 0.0079401578462756275 0.006683483525209144 -0.00067066075510940914 0.00010979196086883115 -0.001034643848232713
leaf_weight=7028 3411 650 162 35 412 4072 5675
leaf_count=7028 3411 650 162 35 412 4072 5675
internal_value=2.07026e-05 0.0018127 0.00440126 -0.000473403 0.0012629 0.000165813 -0.000680068
internal_weight=21445 4635 812 16810 3823 4107 12703
internal_count=21445 4635 812 16810 3823 4107 12703
is_linear=0
shrinkage=0.0406293


Tree=38
num_leaves=8
num_cat=0
split_feature=31 30 26 31 6 5 2
split_gain=10.5871 3.67801 1.4433 1.25939 1.02617 0.675897 0.158906
threshold=0.16760153588349885 514.73750777546854 1.5000000000000002 0.033524972079522021 1.3750000000000002 435.50000000000006 7290.5000000000009
decision_type=2 2 2 2 2 2 2
left_child=3 4 -3 6 -2 -5 -1
right_child=1 2 -4 5 -6 -7 -8
leaf_value=-0.0011413010620052162 0.00029866477059232733 0.001294035339544647 0.0052243945200369296 0.00047089545361183569 0.001696939184087075 -0.00035112011895279538 -0.00071195918714667399
leaf_weight=3087 1327 207 605 2019 2496 9064 2640
leaf_count=3087 1327 207 605 2019 2496 9064 2640
internal_value=1.98615e-05 0.00173905 0.00422244 -0.000454169 0.00121158 -0.000201373 -0.000943385
internal_weight=21445 4635 812 16810 3823 11083 5727
internal_count=21445 4635 812 16810 3823 11083 5727
is_linear=0
shrinkage=0.0406293


Tree=39
num_leaves=8
num_cat=0
split_feature=31 29 19 7 31 2 31
split_gain=9.74431 3.44403 1.83985 1.32148 1.17647 0.772243 0.421748
threshold=0.16760153588349885 306.35349428936468 0.024633393899813404 2994.0000000000005 0.067276293638051862 6576.5000000000009 0.02426887579004346
decision_type=2 2 2 2 2 2 2
left_child=4 3 -3 -2 6 -6 -1
right_child=1 2 -4 -5 5 -7 -8
leaf_value=-0.0010134076645161706 0.0012954862287382503 0.0032581796120353845 0.0084651928425490131 -0.0057849615075869594 0.0055581969788107248 -3.5892920927766129e-05 -0.00048774903564591487
leaf_weight=4236 3931 517 143 44 41 6315 6218
leaf_count=4236 3931 517 143 44 41 6315 6218
internal_value=1.90545e-05 0.0016684 0.00438637 0.00121711 -0.000435717 1.92303e-07 -0.000700748
internal_weight=21445 4635 660 3975 16810 6356 10454
internal_count=21445 4635 660 3975 16810 6356 10454
is_linear=0
shrinkage=0.0406293


Tree=40
num_leaves=8
num_cat=0
split_feature=31 26 17 5 25 2 31
split_gain=11.8542 3.51615 2.71468 2.68368 1.52885 1.45937 0.509858
threshold=0.26433217968926409 1.5000000000000002 0.090753987293002422 435.50000000000006 1929.5000000000002 7805.5000000000009 0.088725715357539939
decision_type=2 2 2 2 2 2 2
left_child=3 5 -3 4 -1 -2 -5
right_child=1 2 -4 6 -6 -7 -8
leaf_value=0.00072741078049407373 0.0023899800271284825 0.0051549869954208155 0.00076840112094512072 -0.00068617025823119592 -0.004170930476699565 -0.0017733406295267224 -0.00010488589191853489
leaf_weight=4032 281 1041 300 12123 108 275 3135
leaf_count=4032 281 1041 300 12123 108 275 3135
internal_value=-1.80334e-05 0.00304733 0.00417365 -0.000317806 0.000599628 0.000330784 -0.000566736
internal_weight=21295 1897 1341 19398 4140 556 15258
internal_count=21295 1897 1341 19398 4140 556 15258
is_linear=0
shrinkage=0.0406293


Tree=41
num_leaves=8
num_cat=0
split_feature=31 26 17 5 25 2 29
split_gain=10.9105 3.23624 2.49857 2.47004 1.40714 1.34319 0.511086
threshold=0.26433217968926409 1.5000000000000002 0.090753987293002422 435.50000000000006 1929.5000000000002 7805.5000000000009 167.46296698272781
decision_type=2 2 2 2 2 2 2
left_child=3 5 -3 4 -1 -2 -5
right_child=1 2 -4 6 -6 -7 -8
leaf_value=0.00069785659747079675 0.0022928768112816036 0.0049455434691053832 0.0007371815640487933 -0.0005065376670167688 -0.0040014685016319419 -0.0017012911131830621 -0.0020312033991211572
leaf_weight=4032 281 1041 300 14886 108 275 372
leaf_count=4032 281 1041 300 14886 108 275 372
internal_value=-1.73008e-05 0.00292352 0.00400408 -0.000304894 0.000575266 0.000317344 -0.00054371
internal_weight=21295 1897 1341 19398 4140 556 15258
internal_count=21295 1897 1341 19398 4140 556 15258
is_linear=0
shrinkage=0.0406293


Tree=42
num_leaves=8
num_cat=0
split_feature=31 26 31 17 6 30 16
split_gain=10.042 2.97861 2.34903 2.29966 1.40988 1.24132 0.533394
threshold=0.26433217968926409 1.5000000000000002 0.098035985150281793 0.090753987293002422 3.8250000000000006 250.56475983527301 1.0000000180025095e-35
decision_type=2 2 2 2 2 2 2
left_child=2 5 6 -3 -4 -2 -1
right_child=1 3 4 -5 -6 -7 -8
leaf_value=-0.00036721705424542367 0.0038691800815844513 0.0047446096795128899 0.00065825479313891299 0.00070723034331839584 -0.00095712483300662088 -0.00072940365047715055 -0.00088531076685514811
leaf_weight=7479 125 1041 4990 300 1086 431 5843
leaf_count=7479 125 1041 4990 300 1086 431 5843
internal_value=-1.65978e-05 0.00280474 -0.000292506 0.00384139 0.000369528 0.000304451 -0.000594452
internal_weight=21295 1897 19398 1341 6076 556 13322
internal_count=21295 1897 19398 1341 6076 556 13322
is_linear=0
shrinkage=0.0406293


Tree=43
num_leaves=8
num_cat=0
split_feature=31 26 31 30 30 2 16
split_gain=9.24254 2.74149 2.16203 2.15101 1.40349 1.22862 0.490932
threshold=0.26433217968926409 1.5000000000000002 0.098035985150281793 261.24132195583013 11.033897776867226 7805.5000000000009 1.0000000180025095e-35
decision_type=2 2 2 2 2 2 2
left_child=2 5 6 -3 -4 -2 -1
right_child=1 3 4 -5 -6 -7 -8
leaf_value=-0.00035229728395305904 0.002181481218773 0.00076674673238231995 0.0091206403931705718 0.0045925593327215287 0.00031101743745565337 -0.0016385423340355787 -0.00084934124290536139
leaf_weight=7479 281 318 30 1023 6046 275 5843
leaf_count=7479 281 318 30 1023 6046 275 5843
internal_value=-1.59235e-05 0.00269078 -0.000280622 0.00368532 0.000354515 0.000292081 -0.0005703
internal_weight=21295 1897 19398 1341 6076 556 13322
internal_count=21295 1897 19398 1341 6076 556 13322
is_linear=0
shrinkage=0.0406293


Tree=44
num_leaves=8
num_cat=0
split_feature=31 6 5 30 25 25 11
split_gain=8.50676 2.56517 2.03155 1.98068 1.70708 1.29274 0.511412
threshold=0.26433217968926409 1.675 435.50000000000006 250.56475983527301 960.50000000000011 1929.5000000000002 35925.000000000007
decision_type=2 2 2 2 2 2 2
left_child=2 4 5 -3 -2 -1 -4
right_child=1 3 6 -5 -6 -7 -8
leaf_value=0.00064650267904294934 -0.0095042788104325558 0.00080919107101313234 -0.00044341156041690944 0.004568690551115924 0.00093329010956700697 -0.0038577489760340897 -0.0017909617045503419
leaf_weight=4032 27 306 14778 948 616 108 480
leaf_count=4032 27 306 14778 948 616 108 480
internal_value=-1.52765e-05 0.00258146 -0.00026922 0.0036513 0.00049501 0.000529 -0.000485804
internal_weight=21295 1897 19398 1254 643 4140 15258
internal_count=21295 1897 19398 1254 643 4140 15258
is_linear=0
shrinkage=0.0406293


Tree=45
num_leaves=8
num_cat=0
split_feature=31 26 17 31 30 30 16
split_gain=7.82955 2.36662 2.1461 1.89273 1.29686 1.14763 0.446414
threshold=0.26433217968926409 1.5000000000000002 0.08365201813395727 0.098035985150281793 11.033897776867226 250.56475983527301 1.0000000180025095e-35
decision_type=2 2 2 2 2 2 2
left_child=3 5 -3 6 -5 -2 -1
right_child=1 2 -4 4 -6 -7 -8
leaf_value=-0.00032143632006308365 0.0036754661906634443 0.0045460676437961431 0.0010942742605740236 0.0087625351708896064 0.00029417206581363085 -0.00074617681103931067 -0.00079540888144420067
leaf_weight=7479 125 896 445 30 6046 431 5843
leaf_count=7479 125 896 445 30 6046 431 5843
internal_value=-1.46558e-05 0.00247657 0.00340062 -0.000258282 0.000335984 0.000247898 -0.00052932
internal_weight=21295 1897 1341 19398 6076 556 13322
internal_count=21295 1897 1341 19398 6076 556 13322
is_linear=0
shrinkage=0.0406293


Tree=46
num_leaves=8
num_cat=0
split_feature=31 6 6 5 25 31 29
split_gain=7.20626 2.208 1.8473 1.77575 1.58525 1.27974 0.504561
threshold=0.26433217968926409 1.675 1.7750000000000001 435.50000000000006 960.50000000000011 0.25824592130179019 167.46296698272781
decision_type=2 2 2 2 2 2 2
left_child=3 4 -3 5 -2 -1 -5
right_child=1 2 -4 6 -6 -7 -8
leaf_value=0.00059148744786446255 -0.0091956705311150369 0.0081186276501555819 0.0028565875697317226 -0.00041334376462808978 0.00086255564604515507 -0.0049883970700961748 -0.0019282449266998277
leaf_weight=4071 27 122 1132 14886 616 69 372
leaf_count=4071 27 122 1132 14886 616 69 372
internal_value=-1.40604e-05 0.00237595 0.00336852 -0.000247788 0.000440204 0.000498489 -0.000450278
internal_weight=21295 1897 1254 19398 643 4140 15258
internal_count=21295 1897 1254 19398 643 4140 15258
is_linear=0
shrinkage=0.0406293


Tree=47
num_leaves=8
num_cat=0
split_feature=31 26 17 31 6 2 16
split_gain=6.63258 2.04174 2.00066 1.66876 1.2766 1.1089 0.404458
threshold=0.26433217968926409 1.5000000000000002 0.090753987293002422 0.098035985150281793 3.8250000000000006 7805.5000000000009 1.0000000180025095e-35
decision_type=2 2 2 2 2 2 2
left_child=3 5 -3 6 -5 -2 -1
right_child=1 2 -4 4 -6 -7 -8
leaf_value=-0.00029434384294454676 0.0020043457046317209 0.0039801520022841146 0.00021438215773891841 0.00059501817798473806 -0.00094210965951420627 -0.0016247881207958209 -0.00074549379293260549
leaf_weight=7479 281 1041 300 4990 1086 275 5843
leaf_count=7479 281 1041 300 4990 1086 275 5843
internal_value=-1.34891e-05 0.00227942 0.0031377 -0.000237721 0.000320278 0.00020936 -0.000492217
internal_weight=21295 1897 1341 19398 6076 556 13322
internal_count=21295 1897 1341 19398 6076 556 13322
is_linear=0
shrinkage=0.0406293


Tree=48
num_leaves=8
num_cat=0
split_feature=31 6 30 5 5 25 29
split_gain=6.10458 1.90187 1.82332 1.53711 1.46449 1.19135 0.475564
threshold=0.26433217968926409 1.675 250.56475983527301 435.50000000000006 508.50000000000006 1850.5000000000002 167.46296698272781
decision_type=2 2 2 2 2 2 2
left_child=3 4 -3 5 -2 -1 -5
right_child=1 2 -4 6 -6 -7 -8
leaf_value=0.00059989434721752861 0.00078024805592546618 0.00038112606336597287 0.0039881993585262048 -0.00038059778630508071 -0.0092502777391016769 -0.0030884053389734229 -0.0018513244959604449
leaf_weight=3990 618 306 948 14886 25 150 372
leaf_count=3990 618 306 948 14886 25 150 372
internal_value=-1.29411e-05 0.00218681 0.003108 -0.000228062 0.000390259 0.00046626 -0.000416455
internal_weight=21295 1897 1254 19398 643 4140 15258
internal_count=21295 1897 1254 19398 643 4140 15258
is_linear=0
shrinkage=0.0406293


Tree=49
num_leaves=7
num_cat=0
split_feature=31 28 6 31 30 17
split_gain=5.61861 1.82039 1.85923 1.47069 1.20392 0.379449
threshold=0.26433217968926409 2016.5000000000002 1.675 0.098035985150281793 11.033897776867226 0.053575777607682111
decision_type=2 2 2 2 2 2
left_child=3 2 -2 5 -5 -1
right_child=1 -3 -4 4 -6 -7
leaf_value=-0.0012172245054739366 0.00049802123560017833 -0.0062664488530474816 0.0032119950220192346 0.008424057155469027 0.00026475523399194348 -0.00039580700137972698
leaf_weight=1004 632 42 1223 30 6046 12318
leaf_count=1004 632 42 1223 30 6046 12318
internal_value=-1.24153e-05 0.00209796 0.00228734 -0.000218796 0.000305041 -0.000457712
internal_weight=21295 1897 1855 19398 6076 13322
internal_count=21295 1897 1855 19398 6076 13322
is_linear=0
shrinkage=0.0406293


Tree=50
num_leaves=7
num_cat=0
split_feature=31 28 31 3 29 16
split_gain=4.61686 1.72127 1.54215 1.6082 1.13018 0.438415
threshold=0.35561585784801869 2016.5000000000002 0.098035985150281793 1.5000000000000002 479.30994454607736 1.0000000180025095e-35
decision_type=2 2 2 2 2 2
left_child=2 4 5 -4 -2 -1
right_child=1 -3 3 -5 -6 -7
leaf_value=-0.00021667306647838277 0.0022434364068264216 -0.0072073769592754192 -0.00166860058544153 0.00050145829282877597 0.0058703450705253606 -0.0006837251258847637
leaf_weight=7452 882 29 617 6530 169 5980
leaf_count=7452 882 29 617 6530 169 5980
internal_value=-3.21595e-05 0.00255721 -0.000168051 0.000314117 0.00282664 -0.000424607
internal_weight=21659 1080 20579 7147 1051 13432
internal_count=21659 1080 20579 7147 1051 13432
is_linear=0
shrinkage=0.0406293


Tree=51
num_leaves=7
num_cat=0
split_feature=31 28 31 3 2 16
split_gain=4.24932 1.58424 1.41938 1.48017 1.10994 0.403514
threshold=0.35561585784801869 2016.5000000000002 0.098035985150281793 1.5000000000000002 6708.5000000000009 1.0000000180025095e-35
decision_type=2 2 2 2 2 2
left_child=2 4 5 -4 -2 -1
right_child=1 -3 3 -5 -6 -7
leaf_value=-0.00020786978375313312 0.0057070327321903213 -0.0069145464754043753 -0.0016008065044737516 0.00048108443372642224 0.0021297672599391738 -0.00065594586854786775
leaf_weight=7452 171 29 617 6530 880 5980
leaf_count=7452 171 29 617 6530 880 5980
internal_value=-3.08529e-05 0.00245331 -0.000161223 0.000301355 0.0027118 -0.000407356
internal_weight=21659 1080 20579 7147 1051 13432
internal_count=21659 1080 20579 7147 1051 13432
is_linear=0
shrinkage=0.0406293


Tree=52
num_leaves=7
num_cat=0
split_feature=31 28 31 5 26 16
split_gain=3.91105 1.45812 1.30639 1.44015 1.05449 0.371391
threshold=0.35561585784801869 2016.5000000000002 0.098035985150281793 2921.5000000000005 1.5000000000000002 1.0000000180025095e-35
decision_type=2 2 2 2 2 2
left_child=2 4 5 -4 -2 -1
right_child=1 -3 3 -5 -6 -7
leaf_value=-0.00019942421611299856 -0.00026788181456584412 -0.0066336133164410565 0.00038696948876660431 -0.003109998700915263 0.0031787971533104955 -0.00062929526269271229
leaf_weight=7452 176 29 6947 200 875 5980
leaf_count=7452 176 29 6947 200 875 5980
internal_value=-2.95993e-05 0.00235363 -0.000154673 0.000289111 0.00260162 -0.000390805
internal_weight=21659 1080 20579 7147 1051 13432
internal_count=21659 1080 20579 7147 1051 13432
is_linear=0
shrinkage=0.0406293


Tree=53
num_leaves=7
num_cat=0
split_feature=31 28 31 3 29 16
split_gain=3.5997 1.34204 1.20239 1.40734 1.03346 0.341825
threshold=0.35561585784801869 2016.5000000000002 0.098035985150281793 24.500000000000004 479.30994454607736 1.0000000180025095e-35
decision_type=2 2 2 2 2 2
left_child=2 4 5 -4 -2 -1
right_child=1 -3 3 -5 -6 -7
leaf_value=-0.00019132174497924487 0.0019382239687378401 -0.0063640945213820068 0.00035186930912753855 -0.0040854971731613164 0.0054064740298865079 -0.00060372741426324358
leaf_weight=7452 882 29 7027 120 169 5980
leaf_count=7452 882 29 7027 120 169 5980
internal_value=-2.83967e-05 0.00225801 -0.000148389 0.000277365 0.00249592 -0.000374927
internal_weight=21659 1080 20579 7147 1051 13432
internal_count=21659 1080 20579 7147 1051 13432
is_linear=0
shrinkage=0.0406293


Tree=54
num_leaves=8
num_cat=0
split_feature=30 7 2 9 22 8 3
split_gain=3.34012 2.1203 1.89957 1.63739 1.26768 1.7584 0.647599
threshold=514.73750777546854 1330.5000000000002 6633.5000000000009 1.0000000180025095e-35 2.5000000000000004 6937.5000000000009 11.500000000000002
decision_type=2 2 2 2 2 2 2
left_child=4 3 -3 -2 6 -6 -1
right_child=1 2 -4 -5 5 -7 -8
leaf_value=-0.00042826327970599574 -0.0070319175795157717 0.010189686479794579 0.0026001326016769208 0.0033679663371260675 0.0024433749940887804 2.5982988068725853e-06 6.6489372447771537e-05
leaf_weight=11514 64 59 704 41 716 1525 7036
leaf_count=11514 64 59 704 41 716 1525 7036
internal_value=-2.7243e-05 0.00244208 0.00318701 -0.00297101 -0.000130335 0.000782427 -0.000240604
internal_weight=21659 868 763 105 20791 2241 18550
internal_count=21659 868 763 105 20791 2241 18550
is_linear=0
shrinkage=0.0406293


Tree=55
num_leaves=7
num_cat=0
split_feature=31 28 31 3 2 21
split_gain=3.11963 1.23923 1.06069 1.32676 0.982215 0.319189
threshold=0.35561585784801869 2016.5000000000002 0.098035985150281793 1.5000000000000002 6708.5000000000009 1.5000000000000002
decision_type=2 2 2 2 2 2
left_child=2 4 5 -4 -2 -1
right_child=1 -3 3 -5 -6 -7
leaf_value=-0.0002107596020387942 0.0051486000058303411 -0.0061829089473021811 -0.0015388491341502579 0.00043220083253605988 0.0017834499065156649 -0.00063110046894370255
leaf_weight=8963 171 29 617 6530 880 4469
leaf_count=8963 171 29 617 6530 880 4469
internal_value=-2.61361e-05 0.00210235 -0.000137841 0.00026204 0.00233097 -0.000350612
internal_weight=21659 1080 20579 7147 1051 13432
internal_count=21659 1080 20579 7147 1051 13432
is_linear=0
shrinkage=0.0406293


Tree=56
num_leaves=8
num_cat=0
split_feature=30 7 24 9 22 8 3
split_gain=2.93248 1.93459 1.85457 1.51474 1.12476 1.66414 0.568475
threshold=514.73750777546854 1330.5000000000002 128.50000000000003 1.0000000180025095e-35 2.5000000000000004 11504.500000000002 11.500000000000002
decision_type=2 2 2 2 2 2 2
left_child=4 3 -3 -2 6 -6 -1
right_child=1 2 -4 -5 5 -7 -8
leaf_value=-0.00040135975556696495 -0.0067877924353249948 0.004218379865840627 -0.00029354399019341642 0.0032150103075672112 0.0015201987306663997 -0.00082924371967932884 6.2184157632891914e-05
leaf_weight=11514 64 557 206 41 1495 746 7036
leaf_count=11514 64 557 206 41 1495 746 7036
internal_value=-2.50742e-05 0.00228867 0.00300022 -0.00288194 -0.00012167 0.0007381 -0.000225538
internal_weight=21659 868 763 105 20791 2241 18550
internal_count=21659 868 763 105 20791 2241 18550
is_linear=0
shrinkage=0.0406293


Tree=57
num_leaves=8
num_cat=0
split_feature=30 7 2 9 22 8 31
split_gain=2.69903 1.78058 1.70762 1.39416 1.03522 1.551 0.54653
threshold=514.73750777546854 1330.5000000000002 6633.5000000000009 1.0000000180025095e-35 2.5000000000000004 6937.5000000000009 0.098035985150281793
decision_type=2 2 2 2 2 2 2
left_child=4 3 -3 -2 6 -6 -1
right_child=1 2 -4 -5 5 -7 -8
leaf_value=-0.00036535896750214132 -0.0065120093137329719 0.0095177799303963959 0.0023218909943759579 0.0030843868144797438 0.0022680309541922555 -2.4283945688439072e-05 0.00011006887713975324
leaf_weight=12737 64 59 704 41 716 1525 5813
leaf_count=12737 64 59 704 41 716 1525 5813
internal_value=-2.40555e-05 0.00219568 0.00287832 -0.00276485 -0.000116727 0.000708111 -0.000216374
internal_weight=21659 868 763 105 20791 2241 18550
internal_count=21659 868 763 105 20791 2241 18550
is_linear=0
shrinkage=0.0406293


Tree=58
num_leaves=7
num_cat=0
split_feature=31 21 26 31 3 16
split_gain=2.53526 1.06236 1.39969 0.979452 1.42153 0.299428
threshold=0.41137836925040189 1.5000000000000002 1.5000000000000002 0.098035985150281793 29.500000000000004 1.0000000180025095e-35
decision_type=2 2 2 2 2 2
left_child=3 -2 -3 5 -5 -1
right_child=1 2 -4 4 -6 -7
leaf_value=-0.00014316287112850127 0.0088834678260003939 -0.004198389419558194 0.0024298300460717918 0.0003146295865147849 -0.0061830846377460931 -0.00052914639541103343
leaf_weight=7452 38 57 680 7396 56 5980
leaf_count=7452 38 57 680 7396 56 5980
internal_value=-2.30781e-05 0.00225877 0.0019172 -0.000107757 0.000265801 -0.000315005
internal_weight=21659 775 737 20884 7452 13432
internal_count=21659 775 737 20884 7452 13432
is_linear=0
shrinkage=0.0406293


Tree=59
num_leaves=8
num_cat=0
split_feature=29 7 28 3 22 2 29
split_gain=2.3964 2.02404 1.91486 0.963709 0.890951 1.59799 1.04731
threshold=223.58230141443948 1298.5000000000002 2016.5000000000002 11.500000000000002 2.5000000000000004 9718.5000000000018 167.46296698272781
decision_type=2 2 2 2 2 2 2
left_child=4 3 -3 -2 6 -6 -1
right_child=1 2 -4 -5 5 -7 -8
leaf_value=-0.00016118227843913812 -0.00035645576460791739 0.0027556284910060353 -0.0061022902889897842 -0.0073842376249235323 0.00018536413019414936 0.0032348636024189898 -0.0018928162308462127
leaf_weight=17675 94 987 42 49 1882 334 596
leaf_count=17675 94 987 42 49 1882 334 596
internal_value=-2.21405e-05 0.00176465 0.00239408 -0.00276458 -0.000124358 0.000644991 -0.000217668
internal_weight=21659 1172 1029 143 20487 2216 18271
internal_count=21659 1172 1029 143 20487 2216 18271
is_linear=0
shrinkage=0.0406293


Tree=60
num_leaves=8
num_cat=0
split_feature=30 23 31 6 31 11 18
split_gain=2.23956 1.4489 1.55186 1.21627 0.759874 1.40608 0.624455
threshold=77.164310762025721 5.5000000000000009 0.53026109726928417 2.5250000000000008 0.16270986554872627 19753.195000000003 208.57500000000002
decision_type=2 2 2 2 2 2 2
left_child=4 2 -2 -3 6 -6 -1
right_child=1 3 -4 -5 5 -7 -8
leaf_value=-0.00094025979406783149 0.00035356928518633291 0.0024956351804890395 0.0030233721585023457 0.014024890374314498 -0.0052968443884560722 0.00096895215706665507 -0.00015137732782354371
leaf_weight=2003 9204 44 374 23 137 104 9571
leaf_count=2003 9204 44 374 23 137 104 9571
internal_value=4.00887e-05 0.000499468 0.000457819 0.00645344 -0.000334919 -0.00259293 -0.000287902
internal_weight=21460 9645 9578 67 11815 241 11574
internal_count=21460 9645 9578 67 11815 241 11574
is_linear=0
shrinkage=0.0406293


Tree=61
num_leaves=8
num_cat=0
split_feature=31 29 30 18 29 16 31
split_gain=2.07825 1.57441 1.64167 1.11048 0.580894 0.438592 0.281268
threshold=0.11525859326347819 20.117519259556399 68.857910647957908 255.54500000000004 24.11893389936554 1.0000000180025095e-35 0.098035985150281793
decision_type=2 2 2 2 2 2 2
left_child=4 3 -3 -2 6 -6 -1
right_child=1 2 -4 -5 5 -7 -8
leaf_value=-0.00050773747929391887 0.001502412175364447 -0.0016465578112101072 0.00073135087783577572 0.011964925732944729 0.00020284147366498835 -0.00040567760125670313 -0.0027245666495098434
leaf_weight=5962 33 518 6409 34 5315 3093 96
leaf_count=5962 33 518 6409 34 5315 3093 96
internal_value=3.84599e-05 0.000613483 0.000553531 0.00681175 -0.000239551 -2.10108e-05 -0.000542867
internal_weight=21460 6994 6927 67 14466 8408 6058
internal_count=21460 6994 6927 67 14466 8408 6058
is_linear=0
shrinkage=0.0406293


Tree=62
num_leaves=8
num_cat=0
split_feature=31 29 30 18 29 16 31
split_gain=1.91281 1.44907 1.51098 1.02208 0.534651 0.403676 0.263541
threshold=0.11525859326347819 20.117519259556399 68.857910647957908 255.54500000000004 24.11893389936554 1.0000000180025095e-35 0.083498431141083559
decision_type=2 2 2 2 2 2 2
left_child=4 3 -3 -2 6 -6 -1
right_child=1 2 -4 -5 5 -7 -8
leaf_value=-0.00046360887609089629 0.0014413703887690105 -0.0015796593044285106 0.00070163660651222581 0.01147879931124088 0.00019460017625895149 -0.00038919521862085623 -0.0017762210838349415
leaf_weight=5794 33 518 6409 34 5315 3093 264
leaf_count=5794 33 518 6409 34 5315 3093 264
internal_value=3.68973e-05 0.000588557 0.000531042 0.00653499 -0.000229818 -2.01571e-05 -0.000520811
internal_weight=21460 6994 6927 67 14466 8408 6058
internal_count=21460 6994 6927 67 14466 8408 6058
is_linear=0
shrinkage=0.0406293


Tree=63
num_leaves=8
num_cat=0
split_feature=30 23 31 2 31 11 18
split_gain=1.76591 1.32377 1.40232 1.15797 0.682033 1.27891 0.559932
threshold=77.164310762025721 5.5000000000000009 0.53026109726928417 7710.5000000000009 0.16270986554872627 19753.195000000003 208.57500000000002
decision_type=2 2 2 2 2 2 2
left_child=4 2 -2 -3 6 -6 -1
right_child=1 3 -4 -5 5 -7 -8
leaf_value=-0.00087079333599145517 0.00030440816924422811 0.0014682602377590617 0.0028423133941978419 0.012248652482349116 -0.0050155677438760817 0.00096015064294758742 -0.00012377813901939735
leaf_weight=2003 9204 38 374 29 137 104 9571
leaf_count=2003 9204 38 374 29 137 104 9571
internal_value=3.53982e-05 0.000443318 0.000403508 0.0061344 -0.000297601 -0.00243683 -0.000253057
internal_weight=21460 9645 9578 67 11815 241 11574
internal_count=21460 9645 9578 67 11815 241 11574
is_linear=0
shrinkage=0.0406293


Tree=64
num_leaves=8
num_cat=0
split_feature=31 28 29 29 19 31 31
split_gain=1.67741 1.41817 1.37804 0.470653 0.380465 0.24668 0.150116
threshold=0.11525859326347819 1989.5000000000002 20.117519259556399 24.11893389936554 0.010881184099252851 0.098035985150281793 0.14582614862206697
decision_type=2 2 2 2 2 2 2
left_child=3 6 -3 5 -5 -1 -2
right_child=1 2 -4 4 -6 -7 -8
leaf_value=-0.00045592847381106691 -0.0032788250814974906 0.0064476212630528041 0.00054867357904517418 -0.00084824725919892198 7.0994951765094043e-05 -0.0025319856749546773 -0.0073544757936618368
leaf_weight=5962 26 66 6867 824 7584 96 35
leaf_count=5962 26 66 6867 824 7584 96 35
internal_value=3.396e-05 0.000550562 0.00060483 -0.000215806 -1.90925e-05 -0.000488827 -0.00561731
internal_weight=21460 6994 6933 14466 8408 6058 61
internal_count=21460 6994 6933 14466 8408 6058 61
is_linear=0
shrinkage=0.0406293


Tree=65
num_leaves=8
num_cat=0
split_feature=31 28 31 6 30 23 31
split_gain=1.57823 1.67782 1.86254 1.59482 1.146 1.57755 0.716457
threshold=0.53026109726928417 2003.5000000000002 0.61337358725133639 3.3750000000000004 74.508043639017373 5.5000000000000009 0.18570851703511801
decision_type=2 2 2 2 2 2 2
left_child=4 2 -2 -3 6 -6 -1
right_child=1 3 -4 -5 5 -7 -8
leaf_value=-0.0002511112723396338 -0.0051045911488837841 0.0035518636610720592 0.0038318004363740023 0.013760301957745979 0.00027464773370611392 0.0067253898916159252 -0.0033195729035145
leaf_weight=11484 77 196 77 29 9407 63 127
leaf_count=11484 77 196 77 29 9407 63 127
internal_value=3.25803e-05 0.00263116 -0.000636395 0.00486762 -1.41377e-05 0.000317562 -0.000284674
internal_weight=21460 379 154 225 21081 9470 11611
internal_count=21460 379 154 225 21081 9470 11611
is_linear=0
shrinkage=0.0406293


Tree=66
num_leaves=8
num_cat=0
split_feature=31 28 29 29 16 31 31
split_gain=1.4682 1.3031 1.27782 0.418141 0.37846 0.232995 0.139457
threshold=0.11525859326347819 1989.5000000000002 20.117519259556399 24.11893389936554 1.0000000180025095e-35 0.083498431141083559 0.15741131622516505
decision_type=2 2 2 2 2 2 2
left_child=3 6 -3 5 -5 -1 -2
right_child=1 2 -4 4 -6 -7 -8
leaf_value=-0.0004059700466894737 -0.0034230296856183418 0.0061929199985587737 0.00051251317939346225 0.00019094182280106822 -0.00037432580269139345 -0.0016401722702070571 -0.0073088546848204894
leaf_weight=5794 30 66 6867 5315 3093 264 31
leaf_count=5794 30 66 6867 5315 3093 264 31
internal_value=3.12565e-05 0.000514569 0.000566589 -0.000202415 -1.69998e-05 -0.000459755 -0.00539779
internal_weight=21460 6994 6933 14466 8408 6058 61
internal_count=21460 6994 6933 14466 8408 6058 61
is_linear=0
shrinkage=0.0406293


Tree=67
num_leaves=8
num_cat=0
split_feature=31 11 11 24 30 23 31
split_gain=1.4299 1.62104 2.02247 1.79445 0.990288 1.44798 0.67631
threshold=0.53026109726928417 18815.840000000004 13580.805000000002 99.500000000000014 74.508043639017373 5.5000000000000009 0.18570851703511801
decision_type=2 2 2 2 2 2 2
left_child=4 2 -2 -3 6 -6 -1
right_child=1 3 -4 -5 5 -7 -8
leaf_value=-0.00023335943346576698 0.0071260803729093249 0.011794388393520481 -0.0033602676339834162 0.0028473969673360306 0.00025274732222890052 0.0064328969548072242 -0.0032146103075266883
leaf_weight=11484 41 47 117 174 9407 63 127
leaf_count=11484 41 47 117 174 9407 63 127
internal_value=2.99866e-05 0.00250343 -0.000639127 0.00475015 -1.44817e-05 0.000293861 -0.000265968
internal_weight=21460 379 158 221 21081 9470 11611
internal_count=21460 379 158 221 21081 9470 11611
is_linear=0
shrinkage=0.0406293


Tree=68
num_leaves=7
num_cat=0
split_feature=31 23 3 5 29 17
split_gain=1.31646 1.55688 1.24304 0.648351 1.27052 0.415046
threshold=0.19143425021471425 5.5000000000000009 1.0000000180025095e-35 435.50000000000006 149.1851248776118 0.053575777607682111
decision_type=2 2 2 2 2 2
left_child=3 2 -2 4 -1 -5
right_child=1 -3 -4 5 -6 -7
leaf_value=0.00064660580466478366 -0.0029016067457000106 0.010821815828843761 0.00080279906701810405 -0.0009970661259419073 -0.0035954251358758164 -0.00016442774117175603
leaf_weight=2609 156 25 3605 1064 122 13879
leaf_count=2609 156 25 3605 1064 122 13879
internal_value=2.87683e-05 0.000716319 0.000649146 -0.000118514 0.000457105 -0.000223715
internal_weight=21460 3786 3761 17674 2731 14943
internal_count=21460 3786 3761 17674 2731 14943
is_linear=0
shrinkage=0.0406293


Tree=69
num_leaves=8
num_cat=0
split_feature=31 28 31 6 30 23 31
split_gain=1.2841 1.54187 1.68618 1.44004 0.855914 1.27019 0.656446
threshold=0.53026109726928417 2003.5000000000002 0.61337358725133639 3.3750000000000004 77.164310762025721 5.5000000000000009 0.16270986554872627
decision_type=2 2 2 2 2 2 2
left_child=4 2 -2 -3 6 -6 -1
right_child=1 3 -4 -5 5 -7 -8
leaf_value=-0.00020021629895776444 -0.0050122038250377202 0.0032652172581862848 0.0034905678947472758 0.012965656035263501 0.00023841137594948338 0.0060271491201829477 -0.0023470077652075105
leaf_weight=11574 77 196 77 29 9204 63 240
leaf_count=11574 77 196 77 29 9204 63 240
internal_value=2.75994e-05 0.00237156 -0.000760818 0.0045155 -1.45409e-05 0.000277765 -0.000243828
internal_weight=21460 379 154 225 21081 9267 11814
internal_count=21460 379 154 225 21081 9267 11814
is_linear=0
shrinkage=0.0406293


Tree=70
num_leaves=7
num_cat=0
split_feature=31 18 3 31 18 11
split_gain=2.66124 1.44169 1.38015 0.752999 0.498358 0.42245
threshold=0.22214561107498562 988.86500000000012 1.0000000180025095e-35 0.21878847802231791 153.29500000000004 15857.500000000002
decision_type=2 2 2 2 2 2
left_child=3 2 -2 4 -1 -5
right_child=1 -3 -4 5 -6 -7
leaf_value=-0.0009027711499067306 -0.0033277381770794863 0.011472297852121895 0.0012176391826352881 0.0011378665977971191 -0.0001441542130187596 -0.005118896417354934
leaf_weight=1560 115 22 2682 23 17084 79
leaf_count=1560 115 22 2682 23 17084 79
internal_value=-5.16516e-05 0.00111224 0.00103075 -0.000226676 -0.00020763 -0.00370806
internal_weight=21565 2819 2797 18746 18644 102
internal_count=21565 2819 2797 18746 18644 102
is_linear=0
shrinkage=0.0406293


Tree=71
num_leaves=8
num_cat=0
split_feature=31 19 25 24 29 11 18
split_gain=2.45639 1.44669 2.51961 1.97305 0.559631 0.778973 0.500412
threshold=0.23918535998166721 0.013805097719702503 1310.5000000000002 181.00000000000003 167.46296698272781 9831.2800000000007 153.29500000000004
decision_type=2 2 2 2 2 2 2
left_child=4 3 -3 -2 6 -6 -1
right_child=1 2 -4 -5 5 -7 -8
leaf_value=-0.00086641961306291142 9.9167177480745318e-05 0.00066339545014046245 0.0039183319793755647 -0.0099331644588508509 0.0040120630893602845 -0.0020488866778584475 -0.00010536459325858943
leaf_weight=1556 671 1125 603 34 38 444 17094
leaf_count=1556 671 1125 603 34 38 444 17094
internal_value=-4.9553e-05 0.00116641 0.00179923 -0.000384662 -0.000204187 -0.00157105 -0.000168861
internal_weight=21565 2433 1728 705 19132 482 18650
internal_count=21565 2433 1728 705 19132 482 18650
is_linear=0
shrinkage=0.0406293


end of trees

feature_importances:
oof_cs=257
Policies_Terminated_Non_Payment=26
oof_halc=26
oof_lc=24
Customer_Loyalty=16
Contract_Duration=14
Premium_Amt_Current_Yr=14
Yr_Vehicle_Registration=13
Age_at_license=12
Car_Age_Contract=12
Years_Associates=12
Cylinder_Capacity=10
Ratio_Premium_Car_Value=9
Vehicle_Wt_Kg=8
Market_Value_EOY19=7
Power_Wt_Ratio=7
Vehicle_Doors=6
Total_Policies_Entity=4
Days_Driving_At_Start_Date=3
Half_Yearly_Payment_Method=3
Non_Continuation_Insurance_Flag=3
Vehicle_Power_HP=3
Age=2
Time_Since_Last_Renewal=2
Age_at_contract=1
Years_Driving=1

parameters:
[boosting: gbdt]
[objective: regression]
[metric: l2]
[tree_learner: serial]
[device_type: cpu]
[data_sample_strategy: bagging]
[data: ]
[valid: ]
[num_iterations: 940]
[learning_rate: 0.0406293]
[num_leaves: 90]
[num_threads: 0]
[seed: 0]
[deterministic: 0]
[force_col_wise: 0]
[force_row_wise: 0]
[histogram_pool_size: -1]
[max_depth: 3]
[min_data_in_leaf: 22]
[min_sum_hessian_in_leaf: 0.001]
[bagging_fraction: 0.717768]
[pos_bagging_fraction: 1]
[neg_bagging_fraction: 1]
[bagging_freq: 10]
[bagging_seed: 3]
[bagging_by_query: 0]
[feature_fraction: 0.999628]
[feature_fraction_bynode: 1]
[feature_fraction_seed: 2]
[extra_trees: 0]
[extra_seed: 6]
[early_stopping_round: 0]
[early_stopping_min_delta: 0]
[first_metric_only: 0]
[max_delta_step: 0]
[lambda_l1: 2.25364e-08]
[lambda_l2: 2.04291e-08]
[linear_lambda: 0]
[min_gain_to_split: 0.0603557]
[drop_rate: 0.1]
[max_drop: 50]
[skip_drop: 0.5]
[xgboost_dart_mode: 0]
[uniform_drop: 0]
[drop_seed: 4]
[top_rate: 0.2]
[other_rate: 0.1]
[min_data_per_group: 100]
[max_cat_threshold: 32]
[cat_l2: 10]
[cat_smooth: 10]
[max_cat_to_onehot: 4]
[top_k: 20]
[monotone_constraints: ]
[monotone_constraints_method: basic]
[monotone_penalty: 0]
[feature_contri: ]
[forcedsplits_filename: ]
[refit_decay_rate: 0.9]
[cegb_tradeoff: 1]
[cegb_penalty_split: 0]
[cegb_penalty_feature_lazy: ]
[cegb_penalty_feature_coupled: ]
[path_smooth: 0]
[interaction_constraints: ]
[verbosity: 1]
[saved_feature_importance_type: 0]
[use_quantized_grad: 0]
[num_grad_quant_bins: 4]
[quant_train_renew_leaf: 0]
[stochastic_rounding: 1]
[linear_tree: 0]
[max_bin: 221]
[max_bin_by_feature: ]
[min_data_in_bin: 3]
[bin_construct_sample_cnt: 200000]
[data_random_seed: 1]
[is_enable_sparse: 1]
[enable_bundle: 1]
[use_missing: 1]
[zero_as_missing: 0]
[feature_pre_filter: 1]
[pre_partition: 0]
[two_round: 0]
[header: 0]
[label_column: ]
[weight_column: ]
[group_column: ]
[ignore_column: ]
[categorical_feature: ]
[forcedbins_filename: ]
[precise_float_parser: 0]
[parser_config_file: ]
[objective_seed: 5]
[num_class: 1]
[is_unbalance: 0]
[scale_pos_weight: 4.53188]
[sigmoid: 1]
[boost_from_average: 1]
[reg_sqrt: 0]
[alpha: 0.9]
[fair_c: 1]
[poisson_max_delta_step: 0.7]
[tweedie_variance_power: 1.5]
[lambdarank_truncation_level: 30]
[lambdarank_norm: 1]
[label_gain: ]
[lambdarank_position_bias_regularization: 0]
[eval_at: ]
[multi_error_top_k: 1]
[auc_mu_weights: ]
[num_machines: 1]
[local_listen_port: 12400]
[time_out: 120]
[machine_list_filename: ]
[machines: ]
[gpu_platform_id: -1]
[gpu_device_id: -1]
[gpu_use_dp: 0]
[num_gpu: 1]

end of parameters

pandas_categorical:[]
