tree
version=v4
num_class=1
num_tree_per_iteration=1
label_index=0
max_feature_idx=31
objective=regression
feature_names=Age Age_at_contract Age_at_license Car_Age_Contract Car_Age_Contract_Cat_Standard Contract_Duration Customer_Loyalty Cylinder_Capacity Days_Driving_At_Start_Date Half_Yearly_Payment_Method Issurance_Broker_Agent_Channel Market_Value_EOY19 Max_Policy_Simultaneous_Force Max_Product_Simultaneous_Held Multiple_Drivers_Regular_Flag Non_Continuation_Insurance_Flag Policies_Terminated_Non_Payment Power_Wt_Ratio Premium_Amt_Current_Yr Ratio_Premium_Car_Value Rural_Urban_Flag Time_Since_Last_Renewal Total_Policies_Entity Vehicle_Doors Vehicle_Power_HP Vehicle_Wt_Kg Years_Associates Years_Driving Yr_Vehicle_Registration oof_lc oof_halc oof_cs
feature_infos=[19:101] [18:91] [6575:23602] [0:66] [0:1] [32:14244] [1:15.550000000000001] [49:7480] [-3660:25943] [0:1] [0:1] [270.45999999999998:220675.79999999999] [1:17] [1:4] [0:1] [0:1] [0:7] [0:2.5172413793103448] [40.200000000000003:2143.8600000000001] [0.00082567981271379997:0.90841529246468999] [0:1] [1:4] [1:17] [0:6] [0:560] [43:7300] [1:40] [1:77] [1950:2018] [-52.876587401090561:919.45679527462005] [-121.59144686230663:2052.7354516462724] [-0.06042369401346178:0.87644450801800788]
tree_sizes=3398 3454 3437 3209 3196 2600 3609 3448 3430 3461 3442 3426 3557 3554 3566 3553 3188 3335 3079 2928 3275 2918 4077 3176 3292 3063 3119 3010 2925 2832 3703 2682 2674 2850 2680 2929 2859 3353 3012 3287 3016 3290 2651 3024 2960

Tree=0
num_leaves=38
num_cat=0
split_feature=31 18 31 5 25 25 31 31 6 24 3 18 25 31 18 31 31 28 31 18 11 31 22 12 28 1 31 2 2 31 18 18 31 31 6 24 16
split_gain=2.5545e+08 9.99429e+07 3.7117e+07 2.75068e+07 1.85978e+07 2.37213e+07 1.17691e+07 1.11258e+07 1.35833e+07 9.89482e+06 8.20898e+06 7.39739e+06 6.66299e+06 5.06987e+06 2.68596e+07 4.13021e+06 3.51416e+06 3.63036e+06 3.1737e+06 2.97708e+06 2.89024e+06 1.60806e+06 1.38412e+06 1.34987e+06 1.34692e+06 2.28191e+06 725697 794754 3.00454e+06 506648 420018 379089 182228 326446 121710 35118.5 20217.4
threshold=0.35970314699755973 221.25500000000002 0.13275469095842915 730.50000000000011 1259.5000000000002 1125.5000000000002 0.24928199295984316 0.50482585762081478 3.2250000000000005 113.50000000000001 9.5000000000000018 564.18000000000018 1360.5000000000002 0.13773252118142473 363.75500000000005 0.065260296027158979 0.25513324291914563 2003.5000000000002 0.5457464015080572 597.17000000000019 18931.280000000002 0.43437804713369205 1.5000000000000002 2.5000000000000004 2017.5000000000002 41.500000000000007 0.044059686601439003 6791.5000000000009 6760.5000000000009 0.089175868640965009 237.01500000000001 551.55000000000007 0.023011133787120556 0.023868960564976366 8.5250000000000021 88.500000000000014 1.0000000180025095e-35
decision_type=2 2 2 2 2 2 2 2 2 2 2 2 2 2 2 2 2 2 2 2 2 2 2 2 2 2 2 2 2 2 2 2 2 2 2 2 2
left_child=2 -2 15 7 5 -5 13 10 9 -9 -3 16 -13 14 35 26 -8 -18 -6 24 -21 -12 23 -15 30 -26 32 28 -28 -22 -17 -24 36 -34 -29 -4 -1
right_child=1 3 6 4 18 -7 11 8 -10 -11 21 12 -14 22 -16 19 17 -19 -20 20 29 -23 31 -25 25 -27 27 34 -30 -31 -32 -33 33 -35 -36 -37 -38
leaf_value=64.573575369106351 102.97290555258479 77.069434284151825 65.660088484936097 78.027069504977163 72.683956799108685 99.289354591891453 73.018091846079386 76.68476899060218 68.626756425209692 88.866473130438166 67.528410998901848 80.368406342342539 69.240260999286519 66.876874551220951 83.850668972970638 64.861913949921302 66.866058717738696 69.885023588590201 79.49879549592022 72.279028078879335 64.860968780645948 70.987620003790795 65.983185954250231 70.178144727613613 70.60553532636257 64.807854380634922 65.210745579725213 64.786632054563526 70.316424011871575 67.386617979963717 65.463702943079696 67.332275875970296 65.963929078370967 64.683777107857765 65.872585469886744 64.929838370477853 64.450353533591795
leaf_weight=1488 107 113 80 75 89 80 134 151 100 73 263 83 76 2289 78 1046 586 588 117 87 85 159 2167 95 97 103 793 2572 95 187 4697 165 153 3878 79 130 3554
leaf_count=1488 107 113 80 75 89 80 134 151 100 73 263 83 76 2289 78 1046 586 588 117 87 85 159 2167 95 97 103 793 2572 95 187 4697 165 153 3878 79 130 3554
internal_value=66.2217 77.8293 65.6149 75.6222 81.9086 89.011 67.3891 72.9791 76.9484 80.6606 70.574 69.5267 75.0539 66.7623 70.2577 65.0079 68.8542 68.3784 76.5584 65.5753 67.9749 68.8328 66.5488 67.0086 65.4303 67.6189 64.7244 65.0543 65.7575 66.5963 65.354 66.0788 64.5958 64.7323 64.8189 65.2066 64.4866
internal_weight=26712 1327 25385 1220 361 155 6471 859 324 224 535 1467 159 5004 288 18914 1308 1174 206 6302 359 422 4716 2384 5943 200 12612 3539 888 272 5743 2332 9073 4031 2651 210 5042
internal_count=26712 1327 25385 1220 361 155 6471 859 324 224 535 1467 159 5004 288 18914 1308 1174 206 6302 359 422 4716 2384 5943 200 12612 3539 888 272 5743 2332 9073 4031 2651 210 5042
is_linear=0
shrinkage=1


Tree=1
num_leaves=38
num_cat=0
split_feature=31 18 31 5 17 31 31 6 28 11 18 17 7 27 31 18 0 14 31 18 11 18 22 28 27 1 31 31 19 5 17 18 28 11 31 27 18
split_gain=2.41782e+08 9.45939e+07 3.51303e+07 2.60351e+07 1.76997e+07 1.11393e+07 1.05304e+07 1.28563e+07 7.67656e+06 7.61298e+06 7.0017e+06 8.42869e+06 6.29508e+06 6.15862e+06 4.7985e+06 2.54226e+07 3.94626e+06 4.27343e+06 3.9091e+06 2.81775e+06 2.73559e+06 1.42289e+06 1.31003e+06 1.2748e+06 2.24524e+06 1.12037e+06 686821 479542 427633 1.18056e+06 399280 358800 173437 848601 141100 113052 29600.9
threshold=0.35970314699755973 221.25500000000002 0.13275469095842915 730.50000000000011 0.087263070768381815 0.24928199295984316 0.50482585762081478 3.2250000000000005 2009.5000000000002 23199.995000000006 564.18000000000018 0.081043321913647715 1897.0000000000002 20.500000000000004 0.13773252118142473 363.75500000000005 30.500000000000004 1.0000000180025095e-35 0.065260296027158979 597.17000000000019 18931.280000000002 409.23500000000007 1.5000000000000002 2017.5000000000002 22.500000000000004 40.500000000000007 0.044059686601439003 0.089175868640965009 0.020491278124451204 3286.5000000000005 0.094993869302803818 551.55000000000007 2015.5000000000002 25065.000000000004 0.026888156083275681 19.500000000000004 222.98500000000004
decision_type=2 2 2 2 2 2 2 2 2 2 2 2 2 2 2 2 2 2 2 2 2 2 2 2 2 2 2 2 2 2 2 2 2 2 2 2 2
left_child=2 -2 18 6 12 14 8 9 21 -8 16 -12 13 -5 15 36 -7 -18 26 23 -21 -3 25 30 -25 -16 32 -22 35 -30 -20 -24 34 -34 -1 -28 -4
right_child=1 3 5 4 -6 10 7 -9 -10 -11 11 -13 -14 -15 22 -17 17 -19 19 20 27 -23 31 24 -26 -27 28 -29 29 -31 -32 -33 33 -35 -36 -37 -38
leaf_value=-1.6717626890749997 35.77010791475049 3.9043894617970425 -0.5237012063941594 19.771961316909067 25.406558960763441 7.2245210972811043 10.574059453328834 2.355587055471299 12.058453761259523 21.262664431332468 2.8446066780474779 15.387746810520948 6.3957130848708159 9.2219257351304371 1.4462083127708429 17.166650384170577 1.3574081392685335 5.6829460026754619 -0.73286597148260357 5.908810534889672 -1.3080628145652911 0.61523026837453487 -0.21627707162410906 4.3375955193573033 -1.4133183615559357 0.26045377533907244 -1.0538743557677734 1.1490768981306319 -1.0275532435954746 1.5177266857851919 -1.365706506781851 1.0962104678296198 -1.7194858096154129 1.4597136811415008 -1.4434911963568999 -1.4672179046186034 -1.2084546668974872
leaf_weight=5586 107 316 73 90 94 122 151 100 79 73 86 73 102 75 1047 78 983 203 4877 87 85 140 2167 97 103 1337 713 187 1087 153 866 165 260 81 3146 1586 137
leaf_count=5586 107 316 73 90 94 122 151 100 79 73 86 73 102 75 1047 78 983 203 4877 87 85 140 2167 97 103 1337 713 187 1087 153 866 165 260 81 3146 1586 137
internal_value=0.0157912 11.3085 -0.574551 9.16134 15.2772 1.15148 6.58995 10.4515 4.25001 14.0631 3.23108 8.60849 11.7055 14.9829 0.541733 3.94226 2.57687 2.09824 -1.16509 -0.613066 1.72142 2.89532 0.333968 -0.754143 1.37507 0.781339 -1.4409 0.380182 -1.11994 -0.71324 -0.82835 -0.12328 -1.56606 -0.963453 -1.58956 -1.33916 -0.971828
internal_weight=26712 1327 25385 1220 361 6471 859 324 535 224 1467 159 267 165 5004 288 1308 1186 18914 6302 359 456 4716 5943 200 2384 12612 272 3539 1240 5743 2332 9073 341 8732 2299 210
internal_count=26712 1327 25385 1220 361 6471 859 324 535 224 1467 159 267 165 5004 288 1308 1186 18914 6302 359 456 4716 5943 200 2384 12612 272 3539 1240 5743 2332 9073 341 8732 2299 210
is_linear=0
shrinkage=0.0271392


Tree=2
num_leaves=38
num_cat=0
split_feature=31 18 31 29 26 17 27 31 30 31 12 27 31 18 31 2 3 18 11 11 2 17 17 2 31 2 2 3 17 2 5 17 17 27 6 29 31
split_gain=2.28845e+08 8.95313e+07 3.32499e+07 2.48165e+07 1.6955e+07 1.71368e+07 2.1575e+07 1.05432e+07 8.93126e+06 1.37977e+07 8.87105e+06 5.54718e+06 4.54166e+06 2.40626e+07 3.69981e+06 2.99602e+06 2.70386e+06 2.66695e+06 2.58922e+06 2.46163e+06 873434 745138 1.37394e+06 736627 650016 753504 2.84201e+06 555865 2.11396e+06 546221 458105 408967 168940 329295 114662 66173 47656
threshold=0.35970314699755973 221.25500000000002 0.13275469095842915 256.64648794447504 1.5000000000000002 0.087107716116029618 17.500000000000004 0.24928199295984316 332.26823713030893 0.26957347015104444 2.5000000000000004 35.500000000000007 0.13773252118142473 363.75500000000005 0.065260296027158979 8229.5000000000018 9.5000000000000018 597.17000000000019 18931.280000000002 19602.805000000004 10617.500000000002 0.073060811242043916 0.090207179136627708 6603.5000000000009 0.044059686601439003 6791.5000000000009 6760.5000000000009 1.0000000180025095e-35 0.096404769260840212 7301.5000000000009 730.50000000000011 0.094635685158113422 0.090936655824466611 49.500000000000007 8.5250000000000021 63.227218942282583 0.020071448243840311
decision_type=2 2 2 2 2 2 2 2 2 2 2 2 2 2 2 2 2 2 2 2 2 2 2 2 2 2 2 2 2 2 2 2 2 2 2 2 2
left_child=2 -2 14 15 -5 10 -7 12 11 -10 -6 20 13 35 24 16 -3 27 -19 -11 -9 23 -23 -14 32 26 -26 28 -16 -18 -20 -29 36 -34 -27 -4 -1
right_child=1 3 7 4 5 6 -8 8 9 19 -12 -13 21 -15 17 -17 29 18 30 -21 -22 22 -24 -25 25 34 -28 31 -30 -31 -32 -33 33 -35 -36 -37 -38
leaf_value=-1.6616401632431821 34.799860426261183 7.116897287121799 -0.52057220986507102 0.24027230891385926 12.658712081105573 9.8975571366027708 28.080222341628559 0.067324393804374008 14.487351556288237 5.8518970948732703 3.6788345076997429 6.5585250958604222 2.2794344709640524 16.701106356943097 -0.6503972881299237 7.4666047866737824 0.47882764879530665 5.7485564704273306 2.14185993596685 1.7537148839111938 2.0659660044921586 1.0840499718000161 -0.12749654187302498 -0.22394272179697777 -0.93662937213831932 -1.3500888760270728 4.0290495827931521 -0.70687528085203388 4.3759907884160487 3.0583936708789103 -0.32902199127034376 -1.3504317012266822 -1.3762590797152308 0.3763923038283859 -0.29603118460648947 -1.4977272583013297 -1.5182304111622213
leaf_weight=3367 107 80 119 80 357 85 111 561 110 208 105 137 91 78 367 140 167 87 77 225 226 1720 1150 1755 793 2572 95 4638 74 95 195 864 1969 82 79 91 3655
leaf_count=3367 107 80 119 80 357 85 111 561 110 208 105 137 91 78 367 140 167 87 77 225 226 1720 1150 1755 793 2572 95 4638 74 95 195 864 1969 82 79 91 3655
internal_value=0.0153772 11.0019 -0.558955 8.9129 12.0411 13.4753 20.2014 1.12025 3.14345 5.90576 10.6191 1.5196 0.527036 3.83531 -1.13347 4.12189 2.75094 -0.596426 1.67473 3.72346 0.641696 0.324906 0.598507 -0.100333 -1.4018 -1.08955 -0.40488 -0.733678 0.192926 1.41559 0.369838 -0.807994 -1.52356 -1.30606 -1.31878 -0.945499 -1.58704
internal_weight=26712 1327 25385 1220 738 658 196 6471 1467 543 462 924 5004 288 18914 482 342 6302 359 433 787 4716 2870 1846 12612 3539 888 5943 441 262 272 5502 9073 2051 2651 210 7022
internal_count=26712 1327 25385 1220 738 658 196 6471 1467 543 462 924 5004 288 18914 482 342 6302 359 433 787 4716 2870 1846 12612 3539 888 5943 441 262 272 5502 9073 2051 2651 210 7022
is_linear=0
shrinkage=0.0271392


Tree=3
num_leaves=35
num_cat=0
split_feature=31 18 31 5 7 4 31 31 24 3 18 17 19 31 0 31 17 18 11 18 31 31 22 31 2 2 23 3 31 18 31 31 31 16
split_gain=2.16599e+08 8.47399e+07 3.14702e+07 2.37885e+07 1.70776e+07 1.97246e+07 9.9791e+06 9.67174e+06 1.10159e+07 7.25048e+06 6.54981e+06 7.90336e+06 4.77648e+06 4.35947e+06 3.69734e+06 3.50174e+06 3.22266e+06 2.52424e+06 2.45067e+06 2.16161e+06 8.02073e+06 1.46895e+06 723786 615188 713167 2.68993e+06 564487 606263 449509 170919 161558 311695 95127.8 18811.1
threshold=0.35970314699755973 221.25500000000002 0.13275469095842915 730.50000000000011 1959.0000000000002 1.0000000180025095e-35 0.24928199295984316 0.50482585762081478 114.50000000000001 9.5000000000000018 564.18000000000018 0.081043321913647715 0.023555809168409002 0.13526499948808721 30.500000000000004 0.065260296027158979 0.075279856925216868 597.17000000000019 18931.280000000002 439.26000000000005 0.14306578090567731 0.43437804713369205 1.5000000000000002 0.044059686601439003 6791.5000000000009 6760.5000000000009 3.5000000000000004 1.0000000180025095e-35 0.089175868640965009 329.94000000000005 0.023011133787120556 0.023868960564976366 0.044936008523194466 1.0000000180025095e-35
decision_type=2 2 2 2 2 2 2 2 2 2 2 2 2 2 2 2 2 2 2 2 2 2 2 2 2 2 2 2 2 2 2 2 2 2
left_child=2 -2 15 7 5 -5 13 9 12 -3 14 -12 -9 -4 -8 23 -16 26 -19 22 -21 -11 -15 30 25 -25 29 -28 -20 -17 33 -32 -26 -1
right_child=1 3 6 4 -6 -7 10 8 -10 21 11 -13 -14 19 16 17 -18 18 28 20 -22 -23 -24 24 32 -27 27 -29 -30 -31 31 -33 -34 -35
leaf_value=-1.5011597687114708 33.85593005643311 10.075134336423039 5.199156543738841 9.9038617811732834 6.8728134278123543 26.09509647040921 6.9241112107998504 4.0470499113997187 17.921119560821079 1.0876440038762074 2.6777663684947521 14.823752756433144 12.3123827117558 0.48412274840790159 3.381602019108839 -1.4286204908157045 0.55161757315843796 5.5926487543254151 -1.2747010990561929 9.8213270739019567 0.75446519568927928 4.3937110100525709 -0.238869788682291 -0.91121191516718003 -0.5258727994578879 3.9197708435408884 0.45670066323940173 -0.66528292847429471 1.1042434862343591 -0.78409447265037024 -0.15025416956810572 -1.401038715423564 -1.3181511462248869 -1.6199348871942192
leaf_weight=1488 107 113 142 98 135 128 122 156 91 263 86 73 77 2053 591 873 595 87 85 80 703 159 2026 793 118 95 387 4215 187 468 153 3878 2533 3554
leaf_count=1488 107 113 142 98 135 128 122 156 91 263 86 73 77 2053 591 873 595 87 85 80 703 159 2026 793 118 95 387 4215 187 468 153 3878 2533 3554
internal_value=0.0149717 10.7035 -0.543781 8.67115 14.5172 19.0796 1.08986 6.2132 9.91397 3.97068 3.05819 8.25917 6.78197 0.512736 2.42544 -1.10271 1.96215 -0.580237 1.62931 0.375752 1.68181 2.33432 0.124959 -1.36376 -1.05998 -0.393879 -0.713767 -0.570872 0.359786 -1.20392 -1.48221 -1.35363 -1.28299 -1.58495
internal_weight=26712 1327 25385 1220 361 226 6471 859 324 535 1467 159 233 5004 1308 18914 1186 6302 359 4862 783 422 4079 12612 3539 888 5943 4602 272 1341 9073 4031 2651 5042
internal_count=26712 1327 25385 1220 361 226 6471 859 324 535 1467 159 233 5004 1308 18914 1186 6302 359 4862 783 422 4079 12612 3539 888 5943 4602 272 1341 9073 4031 2651 5042
is_linear=0
shrinkage=0.0271392


Tree=4
num_leaves=35
num_cat=0
split_feature=31 18 31 16 26 22 28 31 30 31 8 31 31 25 18 18 31 30 30 25 25 28 30 18 22 31 18 28 3 18 28 1 31 3
split_gain=2.05009e+08 8.02048e+07 2.97858e+07 2.2618e+07 1.73026e+07 1.61242e+07 1.72408e+07 9.4451e+06 8.3228e+06 1.29944e+07 7.11468e+06 4.12614e+06 3.31426e+06 2.77969e+06 2.38916e+06 2.04595e+06 7.59159e+06 1.91643e+06 4.46361e+06 1.65062e+06 1.22874e+06 1.13339e+06 2.63547e+06 706542 685037 582230 382261 355749 1.03104e+06 269572 162932 465402 126855 82837.4
threshold=0.35970314699755973 221.25500000000002 0.13275469095842915 1.0000000180025095e-35 1.5000000000000002 2.5000000000000004 2000.5000000000002 0.24928199295984316 332.26823713030893 0.26957347015104444 12741.500000000002 0.13526499948808721 0.065260296027158979 1175.5000000000002 597.17000000000019 439.26000000000005 0.14306578090567731 229.43874434657502 153.59826544394664 1065.5000000000002 1355.5000000000002 2017.5000000000002 179.77889919979165 507.59000000000003 1.5000000000000002 0.044059686601439003 237.01500000000001 2003.5000000000002 6.5000000000000009 373.08500000000004 2015.5000000000002 37.500000000000007 0.026888156083275681 1.0000000180025095e-35
decision_type=2 2 2 2 2 2 2 2 2 2 2 2 2 2 2 2 2 2 2 2 2 2 2 2 2 2 2 2 2 2 2 2 2 2
left_child=2 -2 12 4 -3 6 -6 11 10 -10 23 -4 25 -5 21 24 -17 18 -16 -11 -15 26 -23 -9 -13 30 -14 28 -27 -22 32 -32 -1 -29
right_child=1 3 7 13 5 -7 -8 8 9 19 -12 15 14 20 17 16 -18 -19 -20 -21 29 22 -24 -25 -26 27 -28 33 -30 -31 31 -33 -34 -35
leaf_value=-1.542710081005507 32.937601964074645 1.6506000475333797 5.0581129324521052 6.5938341310904338 25.924132468974097 2.7315860086157593 12.51981925210721 0.29408796178631846 13.969839718575434 6.8908922794551968 8.0213605281949221 0.47098439908669526 -1.2338449461638648 -0.62371813739734328 0.11941554287460304 9.5549767311654552 0.73399128609762809 -1.3961521511098465 7.6479305256390289 2.6877847550602163 1.8907937838715765 5.2493276454129836 -1.1501023322258332 3.0413840391854881 -0.2323872397619911 2.0024512399682783 -0.65975185050828922 -0.88102061712971358 -0.89175161565165473 4.07568879480249 0.67477886955927391 -1.5131891472630068 -1.3262557491641733 -1.3147153936697507
leaf_weight=5586 107 124 142 118 82 103 515 742 110 86 106 2053 1046 109 157 80 703 110 92 347 78 77 123 76 2026 98 4697 399 1195 91 102 239 3146 1847
leaf_count=5586 107 124 142 118 82 103 515 742 110 86 106 2053 1046 109 157 80 703 110 92 347 78 77 123 76 2026 98 4697 399 1195 91 102 239 3146 1847
internal_value=0.0145779 10.4132 -0.52902 8.43599 10.9977 12.6528 14.3637 1.0603 2.97525 5.6418 1.40768 0.498828 -1.07279 3.10409 -0.564489 0.365559 1.6362 1.58512 2.90317 3.52397 1.62086 -0.694398 1.31323 0.549842 0.121566 -1.32675 -0.764369 -1.03121 -0.672118 3.06975 -1.44199 -0.857983 -1.46476 -1.23781
internal_weight=26712 1327 25385 1220 824 700 597 6471 1467 543 924 5004 18914 396 6302 4862 783 359 249 433 278 5943 200 818 4079 12612 5743 3539 1293 169 9073 341 8732 2246
internal_count=26712 1327 25385 1220 824 700 597 6471 1467 543 924 5004 18914 396 6302 4862 783 359 249 433 278 5943 200 818 4079 12612 5743 3539 1293 169 9073 341 8732 2246
is_linear=0
shrinkage=0.0271392


Tree=5
num_leaves=28
num_cat=0
split_feature=29 29 19 29 29 5 29 6 18 2 0 2 29 5 21 24 18 18 17 29 29 5 0 9 12 12 2
split_gain=1.6203e+08 5.12772e+07 1.13591e+08 1.487e+07 1.26018e+07 1.41032e+07 1.12753e+07 1.24268e+07 6.55358e+06 6.29783e+06 4.87251e+06 5.17771e+06 4.82333e+06 5.4023e+06 5.72421e+06 3.52875e+06 1.7139e+06 1.6557e+06 1.89941e+06 1.19405e+06 1.18138e+06 742554 545805 455338 1.77787e+06 160963 139275
threshold=213.51462141430412 226.66893808422938 0.020902117264655802 55.410451931540614 528.65065244869902 730.50000000000011 276.91098115621804 2.9250000000000003 663.71000000000015 8588.5000000000018 29.500000000000004 6638.5000000000009 56.237191573423978 370.00000000000006 1.5000000000000002 77.500000000000014 325.23500000000007 579.42000000000019 0.065169352935911903 81.226594097458346 25.243660127982459 1457.5000000000002 37.500000000000007 1.0000000180025095e-35 2.5000000000000004 3.5000000000000004 11506.500000000002
decision_type=2 2 2 2 2 2 2 2 2 2 2 2 2 2 2 2 2 2 2 2 2 2 2 2 2 2 2
left_child=3 2 -2 8 5 10 -7 -8 20 -6 -3 -12 -5 14 16 -16 -14 19 -19 -15 23 22 -22 26 -25 -23 -1
right_child=1 4 -4 12 9 6 7 -9 -10 -11 11 -13 13 17 15 -17 -18 18 -20 -21 21 25 -24 24 -26 -27 -28
leaf_value=-1.4138143343672289 47.320867428098474 9.9899643084608858 -0.059521682509860278 5.2907149335515351 8.7840842645351351 3.237729867351911 9.6488203440705007 22.356861271995918 6.8181053866821326 19.854448095097478 9.7122100318201436 2.5528571313510189 0.10805236134765554 -1.0638006135093301 7.0588846611417289 2.1356165743971913 1.2582138668925524 4.415764558308525 0.27893396898605782 -0.12304371245541049 -0.065405562500439496 -1.2179431176632773 -0.76851389737345444 -1.1716793126189013 2.133246510699784 -0.47470802238533527 -0.89583991822533127
leaf_weight=6394 74 89 75 143 78 131 233 75 78 74 83 718 2233 1960 157 339 1667 96 550 2017 1041 2769 3729 1131 134 234 410
leaf_count=6394 74 89 75 143 78 131 233 75 78 74 83 718 2233 1960 157 339 1667 96 550 2017 1041 2769 3729 1131 134 234 410
internal_value=0.0141932 8.30547 23.4792 -0.524638 6.77785 5.93039 9.91127 12.7477 -1.02594 14.1808 3.96599 3.29567 0.3464 0.267945 0.949102 3.69514 0.599749 -0.379716 0.894424 -0.586752 -1.0646 -0.825716 -0.615124 -1.29468 -0.821312 -1.16012 -1.38265
internal_weight=26712 1630 149 25082 1481 1329 439 308 15920 152 890 801 9162 9019 4396 496 3900 4623 646 3977 15842 7773 4770 8069 1265 3003 6804
internal_count=26712 1630 149 25082 1481 1329 439 308 15920 152 890 801 9162 9019 4396 496 3900 4623 646 3977 15842 7773 4770 8069 1265 3003 6804
is_linear=0
shrinkage=0.0271392


Tree=6
num_leaves=40
num_cat=0
split_feature=31 2 19 31 5 5 17 31 2 30 31 8 31 6 7 0 19 29 31 19 29 17 7 26 22 30 29 0 2 2 2 31 2 17 0 27 8 30 26
split_gain=1.86993e+08 5.40696e+07 1.55841e+08 2.6892e+07 1.52602e+07 1.40074e+07 1.01637e+07 9.06049e+06 7.84972e+06 7.6176e+06 1.23625e+07 6.65187e+06 6.64028e+06 5.70239e+06 5.12066e+06 5.05911e+06 1.86197e+07 2.65163e+06 2.49621e+06 2.27035e+06 2.02691e+06 5.52346e+06 1.52719e+06 1.06106e+06 1.04287e+06 916917 1.64237e+06 1.80417e+06 818036 421144 1.52871e+06 300721 279272 153928 365455 346379 47081.7 45351.1 34649.4
threshold=0.35970314699755973 9125.5000000000018 0.012832137344086602 0.12260904280902625 714.50000000000011 730.50000000000011 0.083659592399632207 0.24928199295984316 7207.5000000000009 332.26823713030893 0.26957347015104444 12741.500000000002 0.46710435983751569 3.2250000000000005 1974.5000000000002 69.500000000000014 0.019524946098770004 127.96674611921651 0.044059686601439003 0.020762590371724902 28.626876132280785 0.081537568594343565 1751.0000000000002 3.5000000000000004 1.5000000000000002 147.81113303122996 101.62083596848329 42.500000000000007 10617.500000000002 6784.5000000000009 6747.5000000000009 0.061444114568596171 6665.5000000000009 0.090936655824466611 30.500000000000004 49.500000000000007 221.50000000000003 199.88524708913135 1.5000000000000002
decision_type=2 2 2 2 2 2 2 2 2 2 2 2 2 2 2 2 2 2 2 2 2 2 2 2 2 2 2 2 2 2 2 2 2 2 2 2 2 2 2
left_child=3 5 -3 18 22 12 8 15 -7 11 -11 28 17 14 -14 20 37 -2 33 -12 21 -5 -4 -19 -22 29 27 -27 -9 30 -20 -31 -28 36 -35 -36 -1 -17 -38
right_child=1 2 4 7 -6 6 -8 9 -10 10 19 -13 13 -15 -16 16 -18 23 25 -21 24 -23 -24 -25 -26 26 32 -29 -30 31 -32 -33 -34 34 35 -37 38 -39 -40
leaf_value=-0.83292291174127209 6.5167959006438814 53.74255097211006 1.8497574718457386 -0.095521882446951839 17.979795676151639 13.57521905693447 19.603582928330926 -0.043662158879388659 2.3089044498734164 13.491089023082539 1.6663789697127076 7.7122778451878098 12.23468705239927 2.0818883315819638 3.9702380776027306 -1.3814708880005744 15.677118476487339 1.8576127557060111 -0.77488746835119215 5.6659811511834075 0.50904539883924715 8.6785459117595387 6.9779070971226433 -1.7779712985259732 -0.26687205318044216 2.3103463909916138 0.37340101527177783 -0.40292116948267148 1.8724638624484906 -1.2262014635606158 1.6740837803689728 -0.82289959374626453 -1.3107884704699744 0.33284388432080692 -1.3293170062094211 0.47057959527217286 -0.86034812155807017 -0.44919811032632262 -1.4485728232820512
leaf_weight=97 73 75 74 168 103 97 86 591 86 110 256 106 166 111 83 79 73 184 1634 177 2651 77 102 87 2459 321 83 412 227 2085 212 3953 561 113 1856 82 77 77 6848
leaf_count=97 73 75 74 168 103 97 86 591 86 110 256 106 166 111 83 79 73 184 1634 177 2651 77 102 87 2459 321 83 412 227 2085 212 3953 561 113 1856 82 77 77 6848
internal_value=0.0138189 9.945 19.027 -0.505345 9.68473 6.63957 11.9076 0.919004 8.28444 2.81703 5.36812 1.31734 4.62549 7.202 9.48244 0.420295 4.37009 1.92765 -1.05314 3.30244 0.251295 2.66241 4.8245 0.689412 0.135616 -0.739637 -0.0932676 0.785036 0.487862 -0.852496 -0.493461 -0.962217 -1.09332 -1.37311 -1.16552 -1.25302 -1.4337 -0.923259 -1.44208
internal_weight=26712 1327 354 25385 279 973 269 7051 183 1467 543 924 704 360 249 5584 229 344 18334 433 5355 245 176 271 5110 9261 1377 733 818 7884 1846 6038 644 9073 2051 1938 7022 156 6925
internal_count=26712 1327 354 25385 279 973 269 7051 183 1467 543 924 704 360 249 5584 229 344 18334 433 5355 245 176 271 5110 9261 1377 733 818 7884 1846 6038 644 9073 2051 1938 7022 156 6925
is_linear=0
shrinkage=0.0271392


Tree=7
num_leaves=38
num_cat=0
split_feature=31 18 31 29 17 28 31 30 31 3 7 27 13 2 31 2 28 29 17 18 19 2 28 30 0 2 18 31 2 2 0 17 25 28 19 31 6
split_gain=1.76989e+08 7.46239e+07 2.54594e+07 2.00286e+07 1.40476e+07 3.03398e+07 8.0046e+06 7.20994e+06 1.17008e+07 6.31846e+06 6.65044e+06 4.61145e+06 4.00031e+06 1.22924e+07 2.83109e+06 2.69051e+06 2.73405e+06 2.34788e+06 5.5669e+06 2.14971e+06 2.14878e+06 2.12688e+06 1.02638e+06 2.52461e+06 1.01269e+06 793882 603842 499759 643313 2.50311e+06 465736 368652 158914 146253 520779 113040 105561
threshold=0.35970314699755973 221.25500000000002 0.13275469095842915 256.64648794447504 0.087107716116029618 2004.5000000000002 0.24928199295984316 332.26823713030893 0.26957347015104444 15.500000000000002 1897.0000000000002 35.500000000000007 1.5000000000000002 8074.5000000000009 0.065260296027158979 8229.5000000000018 2006.5000000000002 28.626876132280785 0.080466571448003774 597.17000000000019 0.020762590371724902 7360.5000000000009 2017.5000000000002 179.77889919979165 45.500000000000007 10617.500000000002 332.93500000000006 0.044059686601439003 6791.5000000000009 6760.5000000000009 37.500000000000007 0.097444491150110321 1190.5000000000002 2015.5000000000002 0.016539049750540654 0.026888156083275681 8.5250000000000021
decision_type=2 2 2 2 2 2 2 2 2 2 2 2 2 2 2 2 2 2 2 2 2 2 2 2 2 2 2 2 2 2 2 2 2 2 2 2 2
left_child=2 -2 14 15 9 -6 12 11 -9 10 -5 25 17 32 27 16 26 18 -4 22 -10 30 31 -24 -19 -8 -3 33 29 -29 -21 -16 -14 35 -35 -1 -30
right_child=1 3 6 4 5 -7 7 8 20 -11 -12 -13 13 -15 19 -17 -18 24 -20 21 -22 -23 23 -25 -26 -27 -28 28 36 -31 -32 -33 -34 34 -36 -37 -38
leaf_value=-1.4310137965023115 31.401897711414733 1.8734007915222697 -0.4970463601794024 11.955446711912867 27.169780271594448 7.0706641483241084 -0.065559337972767223 13.125143651036906 1.6211649360186697 1.6187148166266379 4.7842767781303079 5.8758930107921996 0.73459430170818962 13.078661921669724 -0.63089987904433376 6.633439904855531 6.286253744087797 0.5907774831902759 9.1137057732257158 -1.7275659298283172 5.512261093323235 4.2205436414175335 5.1151469285906606 -1.1482336652995389 -0.21802044685467331 1.8390073776169955 -0.80156810188031569 -0.82167719057840249 -1.1970902962668033 3.8385507445539324 0.83705776198495396 -1.2818426331042618 -0.92375810592786678 0.67380257806107324 -1.5542011861338236 -1.226659084499286 -0.18597216904847427
leaf_weight=5586 107 146 113 279 102 121 561 110 256 91 145 137 79 74 5007 140 88 2166 73 82 177 134 77 123 2407 226 108 793 2572 95 143 736 92 118 223 3146 79
leaf_count=5586 107 146 113 279 102 121 561 110 256 91 145 137 79 74 5007 140 88 2166 73 82 177 134 77 123 2407 226 108 793 2572 95 143 736 92 118 223 3146 79
internal_value=0.0134574 9.67532 -0.491627 7.76819 10.5784 16.2698 0.977742 2.74063 5.22252 8.11202 9.50462 1.2816 0.460849 3.84241 -0.994353 3.46406 2.16502 0.286664 3.27522 -0.524561 3.21286 1.51448 -0.64779 1.26269 0.165014 0.481144 0.735099 -1.22908 -0.955252 -0.322616 -0.0966915 -0.714378 -0.156159 -1.33585 -0.7825 -1.35743 -1.16706
internal_weight=26712 1327 25385 1220 738 223 6471 1467 543 515 424 924 5004 245 18914 482 342 4759 186 6302 433 359 5943 200 4573 787 254 12612 3539 888 225 5743 171 9073 341 8732 2651
internal_count=26712 1327 25385 1220 738 223 6471 1467 543 515 424 924 5004 245 18914 482 342 4759 186 6302 433 359 5943 200 4573 787 254 12612 3539 888 225 5743 171 9073 341 8732 2651
is_linear=0
shrinkage=0.0271392


Tree=8
num_leaves=38
num_cat=0
split_feature=31 2 2 31 5 0 31 29 30 31 3 8 31 30 2 0 19 24 31 29 11 29 8 30 29 0 2 25 2 2 31 28 11 31 8 24 5
split_gain=1.67518e+08 5.06482e+07 1.53319e+08 2.41276e+07 1.3125e+07 9.80143e+06 8.10732e+06 7.22902e+06 6.82411e+06 1.10746e+07 6.33291e+06 6.04622e+06 5.19287e+06 6.37599e+06 5.00351e+06 4.78014e+06 1.7567e+07 3.07838e+06 2.2301e+06 1.83022e+06 4.8701e+06 1.01728e+06 963423 845177 1.5654e+06 1.71381e+06 738161 385404 385250 1.40219e+06 266525 138407 788186 106962 164847 91542 15088.7
threshold=0.35970314699755973 9125.5000000000018 10149.500000000002 0.12260904280902625 730.50000000000011 39.500000000000007 0.24928199295984316 335.28690158722651 332.26823713030893 0.26957347015104444 5.5000000000000009 12741.500000000002 0.50482585762081478 563.28675388536965 7007.5000000000009 69.500000000000014 0.019524946098770004 90.500000000000014 0.044059686601439003 28.626876132280785 21395.200000000004 164.75422627692942 8210.5000000000018 147.81113303122996 101.62083596848329 42.500000000000007 10617.500000000002 1629.0000000000002 6784.5000000000009 6747.5000000000009 0.061444114568596171 2015.5000000000002 25065.000000000004 0.026888156083275681 16677.000000000004 104.50000000000001 1825.5000000000002
decision_type=2 2 2 2 2 2 2 2 2 2 2 2 2 2 2 2 2 2 2 2 2 2 2 2 2 2 2 2 2 2 2 2 2 2 2 2 2
left_child=3 4 -3 18 10 -6 15 -4 11 -10 -2 26 21 -14 -7 19 35 -11 31 20 -5 -12 -21 28 25 -25 -8 -26 29 -20 -30 33 -33 36 -35 -17 -1
right_child=1 2 7 6 5 14 8 -9 9 17 12 -13 13 -15 -16 16 -18 -19 23 22 -22 -23 -24 24 27 -27 -28 -29 30 -31 -32 32 -34 34 -36 -37 -38
leaf_value=-1.4371465408107629 10.664372971153968 47.896315576548254 2.3722641170705372 -0.13742902968542312 18.55889318377244 12.872867876565328 -0.048882568334133167 11.487656174038078 12.769124682402941 6.0561754053641534 3.1965008662910583 7.3437066477331197 1.0010683749568856 10.098209432843735 3.6681121251289355 -1.5522859462705902 15.22120646541098 1.3372431758890226 -0.7353162027754544 0.44741431826360478 8.0185738550244388 0.20059342335305941 -0.3056439181079863 2.2638363896844491 -1.3050100672511358 -0.38059796975276555 1.7712805682086998 0.71643109526698201 -1.1626689214487449 1.6101132330935573 -0.78295855561014938 -1.4899580681895894 1.5741167885574452 -1.2316494112017085 -0.18213710731353869 -0.23294672471828215 -1.3447068561975972
leaf_weight=2865 98 94 115 165 91 76 591 145 110 164 127 106 96 139 102 79 73 269 1634 2922 80 244 2188 321 565 412 227 79 2085 212 3953 260 81 3031 115 77 2721
leaf_count=2865 98 94 115 165 91 76 591 145 110 164 127 106 96 139 102 79 73 269 1634 2922 80 244 2188 321 565 412 227 79 2085 212 3953 260 81 3031 115 77 2721
internal_value=0.0131028 9.41289 18.2028 -0.478281 6.21376 11.3131 0.870873 7.45824 2.66629 5.08086 4.26417 1.24684 3.22782 6.38416 7.60255 0.399123 4.23847 3.1257 -0.997162 0.234847 2.52599 1.22716 0.124921 -0.700832 -0.080259 0.777214 0.456006 -1.05661 -0.809187 -0.465782 -0.914129 -1.2996 -0.761247 -1.32059 -1.19337 -0.903012 -1.39218
internal_weight=26712 1327 354 25385 973 269 7051 260 1467 543 704 924 606 235 178 5584 229 433 18334 5355 245 371 5110 9261 1377 733 818 644 7884 1846 6038 9073 341 8732 3146 156 5586
internal_count=26712 1327 354 25385 973 269 7051 260 1467 543 704 924 606 235 178 5584 229 433 18334 5355 245 371 5110 9261 1377 733 818 644 7884 1846 6038 9073 341 8732 3146 156 5586
is_linear=0
shrinkage=0.0271392


Tree=9
num_leaves=38
num_cat=0
split_feature=31 18 5 25 25 31 31 17 3 31 18 17 31 3 18 13 2 28 18 31 31 18 11 28 19 17 27 25 27 31 2 2 2 2 16 18 31
split_gain=1.71271e+08 6.53208e+07 2.51857e+07 3.27364e+07 4.63053e+07 2.41857e+07 9.1234e+06 8.31131e+06 1.70964e+07 7.13166e+06 6.21923e+06 6.07959e+06 5.63663e+06 5.61484e+06 5.09088e+06 3.97326e+06 1.09398e+07 2.91261e+06 2.64972e+06 5.58414e+06 2.33527e+06 1.44806e+06 2.47971e+06 1.06247e+06 1.10055e+06 843673 734288 378865 360828 334328 390327 1.42682e+06 231941 54236.8 18533.6 69801 7752.64
threshold=0.35970314699755973 221.25500000000002 714.50000000000011 1265.5000000000002 1135.5000000000002 0.13275469095842915 0.50482585762081478 0.066683902102723167 12.500000000000002 0.24928199295984316 564.18000000000018 0.081043321913647715 0.5457464015080572 10.500000000000002 189.38000000000002 1.5000000000000002 8272.5000000000018 2002.5000000000002 439.26000000000005 0.14306578090567731 0.064279040043718955 597.17000000000019 18931.280000000002 2017.5000000000002 0.016539049750540654 0.066641993584998713 31.500000000000004 1111.0000000000002 29.500000000000004 0.023011133787120556 6816.5000000000009 6760.5000000000009 6740.5000000000009 11506.500000000002 1.0000000180025095e-35 235.65000000000001 0.0036357557761064157
decision_type=2 2 2 2 2 2 2 2 2 2 2 2 2 2 2 2 2 2 2 2 2 2 2 2 2 2 2 2 2 2 2 2 2 2 2 2 2
left_child=5 -2 6 4 -4 20 13 -8 -9 15 14 -12 -5 -3 -11 18 32 -16 26 -20 29 23 -23 27 -25 -15 -7 -22 -24 34 31 -31 -17 -32 35 -1 -36
right_child=1 2 3 12 -6 9 7 8 -10 10 11 -13 -14 25 17 16 -18 -19 19 -21 21 22 28 24 -26 -27 -28 -29 -30 30 33 -33 -34 -35 36 -37 -38
leaf_value=-1.3946440531405035 29.822607708022748 7.6603111661375651 8.3767323923255699 2.3435141938834922 37.676343846613626 0.25319085026036525 2.0392693409013165 5.3694605916992213 20.990417352547606 8.725345624292574 2.5882380006307768 13.085228829588047 10.931815814757837 3.2431426870255651 0.00034597910745715131 1.2295598049875434 12.559012607813518 2.6627306282790535 7.8467381779064747 0.88062103975280581 -1.0276900313012796 4.994506214154895 0.71939104249573593 2.9184238262803301 -1.1904346341129617 0.35828159447895069 -0.56315891115963324 -0.5573947464830421 -1.2090031862918469 -1.0490808626912151 -1.2089778577747237 0.91548424277655971 -0.79025248131314485 -0.93085878659501164 -1.3203799035030779 -0.99783232618210216 -1.4102746829064534
leaf_weight=980 108 132 80 107 79 2847 94 127 87 78 85 78 119 103 510 73 74 745 97 670 1832 91 160 122 79 272 1135 4070 129 1701 4709 324 98 591 1249 500 2272
leaf_count=980 108 132 80 107 79 2847 94 127 87 78 85 78 119 103 510 73 74 745 97 670 1832 91 160 122 79 272 1135 4070 129 1701 4709 324 98 591 1249 500 2272
internal_value=0.0348866 9.61078 7.79015 13.5107 22.9444 -0.460214 5.08674 8.77083 11.7252 0.968278 2.612 7.61574 6.86842 2.84743 1.99965 0.475809 3.84575 1.58106 0.301857 1.76246 -0.953126 -0.536076 1.08905 -0.637314 1.30237 1.1517 0.0204366 -0.703427 -0.14058 -1.17245 -1.05548 -0.734609 0.0706608 -1.17802 -1.34372 -1.2608 -1.37848
internal_weight=26607 1308 1200 385 159 25299 815 308 214 6490 1496 163 226 507 1333 4994 245 1255 4749 767 18809 6483 380 6103 201 375 3982 5902 289 12326 7325 2025 171 5300 5001 1480 3521
internal_count=26607 1308 1200 385 159 25299 815 308 214 6490 1496 163 226 507 1333 4994 245 1255 4749 767 18809 6483 380 6103 201 375 3982 5902 289 12326 7325 2025 171 5300 5001 1480 3521
is_linear=0
shrinkage=0.0271392


Tree=10
num_leaves=38
num_cat=0
split_feature=31 18 5 25 25 31 31 6 24 31 18 17 31 18 28 31 8 6 31 8 8 18 2 17 28 24 2 25 31 2 2 0 28 8 16 24 5
split_gain=1.62107e+08 6.18247e+07 2.38381e+07 3.09848e+07 4.38274e+07 2.28913e+07 8.6352e+06 1.03246e+07 8.87028e+06 6.75005e+06 5.88656e+06 5.75418e+06 5.33485e+06 4.8185e+06 4.69267e+06 3.80857e+06 2.24134e+07 3.01188e+06 2.21025e+06 1.41383e+06 2.48773e+06 1.37057e+06 1.86054e+06 1.30678e+06 1.00558e+06 1.12643e+06 542179 358568 316416 369418 1.35045e+06 308699 297541 152716 17515.7 78808.2 7726.68
threshold=0.35970314699755973 221.25500000000002 714.50000000000011 1265.5000000000002 1135.5000000000002 0.13275469095842915 0.50482585762081478 3.5250000000000004 104.50000000000001 0.24928199295984316 564.18000000000018 0.081043321913647715 0.5457464015080572 189.38000000000002 2007.5000000000002 0.13773252118142473 11538.500000000002 2.5750000000000006 0.064279040043718955 8557.5000000000018 7692.5000000000009 597.17000000000019 7360.5000000000009 0.066641993584998713 2017.5000000000002 119.50000000000001 11816.000000000002 1111.0000000000002 0.023011133787120556 6816.5000000000009 6760.5000000000009 37.500000000000007 2006.5000000000002 221.50000000000003 1.0000000180025095e-35 114.50000000000001 1460.5000000000002
decision_type=2 2 2 2 2 2 2 2 2 2 2 2 2 2 2 2 2 2 2 2 2 2 2 2 2 2 2 2 2 2 2 2 2 2 2 2 2
left_child=5 -2 6 4 -4 18 14 8 -8 15 13 -12 -5 -11 23 16 32 -15 28 20 -17 24 31 -3 27 -26 -21 -20 34 30 -30 -23 -7 -31 35 -1 -36
right_child=1 2 3 12 -6 9 7 -9 -10 10 11 -13 -14 17 -16 19 -18 -19 21 26 -22 22 -24 -25 25 -27 -28 -29 29 33 -32 -33 -34 -35 36 -37 -38
leaf_value=-1.294032822002753 29.013677134455072 3.9947056810884525 8.1495586506541873 2.2799473606334817 36.654585421755478 -1.808573913518613 6.6603919659770208 0 17.396681701066758 8.4887219526984889 2.5180429285402601 12.730368688986037 10.635279066626929 2.5494428430404308 8.0695240143978015 0.42433002283562798 16.131309388774692 -0.20916642180382361 -0.99980021755431236 -0.34237903549431148 3.2699278403068748 -1.7487316286268495 3.5037605521488833 0.5425313581884581 -0.26571877290404461 3.9560460103399993 1.9083339714789196 -0.54226770733463825 -1.0206105917574717 0.050604791859962035 0.89064310015208425 0.30301130053902314 0.30263813812431972 -1.1637444249228603 -1.3883513588149461 -0.63973566409597926 -1.3021948649385224
leaf_weight=1327 108 111 80 107 79 135 128 78 102 78 85 78 119 795 99 2385 76 460 1832 1989 250 83 143 297 128 73 82 4070 1701 77 324 154 77 5223 1585 153 1936
leaf_count=1327 108 111 80 107 79 135 128 78 102 78 85 78 119 795 99 2385 76 460 1832 1989 250 83 143 297 128 73 82 4070 1701 77 324 154 77 5223 1585 153 1936
internal_value=0.0339529 9.35015 7.57892 13.1443 22.3222 -0.44772 4.94881 8.53299 11.426 0.942018 2.54116 7.40925 6.68214 1.9454 2.77021 0.462906 3.49225 1.53816 -0.927261 0.27742 0.694472 -0.521526 1.05951 1.48277 -0.620019 1.26701 -0.253091 -0.684338 -1.14064 -1.02684 -0.714669 -0.414722 -1.04071 -1.14605 -1.30726 -1.22659 -1.34107
internal_weight=26607 1308 1200 385 159 25299 815 308 230 6490 1496 163 226 1333 507 4994 288 1255 18809 4706 2635 6483 380 408 6103 201 2071 5902 12326 7325 2025 237 212 5300 5001 1480 3521
internal_count=26607 1308 1200 385 159 25299 815 308 230 6490 1496 163 226 1333 507 4994 288 1255 18809 4706 2635 6483 380 408 6103 201 2071 5902 12326 7325 2025 237 212 5300 5001 1480 3521
is_linear=0
shrinkage=0.0271392


Tree=11
num_leaves=38
num_cat=0
split_feature=31 18 5 25 25 31 31 6 11 30 31 18 17 18 28 31 18 22 31 18 11 18 0 18 28 30 22 25 0 31 2 2 22 6 5 11 6
split_gain=1.53434e+08 5.85157e+07 2.25627e+07 2.9327e+07 4.14821e+07 2.1666e+07 8.173e+06 9.77209e+06 7.88379e+06 7.83448e+06 6.38879e+06 5.5717e+06 5.44619e+06 4.5607e+06 4.4415e+06 3.60482e+06 2.1288e+07 2.87061e+06 2.09192e+06 1.29721e+06 2.32934e+06 1.24319e+06 1.15305e+06 1.32523e+06 951744 2.4941e+06 451671 339358 307334 299468 349624 1.27816e+06 65507.2 53356 13387.4 40692.5 17576
threshold=0.35970314699755973 221.25500000000002 714.50000000000011 1265.5000000000002 1135.5000000000002 0.13275469095842915 0.50482585762081478 3.5250000000000004 23199.995000000006 563.28675388536965 0.24928199295984316 564.18000000000018 0.081043321913647715 189.38000000000002 2007.5000000000002 0.13773252118142473 363.75500000000005 1.5000000000000002 0.064279040043718955 597.17000000000019 18931.280000000002 296.89000000000004 48.500000000000007 426.61000000000007 2017.5000000000002 176.22283287869129 2.5000000000000004 1111.0000000000002 43.500000000000007 0.023011133787120556 6816.5000000000009 6760.5000000000009 1.5000000000000002 3.4750000000000001 1825.5000000000002 28887.800000000003 3.4750000000000001
decision_type=2 2 2 2 2 2 2 2 2 2 2 2 2 2 2 2 2 2 2 2 2 2 2 2 2 2 2 2 2 2 2 2 2 2 2 2 2
left_child=5 -2 6 4 -4 18 14 8 -8 -5 15 13 -13 -12 21 16 32 -15 29 24 -21 -3 23 -17 27 -26 -24 -20 -22 34 31 -31 -7 -32 35 -1 -36
right_child=1 2 3 9 -6 10 7 -9 -10 -11 11 12 -14 17 -16 22 -18 -19 19 20 28 -23 26 -25 25 -27 -28 -29 -30 30 33 -33 -34 -35 36 -37 -38
leaf_value=-1.3431092632797521 28.226691301699045 3.7358810242360794 7.9285456872042372 1.9547367635905013 35.660535898846774 -1.6431689908848095 7.647931288662388 0 18.412218134116884 12.120547802112849 8.2585150504077482 2.4497515860595374 12.385132442687711 2.9078640385680634 7.8506512744144707 0.38186549951100962 15.289820522497614 0.30238354705880011 -0.97266726871416764 4.8159703290858173 1.0179877784218003 0.46286495789158294 0.04852305650132787 2.0300642872443779 5.1915846903019185 -1.0735208344744052 -0.83514779068812539 -0.52755120221306673 -0.82520498672018461 -0.9929129581435322 -1.174925688301103 0.86647605173844 -0.67278151189205537 -0.98939676699446577 -1.1177761693431938 -0.90120659830765981 -1.277958607814496
leaf_weight=2477 108 122 80 125 79 108 156 78 74 101 78 85 78 575 99 2068 80 680 1832 91 104 286 1626 435 74 127 577 4070 185 1701 3585 324 100 1715 811 168 1545
leaf_count=2477 108 122 80 125 79 108 156 78 74 101 78 85 78 575 99 2068 80 680 1832 91 104 286 1626 435 74 127 577 4070 185 1701 3585 324 100 1715 811 168 1545
internal_value=0.033044 9.09659 7.3734 12.7879 21.7169 -0.435566 4.81461 8.30156 11.1161 6.50091 0.916469 2.47223 7.20835 1.89262 2.6951 0.450352 3.39756 1.49641 -0.902098 -0.507371 1.03077 1.44257 0.269895 0.668449 -0.603193 1.23261 -0.182826 -0.665767 -0.16097 -1.10968 -0.99897 -0.69527 -1.17816 -1.11495 -1.27178 -1.31516 -1.22295
internal_weight=26607 1308 1200 385 159 25299 815 308 230 226 6490 1496 163 1333 507 4994 288 1255 18809 6483 380 408 4706 2503 6103 201 2203 5902 289 12326 7325 2025 208 5300 5001 2645 2356
internal_count=26607 1308 1200 385 159 25299 815 308 230 226 6490 1496 163 1333 507 4994 288 1255 18809 6483 380 408 4706 2503 6103 201 2203 5902 289 12326 7325 2025 208 5300 5001 2645 2356
is_linear=0
shrinkage=0.0271392


Tree=12
num_leaves=39
num_cat=0
split_feature=29 29 25 16 6 17 28 29 8 1 12 28 5 15 16 28 26 29 11 29 12 28 6 29 7 1 17 27 9 12 20 25 24 24 5 16 24 11
split_gain=1.27408e+08 5.17102e+07 1.02283e+08 1.58191e+07 1.23329e+07 1.84757e+07 2.90811e+07 8.87857e+06 8.2324e+06 3.45464e+06 1.0789e+07 3.94685e+06 2.84341e+06 1.90046e+06 2.44758e+06 1.82446e+06 2.2905e+06 1.14373e+06 1.07625e+06 1.07384e+06 2.04432e+06 1.07106e+06 753302 1.89275e+06 5.34221e+06 829093 557325 399580 293631 1.46308e+06 269636 200156 781100 306119 105897 94629.6 171977 26256.5
threshold=213.51462141430412 226.66893808422938 1299.5000000000002 1.0000000180025095e-35 1.5750000000000004 0.087263070768381815 2004.5000000000002 53.848841411459027 6889.5000000000009 67.500000000000014 2.5000000000000004 2010.5000000000002 370.00000000000006 1.0000000180025095e-35 1.0000000180025095e-35 2002.5000000000002 1.5000000000000002 25.243660127982459 30538.500000000004 81.226594097458346 2.5000000000000004 2005.5000000000002 1.8750000000000002 28.626876132280785 1685.5000000000002 27.500000000000004 0.09354625426053996 6.5000000000000009 1.0000000180025095e-35 2.5000000000000004 1.0000000180025095e-35 1049.5000000000002 61.500000000000007 104.50000000000001 730.50000000000011 1.0000000180025095e-35 81.500000000000014 2207.3550000000005
decision_type=2 2 2 2 2 2 2 2 2 2 2 2 2 2 2 2 2 2 2 2 2 2 2 2 2 2 2 2 2 2 2 2 2 2 2 2 2 2
left_child=7 2 -2 4 15 8 -7 17 -6 12 11 30 13 18 -15 -3 -17 28 -9 27 -21 26 23 24 -19 -25 -5 -14 35 34 -11 33 -33 -24 -30 36 -1 -37
right_child=1 3 -4 21 5 6 -8 9 -10 10 -12 -13 19 14 -16 16 -18 22 -20 20 -22 -23 31 25 -26 -27 -28 -29 29 -31 -32 32 -34 -35 -36 37 -38 -39
leaf_value=-1.234306233498468 0.62006049745974112 6.1100931771716764 45.296262230866695 -1.8954880929270468 10.024711581833209 28.47462482982473 8.1022505408847731 0.23136895072307523 3.3914763325517816 -1.5276905514493924 9.532055655633398 5.6911967815652664 1.0916736898563431 5.4882505354453448 1.0638123857979085 0.20443399383139957 5.1894225956940803 -0.95786441376964004 1.7753342605410152 -0.39140513255188031 1.57277406543137 2.9222005716567998 -1.2602314990936465 1.1981242803807532 5.8310938559477137 -0.67417742939563419 0.97622603069359026 -0.87077646059822245 -0.41657324424854913 2.0235792026457178 0.23138377560668077 1.9196167587145259 -0.77394573429645963 0.37070104103873946 -1.1272133092777603 -0.90924329288047823 -0.8539825886663549 -1.2670850804521063
leaf_weight=1763 77 130 74 134 269 84 134 3454 283 242 119 79 79 123 367 168 114 229 368 1844 495 76 1041 189 136 2205 79 2207 187 131 87 81 3553 92 924 165 1756 3069
leaf_count=1763 77 130 74 134 269 84 134 3454 283 242 119 79 79 123 367 168 114 229 368 1844 495 76 1041 189 136 2205 79 2207 187 131 87 81 3553 92 924 165 1756 3069
internal_value=0.032159 7.40277 22.525 5.84947 7.24103 9.26898 15.9588 -0.44634 6.62514 0.208805 2.34396 0.245769 0.0828557 0.584221 2.17547 3.44956 2.22118 -0.845832 0.38012 -0.384526 0.0241931 0.156818 -0.605629 -0.24859 1.57155 -0.526234 -0.829236 -0.802822 -1.07191 -0.687832 -1.0618 -0.812214 -0.713809 -1.12757 -1.00785 -1.1425 -1.04461 -1.24892
internal_weight=26607 1622 151 1471 1182 770 218 24985 552 9464 527 408 8937 4312 490 412 282 15521 3822 4625 2339 289 7526 2759 365 2394 213 2286 7995 1242 329 4767 3634 1133 1111 6753 3519 3234
internal_count=26607 1622 151 1471 1182 770 218 24985 552 9464 527 408 8937 4312 490 412 282 15521 3822 4625 2339 289 7526 2759 365 2394 213 2286 7995 1242 329 4767 3634 1133 1111 6753 3519 3234
is_linear=0
shrinkage=0.0271392


Tree=13
num_leaves=39
num_cat=0
split_feature=31 18 31 29 17 28 21 19 31 29 18 24 13 2 17 29 8 18 25 31 31 17 18 2 31 28 24 18 17 29 31 2 2 25 8 16 24 31
split_gain=1.4026e+08 5.52164e+07 1.95115e+07 1.83075e+07 1.46842e+07 2.28977e+07 8.8707e+06 6.63992e+06 5.66987e+06 5.21385e+06 6.5845e+06 4.76632e+06 3.75333e+06 1.03159e+07 3.74642e+06 3.55294e+06 2.65943e+06 2.38388e+06 3.45526e+06 1.89636e+06 1.32129e+06 1.32059e+06 1.19873e+06 2.71747e+06 1.11546e+06 844559 1.03266e+06 440038 421397 373012 265430 332297 2.0348e+06 217284 139352 16233.1 72249.9 7630.42
threshold=0.35970314699755973 221.25500000000002 0.13275469095842915 256.64648794447504 0.087107716116029618 2004.5000000000002 2.5000000000000004 0.024327783194962902 0.24928199295984316 193.2271852665186 564.18000000000018 83.500000000000014 1.5000000000000002 8272.5000000000018 0.075279856925216868 127.96674611921651 12741.500000000002 663.71000000000015 1275.5000000000002 0.064279040043718955 0.14043326903498407 0.061949187001155856 617.2700000000001 7360.5000000000009 0.46710435983751569 2017.5000000000002 119.50000000000001 434.73000000000008 0.060886313292777008 85.619676511029496 0.023011133787120556 6799.5000000000009 6777.5000000000009 1190.5000000000002 221.50000000000003 1.0000000180025095e-35 114.50000000000001 0.0036357557761064157
decision_type=2 2 2 2 2 2 2 2 2 2 2 2 2 2 2 2 2 2 2 2 2 2 2 2 2 2 2 2 2 2 2 2 2 2 2 2 2 2
left_child=2 -2 19 11 6 -6 24 -8 12 16 14 -3 17 33 -11 -13 21 20 -19 30 -4 -10 25 29 -5 28 -27 -17 -21 -24 35 32 -32 -14 -33 36 -1 -37
right_child=1 3 8 4 5 -7 7 -9 9 10 -12 15 13 -15 -16 27 -18 18 -20 22 -22 -23 23 -25 -26 26 -28 -29 -30 -31 31 34 -34 -35 -36 37 -38 -39
leaf_value=-1.1966757363024014 27.279944463300414 7.8348038684607539 -1.3952592640927501 -0.27941046744550824 25.196867085848684 7.6719703825796035 7.7005109531263054 16.966441095126047 -1.0952494135842454 6.3788378671844548 11.185550096406708 6.5876811115816034 1.0939655380127116 12.163669466022704 0.80548179202885684 -0.57774094359795192 5.1544813168934187 7.7635151442445851 0.3371266961083238 -0.12033771983547453 0.27215984011171307 1.341303158424711 0.63411937642107008 4.4081630075779987 4.1143384632785045 -0.31203591579384965 3.7070398946591259 1.7836499520856408 -0.72993719014226188 -1.7137184970883954 -0.88948539452211028 0.073163184234372319 2.5521685086334287 -0.84757252458313359 -1.0792809012770914 -1.1849890653547248 -0.57020532364951126 -1.2736389480420465
leaf_weight=1327 108 112 382 75 100 122 249 74 213 151 93 78 78 74 216 212 115 75 120 1006 4172 708 84 118 98 129 74 80 4950 122 1801 78 136 93 5310 1249 153 2272
leaf_count=1327 108 112 382 75 100 122 249 74 213 151 93 78 78 74 216 212 115 75 120 1006 4172 708 84 118 98 129 74 80 4950 122 1801 78 136 93 5310 1249 153 2272
internal_value=0.0312968 8.697 -0.416743 7.02309 9.76963 15.5717 7.17072 9.82679 0.866304 2.33192 4.73638 2.93057 0.427192 3.70253 3.09994 1.44437 1.26386 0.258122 3.19617 -0.85947 0.132222 0.777494 -0.483643 1.12495 2.20862 -0.568315 1.15245 0.0685795 -0.627017 -0.755218 -1.05712 -0.952874 -0.647642 0.0366418 -1.06255 -1.20974 -1.13211 -1.24228
internal_weight=26607 1308 25299 1200 718 222 496 323 6490 1496 460 482 4994 245 367 370 1036 4749 195 18809 4554 921 6483 324 173 6159 203 292 5956 206 12326 7325 1937 171 5388 5001 1480 3521
internal_count=26607 1308 25299 1200 718 222 496 323 6490 1496 460 482 4994 245 367 370 1036 4749 195 18809 4554 921 6483 324 173 6159 203 292 5956 206 12326 7325 1937 171 5388 5001 1480 3521
is_linear=0
shrinkage=0.0271392


Tree=14
num_leaves=39
num_cat=0
split_feature=31 31 31 16 17 28 31 8 19 31 30 8 17 11 17 13 2 31 2 19 7 8 30 30 31 30 23 23 17 31 2 2 2 8 0 16 11 31
split_gain=1.32754e+08 4.62317e+07 1.84672e+07 1.45334e+07 1.68603e+07 3.31366e+07 1.1083e+07 5.60388e+06 5.55128e+06 5.36645e+06 4.73613e+06 5.28918e+06 5.03891e+06 4.37139e+06 4.10198e+06 3.55252e+06 9.76395e+06 1.79484e+06 1.44457e+06 1.27767e+06 6.09307e+06 1.08177e+06 804513 3.16605e+06 3.35471e+06 1.03619e+06 630729 434777 355388 251212 314494 1.9259e+06 213317 131910 84690 15341.1 51785.3 7199.36
threshold=0.35970314699755973 0.38132004847882467 0.13275469095842915 1.0000000180025095e-35 0.087107716116029618 2004.5000000000002 0.59601987899401421 5822.5000000000009 0.019883894043232455 0.24928199295984316 332.26823713030893 12741.500000000002 0.10604120034902687 16690.005000000001 0.067426554956593263 1.5000000000000002 8272.5000000000018 0.064279040043718955 10434.500000000002 0.029813519425302252 1867.5000000000002 13278.500000000002 150.58565347242947 165.98589931278676 0.10561372632770853 246.47558015757053 4.5000000000000009 3.5000000000000004 0.091608432989579811 0.023011133787120556 6799.5000000000009 6777.5000000000009 6740.5000000000009 221.50000000000003 31.500000000000004 1.0000000180025095e-35 19785.160000000003 0.0036357557761064157
decision_type=2 2 2 2 2 2 2 2 2 2 2 2 2 2 2 2 2 2 2 2 2 2 2 2 2 2 2 2 2 2 2 2 2 2 2 2 2 2
left_child=2 -2 17 4 6 -6 8 -8 -3 15 11 18 13 -12 -5 19 32 29 -11 21 -21 -4 27 24 -24 -25 -16 34 -29 35 31 -31 -17 -32 -19 36 -1 -37
right_child=1 3 9 14 5 -7 7 -9 -10 10 12 -13 -14 -15 26 16 -18 22 -20 20 -22 -23 23 25 -26 -27 -28 28 -30 30 33 -33 -34 -35 -36 37 -38 -39
leaf_value=-1.179012070532802 23.255669091875294 1.6439171040948599 0.27301697771493622 6.0000123149685214 28.769687602084502 7.0132594194785698 16.181561692508279 6.6904389834297984 8.4038812401590501 -0.37147991266578317 6.8669790304648464 6.5934207892913159 10.459607647350897 1.3459106528248748 1.2886136706860791 1.1471296072541692 11.833814568530805 -0.45108427112239219 2.1646716602238989 0.3262194256022577 8.7289597930116045 -0.96157455098244271 0.22388590138236322 0.28509392348781598 7.5059134963886178 -1.3894755909361391 -1.5797464297310433 -0.60556215596118301 0.068199673839329775 -0.86534622831848418 0.071179038386218904 2.4829339609007626 -0.78998305593517704 -1.04999038034712 -1.1707358497987053 -1.1528308784645076 -0.76468680094200836 -1.2390742555897059
leaf_weight=1202 139 278 3615 127 82 139 100 85 132 595 158 113 82 319 117 73 74 138 229 449 74 611 108 646 82 470 109 3320 697 1801 78 136 98 5310 1022 1249 278 2272
leaf_count=1202 139 278 3615 127 82 139 100 85 132 595 158 113 82 319 117 73 74 138 229 449 74 611 108 646 82 470 109 3320 697 1801 78 136 98 5310 1022 1249 278 2272
internal_value=0.0304583 8.46113 -0.40543 6.7007 8.69099 15.0923 6.31169 11.8256 3.82179 0.84281 2.26868 1.08875 4.24571 3.17583 2.09854 0.415607 3.60213 -0.836146 0.333146 0.25112 1.51645 0.0944481 -0.470516 0.131247 3.36931 -0.419956 -0.0937369 -0.622371 -0.488594 -1.02843 -0.927012 -0.630061 0.0356098 -1.03371 -1.08537 -1.17692 -1.10139 -1.20857
internal_weight=26607 1308 25299 1169 816 221 595 185 410 6490 1496 937 559 477 353 4994 245 18809 824 4749 523 4226 6483 1306 190 1116 226 5177 4017 12326 7325 1937 171 5388 1160 5001 1480 3521
internal_count=26607 1308 25299 1169 816 221 595 185 410 6490 1496 937 559 477 353 4994 245 18809 824 4749 523 4226 6483 1306 190 1116 226 5177 4017 12326 7325 1937 171 5388 1160 5001 1480 3521
is_linear=0
shrinkage=0.0271392


Tree=15
num_leaves=39
num_cat=0
split_feature=31 18 5 7 31 18 31 24 31 3 18 17 24 27 18 31 31 27 31 2 18 11 27 18 24 28 6 3 17 31 28 31 2 2 6 16 24 5
split_gain=1.25651e+08 5.22506e+07 1.97051e+07 1.76287e+07 1.74788e+07 1.63194e+07 7.28196e+06 9.36184e+06 5.07929e+06 4.95382e+06 4.79437e+06 5.00357e+06 4.40047e+06 5.7915e+06 3.59222e+06 3.52918e+06 3.46755e+06 2.27468e+07 1.69875e+06 1.24923e+06 1.12692e+06 3.31338e+06 1.10911e+06 1.24973e+06 985629 799024 1.08788e+06 669508 402301 266091 262841 237756 297645 1.82283e+06 54885.9 14497.4 66732.3 8050.36
threshold=0.35970314699755973 221.25500000000002 714.50000000000011 1897.0000000000002 0.13275469095842915 331.31500000000005 0.50482585762081478 114.50000000000001 0.24928199295984316 10.500000000000002 564.18000000000018 0.081043321913647715 101.50000000000001 35.500000000000007 401.39500000000004 0.5457464015080572 0.13773252118142473 33.500000000000007 0.064279040043718955 10434.500000000002 617.2700000000001 18931.280000000002 27.500000000000004 426.61000000000007 77.500000000000014 2017.5000000000002 2.1250000000000004 14.500000000000002 0.060886313292777008 0.089175868640965009 2006.5000000000002 0.023011133787120556 6799.5000000000009 6777.5000000000009 4.825000000000002 1.0000000180025095e-35 114.50000000000001 1460.5000000000002
decision_type=2 2 2 2 2 2 2 2 2 2 2 2 2 2 2 2 2 2 2 2 2 2 2 2 2 2 2 2 2 2 2 2 2 2 2 2 2 2
left_child=4 -2 6 5 18 -4 9 14 16 -3 12 -12 13 -10 -8 -5 17 30 31 -14 25 -22 23 -18 -11 28 -27 -24 -20 -23 -6 35 33 -33 -34 36 -1 -37
right_child=1 2 3 15 8 -7 7 -9 10 24 11 -13 19 -15 -16 -17 22 -19 20 -21 21 29 27 -25 -26 26 -28 -29 -30 -31 -32 32 34 -35 -36 37 -38 -39
leaf_value=-1.1335599343911746 26.308588536647463 6.7320377542499452 8.6411426611552109 0.37589251589175077 -1.910216461293005 23.181766204076663 2.0595495546502076 14.983329306674662 2.0208322562709689 3.3547901921270991 2.0395539740929238 11.562325180923484 -0.67486011999472328 8.5824410835038307 9.4268616515917074 8.5484760947704075 0.30542566483556383 16.259135096498937 -0.10187630103446432 2.4518940024704694 6.1441680033161097 -1.6463798010470128 0.091000017811935702 1.8145391769161849 -0.087849506314799333 2.8031663442342727 -1.2282414276809759 -0.98686665372947413 -0.69750093064522212 0.23229209190869118 0.062739809330628837 -0.84186216055902308 -1.0478761484619281 2.4155777902177133 -0.82565466928018472 -1.2235352092105864 -0.53141976195046614 -1.1365092720874694
leaf_weight=1327 108 132 106 75 136 123 147 88 618 77 85 78 480 118 73 81 2356 74 1006 117 74 83 1208 488 298 119 84 654 4950 167 78 1801 4363 136 1025 1585 153 1936
leaf_count=1327 108 132 106 75 136 123 147 88 618 77 85 78 480 118 73 81 2356 74 1006 117 74 83 1208 488 298 119 84 654 4950 167 78 1801 4363 136 1025 1585 153 1936
internal_value=0.0296429 8.23165 6.60333 11.6633 -0.394422 16.4561 4.21207 7.5034 0.819955 2.21148 2.20715 6.60049 1.66948 3.07376 4.50713 4.62256 0.404337 3.29487 -0.813455 -0.06148 -0.457744 1.10192 0.227349 0.564493 0.618777 -0.539842 1.13388 -0.287469 -0.596941 -0.390658 -1.1901 -1.00052 -0.901853 -0.612957 -1.00566 -1.14498 -1.0715 -1.17578
internal_weight=26607 1308 1200 385 25299 229 815 308 6490 507 1496 163 1333 736 220 156 4994 288 18809 597 6483 324 4706 2844 375 6159 203 1862 5956 250 214 12326 7325 1937 5388 5001 1480 3521
internal_count=26607 1308 1200 385 25299 229 815 308 6490 507 1496 163 1333 736 220 156 4994 288 18809 597 6483 324 4706 2844 375 6159 203 1862 5956 250 214 12326 7325 1937 5388 5001 1480 3521
is_linear=0
shrinkage=0.0271392


Tree=16
num_leaves=35
num_cat=0
split_feature=29 29 3 16 21 25 25 30 17 1 12 1 3 12 28 3 24 29 28 30 30 17 29 25 20 24 2 16 17 17 17 2 17 30
split_gain=1.03188e+08 5.0887e+07 1.15716e+08 1.37926e+07 1.34434e+07 1.26774e+07 3.49472e+07 1.21343e+07 7.30214e+06 3.84727e+06 1.30409e+07 3.72167e+06 3.68035e+06 2.58341e+06 1.52949e+06 2.48489e+06 2.50402e+06 1.39479e+06 1.12395e+06 583848 772252 566191 382174 312722 265316 116733 184049 450711 114523 85791.1 60036.1 29596 28188.7 20733.5
threshold=213.51462141430412 226.66893808422938 11.500000000000002 1.0000000180025095e-35 2.5000000000000004 1181.0000000000002 1259.5000000000002 111.41078409997324 0.096404769260840212 67.500000000000014 2.5000000000000004 42.500000000000007 5.5000000000000009 1.5000000000000002 1996.5000000000002 18.500000000000004 88.500000000000014 28.626876132280785 2005.5000000000002 34.963587854240274 35.470079943558957 0.09354625426053996 25.243660127982459 1111.0000000000002 1.0000000180025095e-35 81.500000000000014 11816.000000000002 1.0000000180025095e-35 0.081537568594343565 0.056405917827237605 0.085371837526029767 6596.5000000000009 0.069488965128782818 204.47696453523028
decision_type=2 2 2 2 2 2 2 2 2 2 2 2 2 2 2 2 2 2 2 2 2 2 2 2 2 2 2 2 2 2 2 2 2 2
left_child=7 2 -2 4 8 11 -7 19 13 14 12 -6 -11 -3 30 17 -17 -16 21 25 -21 -5 28 -24 -14 31 29 -28 -22 -27 33 -1 -33 -9
right_child=1 3 -4 18 5 6 -8 9 -10 10 -12 -13 24 -15 15 16 -18 -19 -20 20 22 -23 23 -25 -26 26 27 -29 -30 -31 -32 32 -34 -35
leaf_value=-0.64175988597455069 45.88385520224891 4.3554776906800017 -1.6274630519665321 -2.2788408095180066 0.13215080233918042 29.436276906757904 8.2036626258725729 -1.2681815118462005 9.3016951678168738 5.9131208107175874 11.787034885272622 8.1246129848954833 -1.3902428166093599 0.56067074383309989 2.7897437362897213 0.21823996382069763 4.8123761242982646 0.24800690870753186 2.6384956532081998 1.3156693381845064 -1.1254941765504038 0.61514359945381836 -0.85245817261021395 -0.47228785838937243 0.46577305162857952 -0.12590567682636125 1.5018323934487616 -1.2556268441810179 -0.74726495098186863 -0.95451269548245266 -0.66263185285876025 -1.2069521363157316 -1.0366428266618475 -1.7278409117545823
leaf_weight=96 74 260 77 134 94 73 262 191 145 74 96 79 206 269 163 165 186 6457 76 142 1601 79 2386 4819 78 95 78 99 943 3890 93 1690 1310 127
leaf_count=96 74 260 77 134 94 73 262 191 145 74 96 79 206 269 163 165 186 6457 76 142 1601 79 2386 4819 78 95 78 99 943 3890 93 1690 1310 127
internal_value=0.0288491 6.66201 21.6632 5.12115 6.42054 9.75456 12.8355 -0.401773 3.90666 0.482989 2.90775 3.78484 0.524495 2.42654 0.333808 0.428693 2.65385 0.310652 -0.192638 -0.806068 -0.670332 -1.20443 -0.699293 -0.598225 -0.879616 -0.991003 -0.896787 -0.0389616 -0.985413 -0.934824 -1.27475 -1.11756 -1.13269 -1.45283
internal_weight=26607 1622 151 1471 1182 508 335 24985 674 7836 454 173 358 529 7382 6971 351 6620 289 17149 9891 213 9749 7205 284 7258 4162 177 2544 3985 411 3096 3000 318
internal_count=26607 1622 151 1471 1182 508 335 24985 674 7836 454 173 358 529 7382 6971 351 6620 289 17149 9891 213 9749 7205 284 7258 4162 177 2544 3985 411 3096 3000 318
is_linear=0
shrinkage=0.0271392


Tree=17
num_leaves=37
num_cat=0
split_feature=29 29 25 16 18 6 17 30 18 1 18 17 25 28 28 11 17 28 17 30 30 18 6 30 7 5 7 0 18 17 7 27 27 5 5 28
split_gain=9.76668e+07 4.81642e+07 9.59761e+07 1.30545e+07 1.35619e+07 1.37786e+07 1.91531e+07 1.14907e+07 6.12002e+06 3.10267e+06 1.65291e+07 2.02394e+07 2.78713e+06 1.50715e+06 1.30605e+06 4.45486e+06 1.52566e+06 1.0638e+06 535913 438050 754862 363743 410973 360197 234227 165956 146229 708238 160694 61843.9 114920 51455.6 110133 50738.8 33319.8 9547
threshold=213.51462141430412 226.66893808422938 1299.5000000000002 1.0000000180025095e-35 261.61500000000007 1.5750000000000004 0.087263070768381815 103.09635673709447 579.42000000000019 67.500000000000014 361.59500000000008 0.080466571448003774 1290.5000000000002 1996.5000000000002 1998.5000000000002 22407.500000000004 0.093288934962669767 2005.5000000000002 0.09354625426053996 34.963587854240274 35.470079943558957 267.72500000000008 1.0999999999999999 235.23208204557108 1432.0000000000002 370.00000000000006 1959.0000000000002 35.500000000000007 444.41500000000002 0.061949187001155856 1391.5000000000002 31.500000000000004 29.500000000000004 714.50000000000011 714.50000000000011 1999.5000000000002
decision_type=2 2 2 2 2 2 2 2 2 2 2 2 2 2 2 2 2 2 2 2 2 2 2 2 2 2 2 2 2 2 2 2 2 2 2 2
left_child=7 2 -2 4 12 8 -7 19 -6 13 23 -12 24 29 15 -15 -16 18 -5 26 -21 25 -23 33 -3 -22 31 -28 -29 34 -31 32 -1 -11 -9 -33
right_child=1 3 -4 17 5 6 -8 9 -10 10 11 -13 -14 14 16 -17 -18 -19 -20 20 21 22 -24 -25 -26 -27 27 28 -30 30 -32 35 -34 -35 -36 -37
leaf_value=-1.0048545573366643 -0.13615502270515928 -0.9069339331253784 43.133776377366708 -2.2170215434289529 1.4534921315154401 7.0061299290092913 17.555830963932998 -1.9272139142556508 10.295834567025505 -1.695378990007909 20.253787649912002 0.30917104517479083 4.4345918025648068 0.28721116937142566 0.52389344779149294 7.8183703942312563 -0.42613843865933571 2.5669433803175457 0.59846129493421318 1.2799776778563592 -0.6635042354020938 1.0335349156400897 -0.61148826993781102 0.68948236109568151 -3.0878943088571802 -1.0615165828293858 1.8973045590482724 -0.95104492750552738 0.24109557296752049 -0.047419451242563151 -1.3534681332934058 -1.0091559888006028 -0.50690744662775966 -0.91315476087815561 -1.2464441994775581 -1.1502011731086494
leaf_weight=3362 77 73 74 134 274 435 179 102 73 132 73 77 75 242 5571 76 1603 76 79 142 1156 114 5540 88 73 2350 73 1060 90 75 149 489 365 118 119 1819
leaf_count=3362 77 73 74 134 274 435 179 102 73 132 73 77 75 242 5571 76 1603 76 79 142 1156 114 5540 88 73 2350 73 1060 90 75 149 489 365 118 119 1819
internal_value=0.0280738 6.48134 21.0757 4.98227 6.24641 7.6404 10.0835 -0.390869 3.31583 0.425081 2.5254 10.0213 0.183185 0.295896 0.387068 2.089 0.311576 -0.187357 -1.17172 -0.806004 -0.682606 -0.713066 -0.578265 -0.801575 -1.99993 -0.930369 -0.964113 -0.6928 -0.857521 -1.23837 -0.917422 -1.01905 -0.956165 -1.32747 -1.5622 -1.12045
internal_weight=26607 1622 151 1471 1182 961 614 24985 347 8425 488 150 221 7937 7492 318 7174 289 213 16560 9302 9160 5654 338 146 3506 7258 1223 1150 445 224 6035 3727 250 221 2308
internal_count=26607 1622 151 1471 1182 961 614 24985 347 8425 488 150 221 7937 7492 318 7174 289 213 16560 9302 9160 5654 338 146 3506 7258 1223 1150 445 224 6035 3727 250 221 2308
is_linear=0
shrinkage=0.0271392


Tree=18
num_leaves=34
num_cat=0
split_feature=29 18 6 17 18 29 12 7 18 0 25 1 18 17 19 6 18 0 6 25 7 2 29 29 25 24 18 24 24 16 18 11 22
split_gain=5.1479e+07 1.27165e+07 1.22868e+07 1.55909e+07 2.24967e+07 7.11443e+06 5.4131e+06 6.34475e+06 4.8261e+06 4.36458e+06 3.43534e+06 2.80508e+06 1.37008e+07 2.14706e+07 2.35413e+06 1.65614e+06 2.20791e+06 2.64335e+06 1.0723e+06 1.02892e+06 3.99496e+06 849018 805740 598032 583876 1.70005e+06 380300 380692 204485 157400 667663 47183.7 21846.3
threshold=256.64648794447504 275.76500000000004 1.675 0.087263070768381815 370.30500000000006 53.848841411459027 2.5000000000000004 1959.0000000000002 638.68500000000006 33.500000000000007 1319.5000000000002 67.500000000000014 361.59500000000008 0.07860766842517096 0.012727121248187602 1.0999999999999999 434.73000000000008 52.500000000000007 1.2750000000000001 1685.5000000000002 2153.0000000000005 7045.5000000000009 148.183208196685 25.243660127982459 1040.5000000000002 60.500000000000007 259.42500000000007 85.500000000000014 104.50000000000001 1.0000000180025095e-35 305.65500000000003 2207.3550000000005 1.5000000000000002
decision_type=2 2 2 2 2 2 2 2 2 2 2 2 2 2 2 2 2 2 2 2 2 2 2 2 2 2 2 2 2 2 2 2 2
left_child=5 10 9 6 -5 8 7 -4 23 -3 14 15 26 -14 -2 16 21 -18 -11 22 -21 -7 -17 29 28 -26 32 -28 -25 30 -1 -31 -13
right_child=1 2 3 4 -6 11 -8 -9 -10 18 -12 12 13 -15 -16 19 17 -19 -20 20 -22 -23 -24 24 25 -27 27 -29 -30 31 -32 -33 -34
leaf_value=-0.95254535070384616 -5.3394521557231123 7.497218526872536 10.641255514313093 26.651280157807914 7.9003265515054322 1.1795974699867506 0.82005740892733736 2.458808855704151 5.4365593928741118 -1.9938412658011191 5.148940851572366 -1.2453464243053087 19.484806800246346 -0.29151555154377101 0.76785613870817293 -0.34631005739049792 3.6069298249552699 -1.7490864227007381 1.9502191415624459 3.979657312985025 -0.44276188749249229 -0.10001182408049537 0.4602076608462618 -1.084026964147383 3.02020277512452 -0.51441620278264155 1.628098433698014 -0.77226701460612401 0.077422010458361071 -0.60208491101838213 0.026749445693283205 -1.0667443169613449 -1.8743987847115999
leaf_weight=3408 77 87 213 79 117 573 104 104 93 89 76 74 74 89 117 5389 335 85 118 214 506 1144 1098 1712 102 5525 76 135 119 171 603 3801 103
leaf_count=3408 77 87 213 79 117 573 104 104 93 89 76 74 74 89 117 5389 335 85 118 214 506 1144 1098 1712 102 5525 76 135 119 171 603 3801 103
internal_value=-0.105467 5.43336 6.96641 9.14207 15.465 -0.362728 6.19605 7.95852 -0.725031 2.39872 0.259405 0.206021 2.08765 8.68888 -1.65575 0.0950258 0.758549 2.52228 0.253166 -0.10169 0.871544 0.3269 -0.209756 -0.762178 -0.587337 -0.45027 -0.685778 0.0913374 -1.0084 -0.925485 -0.805261 -1.04681 -1.61332
internal_weight=26610 1181 911 617 196 25429 421 317 15534 294 270 9895 551 163 194 9344 2137 420 207 7207 720 1717 6487 15441 7458 5627 388 211 1831 7983 4011 3972 177
internal_count=26610 1181 911 617 196 25429 421 317 15534 294 270 9895 551 163 194 9344 2137 420 207 7207 720 1717 6487 15441 7458 5627 388 211 1831 7983 4011 3972 177
is_linear=0
shrinkage=0.0271392


Tree=19
num_leaves=32
num_cat=0
split_feature=31 31 22 17 2 8 31 27 6 26 8 1 29 1 8 1 19 8 31 27 29 22 29 31 24 27 25 29 31 29 29
split_gain=6.35443e+07 1.52094e+07 1.17329e+07 1.34706e+07 1.11234e+07 9.49986e+06 5.56604e+06 5.35748e+06 4.91895e+06 8.9772e+06 5.24012e+06 4.0385e+06 8.77171e+06 3.82711e+06 1.48822e+07 3.4563e+06 2.88384e+06 2.70893e+06 1.19656e+06 1.05617e+06 1.21347e+06 978032 2.41981e+06 530999 484384 464610 392709 90824.4 98883 53220.8 11406
threshold=0.46710435983751569 0.24928199295984316 2.5000000000000004 0.087107716116029618 7193.5000000000009 6047.5000000000009 0.10561372632770853 14.500000000000002 2.1250000000000004 2.5000000000000004 13171.500000000002 29.500000000000004 170.93003419029682 67.500000000000014 14702.500000000002 47.500000000000007 0.018496361702859204 5210.5000000000009 0.044059686601439003 11.500000000000002 335.28690158722651 1.5000000000000002 28.626876132280785 0.2011928572091472 105.50000000000001 41.500000000000007 1035.5000000000002 66.142451381254247 0.023011133787120556 18.432261344996046 115.63260050439578
decision_type=2 2 2 2 2 2 2 2 2 2 2 2 2 2 2 2 2 2 2 2 2 2 2 2 2 2 2 2 2 2 2
left_child=1 6 3 5 -5 7 18 -2 9 11 19 12 -3 21 -15 -4 -7 -13 27 -10 -21 22 -8 -23 -16 26 -20 28 -1 -27 -29
right_child=2 8 15 4 -6 16 13 -9 10 -11 -12 17 -14 14 24 -17 -18 -19 25 20 -22 23 -24 -25 -26 29 -28 30 -30 -31 -32
leaf_value=-1.0558849845824974 7.5578501694860654 12.699508862341988 -1.1780706903267781 9.3032457012124361 24.30196236105791 0.5073237889319625 4.0342954367568602 16.460514878822956 2.1685059445090764 10.413119741256159 5.6105048554403449 -0.46682339210041257 0.74546891500108792 13.77156462966625 -1.6364555417763063 6.3303436738311181 7.277424761635781 2.7891773658030541 -0.86468683015856573 -0.25402294273894049 -3.8147410282451575 -0.54312456271725762 0.1861866264767896 0.26856787814971467 1.0726349046981232 -0.58164758603290501 -0.36583294940524685 -1.2805079569986311 -0.86850062738321565 -1.2050537719960002 -1.6097278158095834
leaf_weight=4815 119 80 111 73 73 127 125 86 114 113 129 315 104 73 119 76 73 467 1461 653 79 2339 3212 795 82 118 5708 393 3692 778 108
leaf_count=4815 119 80 111 73 73 127 125 86 114 113 129 315 104 73 119 76 73 467 1461 653 79 2339 3212 795 82 118 5708 393 3692 778 108
internal_value=-0.102598 -0.326604 7.74943 9.74288 16.811 7.19222 -0.519849 11.2974 1.91408 3.17655 0.516571 2.32921 5.9466 0.140176 3.28144 1.87315 2.98106 1.47736 -0.780618 -0.260197 -0.638922 0.00709946 0.330475 -0.337142 -0.530013 -0.540427 -0.467538 -0.995632 -0.974597 -1.12328 -1.35216
internal_weight=26610 25872 738 551 146 405 23818 205 2054 1079 975 966 184 6745 274 187 200 782 17073 846 732 6471 3337 3134 201 8065 7169 9008 8507 896 501
internal_count=26610 25872 738 551 146 405 23818 205 2054 1079 975 966 184 6745 274 187 200 782 17073 846 732 6471 3337 3134 201 8065 7169 9008 8507 896 501
is_linear=0
shrinkage=0.0271392


Tree=20
num_leaves=36
num_cat=0
split_feature=31 31 18 7 19 18 11 31 12 2 7 11 18 1 8 31 0 18 19 29 18 29 31 29 31 31 31 11 18 6 2 29 31 10 29
split_gain=6.0145e+07 1.43955e+07 1.36961e+07 1.64508e+07 2.13662e+07 1.06179e+07 7.00013e+06 5.26815e+06 5.19895e+06 8.69592e+06 1.59186e+07 4.85092e+06 4.28489e+06 6.45764e+06 4.01464e+06 5.82478e+06 3.73421e+06 2.00121e+07 1.62548e+06 1.3201e+06 1.21723e+06 3.37609e+06 1.13248e+06 778624 747846 725757 705995 577590 422341 544091 171702 85953.7 93571.1 85314.9 10772.3
threshold=0.46710435983751569 0.24928199295984316 275.76500000000004 1968.5000000000002 0.015984721583862004 365.92500000000007 18179.085000000003 0.10561372632770853 1.5000000000000002 6995.5000000000009 1798.5000000000002 30063.600000000002 346.27000000000004 49.500000000000007 13171.500000000002 0.30178654877969152 69.500000000000014 346.27000000000004 0.013683124209070452 226.66893808422938 528.44500000000016 77.314669929165589 0.044059686601439003 335.28690158722651 0.14043326903498407 0.35970314699755973 0.35970314699755973 22202.880000000001 293.12500000000006 1.5250000000000001 6858.5000000000009 66.142451381254247 0.023011133787120556 1.0000000180025095e-35 115.63260050439578
decision_type=2 2 2 2 2 2 2 2 2 2 2 2 2 2 2 2 2 2 2 2 2 2 2 2 2 2 2 2 2 2 2 2 2 2 2
left_child=1 7 23 4 -4 -6 -7 22 9 10 -3 27 26 -14 18 -16 20 33 25 -20 24 -22 31 -2 -9 -10 -11 -5 30 -30 -24 32 -1 -18 -33
right_child=2 8 3 11 5 6 -8 16 14 12 -12 -13 13 -15 15 -17 17 -19 19 -21 21 -23 28 -25 -26 -27 -28 -29 29 -31 -32 34 -34 -35 -36
leaf_value=-1.0272294352611138 -1.7094571644378191 15.170121261773405 25.965462463713802 2.4425718981151174 4.088148628095551 20.443921524175522 8.920207872519077 -0.57413863437343782 -0.52875658295863959 0.2197999854110308 0.82636443190117026 9.3037967064914877 6.4967404366485724 -2.6756989758669394 10.46046910573078 0.11693805686647751 -1.6700227807968964 15.202388868108248 0.26750776824617334 2.8970214224542401 6.2632398532598739 0.37149226248769535 -0.44729042626660809 2.1996382332264166 0.087603131075132123 -3.2545050127706103 -2.7986298675302885 -0.93423536606806568 0.19791449384458454 -0.51236121989574068 -0.89507730825670873 -1.2457610786388367 -0.84493056443351466 -0.56776165623460872 -1.5660644427093997
leaf_weight=4815 76 115 74 75 136 75 81 1840 245 182 113 73 212 77 73 89 107 75 577 186 82 565 876 74 3974 102 83 74 996 3914 2279 393 3692 102 108
leaf_count=4815 76 115 74 75 136 75 81 1840 245 182 113 73 212 77 73 89 107 75 577 186 82 565 876 74 3974 102 83 74 996 3914 2279 393 3692 102 108
internal_value=-0.0998058 -0.317738 7.53931 9.4065 12.9418 9.63596 14.4676 -0.505741 1.86216 3.60356 8.06427 3.57502 1.76663 4.05196 0.791271 4.78153 0.136378 3.18182 0.208463 0.909017 0.00244626 1.11909 -0.759436 0.217459 -0.121784 -1.33112 -0.725051 0.764101 -0.525764 -0.368229 -0.770837 -0.968615 -0.948148 -1.13359 -1.31548
internal_weight=26610 25872 738 588 366 292 156 23818 2054 782 228 222 554 289 1272 162 6745 284 1110 763 6461 647 17073 150 5814 347 265 149 8065 4910 3155 9008 8507 209 501
internal_count=26610 25872 738 588 366 292 156 23818 2054 782 228 222 554 289 1272 162 6745 284 1110 763 6461 647 17073 150 5814 347 265 149 8065 4910 3155 9008 8507 209 501
is_linear=0
shrinkage=0.0271392


Tree=21
num_leaves=32
num_cat=0
split_feature=31 31 5 25 17 25 9 31 6 26 8 1 29 1 19 8 5 31 17 11 11 25 11 29 28 7 8 9 28 29 8
split_gain=5.69275e+07 1.36251e+07 1.12977e+07 2.51415e+07 5.81751e+06 1.14101e+07 6.14739e+06 4.98617e+06 4.48684e+06 8.41229e+06 4.7319e+06 3.66515e+06 8.37006e+06 3.45954e+06 1.43957e+07 2.56625e+06 2.45943e+06 1.07184e+06 1.02043e+06 976451 1.16162e+06 640149 501527 369383 391616 336351 175936 95504.8 426000 65444.1 17713.5
threshold=0.46710435983751569 0.24928199295984316 730.50000000000011 1265.5000000000002 0.06637549588037836 1334.5000000000002 1.0000000180025095e-35 0.10561372632770853 2.1250000000000004 2.5000000000000004 13171.500000000002 29.500000000000004 170.93003419029682 67.500000000000014 0.019883894043232455 5210.5000000000009 1095.5000000000002 0.044059686601439003 0.10693343973854716 29545.000000000004 20674.910000000003 1250.5000000000002 20351.150000000005 170.93003419029682 2017.5000000000002 1994.5000000000002 7692.5000000000009 1.0000000180025095e-35 2014.5000000000002 50.011237778141513 3922.5000000000005
decision_type=2 2 2 2 2 2 2 2 2 2 2 2 2 2 2 2 2 2 2 2 2 2 2 2 2 2 2 2 2 2 2
left_child=1 7 4 -4 22 6 -6 17 9 11 18 12 -3 19 25 -13 -5 27 21 20 -9 -10 -2 24 -19 -15 -21 29 -29 -1 -25
right_child=2 8 3 16 5 -7 -8 13 10 -11 -12 15 -14 14 -16 -17 -18 23 -20 26 -22 -23 -24 30 -26 -27 -28 28 -30 -31 -32
leaf_value=-0.94536082278149192 2.0020633556967318 12.239731807594243 22.822851193414433 9.1291046295304898 -1.9020201650035931 13.889216284574832 7.3254946628179347 -0.1620094113832081 -1.5272937282637808 10.022576559804113 5.3175519844981185 -0.50666215161401629 0.56270326839684448 -1.6081551440689408 13.155315720180178 2.6624282362592586 2.4522287523694253 -0.51286313265946937 2.7590519595770231 -1.5297048752057503 0.64309397517454781 0.073239269742165158 -1.1456058801893936 -2.115699139165748 0.84698148050293354 0.69542796334412094 -0.61339919846770374 -0.87993263478227213 1.0865597877422173 -1.2075841073949911 -1.5172828960701554
leaf_weight=7395 73 80 97 73 96 112 119 3822 303 113 129 315 104 123 76 467 92 7748 75 271 2016 468 76 77 159 75 362 738 91 784 81
leaf_count=7395 73 80 97 73 96 112 119 3822 303 113 129 315 104 123 76 467 92 7748 75 271 2016 468 76 77 159 75 362 738 91 784 81
internal_value=-0.0970894 -0.309113 7.33489 11.8613 4.84181 6.86682 3.20473 -0.492016 1.81165 3.0174 0.476929 2.19715 5.64329 0.132681 3.11929 1.38561 5.40993 -0.738829 -0.261196 0.00615457 0.115972 -0.555505 0.395032 -0.511496 -0.485481 -0.734368 -1.00619 -0.94233 -0.663705 -0.970535 -1.81117
internal_weight=26610 25872 738 262 476 327 215 23818 2054 1079 975 966 184 6745 274 782 165 17073 846 6471 5838 771 149 8065 7907 198 633 9008 829 8179 158
internal_count=26610 25872 738 262 476 327 215 23818 2054 1079 975 966 184 6745 274 782 165 17073 846 6471 5838 771 149 8065 7907 198 633 9008 829 8179 158
is_linear=0
shrinkage=0.0271392


Tree=22
num_leaves=45
num_cat=0
split_feature=5 11 19 16 5 0 15 16 27 27 19 16 21 27 19 15 5 19 12 26 27 24 2 1 5 24 19 19 11 2 5 17 25 4 5 0 2 0 25 19 25 1 27 25
split_gain=6.26738e+06 4.52297e+06 5.03774e+06 6.33839e+06 2.25498e+07 6.05444e+06 2.30455e+06 8.6249e+06 9.12439e+06 2.11808e+06 3.52037e+06 1.92275e+06 1.70046e+07 1.21108e+07 3.11523e+06 1.16628e+06 1.45391e+06 2.18579e+06 1.00183e+06 3.64113e+06 891122 855159 672324 601280 564821 661886 1.02493e+06 463879 1.12094e+06 394910 721269 317355 218268 480963 155771 127864 104624 42092.3 177909 358690 51153.8 33051.7 28789.5 5703.77
threshold=754.00000000000011 14857.920000000002 0.015242453706851551 1.0000000180025095e-35 730.50000000000011 69.500000000000014 1.0000000180025095e-35 1.0000000180025095e-35 19.500000000000004 12.500000000000002 0.017538510383983203 1.0000000180025095e-35 2.5000000000000004 20.500000000000004 0.018824683675658455 1.0000000180025095e-35 1939.0000000000002 0.020762590371724902 4.5000000000000009 6.5000000000000009 50.500000000000007 90.500000000000014 10997.500000000002 47.500000000000007 370.00000000000006 29.500000000000004 0.035194107095671702 0.022817667512833002 11078.325000000003 6596.5000000000009 1451.5000000000002 0.085003863987635223 1164.5000000000002 1.0000000180025095e-35 1095.5000000000002 33.500000000000007 7223.5000000000009 35.500000000000007 1304.5000000000002 0.018718731542247905 951.00000000000011 67.500000000000014 21.500000000000004 1194.5000000000002
decision_type=2 2 2 2 2 2 2 2 2 2 2 2 2 2 2 2 2 2 2 2 2 2 2 2 2 2 2 2 2 2 2 2 2 2 2 2 2 2 2 2 2 2 2 2
left_child=1 20 6 4 5 -4 18 8 -8 10 -5 12 15 -14 -15 27 17 -17 23 -20 24 -9 -11 -3 25 36 -27 34 -29 30 -13 -18 35 -34 -2 -26 -1 38 40 -40 -31 42 -39 -43
right_child=11 2 3 9 -6 -7 7 21 -10 22 -12 29 13 14 -16 16 31 -19 19 -21 -22 -23 -24 -25 32 26 -28 28 -30 37 -32 -33 33 -35 -36 -37 -38 41 39 -41 -42 43 -44 -45
leaf_value=-0.75326808560602787 -1.0108154161091902 -0.036929184745791717 1.4433476309301767 6.9931792760173028 16.578753493391641 8.4171906965823435 9.6561359046505828 1.3437719080642181 1.2143131969350267 -0.89575610613137768 0.35289388637192992 2.188984375720274 14.00023159601075 -0.7060900049566029 6.491942592415473 0.25818348819175152 -1.3232198907741792 4.7261548084107305 -1.2458533910918279 6.2530586761763232 2.2101702180188649 -1.0531901815178815 1.2843974519873818 -0.73522252964785351 -1.3446605082212915 -0.18271952643708556 1.7884754497401807 -0.94863126902972594 0.43761111248479651 -0.53367775028059794 -0.97422309247423422 0.68577594243256335 -1.2753541841854905 1.5138075363338286 -0.64935329834618916 -0.76344484006441216 -1.6608836104302616 -1.0938008510113915 -1.2216704695499154 1.3165796160015306 -1.1516691469999907 -1.213737287907497 -0.93540169382615701 -1.5818219991372016
leaf_weight=206 1139 2025 2605 74 77 95 149 134 257 1012 286 84 98 110 74 242 223 121 125 77 93 600 116 1648 338 1420 225 812 912 132 144 78 91 91 3892 1637 174 1210 84 80 414 75 3058 73
leaf_count=206 1139 2025 2605 74 77 95 149 134 257 1012 286 84 98 110 74 242 223 121 125 77 93 600 116 1648 338 1420 225 812 912 132 144 78 91 91 3892 1637 174 1210 84 80 414 75 3058 73
internal_value=-0.0944478 0.314289 0.650774 1.33644 2.10228 1.68899 0.0675881 1.1402 4.31397 -0.0926649 1.71944 -0.518858 -0.244188 6.29623 2.18853 -0.492873 0.592208 1.74872 -0.247914 1.61237 -0.416079 -0.615184 -0.671279 -0.350314 -0.474572 -0.148894 0.0867973 -0.599575 -0.21517 -0.913879 0.190326 -0.801749 -0.78019 0.117883 -0.731248 -0.863077 -1.16971 -0.963044 -0.767365 0.0149953 -1.0028 -0.994438 -0.980382 -1.39754
internal_weight=26610 13555 9280 4265 2777 2700 5015 1140 406 1488 360 13055 7701 282 184 7419 664 363 3875 202 4275 734 1128 3673 4182 2025 1645 6755 1724 5354 228 301 2157 182 5031 1975 380 5126 710 164 546 4416 4268 148
internal_count=26610 13555 9280 4265 2777 2700 5015 1140 406 1488 360 13055 7701 282 184 7419 664 363 3875 202 4275 734 1128 3673 4182 2025 1645 6755 1724 5354 228 301 2157 182 5031 1975 380 5126 710 164 546 4416 4268 148
is_linear=0
shrinkage=0.0271392


Tree=23
num_leaves=35
num_cat=0
split_feature=29 1 26 18 17 25 30 28 30 24 13 0 23 30 28 19 17 18 16 0 8 19 29 26 25 30 1 17 24 18 29 25 3 29
split_gain=3.97195e+07 1.1205e+07 9.98817e+06 9.24936e+06 1.00207e+07 2.12261e+07 9.19086e+06 4.50233e+06 3.80237e+06 1.3259e+07 2.10806e+06 1.1141e+07 2.01139e+06 1.7734e+06 1.74696e+06 1.64273e+06 749650 396131 667580 602152 1.70432e+06 568322 2.07239e+06 344408 292025 241345 278227 435159 180762 180649 93696.8 74200.4 121813 28380.2
threshold=256.64648794447504 26.500000000000004 1.5000000000000002 275.76500000000004 0.087263070768381815 1265.5000000000002 111.41078409997324 2010.5000000000002 492.83650516466577 94.500000000000014 1.5000000000000002 63.500000000000007 4.5000000000000009 113.56098565057609 2003.5000000000002 0.014226343465523702 0.080200785024154564 274.61500000000007 1.0000000180025095e-35 30.500000000000004 1883.5000000000002 0.023186055813859355 25.623027312708384 1.5000000000000002 1350.5000000000002 84.974705743110562 38.500000000000007 0.06923308479599867 120.50000000000001 663.71000000000015 55.410451931540614 1170.5000000000002 13.500000000000002 57.940471866016992
decision_type=2 2 2 2 2 2 2 2 2 2 2 2 2 2 2 2 2 2 2 2 2 2 2 2 2 2 2 2 2 2 2 2 2 2
left_child=6 -2 24 12 7 -6 17 -5 10 -10 13 16 -4 -8 -11 -15 -12 25 21 20 -20 23 -23 -19 -3 31 27 -27 -16 -21 -28 33 -33 -1
right_child=1 2 3 4 5 -7 8 -9 9 14 11 -13 -14 15 28 -17 -18 18 19 29 -22 22 -24 -25 -26 26 30 -29 -30 -31 -32 32 -34 -35
leaf_value=-0.91480419631760179 13.761342951537932 -2.6687114410725301 3.0319518002296633 3.1053621057114333 21.486547205411206 4.525138324277763 3.3020046900958304 9.8276128543198418 12.034555307550047 3.2910033007378576 -1.2925113125681817 11.556998921359199 -2.334997962471693 -0.45500759681213188 -0.61488740988994384 0.42090250306990923 1.5696948803392459 0.82792627146496223 -1.1773684372944158 -0.89280055058820762 3.9675874400862168 2.7944308199568217 -0.34124359412224203 -0.5390626836485124 -0.44992672245218873 2.0383363103179222 -0.42308060355866839 -0.38689990209491376 -2.3818313479880713 0.46695002782727385 -1.0851254743572296 -0.84906337572156299 -0.40253834129228844 -1.2702700900200468
leaf_weight=4563 94 110 95 380 91 135 134 91 92 81 169 76 112 2274 82 5144 112 141 135 4011 73 190 847 3522 73 79 393 175 90 73 265 1943 589 176
leaf_count=4563 94 110 95 380 91 135 134 91 92 81 169 76 112 2274 82 5144 112 141 135 4011 73 190 847 3522 73 79 393 175 90 73 265 1943 589 176
internal_value=-0.0918812 4.77336 3.99518 5.16569 6.66161 11.3596 -0.317858 4.40572 0.426385 3.21519 0.30468 2.34244 0.127039 0.2083 0.00513642 0.152355 -0.15072 -0.675543 -0.551112 -0.795856 0.627705 -0.327554 0.233159 -0.486362 -1.78542 -0.812239 -0.395535 0.366708 -1.5414 -0.868428 -0.690164 -0.864468 -0.745303 -0.928074
internal_weight=26610 1181 1087 904 697 226 25429 471 8254 345 7909 357 207 7552 253 7418 281 17175 8992 4292 208 4700 1037 3663 183 8183 912 254 172 4084 658 7271 2532 4739
internal_count=26610 1181 1087 904 697 226 25429 471 8254 345 7909 357 207 7552 253 7418 281 17175 8992 4292 208 4700 1037 3663 183 8183 912 254 172 4084 658 7271 2532 4739
is_linear=0
shrinkage=0.0271392


Tree=24
num_leaves=36
num_cat=0
split_feature=29 1 26 16 17 3 24 5 29 29 19 15 17 19 14 19 16 29 14 24 24 8 11 8 19 19 25 2 26 29 7 29 29 17 3
split_gain=3.7594e+07 1.06054e+07 9.45389e+06 8.8665e+06 1.22563e+07 1.7469e+07 5.87228e+06 5.17964e+06 3.00021e+06 3.33424e+06 8.69094e+06 3.1108e+06 4.12538e+06 1.28747e+06 1.03511e+06 3.98967e+06 558491 880355 1.67292e+06 724294 489430 1.53132e+06 343069 338708 277548 1.25189e+06 276364 228131 417582 199410 185390 160473 155619 47925.2 8996.66
threshold=256.64648794447504 26.500000000000004 1.5000000000000002 1.0000000180025095e-35 0.087263070768381815 9.5000000000000018 70.500000000000014 730.50000000000011 53.848841411459027 56.237191573423978 0.019883894043232455 1.0000000180025095e-35 0.082321243935417163 0.0043659795631982509 1.0000000180025095e-35 0.024122025559965257 1.0000000180025095e-35 88.446680163717076 1.0000000180025095e-35 85.500000000000014 113.50000000000001 4175.5000000000009 14948.585000000001 8557.5000000000018 0.023186055813859355 0.024779189992397501 1350.5000000000002 6596.5000000000009 4.5000000000000009 41.212023947053197 1339.5000000000002 158.62105932711913 96.227166213689785 0.089292042118052015 8.5000000000000018
decision_type=2 2 2 2 2 2 2 2 2 2 2 2 2 2 2 2 2 2 2 2 2 2 2 2 2 2 2 2 2 2 2 2 2 2 2
left_child=7 -2 26 4 6 -6 -4 8 14 10 23 13 -13 -11 20 22 17 24 19 -19 30 -22 -16 -10 29 -26 -3 28 -18 -9 -1 32 -29 -33 -30
right_child=1 2 3 -5 5 -7 -8 16 9 11 -12 12 -14 -15 15 -17 27 18 -20 -21 21 -23 -24 -25 25 -27 -28 31 34 -31 -32 33 -34 -35 -36
leaf_value=-0.95682828937165176 13.388100736241821 -2.5963227307841699 -1.9972818599893818 -1.3319796504175219 3.4683972078873557 19.004867638926253 5.3238767818189219 -0.77995261207461963 1.4835165194192677 3.3047277860635855 11.288081078345314 3.150216487878319 -0.19539456968307212 0.049763829086004387 1.1490665675685465 6.63311650547596 1.0391472687371137 1.3143217185311538 3.4135586540295537 -0.70921271869227687 3.7728009500685391 -0.32412787670591076 -0.84751578963874841 -1.0000823098695726 1.3898076533382426 -0.63416254642050562 -0.43772572379343877 -0.87772096609394445 -0.82493544488188741 -0.38915442230011332 -0.53459084966929793 -2.2234167025724605 -0.32098208004403767 -1.2457969348316009 -1.2576069420837239
leaf_weight=1232 94 110 98 137 101 113 455 3925 74 91 75 621 482 5261 84 73 132 180 114 471 74 725 257 89 275 1238 73 5937 78 1278 2039 76 396 76 76
leaf_count=1232 94 110 98 137 101 113 455 3925 74 91 75 621 482 5261 84 73 132 180 114 471 74 725 257 89 275 1238 73 5937 78 1278 2039 76 396 76 76
internal_value=-0.0893829 4.64389 3.88682 5.02559 6.16151 11.6763 4.02593 -0.30923 0.128129 0.492087 3.64642 0.375714 1.68806 0.10519 -0.415072 0.877482 -0.652243 -0.490526 0.381562 -0.149257 -0.546623 0.0552432 -0.35484 0.126025 -0.589903 -0.266084 -1.73703 -0.830873 -0.07976 -0.684016 -0.693715 -0.863959 -0.842951 -1.73692 -1.04049
internal_weight=26610 1181 1087 904 767 214 553 25429 11177 6693 238 6455 1103 5352 4484 414 14252 7481 765 651 4070 799 341 163 6716 1513 183 6771 286 5203 3271 6485 6333 152 154
internal_count=26610 1181 1087 904 767 214 553 25429 11177 6693 238 6455 1103 5352 4484 414 14252 7481 765 651 4070 799 341 163 6716 1513 183 6771 286 5203 3271 6485 6333 152 154
is_linear=0
shrinkage=0.0271392


Tree=25
num_leaves=34
num_cat=0
split_feature=31 31 22 28 28 24 28 6 8 31 2 27 8 1 1 8 6 11 25 27 11 11 3 31 24 27 24 28 8 9 30 30 5
split_gain=4.83723e+07 1.13871e+07 9.99066e+06 1.33945e+07 8.02587e+06 7.71782e+06 1.22583e+07 4.19396e+06 4.43599e+06 4.12617e+06 3.64534e+06 8.54608e+06 3.46297e+06 3.25088e+06 3.1311e+06 1.3836e+07 2.70034e+06 5.62958e+06 3.38707e+06 978525 903259 1.12818e+06 894530 891197 779028 462151 458399 410678 173221 87977 445103 88112.7 50264.7
threshold=0.46710435983751569 0.24928199295984316 2.5000000000000004 2000.5000000000002 2010.5000000000002 104.50000000000001 2004.5000000000002 2.1250000000000004 13171.500000000002 0.10561372632770853 6995.5000000000009 33.500000000000007 3798.5000000000005 47.500000000000007 67.500000000000014 14702.500000000002 1.675 17802.500000000004 1390.5000000000002 11.500000000000002 29545.000000000004 20674.910000000003 10.500000000000002 0.044059686601439003 81.500000000000014 41.500000000000007 105.50000000000001 2017.5000000000002 7692.5000000000009 1.0000000180025095e-35 77.546883033191577 101.00955462194399 730.50000000000011
decision_type=2 2 2 2 2 2 2 2 2 2 2 2 2 2 2 2 2 2 2 2 2 2 2 2 2 2 2 2 2 2 2 2 2
left_child=1 9 3 -2 5 22 -7 10 19 23 11 12 -3 -4 20 -16 18 -18 -12 -9 21 -11 -5 29 -21 27 -17 -25 -22 31 -31 -1 -27
right_child=2 7 13 4 -6 6 -8 8 -10 14 16 -13 -14 -15 15 26 17 -19 -20 24 28 -23 -24 25 -26 32 -28 -29 -30 30 -32 -33 -34
leaf_value=-0.86340248908530615 18.579552517644071 7.1619732360819057 -1.617586780648441 3.5624814965935045 14.458450617972161 17.669861100458917 3.506841851187565 1.9889398762702613 5.0528314276511397 -0.17003504496353189 -0.39976392869753929 13.221227257048751 0.18339909091903139 5.6644768131180454 13.074705238569912 -1.7911783129362382 10.49295192130681 0.87930171582010019 4.1193606718711697 -2.2245220002208135 -1.4948093124342776 0.62339709398414445 -0.17165958720119687 -0.42388696064074494 -0.19403000920031124 -0.81333582974364727 0.84388143579519193 1.0247800325084284 -0.5856376969804904 -0.89521278954633399 0.71277247768047358 -1.229507245097579 -1.2268040277270418
leaf_weight=7658 84 82 111 80 83 74 115 114 129 3822 415 76 145 76 73 119 74 114 173 187 271 2016 115 7022 545 388 82 147 362 673 156 521 508
leaf_count=7658 84 82 111 80 83 74 115 114 129 3822 415 76 145 76 73 119 74 114 173 187 271 2016 115 7022 545 388 82 147 362 673 156 521 508
internal_value=-0.0869544 -0.282398 6.76385 8.60333 6.80628 5.14971 9.05719 1.65639 0.365966 -0.449608 2.82211 5.34677 2.70658 1.34146 0.118666 2.95997 1.83568 4.6668 0.929689 -0.348697 -0.00162958 0.103916 1.35961 -0.674129 -0.713227 -0.466831 -0.714995 -0.394139 -0.97537 -0.859695 -0.592293 -0.886763 -1.0481
internal_weight=26610 25872 738 551 467 384 189 2054 975 23818 1079 303 227 187 6745 274 776 188 588 846 6471 5838 195 17073 732 8065 201 7169 633 9008 829 8179 896
internal_count=26610 25872 738 551 467 384 189 2054 975 23818 1079 303 227 187 6745 274 776 188 588 846 6471 5838 195 17073 732 8065 201 7169 633 9008 829 8179 896
is_linear=0
shrinkage=0.0271392


Tree=26
num_leaves=34
num_cat=0
split_feature=31 18 25 6 10 31 12 27 12 2 7 18 1 31 8 31 0 18 18 18 24 18 30 31 31 31 27 18 24 29 9 29 18
split_gain=4.57844e+07 1.22256e+07 1.49026e+07 2.20807e+07 1.17211e+07 1.07779e+07 7.29415e+06 8.86538e+06 4.40908e+06 7.74028e+06 1.47802e+07 4.00322e+06 6.03711e+06 3.90527e+06 3.32079e+06 5.60111e+06 3.08065e+06 1.8372e+07 2.81659e+06 1.17325e+06 1.22704e+06 1.10119e+06 4.43054e+06 843468 697476 662534 437415 432562 137925 98271 111402 56757.4 11844.9
threshold=0.46710435983751569 331.31500000000005 1265.5000000000002 1.8750000000000002 1.0000000180025095e-35 0.24928199295984316 2.5000000000000004 21.500000000000004 1.5000000000000002 6995.5000000000009 1798.5000000000002 346.27000000000004 49.500000000000007 0.10561372632770853 13171.500000000002 0.30178654877969152 69.500000000000014 346.27000000000004 444.41500000000002 221.25500000000002 106.50000000000001 528.44500000000016 159.94463980226337 0.044059686601439003 0.35970314699755973 0.14043326903498407 41.500000000000007 276.81000000000006 82.500000000000014 66.142451381254247 1.0000000180025095e-35 18.432261344996046 346.27000000000004
decision_type=2 2 2 2 2 2 2 2 2 2 2 2 2 2 2 2 2 2 2 2 2 2 2 2 2 2 2 2 2 2 2 2 2
left_child=5 6 3 -3 -4 13 7 -2 9 10 -7 24 -13 23 19 -16 21 28 -6 -10 -21 25 -23 29 -11 -15 27 -25 -18 30 -1 -28 -31
right_child=1 2 4 -5 18 8 -8 -9 14 11 -12 12 -14 16 15 -17 17 -19 -20 20 -22 22 -24 26 -26 -27 31 -29 -30 32 -32 -33 -34
leaf_value=-0.84504957016606908 11.280864147782623 5.5540049530686231 13.657941415429784 26.141961306266534 -1.9632151390286954 14.270601113560371 -2.3928208280808341 -0.013534968857883523 -2.5640558867783931 0.012806674490790067 0.44941902045534837 6.0549767814069133 -2.8137266105083865 -0.55013525362245297 9.8232568734241035 -0.31398806223074649 -2.1132965519129838 14.399111344617868 5.1597446542467198 1.2088867840623592 -0.71272273189369184 4.9569971668280424 -0.23639083384974385 -0.70378302621855848 -2.9871055936349733 0.072713997680331197 -0.46105769338643288 -0.24460391626519828 -0.68383717180857895 -1.0580274687688247 -0.49731672936936944 -1.1040300173419715 -1.3330023394304851
leaf_weight=7759 107 73 88 81 87 115 127 98 110 182 113 212 77 1840 73 89 83 75 77 573 427 161 486 2167 83 3974 118 5002 126 231 748 778 270
leaf_count=7759 107 73 88 81 87 115 127 98 110 182 113 212 77 1840 73 89 83 75 77 573 427 161 486 2167 83 3974 118 5002 126 231 748 778 270
internal_value=-0.0845868 6.58045 9.73913 16.3901 5.67082 -0.274731 2.71594 5.88188 1.61148 3.21513 7.42358 1.48209 3.69108 -0.437407 0.625281 4.25435 0.115445 2.88158 1.38021 0.0952121 0.388114 -0.00612842 1.05587 -0.655835 -0.926286 -0.124364 -0.454162 -0.383441 -1.25315 -0.836364 -0.814507 -1.01967 -1.20686
internal_weight=26610 738 406 154 252 25872 332 205 2054 782 228 554 289 23818 1272 162 6745 284 164 1110 1000 6461 647 17073 265 5814 8065 7169 209 9008 8507 896 501
internal_count=26610 738 406 154 252 25872 332 205 2054 782 228 554 289 23818 1272 162 6745 284 164 1110 1000 6461 647 17073 265 5814 8065 7169 209 9008 8507 896 501
is_linear=0
shrinkage=0.0271392


Tree=27
num_leaves=33
num_cat=0
split_feature=29 29 28 18 29 25 25 18 5 18 0 1 18 2 1 29 5 15 18 25 18 25 18 21 23 1 26 0 27 29 29 29
split_gain=5.91105e+07 5.43278e+07 1.01329e+08 9.27362e+06 9.62957e+06 9.35253e+06 1.13022e+07 8.74386e+06 4.45135e+06 4.82935e+06 2.6599e+07 3.16267e+06 2.46668e+06 2.3387e+06 1.80751e+06 1.32681e+06 1.29604e+06 1.10386e+06 1.88734e+06 874533 805759 916133 303606 281860 291553 270686 565272 261250 532912 208144 64639.2 60479.2
threshold=213.51462141430412 226.66893808422938 2004.5000000000002 275.76500000000004 365.77424803542038 1181.0000000000002 1275.5000000000002 307.01500000000004 730.50000000000011 355.71500000000009 69.500000000000014 27.500000000000004 359.45500000000004 10259.500000000002 54.500000000000007 193.2271852665186 365.50000000000006 1.0000000180025095e-35 250.27500000000003 1770.5000000000002 222.98500000000004 1089.5000000000002 268.89500000000004 3.5000000000000004 3.5000000000000004 50.500000000000007 8.5000000000000018 53.500000000000007 41.500000000000007 148.183208196685 91.750845052835686 112.98363645075398
decision_type=2 2 2 2 2 2 2 2 2 2 2 2 2 2 2 2 2 2 2 2 2 2 2 2 2 2 2 2 2 2 2 2
left_child=8 2 -2 13 7 -6 -7 -5 9 16 12 -9 -11 20 -14 22 17 19 -19 -1 21 -3 23 31 -25 26 -18 29 -29 -24 -27 -10
right_child=1 3 -4 4 5 6 -8 11 15 10 -12 -13 14 -15 -16 -17 25 18 -20 -21 -22 -23 27 24 -26 30 -28 28 -30 -31 -32 -33
leaf_value=-0.1242515811149658 -2.1717452289613308 -0.77915893943843229 42.58535798796327 10.40102869573421 1.8089690642576253 19.706442232601667 7.4829733885304037 6.4514802483675489 -0.81922425394063558 4.8765003927072792 16.199084615977942 0.68923417535748432 0.80695805866564418 3.8510689078002276 -0.9550709020815249 2.9249782038239349 -0.57944266914623166 5.1383568909678141 0.34412044933424379 1.7832758853690998 0.037029018365747741 -5.0407556368180115 -0.67099819049458509 -0.90719205199859632 1.4273749671721141 -0.88937417548211639 1.026620049787045 -0.10095270526034621 -0.80584054292414353 0.33616907277102642 -1.5769051994595709 -1.6101358738596656
leaf_weight=4074 73 73 76 93 135 73 236 81 4714 97 83 523 2279 73 528 78 1928 83 223 185 119 76 5540 74 84 1117 176 2282 1209 155 112 73
leaf_count=4074 73 73 76 93 135 73 236 81 4714 97 83 523 2279 73 528 78 1928 83 223 185 119 76 5540 74 84 1117 176 2282 1209 155 112 73
internal_value=0.0387068 5.04506 20.6634 3.47388 4.64748 7.77138 10.3747 2.65667 -0.286685 0.126273 1.05582 1.46295 0.622603 -0.452421 0.475416 -0.603054 -0.225252 0.0717607 1.64606 -0.0413114 -1.62616 -2.95566 -0.622557 -0.794118 0.332447 -0.63212 -0.444951 -0.530171 -0.34515 -0.643539 -0.952305 -0.831357
internal_weight=26725 1631 149 1482 1141 444 309 697 25094 10885 2987 604 2904 341 2807 14209 7898 4565 306 4259 268 149 14131 4945 158 3333 2104 9186 3491 5695 1229 4787
internal_count=26725 1631 149 1482 1141 444 309 697 25094 10885 2987 604 2904 341 2807 14209 7898 4565 306 4259 268 149 14131 4945 158 3333 2104 9186 3491 5695 1229 4787
is_linear=0
shrinkage=0.0271392


Tree=28
num_leaves=32
num_cat=0
split_feature=31 31 8 6 26 31 19 19 22 13 31 31 29 19 17 31 29 25 30 30 29 27 19 29 17 0 8 29 30 17 25
split_gain=7.62651e+07 4.65068e+07 1.03887e+08 1.14178e+07 1.34993e+07 9.40208e+06 7.27156e+06 5.52418e+06 3.09495e+06 9.72455e+06 4.07017e+06 4.80575e+06 3.68954e+06 1.91519e+06 935582 861740 849936 849714 645398 1.39096e+06 596029 570920 385218 109188 122400 358829 40284.8 28811.9 16910.5 7995.73 186.97
threshold=0.35970314699755973 0.38132004847882467 5822.5000000000009 3.9250000000000003 1.5000000000000002 0.13275469095842915 0.010209229273728153 0.012339662237287852 1.5000000000000002 1.5000000000000002 0.25513324291914563 0.26957347015104444 32.505850372201962 0.0043659795631982509 0.14774755673278483 0.044059686601439003 170.93003419029682 1382.5000000000002 147.81113303122996 162.78098769908513 256.64648794447504 44.500000000000007 0.012832137344086602 66.142451381254247 0.090936655824466611 30.500000000000004 221.50000000000003 213.51462141430412 111.41078409997324 0.077333754618323106 1394.5000000000002
decision_type=2 2 2 2 2 2 2 2 2 2 2 2 2 2 2 2 2 2 2 2 2 2 2 2 2 2 2 2 2 2 2
left_child=5 2 -2 4 20 15 -6 -8 9 10 12 -12 -7 -10 21 23 18 -5 22 -20 -3 -15 -17 24 26 -26 -1 -18 30 -30 -25
right_child=1 3 -4 17 6 8 7 -9 13 -11 11 -13 -14 14 -16 16 27 -19 19 -21 -22 -23 -24 28 25 -27 -28 -29 29 -31 -32
leaf_value=-0.25463550427148057 43.736952254789159 0.011614346729741433 -2.0352219452131752 -2.998357472532339 -0.98702965143081012 6.3328561901743701 14.972050575922644 7.2018126150645099 4.2414799652952757 10.787966396749841 7.539925467623152 1.6882225939259994 0.30131457355993146 -0.081084044788768628 2.7198586448616004 -0.85033933904939007 -1.8001933044257816 0.6308996471679591 2.0307112327199817 -0.23417515677469675 -3.3860778338013078 -1.7757848363383453 -0.38323024933836547 -1.0354752960798277 1.1406962797109956 -0.65308347191644789 -0.82759274615368061 -2.4405468115182933 -1.5524205301875473 -1.2151043407777471 -0.91915935389212378
leaf_weight=93 73 79 73 109 73 77 75 672 77 76 132 477 2447 2963 85 1619 138 84 241 1164 73 154 6636 177 86 1764 6568 91 84 192 73
leaf_count=93 73 79 73 109 73 77 75 672 77 76 132 477 2447 2963 85 1619 138 84 241 1164 73 154 6636 177 86 1764 6568 91 84 192 73
internal_value=0.0376638 6.4207 20.8574 4.6103 5.80751 -0.291614 7.18449 7.98339 0.599915 1.19908 0.966203 2.95758 0.48556 0.0134498 -0.0882198 -0.597252 -0.422131 -1.41777 -0.383353 0.15421 -1.61919 -0.164925 -0.474877 -0.788851 -0.765303 -0.569528 -0.819633 -2.05631 -1.16928 -1.31898 -1.00274
internal_weight=26725 1311 146 1165 972 25414 820 747 6488 3209 3133 609 2524 3279 3202 18926 9889 193 9660 1405 152 3117 8255 9037 8511 1850 6661 229 526 276 250
internal_count=26725 1311 146 1165 972 25414 820 747 6488 3209 3133 609 2524 3279 3202 18926 9889 193 9660 1405 152 3117 8255 9037 8511 1850 6661 229 526 276 250
is_linear=0
shrinkage=0.0271392


Tree=29
num_leaves=31
num_cat=0
split_feature=29 29 19 18 16 26 26 29 18 29 19 19 25 8 28 28 26 29 2 25 25 24 17 0 17 19 24 7 17 29
split_gain=5.36425e+07 5.16352e+07 1.06297e+08 8.68494e+06 8.94104e+06 9.08352e+06 8.03481e+06 3.52465e+06 5.86121e+06 4.60691e+06 8.2957e+06 3.01208e+06 2.69147e+06 2.04758e+06 1.12033e+06 1.9959e+06 4.51614e+06 1.04653e+06 913141 570814 433876 782443 1.74545e+06 591351 192635 133406 80537.7 241021 69129.1 53717.1
threshold=213.51462141430412 226.66893808422938 0.020140994756952305 275.76500000000004 1.0000000180025095e-35 1.5000000000000002 7.5000000000000009 55.410451931540614 663.71000000000015 56.237191573423978 0.017947961038681553 0.010209229273728153 1310.5000000000002 5822.5000000000009 1997.5000000000002 1998.5000000000002 3.5000000000000004 185.2666951512351 7316.5000000000009 1310.5000000000002 1049.5000000000002 60.500000000000007 0.049378858024691358 30.500000000000004 0.054585641296171404 0.0130208152310735 104.50000000000001 1149.5000000000002 0.085003863987635223 99.807984047758779
decision_type=2 2 2 2 2 2 2 2 2 2 2 2 2 2 2 2 2 2 2 2 2 2 2 2 2 2 2 2 2 2
left_child=7 2 -2 11 5 12 -7 8 20 10 -9 -3 -5 -13 24 16 -16 -17 -15 -6 26 22 -22 -23 29 -26 28 -28 -1 -11
right_child=1 3 -4 4 19 6 -8 9 -10 14 -12 13 -14 18 15 17 -18 -19 -20 -21 21 23 -24 -25 25 -27 27 -29 -30 -31
leaf_value=-0.71776475047722177 43.407487836649885 -4.42905532332649 -2.4330758659309155 -3.1229125848735579 1.3729930730088076 7.8646611695605806 -1.1843104001864695 -1.4666286829630926 7.0476625059701528 -1.3325725551914491 11.249948131293099 4.429537646173662 3.5356864850916017 1.3174680621037198 -0.12144191717204822 0.019590070968058405 8.1637826161279961 1.4515573366050043 -2.9008200998640907 -1.5780472992725105 -1.1382130240546324 0.61309298715079519 4.2074603633286687 -0.5241423006453797 0.38446487127281659 -0.87666707946960287 0.80218553137422643 -0.9816077664909254 -0.94324369184560475 -2.2368622348676661
leaf_weight=3398 73 102 76 93 73 666 81 76 75 136 75 88 86 76 140 7763 74 395 75 142 98 348 83 10221 73 392 93 139 1437 78
leaf_count=3398 73 102 76 93 73 666 81 76 75 136 75 88 86 76 140 7763 74 395 75 142 98 348 83 10221 73 392 93 139 1437 78
internal_value=0.0366451 4.80582 20.0322 3.27408 4.40983 5.5674 6.8831 -0.273331 -0.518084 0.149334 4.84978 -0.525537 0.0748953 1.14002 0.0708571 0.156874 2.7438 0.0889647 -0.776352 -0.574797 -0.554 -0.45635 1.31229 -0.48667 -0.989281 -0.678119 -0.761113 -0.265447 -0.784841 -1.66386
internal_weight=26725 1631 149 1482 1141 926 747 25094 15892 9202 151 341 179 239 9051 8372 214 8158 151 215 15817 10750 181 10569 679 465 5067 232 4835 214
