tree
version=v4
num_class=1
num_tree_per_iteration=1
label_index=0
max_feature_idx=31
objective=regression
feature_names=Age Age_at_contract Age_at_license Car_Age_Contract Car_Age_Contract_Cat_Standard Contract_Duration Customer_Loyalty Cylinder_Capacity Days_Driving_At_Start_Date Half_Yearly_Payment_Method Issurance_Broker_Agent_Channel Market_Value_EOY19 Max_Policy_Simultaneous_Force Max_Product_Simultaneous_Held Multiple_Drivers_Regular_Flag Non_Continuation_Insurance_Flag Policies_Terminated_Non_Payment Power_Wt_Ratio Premium_Amt_Current_Yr Ratio_Premium_Car_Value Rural_Urban_Flag Time_Since_Last_Renewal Total_Policies_Entity Vehicle_Doors Vehicle_Power_HP Vehicle_Wt_Kg Years_Associates Years_Driving Yr_Vehicle_Registration oof_lc oof_halc oof_cs
feature_infos=[19:101] [18:91] [6575:23602] [0:68] [0:1] [155:13879] [1:15.1] [49:7480] [-4732:25943] [0:1] [0:1] [270.45999999999998:220675.79999999999] [1:17] [1:4] [0:1] [0:1] [0:7] [0:2.5172413793103448] [40.200000000000003:2116.6900000000001] [0.00082567981271379997:0.90841529246468999] [0:1] [1:4] [1:17] [0:6] [0:580] [43:7300] [1:40] [1:77] [1950:2018] [-52.876587401090561:919.45679527462005] [-168.56598667505557:2192.9640127118746] [-0.042310880566792247:0.89284713454294595]
tree_sizes=7865 6975 7883 7892 7797 7231 8097 7311 8498 9376 7985 6398 9306 7330 7415 9331 8144 8381 7164 8205 8003 7816 7898 7465 6657 7491 7478 6805 6291 6596 8549 7836 5535 6379 8116 7506 6699 5833 8410 7325 6409 7562 6180 6452 6460 6035 5952 5875 5732 5647 7560 5416 7629 5432 9020 5554 5606 6338 6112 8971 3235 6775 6079 6434 4994 7328 6271 4595 5524 5942 6697 5194 5333 7286 5459 7694 6453 6364 4082 6067 7240 8238 8641 6769 6083 6676 6513 6105 8616 7774 3466 5774 3387 4509 3144 4867 4365 3305 3213 3985 3559 3921 4747 4522 4418 4244 5422 5188 7316 5522 6606 9286

Tree=0
num_leaves=93
num_cat=0
split_feature=31 31 31 24 11 1 18 3 2 31 24 16 25 2 28 1 25 31 7 23 1 5 18 24 24 11 5 18 5 18 31 3 2 1 28 25 1 18 11 25 18 2 3 31 18 2 7 12 2 11 3 11 5 18 31 28 18 23 18 25 11 25 31 1 11 23 23 1 1 18 5 5 25 25 9 1 23 28 31 2 2 11 25 18 11 31 3 1 1 24 25 31
split_gain=3.03054e+08 8.98041e+07 3.32353e+07 3.28551e+07 2.3851e+07 1.7284e+07 1.0763e+07 1.35265e+07 1.01833e+07 6.73279e+06 5.09738e+06 6.33825e+06 2.12195e+07 5.64695e+06 5.03619e+06 4.10546e+06 9.35095e+06 3.92815e+06 3.61421e+06 3.08661e+06 3.90441e+06 4.6016e+06 2.26678e+06 2.00598e+06 3.30419e+06 1.91798e+06 1.73692e+06 1.502e+06 1.3803e+06 1.92506e+06 1.14988e+06 2.03597e+06 4.57095e+06 1.06235e+06 864877 1.2752e+06 1.24731e+06 2.01409e+06 719920 2.1405e+06 1.39519e+06 559153 502098 489988 435221 250198 233507 475771 212855 164206 189650 148413 146163 457861 143252 118685 246625 107064 105716 100731 96884.5 94520.9 91250.3 108480 76324.8 59831.3 38582.1 58901.3 182212 35103.1 30098.6 56759.1 29318 57916.8 25952.5 18722.3 17900.2 16183.6 14372.6 11380.1 52920 9878.24 14229.5 6798.85 6018.78 2542.83 1691.63 1481.6 1227.34 1118.11 6043.41 819.804
threshold=0.24780044885022781 0.48792962884524521 0.063288942834899289 104.50000000000001 28725.600000000002 29.500000000000004 548.35000000000002 9.5000000000000018 7734.5000000000009 0.16114364271361772 99.500000000000014 1.0000000180025095e-35 1538.5000000000002 7067.5000000000009 2017.5000000000002 51.500000000000007 1105.5000000000002 0.3814695546511796 1869.0000000000002 3.5000000000000004 56.500000000000007 365.50000000000006 369.08500000000004 99.500000000000014 121.50000000000001 19501.420000000002 730.50000000000011 428.33500000000004 370.00000000000006 260.05500000000006 0.04498124266211357 14.500000000000002 6901.5000000000009 40.500000000000007 2002.5000000000002 1490.5000000000002 37.500000000000007 301.21500000000009 23289.610000000004 1420.5000000000002 242.61500000000004 7301.5000000000009 17.500000000000004 0.19335021038644537 511.53500000000003 12299.500000000002 1994.5000000000002 1.5000000000000002 6715.5000000000009 17155.000000000004 18.500000000000004 18767.500000000004 730.50000000000011 375.68000000000006 0.10742334767076346 2012.5000000000002 337.58500000000004 4.5000000000000009 311.65000000000003 1040.5000000000002 28230.000000000004 1112.5000000000002 0.020727305370633161 67.500000000000014 30011.640000000003 4.5000000000000009 3.5000000000000004 37.500000000000007 44.500000000000007 259.21500000000009 1461.5000000000002 1446.5000000000002 1165.5000000000002 1240.5000000000002 1.0000000180025095e-35 29.500000000000004 4.5000000000000009 2015.5000000000002 0.095368501018411447 6965.5000000000009 7207.5000000000009 17502.130000000001 1243.5000000000002 328.02500000000003 26164.500000000004 0.056034082122334995 9.5000000000000018 24.500000000000004 28.500000000000004 50.500000000000007 160.50000000000003 0.028495294579564904
decision_type=2 2 2 2 2 2 2 2 2 2 2 2 2 2 2 2 2 2 2 2 2 2 2 2 2 2 2 2 2 2 2 2 2 2 2 2 2 2 2 2 2 2 2 2 2 2 2 2 2 2 2 2 2 2 2 2 2 2 2 2 2 2 2 2 2 2 2 2 2 2 2 2 2 2 2 2 2 2 2 2 2 2 2 2 2 2 2 2 2 2 2 2
left_child=2 4 30 8 5 -2 9 25 -3 10 28 14 13 -13 38 27 -17 19 -19 -7 21 22 33 -18 -25 -8 -27 34 29 49 62 44 -33 -21 42 36 37 51 39 40 41 -12 65 -38 55 52 54 -48 -42 50 57 -36 53 59 84 60 -57 -4 -15 -30 70 -34 77 64 66 -11 67 91 -69 -70 71 76 75 -74 -75 -54 -32 87 -61 88 -81 -82 -83 -77 -40 -72 -78 -1 -68 90 -89 -64
right_child=1 3 6 -5 -6 17 7 -9 -10 15 11 12 -14 58 -16 16 23 18 -20 20 -22 -23 -24 24 -26 26 -28 -29 45 -31 31 32 61 -35 35 -37 43 -39 46 -41 48 -43 -44 -45 -46 -47 47 -49 -50 -51 -52 -53 72 -55 -56 56 -58 -59 -60 78 -62 -63 63 -65 -66 -67 79 68 69 -71 85 -73 73 74 -76 83 86 -79 -80 80 81 82 -84 -85 -86 -87 -88 89 -90 -91 -92 -93
leaf_value=127.45695206560374 142.86180019942603 139.14805627143343 127.64026090972585 157.47062827334389 144.66045793598195 129.40304828536216 133.65199013727084 138.87627200173517 149.52102133902542 128.62058900808728 131.99970543016536 133.676493170626 142.52552360622599 128.4326240527096 134.49286431151518 137.93991995415061 128.89623641194157 133.69755080209788 140.20077365924303 131.81328352904399 138.07486361256355 136.42761984353095 134.20619082849129 134.50104396145971 128.91608751953086 132.01081568630508 128.21334696605115 132.63399956094193 128.45166855511491 131.4980138958426 127.74426409695141 134.3323780591042 127.47364845479807 128.56662030696842 130.19768622678927 132.51369051720624 128.01623299599132 133.4380516317544 127.39057401004449 132.11435217846605 129.36952671070918 129.40168332011592 129.98696527751378 129.80971508694546 129.36795385855234 128.85578979605233 129.85491976349616 127.95924499240309 128.13183160310106 129.40262714017288 129.21278688179345 128.9056203203169 127.85311103984674 129.54096365159484 128.50865347545118 129.07315737417602 127.44631593332639 128.54822732272748 127.41608537794566 127.38415087113513 128.33640073196108 128.50672344931618 127.46984038863528 128.24286838780992 128.12501894370544 127.81741159154583 127.46792558663 128.66999955564896 127.34670688365735 127.89192700893531 127.3544025140437 128.08758458139226 128.3006324093588 127.9351119736683 127.454557915148 127.40610555155091 127.51295474074256 127.69367162927863 127.76870060279703 127.87873462546669 127.34832140492402 127.77335279475838 127.42907797782274 127.63364061529089 127.67567541248756 127.49667142639997 127.36296635917293 127.34180292667615 127.34629610032634 127.34489381755144 127.5337172655624 127.33283308662747
leaf_weight=158 138 123 170 167 170 107 92 161 91 97 91 143 92 91 97 136 172 96 93 101 96 141 105 143 99 111 166 122 91 161 153 91 103 124 96 124 167 116 102 136 92 92 146 170 93 157 138 156 474 98 100 101 100 108 143 99 108 126 153 151 94 95 93 128 118 112 109 108 191 104 313 134 109 110 157 256 116 91 94 172 485 97 274 127 93 151 180 346 542 1877 158 164
leaf_count=158 138 123 170 167 170 107 92 161 91 97 91 143 92 91 97 136 172 96 93 101 96 141 105 143 99 111 166 122 91 161 153 91 103 124 96 124 167 116 102 136 92 92 146 170 93 157 138 156 474 98 100 101 100 108 143 99 108 126 153 151 94 95 93 128 118 112 109 108 191 104 313 134 109 110 157 256 116 91 94 172 485 97 274 127 93 151 180 346 542 1877 158 164
internal_value=129.911 139.746 128.779 149.657 136.521 135.139 129.981 133.192 143.56 129.698 129.184 130.006 132.38 129.968 129.301 130.901 132.593 133.903 136.898 133.063 133.754 132.874 131.355 130.836 132.216 130.712 129.735 130.157 128.37 129.267 127.647 128.172 129.973 130.024 129.889 130.33 129.913 130.981 128.969 129.402 128.91 130.693 128.929 128.921 127.811 127.968 128.363 128.849 128.333 128.539 128.326 129.535 127.861 128.208 127.941 127.704 128.224 128.026 127.795 127.78 127.609 127.969 127.473 127.572 127.537 128.19 127.508 127.662 127.841 127.539 127.544 127.659 127.681 127.84 127.652 127.558 127.531 127.374 127.531 127.447 127.498 127.422 127.519 127.481 127.526 127.4 127.421 127.363 127.366 127.357 127.402 127.382
internal_weight=15036 1552 13484 381 1171 1001 6539 530 214 6009 4208 2093 479 387 1614 1801 550 863 189 674 567 471 330 414 242 369 277 1251 2115 655 6945 1730 289 225 1129 774 650 313 1517 885 749 183 355 337 1441 1460 632 294 566 494 396 197 1303 444 338 1348 207 296 244 336 1141 198 5215 2585 2457 209 2339 660 403 295 1047 583 859 376 267 483 449 2630 245 1679 1028 856 371 383 195 464 296 2539 651 2381 504 257
internal_count=15036 1552 13484 381 1171 1001 6539 530 214 6009 4208 2093 479 387 1614 1801 550 863 189 674 567 471 330 414 242 369 277 1251 2115 655 6945 1730 289 225 1129 774 650 313 1517 885 749 183 355 337 1441 1460 632 294 566 494 396 197 1303 444 338 1348 207 296 244 336 1141 198 5215 2585 2457 209 2339 660 403 295 1047 583 859 376 267 483 449 2630 245 1679 1028 856 371 383 195 464 296 2539 651 2381 504 257
is_linear=0
shrinkage=1


Tree=1
num_leaves=80
num_cat=0
split_feature=31 31 31 22 0 11 0 18 6 31 31 27 27 25 11 0 7 7 27 31 28 0 27 5 18 26 31 31 19 18 27 27 18 31 0 6 28 18 7 5 25 7 25 18 27 18 10 27 5 31 18 10 19 11 0 25 6 27 31 27 11 31 27 7 19 27 19 19 6 5 28 27 28 18 19 21 28 7 25
split_gain=2.88978e+08 8.56324e+07 3.16914e+07 3.09225e+07 2.98509e+07 2.27429e+07 2.22267e+07 1.02631e+07 1.6023e+07 6.42007e+06 5.299e+06 5.26136e+06 4.08916e+06 1.91797e+07 3.40936e+06 3.20898e+06 9.88317e+06 2.9804e+06 4.88325e+06 2.94116e+06 3.3114e+06 2.87572e+06 5.30187e+06 3.57034e+06 2.21183e+06 1.62346e+06 1.61483e+06 2.37338e+06 5.0564e+06 1.34634e+06 1.13327e+06 1.99392e+06 1.32436e+06 1.09642e+06 1.52462e+06 920160 914215 897251 918794 999290 758098 732955 509675 401990 401153 342703 336143 299552 206471 179891 166169 153660 149716 235471 173947 143230 119647 111702 86977.5 97876.4 76973.4 63949.1 42835 41700.1 34729.7 32971.4 27760.3 102009 164314 19191.8 15404.6 6443.58 3628.18 3382.3 2493.29 1736.76 9368.08 1995.02 6142.17
threshold=0.24780044885022781 0.48792962884524521 0.063288942834899289 2.5000000000000004 52.500000000000007 28725.600000000002 30.500000000000004 548.35000000000002 1.4500000000000002 0.16114364271361772 0.3814695546511796 35.500000000000007 11.500000000000002 1355.5000000000002 17820.005000000001 52.500000000000007 1395.5000000000002 1895.5000000000002 38.500000000000007 0.064825743203786132 2017.5000000000002 56.500000000000007 22.500000000000004 365.50000000000006 352.79000000000002 1.5000000000000002 0.10742334767076346 0.11644296946844583 0.014210738423308751 254.40000000000001 14.500000000000002 9.5000000000000018 301.21500000000009 0.04498124266211357 30.500000000000004 1.0999999999999999 1997.5000000000002 323.96500000000009 1775.0000000000002 1466.5000000000002 1290.5000000000002 1882.5000000000002 1450.5000000000002 493.12500000000006 18.500000000000004 301.21500000000009 1.0000000180025095e-35 10.500000000000002 714.50000000000011 0.12891501004113412 211.40000000000001 1.0000000180025095e-35 0.016739120980965205 16422.500000000004 38.500000000000007 1010.5000000000001 2.3250000000000006 30.500000000000004 0.020727305370633161 49.500000000000007 30011.640000000003 0.059330516112293334 8.5000000000000018 1685.5000000000002 0.06153588828655731 38.500000000000007 0.021708708381251152 0.018417933440277003 2.7250000000000005 4016.5000000000005 2015.5000000000002 32.500000000000007 1998.5000000000002 265.07000000000005 0.029110181489280202 2.5000000000000004 2002.5000000000002 135.50000000000003 109.50000000000001
decision_type=2 2 2 2 2 2 2 2 2 2 2 2 2 2 2 2 2 2 2 2 2 2 2 2 2 2 2 2 2 2 2 2 2 2 2 2 2 2 2 2 2 2 2 2 2 2 2 2 2 2 2 2 2 2 2 2 2 2 2 2 2 2 2 2 2 2 2 2 2 2 2 2 2 2 2 2 2 2 2
left_child=2 5 33 4 -3 6 -2 9 -9 12 21 44 13 25 -12 29 -17 18 -18 -14 26 22 23 24 -8 -4 37 28 -28 50 31 -31 -33 58 -35 40 -36 48 51 -40 -29 46 -19 52 -10 -43 -32 62 57 -37 -11 -39 53 -38 -55 -50 -24 -21 70 60 64 74 -27 -56 66 -65 67 69 -69 73 75 -70 -68 -60 -54 77 -77 78 -1
right_child=1 3 7 -5 -6 -7 10 8 11 15 14 -13 19 -15 -16 16 17 42 -20 20 -22 -23 56 -25 -26 47 27 35 -30 30 41 32 -34 34 36 49 43 38 39 -41 -42 45 -44 -45 -46 -47 -48 -49 55 -51 -52 -53 61 54 63 -57 -58 -59 59 -61 -62 -63 -64 65 -66 -67 72 68 71 -71 -72 -73 -74 -75 -76 76 -78 -79 -80
leaf_value=-2.9922929986994484 14.809595566605656 28.67720374000131 1.0642561879164458 7.585031577546836 12.809741894825862 13.931065993494069 0.20870132728137158 9.5527008603313703 -2.3048427512156198 -0.93689923578500689 9.8650077060384405 5.0941413967990936 1.8933013747721317 10.194192109261992 3.7406784482117099 9.0322839661485208 -0.18116206980253574 -2.0434274893949365 6.4630244062237745 -2.4474895869811735 2.3665740215493534 5.1959616441643428 -1.0058448616593376 7.2386463927321891 4.7619770269170845 -2.9475549777961327 5.2869894293866055 0.35924088458387882 -1.5967536699996718 -0.72445984860419144 -0.46259271980924266 0.69764189701617851 4.3956263133600917 0.7077938785764144 -0.36323191136825134 -2.5016265981575847 -1.2432763396220217 -1.8977339477537027 -0.14704797219169272 -2.3432845252668271 -2.0333304335949705 1.5141223634285119 0.11976065914918234 -0.99655465492541306 -0.54171587703897273 -0.24605472480991117 -2.2388814082395059 -1.0801657197250443 -1.992376226296996 -1.7414258025713802 -2.0144530566022305 -2.8313968804278358 -2.9878045061962104 -1.6656265395609477 -2.3772556100607787 -2.8151321075354185 -2.2076698248409428 -1.3668694296796067 -2.9709676547801176 -2.1182681233356448 -2.1879106732920937 -2.4057184599637975 -2.286062122062873 -2.9693007669368106 -2.3604021044573384 -2.4458745019820967 -2.8162195108987977 -1.869085487654409 -2.9800056298430739 -2.6312412447890532 -2.6369597545594301 -2.6998443848475668 -2.9939309617219418 -2.8738984023314269 -2.8270545058395946 -2.7611332198039187 -2.9813182090979407 -2.9848893105870573 -2.740899434519092
leaf_weight=170 106 177 112 100 104 170 161 140 121 148 100 95 139 97 101 91 157 153 100 103 113 162 92 94 93 135 94 204 158 163 110 98 118 96 120 263 92 176 331 175 114 95 99 93 174 171 127 91 137 503 171 221 450 110 161 838 92 110 544 128 114 149 94 272 91 92 99 160 127 150 91 92 558 522 95 175 381 1711 102
leaf_count=170 106 177 112 100 104 170 161 140 121 148 100 95 139 97 101 91 157 153 100 103 113 162 92 94 93 135 94 204 158 163 110 98 118 96 120 263 92 176 331 175 114 95 99 93 174 171 127 91 137 503 171 221 450 110 161 838 92 110 544 128 114 149 94 272 91 92 99 160 127 150 91 92 558 522 95 175 381 1711 102
internal_value=-0.471775 9.132 -1.57717 18.8105 22.8049 5.98288 4.63293 -0.402917 2.7322 -0.679456 3.42753 0.283537 -1.18204 0.749922 6.78815 0.494757 1.89835 0.622715 2.4037 -1.45986 -1.59156 2.45405 1.6189 3.32505 1.87628 -1.37041 -1.7221 -1.08368 0.970556 -0.206364 0.266768 1.23738 2.71835 -2.68276 -2.16979 -1.56134 -2.33892 -2.12996 -1.57123 -0.906833 -0.498128 -0.464347 -1.19317 -2.49544 -1.26527 0.382167 -1.41491 -2.22289 -2.55456 -2.00258 -1.51487 -2.41776 -2.59346 -2.35687 -2.51804 -2.69964 -1.60735 -1.88994 -2.85291 -2.75545 -2.7886 -2.84114 -2.6765 -2.69643 -2.81778 -2.83731 -2.83621 -2.78214 -2.44359 -2.88757 -2.94867 -2.86281 -2.96732 -2.92354 -2.95999 -2.9598 -2.91221 -2.97308 -2.89842
internal_weight=15036 1552 13484 381 281 1171 1001 6539 530 6009 895 390 4208 529 201 1801 600 509 257 3679 3540 694 532 348 254 432 3427 1336 252 1201 882 379 216 6945 1730 1084 1634 2091 903 506 318 503 252 1514 295 266 237 320 1188 766 319 397 1421 727 635 975 184 213 5215 2585 2457 694 229 525 2343 364 2252 1595 379 1216 2630 219 657 1066 545 2539 556 1983 272
internal_count=15036 1552 13484 381 281 1171 1001 6539 530 6009 895 390 4208 529 201 1801 600 509 257 3679 3540 694 532 348 254 432 3427 1336 252 1201 882 379 216 6945 1730 1084 1634 2091 903 506 318 503 252 1514 295 266 237 320 1188 766 319 397 1421 727 635 975 184 213 5215 2585 2457 694 229 525 2343 364 2252 1595 379 1216 2630 219 657 1066 545 2539 556 1983 272
is_linear=0
shrinkage=0.0235024


Tree=2
num_leaves=91
num_cat=0
split_feature=31 31 31 12 17 25 11 18 6 31 6 26 31 27 2 7 11 27 25 27 10 17 14 31 2 7 17 26 17 17 26 31 3 2 18 2 2 31 11 29 29 3 17 31 29 29 7 18 31 27 29 27 21 31 31 29 29 11 31 27 5 2 11 25 18 10 11 2 7 2 2 25 31 21 26 12 3 12 11 2 18 21 6 6 25 6 17 27 2 31
split_gain=2.75555e+08 8.16545e+07 3.02194e+07 2.84015e+07 2.66145e+07 3.0385e+07 2.3687e+07 9.78636e+06 1.52787e+07 7.59956e+06 7.68356e+06 9.75975e+06 6.12185e+06 5.01698e+06 3.96969e+06 9.34268e+06 1.16797e+07 3.8992e+06 1.82888e+07 3.87848e+06 5.67261e+06 3.71374e+06 1.06924e+07 4.57344e+06 3.24949e+06 1.86791e+06 1.60234e+06 1.54808e+06 1.29908e+06 1.73583e+06 1.29509e+06 1.04545e+06 1.91659e+06 4.35242e+06 845243 1.02946e+06 1.08386e+06 829158 719366 660314 861070 1.28778e+06 1.04513e+06 561274 529224 499312 459616 981064 1.65085e+06 312201 324342 285621 215790 221345 181511 148816 143510 91920.9 82906.7 93307.4 74345.5 87327.3 95933.6 250629 82688.7 73448.4 72017.7 65064.4 53458.9 99707.1 237139 42686.5 19651.3 17004.9 13528.4 9683.21 9418.52 23997.1 8766.38 6516.32 2717.26 1534.77 8808.38 1683.91 5932.33 1030.1 859.874 742.812 695.957 525.89
threshold=0.24780044885022781 0.48792962884524521 0.063288942834899289 2.5000000000000004 0.096291201793265072 1319.5000000000002 21930.465000000004 548.35000000000002 1.4500000000000002 0.25841590287637223 2.3250000000000006 2.5000000000000004 0.16114364271361772 35.500000000000007 8374.5000000000018 1464.5000000000002 13577.040000000003 11.500000000000002 1355.5000000000002 19.500000000000004 1.0000000180025095e-35 0.094418839017033476 1.0000000180025095e-35 0.064825743203786132 6619.5000000000009 1897.0000000000002 0.097334366858299423 1.5000000000000002 0.088747298907445912 0.078276342255918313 1.5000000000000002 0.04498124266211357 14.500000000000002 6901.5000000000009 211.40000000000001 8410.5000000000018 6917.5000000000009 0.34631741374974845 19647.500000000004 152.28119255431071 61.449923494081922 14.500000000000002 0.077276239988759265 0.11269614181236105 81.78400582926885 84.305588351009305 1996.5000000000002 328.02500000000003 0.088044019660915809 14.500000000000002 101.36494259387624 10.500000000000002 1.5000000000000002 0.068421420402355534 0.18503467718773994 132.47578157006771 30.166114276546342 28725.600000000002 0.020727305370633161 49.500000000000007 1461.5000000000002 8261.5000000000018 22500.225000000002 1279.5000000000002 246.04500000000004 1.0000000180025095e-35 27031.475000000002 6820.5000000000009 1595.5000000000002 7397.5000000000009 6882.5000000000009 1164.5000000000002 0.12032405047317819 2.5000000000000004 3.5000000000000004 1.5000000000000002 1.0000000180025095e-35 1.5000000000000002 33722.80000000001 7472.5000000000009 266.08500000000004 2.5000000000000004 3.975000000000001 1.7250000000000003 166.50000000000003 2.0250000000000004 0.093516028316176669 13.500000000000002 8702.5000000000018 0.05837459278687189
decision_type=2 2 2 2 2 2 2 2 2 2 2 2 2 2 2 2 2 2 2 2 2 2 2 2 2 2 2 2 2 2 2 2 2 2 2 2 2 2 2 2 2 2 2 2 2 2 2 2 2 2 2 2 2 2 2 2 2 2 2 2 2 2 2 2 2 2 2 2 2 2 2 2 2 2 2 2 2 2 2 2 2 2 2 2 2 2 2 2 2 2
left_child=2 4 31 6 9 -6 -3 12 -9 -2 11 19 17 45 24 16 -16 18 27 20 -11 23 26 -19 -14 37 -23 -4 29 38 34 58 44 -34 -25 36 -36 -12 -17 40 41 42 -26 67 57 -10 52 74 -49 -42 54 71 53 -32 -51 -47 -35 60 78 65 61 62 63 64 -33 73 68 -28 69 70 -67 -29 -54 76 -48 -71 77 -60 81 -70 -62 83 88 84 -1 -63 -78 -86 -83 -82
right_child=1 3 7 -5 5 -7 -8 8 13 10 25 -13 14 -15 15 28 -18 21 -20 -21 -22 22 -24 30 39 -27 43 51 -30 -31 46 32 33 56 35 -37 -38 -39 -40 -41 49 -43 -44 -45 -46 55 47 48 -50 50 -52 -53 72 -55 -56 -57 -58 -59 59 -61 80 85 -64 -65 -66 66 -68 -69 79 75 -72 -73 -74 -75 -76 -77 86 -79 -80 -81 89 82 -84 -85 87 -87 -88 -89 -90 -91
leaf_value=-2.6658410611213372 10.0798394733603 17.539308522795572 1.0392436344152627 9.5024781424456073 4.8368523026931252 23.698480151243995 32.577742506406487 9.3281889864024361 0.16634349654882785 10.223283460334049 -1.8029623862209974 12.398346935862016 3.177068386702691 4.9744167959642809 0.44930540512631761 -1.5995234870263171 12.167251963977542 2.825905945259279 9.954604372930115 1.2576069627538893 2.6735612973106178 1.4834524057898815 6.610848716957439 -2.4048697358619799 3.0549624167741847 2.8390542108311903 -2.0840670504398635 -2.8792621081487941 -1.8643029616381062 3.5848253756767194 -1.217297579362344 -1.8677372702013786 3.8823925784007205 -2.9614637407785067 -1.0191157437414156 -2.2246610127261817 1.7889074919349375 1.1870638473430246 1.0323496704667974 1.054580415836134 -0.59294474679146991 -1.9405064752362342 -0.43349647120294549 -0.65009666326491156 -0.74277621526870097 -1.2522552377271845 -2.8495263379729141 1.7132983280618637 -2.0635296866041926 -2.1168514061465582 -2.727680676291905 -1.0547791605217995 -2.7927777150604389 -2.2711548730824056 -0.95379146779275825 -2.5377608014353301 -1.6919241202906776 -1.8897016994936977 -2.4240252028265825 -2.0684836146614809 -2.7398400017103888 -2.9496506583818523 -2.900494707737205 -1.0763103592308105 -2.7048161271260254 -2.758830795542226 -1.9335409593192245 -2.8685629062787226 -2.9258605150623214 -2.9166639186142382 -1.3270043888148122 -2.2168295582615123 -2.4626667416637034 -2.6030340571384558 -2.4784389730359644 -2.6024919541926521 -2.9144010212806504 -2.8878545724755438 -2.6397030662468159 -2.7201504980396569 -2.9331596137801803 -2.9155300751338591 -2.6360896225698163 -2.9179381682933214 -2.7983888000672419 -2.8004222133569128 -2.8243671281070371 -2.9159105596903876 -2.7970487456732211 -2.8196207301455671
leaf_weight=91 111 159 112 131 98 91 91 140 95 97 114 92 129 95 93 106 95 116 97 173 127 92 118 158 91 175 92 137 128 96 122 92 91 99 157 121 147 93 125 98 166 112 99 121 92 99 102 106 161 116 140 91 451 1174 207 101 99 98 95 128 98 133 128 92 233 150 91 167 227 163 112 92 137 169 137 96 811 200 92 178 288 344 105 1439 95 91 165 372 92 96
leaf_count=91 111 159 112 131 98 91 91 140 95 97 114 92 129 95 93 106 95 116 97 173 127 92 118 158 91 175 92 137 128 96 122 92 91 99 157 121 147 93 125 98 166 112 99 121 92 99 102 106 161 116 140 91 451 1174 207 101 99 98 95 128 98 133 128 92 233 150 91 167 227 163 112 92 137 169 137 96 811 200 92 178 288 344 105 1439 95 91 165 372 92 96
internal_value=-0.460692 8.91739 -1.54011 18.3684 5.84228 13.919 23.0137 -0.393451 2.66798 4.2877 3.54942 5.5005 -0.663491 0.27686 0.483124 1.9639 6.37119 -1.15426 0.732288 3.90173 5.94335 -1.42556 0.282868 -1.7519 -0.33901 1.05155 -1.29889 -1.33821 0.142631 0.928555 -1.93056 -2.61972 -2.11881 -0.371584 -0.937041 -0.391096 0.33835 -0.459087 -0.174875 -0.779908 -0.97313 0.0580437 1.23671 -1.9728 -2.46915 -1.23554 -2.17286 -1.54333 -0.563704 -1.4684 -1.78204 -2.17066 -2.34188 -2.17203 -1.37182 -1.90198 -2.32725 -2.5868 -2.78587 -2.6907 -2.64132 -2.49679 -2.33517 -2.16138 -2.4682 -2.72307 -2.569 -2.59032 -2.63133 -2.47223 -2.14717 -2.61361 -2.71605 -2.83181 -2.63727 -2.80064 -2.86214 -2.73886 -2.87937 -2.83572 -2.8717 -2.88802 -2.84155 -2.90055 -2.85551 -2.88952 -2.89929 -2.89224 -2.89078 -2.90506
internal_weight=15036 1552 13484 381 1171 189 250 6539 530 982 871 489 6009 390 1801 643 188 4208 529 397 224 3679 590 3089 1158 382 472 432 455 327 2973 6945 1730 289 583 425 304 207 231 1029 931 302 190 380 1441 295 2390 506 267 629 463 320 1884 1296 323 200 198 1349 5215 2585 1251 769 545 417 325 2457 1017 259 926 521 262 229 588 1440 239 259 1271 295 2630 405 482 2538 541 1997 558 224 976 467 436 384
internal_count=15036 1552 13484 381 1171 189 250 6539 530 982 871 489 6009 390 1801 643 188 4208 529 397 224 3679 590 3089 1158 382 472 432 455 327 2973 6945 1730 289 583 425 304 207 231 1029 931 302 190 380 1441 295 2390 506 267 629 463 320 1884 1296 323 200 198 1349 5215 2585 1251 769 545 417 325 2457 1017 259 926 521 262 229 588 1440 239 259 1271 295 2630 405 482 2538 541 1997 558 224 976 467 436 384
is_linear=0
shrinkage=0.0235024


Tree=3
num_leaves=91
num_cat=0
split_feature=31 31 24 31 17 11 0 18 3 31 31 18 31 24 17 31 2 7 11 4 2 23 17 2 24 17 0 0 2 17 24 5 18 27 31 3 2 5 3 11 24 24 17 7 31 31 18 17 11 2 17 17 0 17 5 31 11 11 31 27 2 5 16 3 18 7 2 11 23 10 27 2 31 2 11 24 7 11 2 2 27 0 24 31 24 18 11 11 5 2
split_gain=2.62756e+08 7.78613e+07 3.01912e+07 2.88159e+07 2.53782e+07 2.81985e+07 1.60327e+07 9.33178e+06 1.2888e+07 7.24647e+06 6.14597e+06 7.04882e+06 5.8375e+06 4.65971e+06 7.38877e+06 4.58841e+06 3.78532e+06 8.90873e+06 1.11371e+07 3.62494e+06 3.09856e+06 2.94856e+06 2.90137e+06 7.71394e+06 1.23267e+07 2.2643e+06 2.14507e+06 1.60444e+06 1.56913e+06 1.23874e+06 2.36273e+06 1.21605e+06 1.78323e+06 1.13443e+06 996846 1.82757e+06 4.15026e+06 896462 614831 568001 476444 781270 655029 445266 413673 408775 391395 369655 256664 234952 171698 530101 222368 169541 280034 164463 155284 80877.9 79025.6 88951.8 78043.1 72866.6 93780.8 116782 178738 220954 126957 71629.5 34674 51453.3 52293.9 81173.9 37818.6 34619.7 44181.9 30928 13890.6 11377.6 15549.2 65601.5 12429.8 10788.9 10551.2 7535.39 4646.68 1636.05 1191.35 4701.34 2502.78 5335.02
threshold=0.24780044885022781 0.48792962884524521 104.50000000000001 0.063288942834899289 0.096291201793265072 23515.000000000004 52.500000000000007 548.35000000000002 9.5000000000000018 0.25841590287637223 0.3814695546511796 511.53500000000003 0.16114364271361772 99.500000000000014 0.064203813569818413 0.065730408863179532 8374.5000000000018 1464.5000000000002 13577.040000000003 1.0000000180025095e-35 6619.5000000000009 4.5000000000000009 0.094418839017033476 7093.5000000000009 130.50000000000003 0.075761796235333814 41.500000000000007 48.500000000000007 7843.5000000000009 0.088747298907445912 97.500000000000014 370.00000000000006 260.05500000000006 11.500000000000002 0.04498124266211357 14.500000000000002 6901.5000000000009 714.50000000000011 14.500000000000002 22596.130000000001 117.50000000000001 137.50000000000003 0.062516284523189164 2145.5000000000005 0.1184776713047042 0.17637678966801443 511.53500000000003 0.075023452157598522 19711.975000000002 12299.500000000002 0.068513559847829267 0.060323167561947659 52.500000000000007 0.075761796235333814 730.50000000000011 0.13109690015854861 19711.975000000002 13577.040000000003 0.020727305370633161 49.500000000000007 7001.5000000000009 1826.5000000000002 1.0000000180025095e-35 11.500000000000002 340.43500000000006 1595.5000000000002 7081.5000000000009 30011.640000000003 3.5000000000000004 1.0000000180025095e-35 18.500000000000004 7397.5000000000009 0.037289853756423942 7276.5000000000009 16242.080000000002 130.50000000000003 1432.0000000000002 14687.500000000002 6965.5000000000009 7207.5000000000009 30.500000000000004 40.500000000000007 146.50000000000003 0.05837459278687189 79.500000000000014 268.32500000000005 11963.145000000002 10999.500000000002 1457.5000000000002 7001.5000000000009
decision_type=2 2 2 2 2 2 2 2 2 2 2 2 2 2 2 2 2 2 2 2 2 2 2 2 2 2 2 2 2 2 2 2 2 2 2 2 2 2 2 2 2 2 2 2 2 2 2 2 2 2 2 2 2 2 2 2 2 2 2 2 2 2 2 2 2 2 2 2 2 2 2 2 2 2 2 2 2 2 2 2 2 2 2 2 2 2 2 2 2 2
left_child=3 4 6 34 9 -6 -3 12 25 -2 11 21 13 31 -15 -16 20 18 -18 -12 -14 56 33 24 -24 -9 -23 -27 -28 30 -19 32 50 -17 58 46 -37 39 40 -35 42 -42 -22 -39 75 -44 61 -47 60 53 51 -5 -52 55 -55 73 -11 -38 82 67 -40 62 63 64 65 66 -36 68 69 72 -71 -72 -60 84 -75 -25 -56 -70 85 -80 -81 -64 86 -63 -33 -79 87 88 89 -1
right_child=1 2 -4 7 5 -7 -8 8 -10 10 19 -13 16 14 15 22 17 29 -20 -21 38 26 23 44 -26 27 28 -29 -30 -31 -32 49 -34 37 35 36 57 43 48 -41 41 -43 45 -45 -46 47 -48 -49 -50 -51 52 -53 -54 54 76 -57 -58 -59 59 -61 -62 83 81 -65 -66 -67 -68 -69 77 70 71 -73 -74 74 -76 -77 -78 78 79 80 -82 -83 -84 -85 -86 -87 -88 -89 -90 -91
leaf_value=-2.8585648211801855 9.8429385668685896 17.624861914878498 25.426595097171408 -2.256598615749783 4.8425440833757838 23.012956554862747 4.6107287743037659 3.4022408858728985 8.1536939695994519 -1.7297800517474653 3.7832639747440444 7.9509251558262388 3.1023995506203739 5.2474999355581344 4.3489887929414373 0.35509651954169469 0.43874556258227304 -1.0966705184634109 11.881291823936667 10.009463615562995 0.91392267284477757 4.7916110301801718 8.5896718385921158 -2.4207569400549587 -1.5511245929787101 0.79186346536212826 -1.2284650204866394 -2.7879664092835239 2.7504777557777134 -1.820487310704421 2.8985870644896905 -2.8971742092203199 1.0841686390128831 0.38557652307465606 -1.5775731592015794 3.7911468051462012 -2.7545065678995226 -2.4158495716519561 -1.484851915602073 -1.6811902098370279 2.120354713396118 -0.85446909527674231 -2.4975976006427083 -0.9448284254554602 -0.79870460439815605 -1.8882629478675872 -0.93459297004397301 -0.071220999709590449 -0.7045676781846143 -1.4220475575688349 -2.6490077113405439 0.073820616589538021 -1.2381148420848991 -1.0453591599245791 -2.6620284279704127 -1.6855779682372347 -0.38409302755568975 -1.7991652264105589 -2.8537665905309515 -2.0198691668098179 -2.3646113324955338 -2.8431344641655367 -2.5445360558662484 -2.8218921841510625 -2.7411438065499505 -1.0275164226724705 -2.741569214170962 -2.0795175007435973 -2.8416797194580754 -2.7544416197738655 -1.5600792630669058 -2.552392582463614 -2.3121614099574503 -2.3221712980600113 -2.7719057138207637 -3.0038667465757181 -2.252983949884233 -2.7318817829878612 -2.143049055665327 -2.8187027284634576 -2.579525711859088 -2.8515071151714202 -2.5501764691359026 -2.5841440208617485 -2.7059240937435121 -2.8533461670000277 -2.8380470161486975 -2.6309777896204243 -2.8554806246444877 -2.657312534224689
leaf_weight=171 111 123 167 128 98 91 91 91 161 96 100 105 129 123 95 152 93 163 95 107 103 143 129 112 136 149 93 129 133 128 164 228 161 142 91 91 98 728 95 152 98 97 99 135 92 97 93 171 131 157 178 93 95 125 104 111 94 100 290 128 138 303 108 148 152 135 122 114 511 92 91 93 98 281 220 97 93 156 127 383 198 196 91 93 141 304 1609 110 469 180
leaf_count=171 111 123 167 128 98 91 91 91 161 96 100 105 129 123 95 152 93 163 95 107 103 143 129 112 136 149 93 129 133 128 164 228 161 142 91 91 98 728 95 152 98 97 99 135 92 97 93 171 131 157 178 93 95 125 104 111 94 100 290 128 138 303 108 148 152 135 122 114 511 92 91 93 98 281 220 97 93 156 127 383 198 196 91 93 141 304 1609 110 469 180
internal_value=-0.449869 8.70783 17.9367 -1.50392 5.70499 13.5918 12.0913 -0.384208 2.60528 4.18694 3.46601 2.36346 -0.647902 -1.12714 -0.340891 -0.689866 0.471767 1.91775 6.22147 7.00217 -0.331047 1.31375 -0.945227 0.460592 3.38492 0.18413 2.53866 -0.868886 1.11264 0.139273 0.906732 -1.90516 -1.06347 -1.55317 -2.55816 -2.06903 -0.362851 -1.80397 -0.761586 -0.682583 -0.336341 0.640008 -0.741656 -2.18586 -2.11362 -1.2066 -2.41113 -0.729291 -1.53817 -2.28269 -1.76363 -1.27543 -2.15844 -2.38631 -1.91698 -2.54024 -1.0646 -2.27257 -2.72041 -2.62748 -2.00638 -2.51292 -2.40063 -2.23994 -2.06746 -1.77289 -2.24479 -2.65908 -2.68724 -2.54122 -2.29336 -2.06223 -2.71725 -2.64916 -2.51988 -2.69191 -2.46948 -2.74492 -2.70249 -2.63093 -2.73738 -2.74281 -2.81171 -2.78259 -2.82439 -2.81239 -2.82104 -2.79149 -2.81289 -2.75567
internal_weight=15036 1552 381 13484 1171 189 214 6539 530 982 871 664 6009 4208 2093 1970 1801 643 188 207 1158 559 1875 566 265 369 369 278 226 455 327 2115 655 1309 6945 1730 289 1157 1029 294 665 195 470 863 301 367 1441 268 364 1460 494 221 273 1303 322 981 190 198 5215 2585 233 1348 952 648 500 348 213 2457 2343 664 276 184 388 870 501 209 197 1679 1168 708 581 304 2630 396 369 460 2539 930 820 351
internal_count=15036 1552 381 13484 1171 189 214 6539 530 982 871 664 6009 4208 2093 1970 1801 643 188 207 1158 559 1875 566 265 369 369 278 226 455 327 2115 655 1309 6945 1730 289 1157 1029 294 665 195 470 863 301 367 1441 268 364 1460 494 221 273 1303 322 981 190 198 5215 2585 233 1348 952 648 500 348 213 2457 2343 664 276 184 388 870 501 209 197 1679 1168 708 581 304 2630 396 369 460 2539 930 820 351
is_linear=0
shrinkage=0.0235024


Tree=4
num_leaves=90
num_cat=0
split_feature=31 30 31 31 3 31 31 18 30 18 6 31 31 27 18 6 1 1 25 26 8 30 3 31 31 9 25 31 1 18 18 30 31 3 31 8 9 31 31 25 8 8 8 1 18 31 30 18 15 25 8 6 1 25 30 25 9 28 28 18 1 31 1 30 30 25 18 3 1 8 30 30 30 30 25 28 31 30 30 1 25 30 30 8 25 27 18 27 28
split_gain=2.50552e+08 7.71804e+07 3.00673e+07 2.74775e+07 2.64026e+07 2.03066e+07 1.72613e+07 1.39791e+07 1.02209e+07 9.64706e+06 1.45439e+07 6.68943e+06 6.39266e+06 1.22027e+07 1.03096e+07 5.62647e+06 5.39632e+06 3.87555e+06 8.51334e+06 3.64099e+06 5.32613e+06 7.14024e+06 4.22966e+06 3.17798e+06 2.0767e+06 3.02783e+06 3.56695e+06 1.84296e+06 1.58069e+06 1.46455e+06 1.14886e+06 1.12903e+06 950498 1.74269e+06 3.76799e+06 949512 669683 2.38465e+06 713632 548620 483787 809202 472506 380222 373200 350364 709344 641660 349931 459089 345862 313938 240962 232210 198899 184155 114081 287144 107599 227642 91586.3 75323.8 97826.4 67551.4 60296 154642 54096.4 34158.3 33789.4 90013.9 71278.5 299615 33786.5 32759.5 34117.8 14644.7 13671.5 15107.9 6774.96 5713.59 14343.3 1645.6 12043.1 5424.91 1461.99 847.894 2810.2 579.693 10.5467
threshold=0.24780044885022781 458.211618825823 0.48792962884524521 0.063288942834899289 12.500000000000002 0.61323214537832171 0.32126022193748011 243.82500000000002 6.7172881720441326 548.35000000000002 1.4500000000000002 0.16114364271361772 0.2893361062150433 22.500000000000004 352.79000000000002 1.675 52.500000000000007 51.500000000000007 1105.5000000000002 2.5000000000000004 2716.5000000000005 135.11018674770762 1.0000000180025095e-35 0.42942348380070616 0.10918940979681969 1.0000000180025095e-35 1287.5000000000002 0.20551431813843829 50.500000000000007 428.33500000000004 283.56500000000005 164.28520912692264 0.04498124266211357 14.500000000000002 0.049863177633401264 6715.5000000000009 1.0000000180025095e-35 0.19631306177686722 0.2150424779907695 1144.5000000000002 7894.5000000000009 8560.5000000000018 3689.5000000000005 41.500000000000007 511.53500000000003 0.076498534183031541 65.079391139687402 328.02500000000003 1.0000000180025095e-35 1285.5000000000002 3946.5000000000005 4.9750000000000005 37.500000000000007 1669.0000000000002 149.84006253011776 1154.5000000000002 1.0000000180025095e-35 2008.5000000000002 2012.5000000000002 337.58500000000004 39.500000000000007 0.020727305370633161 67.500000000000014 53.484682051784688 27.755233299787822 1425.5000000000002 529.10500000000013 11.500000000000002 51.500000000000007 6258.5000000000009 14.369963961187622 20.166750889004021 37.950314518963232 19.214638873132177 1190.5000000000002 2015.5000000000002 0.056034082122334995 45.224417989325048 60.725390646194718 28.500000000000004 1170.5000000000002 11.918427387364469 10.438562509899727 2189.0000000000005 1090.5000000000002 42.500000000000007 273.87500000000006 44.500000000000007 2005.5000000000002
decision_type=2 2 2 2 2 2 2 2 2 2 2 2 2 2 2 2 2 2 2 2 2 2 2 2 2 2 2 2 2 2 2 2 2 2 2 2 2 2 2 2 2 2 2 2 2 2 2 2 2 2 2 2 2 2 2 2 2 2 2 2 2 2 2 2 2 2 2 2 2 2 2 2 2 2 2 2 2 2 2 2 2 2 2 2 2 2 2 2 2
left_child=3 7 6 32 5 -4 -3 -2 -5 11 -11 19 13 14 -9 -8 31 29 -19 20 21 -10 -22 28 42 39 -27 30 43 35 -20 -12 61 44 -35 36 38 -38 52 -26 53 -42 -24 -14 58 63 47 -47 49 -37 -39 -48 -13 56 -44 -36 67 60 64 -60 -58 75 66 -43 65 73 68 78 69 79 -71 -72 -73 74 -34 81 84 -78 -21 80 -63 82 83 -1 -66 86 -70 -85 -81
right_child=1 2 4 8 -6 -7 15 12 9 10 16 17 23 -15 -16 -17 -18 18 27 40 22 -23 24 -25 25 26 -28 -29 -30 -31 -32 -33 33 34 55 48 37 50 -40 -41 41 45 54 -45 -46 46 51 -49 -50 -51 -52 -53 -54 -55 -56 -57 57 -59 59 -61 -62 62 -64 -65 76 -67 -68 -69 85 70 71 72 -74 -75 -76 -77 77 -79 -80 88 -82 -83 -84 87 -86 -87 -88 -89 -90
leaf_value=-2.5689337842164912 12.594701368996855 17.944153684121815 7.6944757843016038 7.403098839603711 29.17311264096228 22.769116325802518 1.872174554763735 3.9731135555198542 7.9512401370676171 9.050459664394106 0.19075481229918884 -1.7229620821313578 0.13872832495656898 0.39041645434871031 15.102222767605022 9.2900632282129596 4.7396991116530929 7.1840715103172874 -2.4950503040142991 -2.8955346419027044 3.9972837391617504 -1.1646633384317222 -0.46693846632780328 5.0657430157302876 -0.2031190966742939 4.4844390948688648 -1.5432771837175103 2.3886454671392716 2.8064160059657284 2.160577643864372 0.66927838551880103 -2.7978140419651578 -2.6459961379121331 3.6037222866880643 -2.8359722621483598 -1.9773853893036326 3.7271004316478793 -1.7597218046979197 0.83084598528597697 -1.9315209632039794 0.55367299279171622 -2.7589034019230039 -2.4246869946945218 -1.6460726288089822 -0.91262775889419578 -1.4780942601780767 -2.4775402653041474 0.6333952140868695 -2.6195973929774796 -0.11909013676564045 0.20628780977415431 -0.961101557567271 -0.27907960207007754 -1.1317262319484795 -1.2839931839890573 -1.3943840638104146 -2.5046153352831531 -1.0160415285729396 -1.1426209084646151 -2.7055367903601426 -1.8868730454864036 -2.7832602523991961 -1.9289559768684159 -1.9830080472881724 -2.6729428475719157 -1.4679489931639593 -2.0467246078216506 -2.3226164542515719 -2.7887602717762561 -2.7645931719405499 -1.0575167580298972 -2.6508941153592454 -2.2423341697126897 -2.8065342184680495 -2.0232322812178478 -2.4419264389321342 -2.3410274308684902 -2.7055952141226478 -2.6400000813125732 -2.7942274742774202 -2.4365628746586774 -2.7770355489975418 -2.457546707415784 -2.7852124384774344 -2.8051600466029498 -2.8133990906102642 -2.6423114747604606 -2.6861081796729911 -2.7308118529436798
leaf_weight=96 95 102 104 92 111 94 93 91 92 140 125 205 169 140 93 144 106 136 121 121 91 98 92 101 151 130 93 159 107 122 133 158 104 91 107 147 102 91 127 310 95 159 592 108 93 202 310 131 107 147 108 100 93 105 99 91 418 113 99 108 197 158 128 104 110 92 96 169 256 197 98 285 193 159 96 91 118 155 148 352 128 1483 91 761 307 260 165 108 269
leaf_count=96 95 102 104 92 111 94 93 91 92 140 125 205 169 140 93 144 106 136 121 121 91 98 92 101 151 130 93 159 107 122 133 158 104 91 107 147 102 91 127 310 95 159 592 108 93 202 310 131 107 147 108 100 93 105 99 91 418 113 99 108 197 158 128 104 110 92 96 169 256 197 98 285 193 159 96 91 118 155 148 352 128 1483 91 761 307 260 165 108 269
internal_value=-0.439302 8.50318 14.6936 -1.46858 19.9966 14.8517 9.8596 4.06566 -0.375182 -0.486197 2.55458 -0.758025 3.06397 5.62018 9.59875 6.37971 0.216447 0.438047 2.08388 -1.28003 -0.466063 3.24878 -0.919162 1.35609 -1.22421 -0.277924 1.97015 0.404135 0.380093 -0.285295 -0.837706 -1.47739 -2.49805 -2.02042 -0.354323 -0.550163 -0.0430107 0.805012 -0.643869 -1.36562 -1.87982 -1.51886 -2.05071 -0.556755 -2.35448 -1.71469 -1.45338 -0.647119 -1.46808 -1.04861 -0.69219 -2.10794 -1.27272 -2.19241 -2.26142 -2.17398 -2.28783 -2.1067 -2.45388 -1.95859 -2.30692 -2.65648 -2.56574 -2.4525 -2.54364 -2.33045 -2.59886 -2.58863 -2.62127 -2.56375 -2.37628 -2.24328 -2.48616 -2.55118 -2.34762 -2.74563 -2.68282 -2.54842 -2.75535 -2.7234 -2.62848 -2.75647 -2.72749 -2.75283 -2.77055 -2.76301 -2.73162 -2.77302 -2.76693
internal_weight=15036 1552 648 13484 309 198 339 904 6539 6447 529 5918 809 324 184 237 389 1798 549 4120 1748 190 1558 485 1467 684 223 413 384 1249 254 283 6945 1730 289 1127 726 301 425 461 2372 1101 783 277 1441 1006 743 333 401 294 199 410 298 1271 691 198 1166 728 1348 207 615 5215 2585 263 1141 451 2457 438 2361 1680 773 576 478 359 200 2630 690 273 269 907 286 2539 1056 965 417 681 421 869 621
internal_count=15036 1552 648 13484 309 198 339 904 6539 6447 529 5918 809 324 184 237 389 1798 549 4120 1748 190 1558 485 1467 684 223 413 384 1249 254 283 6945 1730 289 1127 726 301 425 461 2372 1101 783 277 1441 1006 743 333 401 294 199 410 298 1271 691 198 1166 728 1348 207 615 5215 2585 263 1141 451 2457 438 2361 1680 773 576 478 359 200 2630 690 273 269 907 286 2539 1056 965 417 681 421 869 621
is_linear=0
shrinkage=0.0235024


Tree=5
num_leaves=83
num_cat=0
split_feature=29 5 29 7 7 29 24 29 19 19 0 12 24 29 7 19 29 0 29 2 17 17 5 3 28 2 27 17 17 0 2 0 11 11 27 29 7 3 2 2 29 17 17 19 24 12 7 4 19 19 17 29 19 17 28 3 2 2 2 7 2 7 17 0 27 29 29 0 27 27 17 17 19 24 28 19 5 19 0 27 29 17
split_gain=1.74672e+08 4.71549e+07 3.789e+07 1.62312e+07 1.98603e+07 1.38229e+07 1.97614e+07 6.00142e+06 5.27247e+06 6.34339e+06 5.2186e+06 4.92082e+06 4.60219e+06 4.18082e+06 3.92134e+06 9.08592e+06 3.86808e+07 3.55681e+06 2.79608e+06 2.71533e+06 2.63272e+06 3.09825e+06 2.31713e+06 2.29831e+06 4.46511e+06 7.59133e+06 1.9514e+06 1.82802e+06 3.96128e+06 2.409e+06 1.77454e+06 1.66294e+06 1.36058e+06 1.11981e+06 1.07097e+06 1.03598e+06 1.00259e+06 823946 813705 736700 617445 484231 568601 291676 279415 199189 446132 193886 190748 458180 153485 148501 238286 129768 129263 136951 126448 439283 119073 109463 96790.1 89872.8 232590 156442 62906.6 61447.6 32679.2 38952.4 95004.8 162601 42622.9 108155 49454.7 11497.4 12100.6 6222.22 11648.6 6057.42 2572.46 1916.75 1334.39 483.893
threshold=205.48313728656225 370.00000000000006 478.96456304930513 1869.0000000000002 1968.5000000000002 101.36494259387624 135.50000000000003 23.69517880983879 0.016176670014923702 0.019931829292753854 43.500000000000007 4.5000000000000009 84.500000000000014 299.64210059958305 1685.5000000000002 0.022294499433884504 37.648501056569593 74.500000000000014 25.115784439211222 7690.5000000000009 0.10352860054626942 0.096291201793265072 365.50000000000006 12.500000000000002 2000.5000000000002 7093.5000000000009 11.500000000000002 0.073930648303761268 0.076534856871201026 36.500000000000007 10855.500000000002 27.500000000000004 20952.960000000003 16304.065000000001 19.500000000000004 136.22315030716626 1751.0000000000002 14.500000000000002 7315.5000000000009 9512.5000000000018 136.22315030716626 0.066105823101329259 0.068752387318563771 0.019011567814270405 160.50000000000003 2.5000000000000004 1919.5000000000002 1.0000000180025095e-35 0.044805712101632804 0.06153588828655731 0.12123598186590311 25.768635123532189 0.018522364575256554 0.078519418057092463 2015.5000000000002 11.500000000000002 7650.5000000000009 9364.5000000000018 8186.5000000000009 1895.5000000000002 7289.5000000000009 1962.0000000000002 0.097748823742309018 65.500000000000014 33.500000000000007 41.055796242769809 6.5981698354647689 60.500000000000007 24.500000000000004 26.500000000000004 0.069755515802027421 0.074729185405341972 0.026513546523956353 109.50000000000001 2002.5000000000002 0.018910879473742204 2185.5000000000005 0.016739120980965205 34.500000000000007 30.500000000000004 11.433278540524887 0.084651693780324458
decision_type=2 2 2 2 2 2 2 2 2 2 2 2 2 2 2 2 2 2 2 2 2 2 2 2 2 2 2 2 2 2 2 2 2 2 2 2 2 2 2 2 2 2 2 2 2 2 2 2 2 2 2 2 2 2 2 2 2 2 2 2 2 2 2 2 2 2 2 2 2 2 2 2 2 2 2 2 2 2 2 2 2 2
left_child=1 5 3 19 -5 11 8 61 32 -10 12 20 -11 -6 17 18 -17 31 -16 22 21 27 -2 26 56 -26 -20 29 -29 -1 36 -9 -7 58 -35 -12 38 -38 -30 -27 48 43 -43 59 45 64 -47 -44 51 -50 -22 52 -33 -34 55 -53 65 -58 -18 -31 -56 66 63 73 -28 -25 78 68 75 -70 79 -72 -73 74 -63 76 77 -68 -3 -71 -69 -77
right_child=2 7 -4 4 13 6 -8 14 9 10 35 -13 -14 -15 15 16 33 -19 23 -21 50 -23 -24 24 25 39 44 28 30 41 -32 40 53 34 -36 -37 37 -39 -40 -41 -42 42 47 -45 -46 46 -48 -49 49 -51 -52 54 -54 -55 60 -57 57 -59 -60 -61 -62 62 -64 -65 -66 -67 67 80 69 70 71 72 -74 -75 -76 81 -78 -79 -80 -81 -82 -83
leaf_value=1.9812192232982495 0.13760779675539905 -2.5932962897133702 20.789391806599951 17.535441563140708 3.6547192618008637 1.7899277672246898 11.578042741215619 0.55214132615357159 7.6687232688124487 0.73164363121815523 -2.0868236128615645 4.8283826058564117 7.7542608215977022 10.013586005821605 2.3842459977674189 14.989203156918361 -2.679560279786608 2.2722478581038681 0.91005478976996435 6.3576251982455094 -1.5265993742360757 3.9820640323846828 4.97239849074895 -2.0444287281917219 5.2787562188625792 -2.1790530750334192 -2.3400065199435591 5.1235846481440923 0.058780688292087872 -2.4399216495596514 3.2608353490178175 -0.9564860422383662 -0.91013465411031658 -1.7917759135465752 1.475434375325722 1.2197324857767906 1.9851834679489513 -0.60066225237298121 -1.9938271150619409 0.38700128049864896 -0.74925039312319219 1.1060911168979737 -0.32581240256977689 -0.7680478260641348 -1.2173493621750135 -0.68676539666613889 -2.4058053323095141 -1.7339907041408849 -0.36694138130203757 -2.5394502627387028 -2.6675238420265583 -2.5945348242651813 -2.5120244714184574 -2.1682270815218661 -2.3780549605324843 -2.1889317823413585 -0.50666518937318816 -2.6815541354691166 -1.5894401814711638 -1.5331219909361362 -1.3155794840136823 -2.6714137858120366 -1.3105978824571971 -1.6014990123569368 -2.7315684238269626 -2.8222026425204652 -2.7346852048083696 -2.6123366427050847 -1.6153240421609847 -2.5943609066042383 -1.6077435754236913 -2.6080009096173788 -2.0013809203909547 -2.7592571713812379 -2.3469799411220245 -2.7407998928531434 -2.399766736404068 -2.4905852226954761 -2.737726184274377 -2.755298341850458 -2.7334450932917043 -2.650058534427703
leaf_weight=166 117 112 140 152 124 108 148 123 154 91 111 129 119 106 105 102 126 105 119 170 129 125 103 92 158 167 877 108 266 174 101 103 91 94 135 99 181 109 178 98 147 93 100 144 146 127 244 118 91 131 133 1547 116 91 93 661 91 118 100 129 98 156 112 96 312 150 240 111 150 99 94 373 95 245 123 386 138 91 709 179 500 144
leaf_count=166 117 112 140 152 124 108 148 123 154 91 111 129 119 106 105 102 126 105 119 170 129 125 103 92 158 167 877 108 266 174 101 103 91 94 135 99 181 109 178 98 147 93 100 144 146 127 244 118 91 131 133 1547 116 91 93 661 91 118 100 129 98 156 112 96 312 150 240 111 150 99 94 373 95 245 123 386 138 91 709 179 500 144
internal_value=-0.428983 -1.07268 9.53974 7.4995 10.943 1.34141 3.64268 -1.83659 2.28325 3.58825 2.09182 0.364078 4.71165 6.5858 -1.39482 -0.833446 1.9082 -1.98164 -1.3781 4.12634 0.10853 0.399879 2.40167 -1.52451 -0.533295 1.20111 -1.99914 0.159985 0.887998 -0.58288 0.34003 -2.1253 -0.299375 -1.024 0.133829 -0.527496 -0.06173 1.01288 -0.763864 -1.22968 -2.23559 -1.14456 -0.431915 -1.64013 -2.20214 -2.29423 -1.81764 -1.08854 -2.31248 -1.64941 -2.10619 -2.36867 -1.78093 -1.53978 -2.42228 -2.47316 -2.16026 -1.73512 -2.19769 -2.05422 -1.83349 -2.53607 -2.29837 -2.47663 -2.44285 -2.52697 -2.5869 -2.54542 -2.4943 -2.33023 -2.45776 -2.33855 -2.4851 -2.63675 -2.52878 -2.65679 -2.58924 -2.66791 -2.71816 -2.69838 -2.71162 -2.71635
internal_weight=15036 14124 912 772 382 3395 1012 10729 864 574 420 2383 210 230 6576 3361 557 3215 2804 390 2254 1992 220 2699 874 423 1825 1867 943 924 835 3110 290 455 229 210 734 290 444 265 2987 758 311 447 1706 1560 371 218 2840 222 262 2618 219 182 2399 2208 451 209 226 303 191 4153 732 620 1189 242 3421 2600 1989 990 840 562 468 524 279 999 469 331 821 278 611 530
internal_count=15036 14124 912 772 382 3395 1012 10729 864 574 420 2383 210 230 6576 3361 557 3215 2804 390 2254 1992 220 2699 874 423 1825 1867 943 924 835 3110 290 455 229 210 734 290 444 265 2987 758 311 447 1706 1560 371 218 2840 222 262 2618 219 182 2399 2208 451 209 226 303 191 4153 732 620 1189 242 3421 2600 1989 990 840 562 468 524 279 999 469 331 821 278 611 530
is_linear=0
shrinkage=0.0235024


Tree=6
num_leaves=93
num_cat=0
split_feature=31 31 31 26 26 17 31 8 0 19 31 31 26 8 31 17 19 19 17 31 8 1 7 2 19 31 19 29 5 19 7 17 31 3 2 19 19 2 17 17 7 26 17 8 0 27 29 29 29 19 19 1 26 31 17 19 0 31 0 2 7 19 3 29 19 31 1 10 1 19 8 2 29 31 0 2 17 7 29 29 19 26 7 7 29 21 17 17 2 19 27 2
split_gain=2.3041e+08 6.88693e+07 2.52454e+07 2.51578e+07 3.60868e+07 2.37375e+07 2.01042e+07 1.09707e+07 7.26323e+06 5.83384e+06 7.27798e+06 4.78379e+06 4.91899e+06 1.28061e+07 2.13902e+07 4.16508e+06 8.02213e+06 4.50324e+06 5.26316e+06 3.83871e+06 3.75972e+06 3.68804e+06 5.51156e+06 3.97422e+06 3.17437e+06 2.6957e+06 1.78257e+06 2.90862e+06 1.68132e+06 1.19061e+06 1.93175e+06 936868 869734 1.64384e+06 3.92745e+06 837903 1.15127e+06 728900 722947 3.34837e+06 846662 980959 698623 659268 592901 1.15955e+06 1.02042e+06 490201 486665 457933 397071 314759 909191 309393 149706 145806 130966 118531 152165 106432 161282 77552.2 95549.1 134693 79388.8 65825.5 85179.1 64479.6 79514.2 98243.2 237288 240424 60889 49541.1 41736.8 31361.1 22297.4 19502.1 16038.4 35025.6 3215.92 12149.4 2974.82 8494.14 2644.68 2510.89 2375.02 7168.97 1275.22 2141.04 411.334 279.976
threshold=0.24780044885022781 0.48792962884524521 0.063288942834899289 3.5000000000000004 2.5000000000000004 0.096291201793265072 0.33287259654798729 13222.500000000002 30.500000000000004 0.014210738423308751 0.36267688132124987 0.16114364271361772 2.5000000000000004 2511.5000000000005 0.096738203938680503 0.10003335557038028 0.014730131895473751 0.027844429369237603 0.076635344128422364 0.064825743203786132 6516.5000000000009 51.500000000000007 1396.5000000000002 6901.5000000000009 0.044805712101632804 0.2893361062150433 0.026018515604648053 118.13234314818591 714.50000000000011 0.018614023387561154 1895.5000000000002 0.056896327289632655 0.04498124266211357 14.500000000000002 6901.5000000000009 0.016992340665992301 0.015460517237939751 6859.5000000000009 0.093516028316176669 0.09662439330853187 2020.0000000000002 5.5000000000000009 0.072231435688013462 7389.5000000000009 54.500000000000007 27.500000000000004 79.227025487791124 81.78400582926885 70.716530118469095 0.022428672419858305 0.022883900105925004 58.500000000000007 5.5000000000000009 0.20831344902282375 0.071901691325299666 0.019614756632412651 44.500000000000007 0.11269614181236105 36.500000000000007 7196.5000000000009 1330.5000000000002 0.016572555942147602 11.500000000000002 25.768635123532189 0.013826443817110201 0.020727305370633161 67.500000000000014 1.0000000180025095e-35 51.500000000000007 0.018417933440277003 4390.5000000000009 7327.5000000000009 58.518768680037716 0.056774517506899609 56.500000000000007 7472.5000000000009 0.064439910527423108 1751.0000000000002 10.500819175402876 5.9878434220459154 0.012533584028110452 8.5000000000000018 1395.5000000000002 1389.5000000000002 24.399943468717442 2.5000000000000004 0.092321897862064059 0.11303411803247997 8374.5000000000018 0.021708708381251152 11.500000000000002 7289.5000000000009
decision_type=2 2 2 2 2 2 2 2 2 2 2 2 2 2 2 2 2 2 2 2 2 2 2 2 2 2 2 2 2 2 2 2 2 2 2 2 2 2 2 2 2 2 2 2 2 2 2 2 2 2 2 2 2 2 2 2 2 2 2 2 2 2 2 2 2 2 2 2 2 2 2 2 2 2 2 2 2 2 2 2 2 2 2 2 2 2 2 2 2 2 2 2
left_child=2 5 32 4 -3 7 -7 8 -2 43 20 12 13 14 -4 17 -17 28 -19 -14 25 26 -23 -24 38 -11 31 -28 44 30 -25 -13 65 47 -35 36 37 -33 40 -40 51 -42 -22 -10 45 46 -15 61 -39 72 56 59 -53 -50 -46 -36 -37 58 -30 74 -61 62 63 -34 -65 82 67 78 69 77 -71 -72 -41 84 -21 -75 -60 -69 79 -67 81 -80 83 85 -63 86 -1 -88 -82 -90 -84 -79
right_child=1 3 11 -5 -6 6 -8 -9 9 10 -12 21 19 15 -16 16 -18 18 -20 24 42 22 23 29 -26 -27 27 -29 57 -31 -32 35 33 34 55 50 -38 48 39 49 41 -43 -44 -45 54 -47 -48 -49 53 -51 -52 52 -54 -55 -56 -57 -58 -59 76 60 -62 73 -64 64 -66 66 -68 68 -70 70 71 -73 -74 75 -76 -77 -78 91 80 -81 88 -83 90 -85 -86 -87 87 -89 89 -91 -92 -93
leaf_value=-2.6631401998309134 9.0757792854303645 13.445072331134659 14.031709776164309 9.698885734396125 32.510470656576061 20.505053736986856 5.1706722895435062 11.368165057593774 0.24559172490047004 6.8721995635878663 7.8525493166917562 1.6215309012920587 2.764891248002376 -1.6874074657267046 -1.0681580457732003 7.5805555826235596 -1.979274204827064 -1.3733065469831487 6.3719218855385478 -2.5672726164199338 -1.9140150595285119 7.4201438830642807 4.6099090031275693 3.3353980203537943 2.6338255650860072 1.5802228036964281 -0.61240271947662961 4.6891359731103739 -1.6185659230017087 -2.0781935556696505 -0.90438268272098532 0.73807130123174347 -1.4735652030916337 3.7232973094349329 -1.4812348306370917 -1.5975428043183264 2.2618249005985454 -0.003513673366586209 2.785679661643834 -2.2137258851445765 0.84054340459441901 -2.0343153526620616 0.95241689194844759 -2.3023797228133733 -2.2651361104050465 2.2253359887309774 1.2587820890554 -0.59877898929052853 -2.4293998871274769 -0.69173544969757794 -0.25146441227294131 -2.7310137375313923 0.39151672805383519 -0.7770795656113656 -1.0538294679521041 -2.7647577646796564 -2.6571055662626875 -1.6475705929444211 -2.3138555299853292 -1.2560407952920116 -2.211782652293858 -2.5879592520423884 -2.7018103746272737 -2.663561673496218 -1.8990245592522239 -2.6516549148722555 -1.8648763795903311 -2.2966916477217136 -2.6800456383451765 -2.6926047143037786 -0.794598288782974 -2.3666756872229535 -2.9504031242113857 -2.0059486826380275 -2.028019623727447 -2.5511334821415095 -2.7311370762123248 -2.7055125053585178 -2.7040793525586611 -2.0779625754592841 -2.6718872347242479 -2.3438299025909366 -2.5622893280961163 -2.3765641047441175 -2.7233124992899951 -2.5207688158732351 -2.3836164120630405 -2.6703400095232026 -2.5249059258608502 -2.6939139574131516 -2.6591556750319096 -2.5828954406023303
leaf_weight=637 98 123 93 159 99 96 93 97 126 99 158 110 116 205 117 95 99 100 94 557 97 93 136 100 94 115 124 106 100 115 146 168 166 91 91 160 93 142 104 144 121 143 91 101 92 95 95 92 146 105 94 111 96 110 147 107 109 128 95 112 786 173 148 163 142 146 128 169 285 141 128 93 112 129 95 112 336 106 120 103 710 105 92 101 316 181 91 139 161 99 1389 91
leaf_count=637 98 123 93 159 99 96 93 97 126 99 158 110 116 205 117 95 99 100 94 557 97 93 136 100 94 115 124 106 100 115 146 168 166 91 91 160 93 142 104 144 121 143 91 101 92 95 95 92 146 105 94 111 96 110 147 107 109 128 95 112 786 173 148 163 142 146 128 169 285 141 128 93 112 129 95 112 336 106 120 103 710 105 92 101 316 181 91 139 161 99 1389 91
internal_value=-0.418905 8.15662 -1.40595 16.8363 21.9477 5.33249 12.9601 3.86433 3.04175 2.29023 3.57858 -0.357898 -0.772594 0.146321 5.6184 -0.537217 2.70152 -0.959829 2.37897 -1.41717 1.89849 0.616539 2.16869 1.18581 -1.60524 4.02889 -0.0557519 1.83044 -1.46086 -0.103857 0.818659 -0.439085 -2.39272 -1.93581 -0.317652 -0.660981 -0.161342 -0.559689 -1.76558 -0.929576 -1.95787 -0.716256 -0.525956 -0.887604 -0.596582 -0.0372349 -0.754082 -2.26027 -1.10776 -2.0002 -1.56774 -2.14437 -1.28235 -1.71985 -1.52057 -2.17541 -2.02729 -2.29219 -2.44737 -2.25942 -2.0927 -2.3735 -2.17873 -2.01413 -2.30797 -2.54427 -2.45938 -2.49031 -2.34542 -2.21426 -1.93836 -1.45665 -2.53645 -2.5385 -2.48887 -2.25977 -2.63942 -2.48685 -2.59188 -2.41479 -2.62868 -2.53645 -2.62766 -2.59464 -2.67565 -2.61555 -2.63521 -2.55737 -2.64997 -2.58968 -2.65321 -2.64943
internal_weight=15036 1552 13484 381 222 1171 189 982 885 787 560 6539 4587 1891 210 1681 194 1487 194 2696 402 1952 590 497 2580 214 1362 230 1293 361 246 1132 6945 1730 289 1022 659 566 2486 465 2021 264 188 227 634 395 300 1441 398 361 363 1757 207 256 239 198 269 659 531 1550 898 1349 619 471 305 5215 2585 2457 1013 728 362 221 256 730 652 241 431 366 1444 249 1195 225 2630 1149 489 1048 867 230 970 260 1481 197
internal_count=15036 1552 13484 381 222 1171 189 982 885 787 560 6539 4587 1891 210 1681 194 1487 194 2696 402 1952 590 497 2580 214 1362 230 1293 361 246 1132 6945 1730 289 1022 659 566 2486 465 2021 264 188 227 634 395 300 1441 398 361 363 1757 207 256 239 198 269 659 531 1550 898 1349 619 471 305 5215 2585 2457 1013 728 362 221 256 730 652 241 431 366 1444 249 1195 225 2630 1149 489 1048 867 230 970 260 1481 197
is_linear=0
shrinkage=0.0235024


Tree=7
num_leaves=84
num_cat=0
split_feature=31 31 12 31 0 17 25 1 6 18 6 27 25 1 31 25 25 1 25 17 17 12 6 31 19 31 27 18 6 17 18 18 25 31 3 31 25 31 31 19 19 29 21 29 17 18 29 6 29 25 17 19 25 29 19 3 29 19 31 1 6 31 18 7 1 1 28 0 0 31 28 29 28 19 25 28 29 29 29 0 19 0 28
split_gain=2.19708e+08 6.56701e+07 2.61695e+07 2.40728e+07 2.26587e+07 2.26348e+07 2.75449e+07 9.40551e+06 8.81449e+06 8.21316e+06 1.34883e+07 7.54865e+06 7.87565e+06 5.15192e+06 4.80828e+06 3.64482e+06 2.71651e+07 3.40171e+06 7.98312e+06 2.83434e+06 3.5578e+06 5.76291e+06 9.21102e+06 2.7962e+06 3.32613e+06 1.76836e+06 1.49834e+06 1.31028e+06 1.15881e+06 1.08629e+06 1.07283e+06 938892 972751 829302 1.56749e+06 3.60187e+06 758823 768325 1.26492e+06 692527 656006 540289 525303 467416 350273 324118 304847 297891 281998 594385 252786 204602 192102 84109 73927.2 91087.8 128420 75679.9 62738.3 81203.6 61272.3 47215.3 45676.3 36280.7 38585.8 102155 139934 67670.7 32747.6 27828.9 26983.8 25360.7 13232.3 11363.2 3144.74 12824.8 2497.42 2355.08 4954.81 5484.36 1896.07 1077.93 916.518
threshold=0.24780044885022781 0.48792962884524521 2.5000000000000004 0.063288942834899289 52.500000000000007 0.096291201793265072 1319.5000000000002 58.500000000000007 2.1250000000000004 548.35000000000002 1.4500000000000002 19.500000000000004 1254.5000000000002 52.500000000000007 0.16114364271361772 1553.5000000000002 1600.5000000000002 51.500000000000007 1105.5000000000002 0.094418839017033476 0.11303411803247997 1.5000000000000002 2.8250000000000006 0.31047910330668366 0.016992340665992301 0.20551431813843829 7.5000000000000009 428.33500000000004 1.0999999999999999 0.058586815828402354 283.56500000000005 211.40000000000001 1287.5000000000002 0.04498124266211357 14.500000000000002 0.049863177633401264 1490.5000000000002 0.19335021038644537 0.20241715120979994 0.015384680174455202 0.016254754138807153 84.305588351009305 1.5000000000000002 81.78400582926885 0.080743041177823757 318.99000000000007 43.49584554832952 2.5750000000000006 25.448326190104527 1304.5000000000002 0.076635344128422364 0.017503920000919004 1215.5000000000002 129.12421806574125 0.016572555942147602 11.500000000000002 25.768635123532189 0.013826443817110201 0.020727305370633161 67.500000000000014 2.5250000000000008 0.056774517506899609 529.10500000000013 1698.5000000000002 51.500000000000007 37.500000000000007 2003.5000000000002 45.500000000000007 42.500000000000007 0.071096921605272381 2006.5000000000002 29.388047771962931 2015.5000000000002 0.014812547226996303 1243.5000000000002 2002.5000000000002 24.399943468717442 12.73569354090557 11.433278540524887 34.500000000000007 0.015847017077920553 66.500000000000014 2001.5000000000002
decision_type=2 2 2 2 2 2 2 2 2 2 2 2 2 2 2 2 2 2 2 2 2 2 2 2 2 2 2 2 2 2 2 2 2 2 2 2 2 2 2 2 2 2 2 2 2 2 2 2 2 2 2 2 2 2 2 2 2 2 2 2 2 2 2 2 2 2 2 2 2 2 2 2 2 2 2 2 2 2 2 2 2 2 2
left_child=3 5 4 33 -3 7 -7 8 11 14 -11 12 -2 41 15 19 -17 27 -19 26 21 52 -23 40 -25 30 -5 29 31 -16 -20 -28 39 58 43 -36 37 44 -39 -33 -10 -12 48 54 68 -18 -47 -40 49 -30 -50 -37 -21 -43 55 56 -35 -58 72 62 -22 76 63 64 65 73 -67 -68 -31 -44 -63 -71 77 -60 75 -65 -56 78 79 -1 -66 -81 -75
right_child=1 2 -4 9 -6 6 -8 -9 23 10 13 -13 -14 -15 17 16 45 18 25 20 60 22 -24 24 -26 -27 28 -29 42 36 -32 32 -34 34 35 51 -38 38 47 -41 -42 53 69 -45 -46 46 -48 -49 50 -51 -52 -53 -54 -55 61 -57 57 -59 59 -61 -62 70 -64 74 80 66 67 -69 -70 71 -72 -73 -74 82 -76 -77 -78 -79 -80 81 -82 -83 -84
leaf_value=-2.3793967694988729 3.7662063800918939 26.252987175246044 7.9301715265485004 0.79638154655054216 11.54474501554091 4.0082903455785894 21.966805722844981 10.457050673987718 -0.18327577085294883 8.7129126205848273 -0.049928352647512303 1.3164701107314301 11.556560522655563 4.630184952625946 1.576610736804211 12.243756169478367 -2.5937701448870611 6.9000752914205563 -2.4803704326276965 -1.0948511451692249 -2.8024806022263968 8.158461457060552 -0.69469482238100755 -0.63356995030828356 4.971603965614527 2.2820424200380316 -2.4686282646531268 2.0557739284691969 0.015154987864457114 -2.1398507445276596 0.57196299343206247 2.4220238602619193 -1.8711848064200367 -1.4389328656685025 3.5596263434070807 -1.2678455580877397 0.89030950185578295 1.9074721377831723 -0.63408728561420669 -0.17617974604529937 -2.9696756216064739 -1.6860907757450669 -2.8223536859125558 -0.58470622347452261 -1.0212535767096662 -2.2979875530868838 -0.64347216312501609 -2.1501855779537209 -2.1066395629226786 -2.3568900161724269 -1.4841736313914993 -2.7868776707805352 -2.5893561129294533 -2.6963282255929917 -2.5271359018910307 -2.6383112493265388 -2.6009614930607534 -1.8543928631485076 -2.2927905837524767 -1.821047244710885 -2.0024144455355994 -2.4496433652213461 -1.9239227577298936 -2.6157502053267585 -2.4593391072187201 -1.4778364001152327 -1.7818446432702408 -2.509082572969016 -2.732629413304116 -2.1048185142149562 -1.9438962502814914 -2.4669771550809023 -2.2768807762596217 -2.4967518075087067 -2.6074825136350821 -2.26202312765359 -2.6593080136611209 -2.5983846972028108 -2.385073734438909 -2.5984554297481464 -2.6025530309200136 -2.4790156430864569 -2.6174681594585825
leaf_weight=95 147 159 131 138 91 98 91 104 91 140 100 170 140 106 123 94 153 136 121 99 104 125 135 114 120 159 116 122 144 106 134 91 109 166 91 91 133 104 283 150 96 91 96 92 178 96 172 96 765 98 685 107 92 93 173 148 163 142 94 128 111 125 96 181 103 156 97 274 106 143 116 492 91 95 608 92 316 1520 117 715 331 92 330
leaf_count=95 147 159 131 138 91 98 91 104 91 140 100 170 140 106 123 94 153 136 121 99 104 125 135 114 120 159 116 122 144 106 134 91 109 166 91 91 133 104 283 150 96 91 96 92 178 96 172 96 765 98 685 107 92 93 173 148 163 142 94 128 111 125 96 181 103 156 97 274 106 143 116 492 91 95 608 92 316 1520 117 715 331 92 330
internal_value=-0.409065 7.96494 16.4406 -1.37292 20.8996 5.20718 12.6556 3.77352 2.98172 -0.349491 2.4551 5.24195 7.56676 0.208422 -0.596877 -1.03182 0.820297 0.4193 1.95979 -1.29013 0.0978049 1.284 3.56121 0.527956 2.24041 0.336626 -1.59554 -0.257885 -1.70984 -0.507997 -0.875969 -0.636164 -0.0285198 -2.3365 -1.89033 -0.310186 -0.762984 -1.01499 -0.388173 0.804429 -1.61431 -1.44157 -1.91628 -2.20716 -1.79099 -1.73005 -1.23654 -1.0184 -1.68862 -0.944972 -1.81265 -2.08929 -1.81529 -2.1973 -2.31773 -2.12753 -1.9668 -2.25374 -2.48448 -2.40159 -2.38993 -2.47885 -2.43179 -2.4524 -2.38032 -2.302 -2.07038 -2.31924 -2.43676 -2.4431 -2.20667 -2.38559 -2.56591 -2.53699 -2.57336 -2.49695 -2.61277 -2.57623 -2.54307 -2.56344 -2.56882 -2.58498 -2.59074
internal_weight=15036 1552 381 13484 250 1171 189 982 878 6539 530 457 287 390 6009 4208 515 1801 550 3693 666 451 260 421 234 414 3027 1251 2889 1129 255 466 350 6945 1730 289 1006 873 483 241 187 284 2423 1441 390 421 268 379 1692 242 1450 198 191 184 1349 619 471 305 5215 2585 215 730 2457 2361 1480 1046 527 371 212 731 241 635 2630 519 881 273 489 2539 1019 902 434 807 425
internal_count=15036 1552 381 13484 250 1171 189 982 878 6539 530 457 287 390 6009 4208 515 1801 550 3693 666 451 260 421 234 414 3027 1251 2889 1129 255 466 350 6945 1730 289 1006 873 483 241 187 284 2423 1441 390 421 268 379 1692 242 1450 198 191 184 1349 619 471 305 5215 2585 215 730 2457 2361 1480 1046 527 371 212 731 241 635 2630 519 881 273 489 2539 1019 902 434 807 425
is_linear=0
shrinkage=0.0235024


Tree=8
num_leaves=99
num_cat=0
split_feature=30 5 24 5 30 2 0 16 2 28 30 8 8 24 30 9 30 3 11 9 19 24 12 3 2 2 24 19 11 30 24 2 30 5 8 7 7 24 3 7 0 30 30 24 19 19 12 30 30 19 2 11 2 7 4 16 8 28 12 12 2 0 30 30 8 11 2 16 9 1 2 3 5 30 1 3 30 30 8 28 19 0 11 7 11 0 28 30 30 30 1 19 8 19 30 30 11 2
split_gain=1.97061e+08 3.63269e+07 3.46301e+07 1.93467e+07 1.82554e+07 9.25518e+06 9.65866e+06 9.1666e+06 1.73198e+07 8.39694e+06 7.0335e+06 6.01448e+06 1.65085e+07 5.38154e+06 9.82832e+06 4.66113e+06 1.04334e+07 7.45103e+06 1.8174e+07 2.80987e+06 5.90376e+06 6.75705e+06 9.8841e+06 2.32667e+06 1.67649e+06 1.89486e+06 3.83214e+06 1.58735e+06 5.04635e+06 1.39476e+06 1.11662e+06 1.0873e+06 1.01105e+06 2.15405e+06 957974 801380 798707 983036 785802 754327 646956 532473 917547 427056 325218 433508 286947 267907 502646 242287 241400 233301 231214 221177 365706 474435 219607 186952 167539 359664 163465 203443 252180 152826 104734 85783 81781.7 73218.5 73033.4 91348.5 61131.5 56661.6 50634 42226.5 37810.6 50171.6 68808.7 193938 34171.8 26537.2 32132.5 21793.4 19134.2 30487.7 14042.1 10365.2 9008.15 6372.73 6214.99 5627.67 5529.01 5040.16 2851.68 1880.69 1105.63 1099.43 849.014 476.117
threshold=458.211618825823 370.00000000000006 139.50000000000003 730.50000000000011 332.55905117021217 7001.5000000000009 53.500000000000007 1.0000000180025095e-35 7579.5000000000009 2004.5000000000002 124.04752451030988 12435.500000000002 13517.500000000002 99.500000000000014 382.81416412864019 1.0000000180025095e-35 3.7627978910103956 13.500000000000002 18767.500000000004 1.0000000180025095e-35 0.015929693944940201 79.500000000000014 1.5000000000000002 13.500000000000002 10772.500000000002 6851.5000000000009 113.50000000000001 0.027259024235546252 17820.005000000001 142.56259541844398 90.500000000000014 6611.5000000000009 271.11567736694241 1095.5000000000002 7049.5000000000009 2020.0000000000002 1882.5000000000002 128.50000000000003 10.500000000000002 2189.5000000000005 37.500000000000007 115.87034468945234 82.19441412072841 99.500000000000014 0.014290446959252051 0.017150021838248552 1.5000000000000002 50.931312867882532 53.484682051784688 0.015218789470531501 7289.5000000000009 15283.000000000002 7305.5000000000009 1996.5000000000002 1.0000000180025095e-35 1.0000000180025095e-35 9821.5000000000018 2012.5000000000002 2.5000000000000004 3.5000000000000004 7154.5000000000009 52.500000000000007 73.717938109614366 76.723816967162136 6516.5000000000009 29007.495000000006 7843.5000000000009 1.0000000180025095e-35 1.0000000180025095e-35 34.500000000000007 7734.5000000000009 6.5000000000000009 1093.5000000000002 17.655164667118658 53.500000000000007 9.5000000000000018 10.438562509899727 18.728796234460599 6066.5000000000009 2004.5000000000002 0.021708708381251152 53.500000000000007 17601.820000000003 1707.0000000000002 21930.465000000004 39.500000000000007 2012.5000000000002 42.169806830889755 1.1822470874539943 42.169806830889755 52.500000000000007 0.020260153768154755 8116.0000000000009 0.025336953458312651 35.262762354612612 20.672072487096262 18850.500000000004 7761.5000000000009
decision_type=2 2 2 2 2 2 2 2 2 2 2 2 2 2 2 2 2 2 2 2 2 2 2 2 2 2 2 2 2 2 2 2 2 2 2 2 2 2 2 2 2 2 2 2 2 2 2 2 2 2 2 2 2 2 2 2 2 2 2 2 2 2 2 2 2 2 2 2 2 2 2 2 2 2 2 2 2 2 2 2 2 2 2 2 2 2 2 2 2 2 2 2 2 2 2 2 2 2
left_child=1 4 3 5 7 -2 9 19 -9 -7 15 27 -13 23 -15 47 -17 39 30 24 36 34 -23 -6 25 26 31 32 52 -26 67 -1 35 -34 -22 56 50 -38 -14 60 -33 42 43 70 66 -46 -44 53 -49 -42 -21 -47 -29 65 78 -56 68 58 71 -60 81 62 64 -59 -62 74 -43 -19 91 -70 -27 -50 -63 -57 75 82 97 -78 -55 80 -73 84 88 -84 89 -86 92 -83 -3 -18 -74 -12 -76 -69 -94 -80 -81 -77
right_child=2 10 -4 -5 13 6 -8 8 -10 -11 11 12 38 14 -16 16 17 18 -20 20 21 22 -24 -25 29 41 -28 28 -30 -31 -32 40 33 -35 -36 -37 37 -39 -40 -41 49 44 46 -45 45 51 -48 48 57 -51 -52 -53 -54 54 55 73 -58 63 59 -61 61 72 -64 -65 -66 -67 -68 93 69 -71 -72 79 90 -75 86 76 77 -79 95 96 -82 87 83 -85 85 -87 -88 -89 -90 -91 -92 -93 94 -95 -96 -97 -98 -99
leaf_value=1.6410336114423063 2.1569815597029964 -2.3548224102991151 23.116719911369056 16.061017771908844 0.55275909950715207 16.718061278270032 2.9382513780168575 0.24693543974596685 12.712386493008712 7.4179740487206214 -2.5738848712458968 11.018414853481845 0.59098008151634707 14.255311400234309 3.3891205973918499 6.5553418682651667 -2.510428714412797 -1.848622582549446 7.9133349801721939 -0.99776196704578535 1.4056484323019036 10.067414909163151 1.0045088400761288 5.8256549360317971 -0.8590530007045708 -2.4504304348202242 4.0591172700997156 -2.6560846256776136 3.9402385095690486 2.8205114711443513 0.64712561944952141 0.36005545088274826 -1.8210926947751875 2.6902111987827197 -1.9347487466463551 -0.37208357595696279 1.4433959573525157 -1.691589166634117 -2.3408069335343846 -0.21467665255697155 -2.6581891588584647 -2.7271356469099088 -0.29803520917427828 -0.17835500873655846 0.1498201874182295 -1.0169092031315194 1.5279983178677663 -0.5328886023922863 -2.0245300203438483 -1.1496846667802669 -2.6469710985496415 -2.4465073205216483 -1.1200833477201828 -2.1016168635203223 -0.57127512238621636 -1.9118794333093898 -1.1486329277647778 -0.76497355854094795 -1.053487771118254 -2.6916399591201818 -2.2055112717397805 -1.9531944051814767 -0.95881746581903626 -2.0500236556693365 -1.4322869702449894 -1.7883149568529031 -1.8876412974914554 -2.5121086895782945 -2.6984799384459355 -1.767741060075938 -1.6280481440221597 -2.2553347810878561 -2.4680575036005212 -2.6257268700571466 -2.4214117214407316 -2.5769496617521592 -1.5762111299398576 -2.3651860568601322 -2.5562146310702447 -2.65245373383781 -2.6920187367168942 -2.3721769072165446 -2.2483381621096425 -2.5715473248154121 -2.5368825678758866 -2.1675158186155872 -2.3316846066926473 -2.076167942779291 -2.5362439456076795 -2.706816389805383 -2.6961319369920069 -2.8090346274088902 -2.5649270159789337 -2.6973609162126624 -2.6566202139365882 -2.6910839195889684 -2.7935845429071855 -2.4725218094177492
leaf_weight=92 161 136 116 166 92 103 97 175 95 112 180 92 94 93 91 95 187 114 153 91 91 131 135 93 92 114 125 96 138 149 91 98 152 95 99 169 134 94 109 114 119 141 96 95 91 125 94 121 166 117 107 128 125 92 178 94 94 94 171 131 390 91 166 113 130 121 120 91 91 166 91 279 124 93 91 244 236 646 113 97 146 92 477 255 91 92 110 91 1104 195 159 92 754 97 172 154 120 109
leaf_count=92 161 136 116 166 92 103 97 175 95 112 180 92 94 93 91 95 187 114 153 91 91 131 135 93 92 114 125 96 138 149 91 98 152 95 99 169 134 94 109 114 119 141 96 95 91 125 94 121 166 117 107 128 125 92 178 94 94 94 171 131 390 91 166 113 130 121 120 91 91 166 91 279 124 93 91 244 236 646 113 97 146 92 477 255 91 92 110 91 1104 195 159 92 754 97 172 154 120 109
internal_value=-0.399456 -1.01811 11.3024 9.15747 1.09912 6.73443 9.09616 0.499699 4.63333 11.8739 -1.68174 -0.289734 2.75966 6.03556 8.88187 -1.93844 -1.08743 -1.38167 1.04106 0.0965959 1.19171 3.05027 5.46823 3.20405 -0.415211 -0.683309 0.440676 -0.933281 0.413757 1.41541 -1.63412 -0.620815 -1.39882 -0.0855314 -0.334297 -1.80826 -0.79748 0.150421 -0.98269 -2.06997 -1.24417 -1.249 -0.672743 -1.48222 -1.71553 -1.24021 0.604793 -2.26805 -1.98376 -1.91079 -1.88956 -1.74062 -1.7878 -2.34697 -1.96516 -1.44059 -2.19767 -2.11697 -2.23808 -1.76444 -2.18689 -1.99861 -1.75762 -1.467 -2.01242 -2.409 -2.34158 -2.32188 -2.38387 -2.09773 -2.08591 -2.41498 -2.44033 -2.26748 -2.4263 -2.3846 -2.266 -2.1542 -2.49818 -2.51576 -2.40561 -2.45357 -2.45882 -2.36108 -2.52721 -2.35179 -2.54486 -2.22558 -2.51643 -2.61097 -2.59659 -2.65382 -2.56781 -2.60827 -2.58208 -2.63442 -2.731 -2.54502
internal_weight=15036 14281 755 639 3408 473 312 3039 270 215 10873 1693 295 369 184 9180 2563 2468 546 2769 882 456 266 185 1887 1646 551 1398 359 241 393 426 1039 247 190 792 426 228 203 1922 334 1095 490 300 605 344 190 6617 1438 236 198 253 221 5179 724 365 623 1317 1110 302 1808 1060 686 207 520 4455 261 302 529 257 205 808 374 187 4334 3207 1235 882 359 642 425 748 1972 732 565 183 1127 183 1240 382 283 272 1017 188 926 267 217 353
internal_count=15036 14281 755 639 3408 473 312 3039 270 215 10873 1693 295 369 184 9180 2563 2468 546 2769 882 456 266 185 1887 1646 551 1398 359 241 393 426 1039 247 190 792 426 228 203 1922 334 1095 490 300 605 344 190 6617 1438 236 198 253 221 5179 724 365 623 1317 1110 302 1808 1060 686 207 520 4455 261 302 529 257 205 808 374 187 4334 3207 1235 882 359 642 425 748 1972 732 565 183 1127 183 1240 382 283 272 1017 188 926 267 217 353
is_linear=0
shrinkage=0.0235024


Tree=9
num_leaves=108
num_cat=0
split_feature=5 15 17 16 5 21 16 5 27 25 19 11 17 3 19 3 11 25 16 25 27 4 21 5 5 27 25 0 17 3 19 25 27 27 25 4 0 9 28 1 21 0 0 17 27 25 11 19 19 14 25 25 16 19 1 11 19 16 28 28 12 3 0 12 19 17 25 0 0 12 27 19 17 11 9 27 11 19 11 9 25 25 1 3 0 0 25 27 5 19 11 19 3 17 17 19 25 19 11 11 28 11 11 19 25 23 25
split_gain=5.6523e+07 2.53644e+07 2.48206e+07 1.21164e+07 1.02169e+07 1.10829e+07 8.78239e+07 2.82522e+07 1.2042e+07 9.26152e+06 6.25301e+06 1.1935e+07 1.03026e+07 5.98582e+06 9.67572e+06 1.49529e+07 5.09541e+06 1.26811e+07 5.00102e+06 5.764e+06 3.48411e+06 3.2474e+06 2.83192e+06 2.35709e+06 4.47732e+06 2.31928e+06 4.24599e+06 2.19007e+06 1.94675e+06 7.24522e+06 1.79017e+06 1.65458e+06 1.6663e+06 1.407e+06 1.31364e+06 1.37806e+06 1.17081e+06 881586 2.35449e+06 3.9866e+06 992109 799084 1.26864e+06 678208 444390 350580 347644 307475 286306 259953 253996 237333 216873 241591 223406 212653 370280 454870 876331 169131 281333 166315 159314 156421 200307 346856 148819 148749 125574 142963 122811 111975 93253.4 89643.8 68098.4 151894 62093.6 238484 192567 59187.5 39625.9 88925.9 36505.3 31947.6 31878.1 31175.5 26492.9 17347 17209.4 20884.5 17354 15213.2 12765.6 10105.7 17347.5 9346.57 5400.46 5193.71 5650.31 17676.5 5173.4 4184.47 22202.6 3648.98 2415.37 1500.56 665.252
threshold=370.00000000000006 1.0000000180025095e-35 0.10003335557038028 1.0000000180025095e-35 761.50000000000011 1.5000000000000002 1.0000000180025095e-35 730.50000000000011 11.500000000000002 1304.5000000000002 0.014362742851973353 14452.170000000002 0.097334366858299423 12.500000000000002 0.016405935366723703 15.500000000000002 21051.725000000002 1269.5000000000002 1.0000000180025095e-35 1335.5000000000002 10.500000000000002 1.0000000180025095e-35 2.5000000000000004 2194.5000000000005 2191.5000000000005 13.500000000000002 990.50000000000011 36.500000000000007 0.059579980156542763 6.5000000000000009 0.016992340665992301 1498.5000000000002 19.500000000000004 38.500000000000007 1290.5000000000002 1.0000000180025095e-35 45.500000000000007 1.0000000180025095e-35 2001.5000000000002 43.500000000000007 2.5000000000000004 46.500000000000007 57.500000000000007 0.099314264243107367 31.500000000000004 1183.0000000000002 27627.500000000004 0.029844362901785052 0.010982125559517051 1.0000000180025095e-35 1205.5000000000002 1736.5000000000002 1.0000000180025095e-35 0.025762966228793757 35.500000000000007 17729.930000000004 0.014730131895473751 1.0000000180025095e-35 2008.5000000000002 2003.5000000000002 1.5000000000000002 15.500000000000002 48.500000000000007 1.5000000000000002 0.025537773066427401 0.07977203351302202 1245.5000000000002 50.500000000000007 37.500000000000007 1.5000000000000002 33.500000000000007 0.018910879473742204 0.087553902244924361 14851.000000000002 1.0000000180025095e-35 11.500000000000002 21545.640000000003 0.013759546545408551 24237.505000000001 1.0000000180025095e-35 1430.5000000000002 1385.5000000000002 39.500000000000007 11.500000000000002 55.500000000000007 75.500000000000014 1185.5000000000002 21.500000000000004 2931.5000000000005 0.027012251127493603 13761.590000000002 0.018910879473742204 14.500000000000002 0.092605488496853364 0.071451777592128465 0.013364176537653703 1410.5000000000002 0.021847225564115103 24872.500000000004 20650.005000000001 2006.5000000000002 17820.005000000001 16821.000000000004 0.023677363501978601 1600.5000000000002 4.5000000000000009 832.50000000000011
decision_type=2 2 2 2 2 2 2 2 2 2 2 2 2 2 2 2 2 2 2 2 2 2 2 2 2 2 2 2 2 2 2 2 2 2 2 2 2 2 2 2 2 2 2 2 2 2 2 2 2 2 2 2 2 2 2 2 2 2 2 2 2 2 2 2 2 2 2 2 2 2 2 2 2 2 2 2 2 2 2 2 2 2 2 2 2 2 2 2 2 2 2 2 2 2 2 2 2 2 2 2 2 2 2 2 2 2 2
left_child=1 3 18 10 5 16 7 -7 -8 -5 31 25 13 20 -15 -16 63 -18 19 21 -13 -3 -20 24 28 26 -12 -19 29 -6 -22 34 -33 51 35 45 -37 40 39 -39 55 66 -43 48 -34 -1 52 59 -29 62 -32 83 53 54 -40 86 80 58 -58 60 92 68 -27 74 72 -66 -42 -50 -36 -70 -64 -62 79 -54 75 -2 85 96 -79 -65 81 -57 -59 -31 105 88 93 -76 89 90 -25 -75 -10 94 -30 -90 -78 98 99 -61 -92 102 -97 -85 -82 -77 -95
right_child=4 2 -4 9 23 6 8 -9 47 -11 11 12 -14 14 15 -17 17 27 22 -21 30 -23 -24 76 -26 49 -28 43 37 33 50 32 44 -35 61 36 -38 38 46 -41 41 42 -44 -45 -46 -47 -48 -49 67 -51 -52 -53 73 -55 -56 56 57 82 -60 97 71 -63 70 64 65 -67 -68 -69 69 -71 -72 -73 -74 91 87 84 77 78 -80 -81 104 -83 -84 103 -86 -87 -88 -89 95 -91 100 -93 -94 106 -96 101 -98 -99 -100 -101 -102 -103 -104 -105 -106 -107 -108
leaf_value=-2.1674122336955728 -1.421193978156964 7.1802157919194647 16.657342192398836 2.5375852523230011 5.6884190127078025 7.611695736789942 4.9732030481277008 24.217598761051722 -2.2212328155872512 12.197445885236824 -1.441374167434202 4.3369099046023951 9.7592344527400421 -0.52044153177127961 13.433846485174115 2.333166876725385 8.4994047753584638 1.9687355535687336 -0.49303023578751465 10.850141179987576 1.8110992423330903 1.372181091101367 4.329521349690582 -2.1521614123672577 3.5264933221707255 -2.1992114480494269 5.3527720153207259 -2.656531818508487 -2.5275259666896721 -2.0467326187578148 -0.99683795675349141 3.235561438955076 0.82149994892751554 0.69594973495496693 -0.91485236091265287 -0.35660554722313298 3.1232290894910983 2.9145087600460227 -1.0680325313389092 -2.1167169586552355 -2.8076568174459764 1.477993561681489 -1.8069127178261546 0.34488632234458294 -1.378130056385598 -0.32523712850651681 -0.57789756628593592 -1.1263010172266494 -0.86121990445609442 -0.33282096089479413 -2.5946346231729698 -1.0085879494745007 -1.7237586072509259 -0.71976507311354443 -2.2023668812341621 -2.3594752803299386 0.47457972567421219 -1.9590805536741924 -2.010247917945156 -2.5526970967422944 -1.75338343367896 -2.6223067192139302 -0.71116696455145201 -2.5807774513805666 -0.36787630629800827 -2.2696182892569872 -1.4670573531254252 -1.9056925113436651 -2.4093728994707972 -1.3379197901883932 -1.7385321551164392 -0.58821648453749742 -1.6370056775848718 -2.36525599826517 -2.8767233823225831 -2.5117795520480302 -2.3575809213897672 -0.77786369115179876 -2.1756371197157973 -1.9275939559472404 -2.4875142821459026 -1.5310487778414583 -2.5888711751665205 -2.6405012780161243 -2.1630834283732412 -1.9797639793206805 -2.093953262223418 -2.4475726002744032 -2.237295244323533 -2.0724564431407555 -2.5683558334415788 -2.6984810325777255 -2.5812998775704799 -2.5159242371025292 -2.294075195003991 -2.5114765096372631 -2.58200677232669 -2.6768693975602429 -2.6147485125467438 -2.132903127550136 -2.3519126734134188 -2.6004532581020823 -2.1252257529830523 -2.4134290980087387 -2.6723888676982157 -2.6725239222817927 -2.6395716539334386
leaf_weight=124 108 99 105 138 94 134 155 98 114 91 115 103 123 140 117 157 91 125 136 102 112 115 133 120 98 168 91 158 308 121 105 115 99 137 111 112 102 176 136 172 92 134 126 94 104 106 120 172 141 106 116 94 110 129 329 337 140 91 178 163 92 110 119 215 113 100 92 163 133 144 141 91 150 198 132 93 101 104 115 122 122 92 122 109 158 95 153 95 93 151 207 136 120 151 466 811 230 103 120 91 112 209 96 92 102 130 102
leaf_count=124 108 99 105 138 94 134 155 98 114 91 115 103 123 140 117 157 91 125 136 102 112 115 133 120 98 168 91 158 308 121 105 115 99 137 111 112 102 176 136 172 92 134 126 94 104 106 120 172 141 106 116 94 110 129 329 337 140 91 178 163 92 110 119 215 113 100 92 163 133 144 141 91 150 198 132 93 101 104 115 122 122 92 122 109 158 95 153 95 93 151 207 136 120 151 466 811 230 103 120 91 112 209 96 92 102 130 102
internal_value=-0.390075 2.04825 6.13548 1.16746 -1.24166 -0.220079 1.37107 14.6267 -1.14753 6.3767 0.766171 1.6906 3.40144 2.4813 4.50533 7.07364 -1.27677 0.259139 4.24675 6.25182 0.55915 4.05959 1.89095 -1.73739 -1.4478 -0.558775 1.55939 -0.841822 -1.54608 -0.343687 -0.609016 -0.490524 0.975134 -1.36923 -0.985417 -0.0556632 1.30149 -1.72639 -1.26742 0.427496 -1.97251 -0.95271 -0.1135 -1.47389 -0.304863 -1.31889 -1.77687 -2.03761 -1.84418 -1.3761 -1.836 -2.04962 -1.91537 -1.62104 -1.87084 -2.164 -1.94097 -1.47949 -0.915953 -2.21281 -1.86605 -1.81413 -1.63423 -2.11422 -1.86365 -1.26123 -2.13795 -1.42161 -1.58473 -1.85277 -1.26874 -1.17458 -2.12691 -2.30889 -2.35904 -2.20165 -2.33679 -2.11528 -1.51236 -2.34464 -2.31606 -2.18207 -2.32032 -2.35318 -2.4226 -2.40106 -2.38769 -2.69761 -2.42325 -2.31626 -2.39987 -2.50127 -2.40635 -2.43134 -2.38711 -2.47537 -2.51386 -2.51572 -2.47105 -2.40273 -2.49271 -2.49511 -2.47072 -2.53711 -2.57219 -2.60598 -2.56621
internal_weight=15036 3892 690 3202 11144 3641 1453 232 1221 229 2973 1713 973 850 414 274 2188 772 585 316 436 214 269 7503 5059 740 206 681 4961 647 333 1260 318 553 942 444 214 4314 1506 348 2808 444 260 556 203 230 1158 1066 462 534 221 416 1038 594 465 2364 1184 531 318 894 417 498 428 1416 700 213 184 304 388 277 260 183 487 444 716 489 2444 550 219 337 653 429 213 322 381 1894 1180 227 1799 590 439 334 234 1027 774 1209 331 477 374 254 319 1116 907 201 224 223 253
internal_count=15036 3892 690 3202 11144 3641 1453 232 1221 229 2973 1713 973 850 414 274 2188 772 585 316 436 214 269 7503 5059 740 206 681 4961 647 333 1260 318 553 942 444 214 4314 1506 348 2808 444 260 556 203 230 1158 1066 462 534 221 416 1038 594 465 2364 1184 531 318 894 417 498 428 1416 700 213 184 304 388 277 260 183 487 444 716 489 2444 550 219 337 653 429 213 322 381 1894 1180 227 1799 590 439 334 234 1027 774 1209 331 477 374 254 319 1116 907 201 224 223 253
is_linear=0
shrinkage=0.0235024


Tree=10
num_leaves=92
num_cat=0
split_feature=31 18 31 19 8 16 6 6 7 31 0 8 31 17 18 25 14 8 8 18 28 8 31 2 17 31 1 19 31 8 5 25 2 25 6 4 25 31 28 7 6 25 9 6 6 31 19 19 0 1 1 19 5 2 2 0 8 18 2 17 31 19 17 2 9 7 18 6 16 25 19 7 5 2 18 25 18 1 8 8 28 31 31 0 0 25 28 18 31 7 12
split_gain=4.29504e+08 4.24384e+08 5.60096e+07 5.02328e+07 3.37999e+07 8.25971e+07 1.98339e+08 1.68569e+07 1.53219e+07 1.30601e+07 1.1563e+07 3.13631e+07 1.14919e+07 1.34712e+07 1.11079e+07 6.07174e+06 7.46902e+06 1.21574e+07 4.9765e+06 4.85864e+06 4.65104e+06 4.63962e+06 3.14949e+06 1.34176e+07 2.61476e+06 2.18004e+06 2.00088e+06 1.76258e+06 1.47699e+06 1.89529e+06 1.26074e+06 1.53544e+06 1.21006e+06 2.48076e+06 1.01079e+06 1.02869e+06 1.74853e+06 760788 557708 528332 469641 511828 327695 309524 1.11476e+06 280562 298287 255880 245215 434362 203179 196267 267609 194422 304519 333946 192992 178540 175773 166098 859377 155419 139182 216343 251880 125119 114817 94791.1 49295 71516.9 159988 50244.1 94807.2 47384 40316.8 33014.4 32577.9 23674.2 30191.9 22986 31898.6 19910.3 87419.3 16568.3 12689 10258.8 7996.79 5033.66 2204.2 1345.45 743.324
threshold=0.36267688132124987 242.61500000000004 0.09160132132341435 0.027012251127493603 3891.5000000000005 1.0000000180025095e-35 1.8750000000000002 2.2250000000000005 1897.0000000000002 0.24780044885022781 30.500000000000004 2716.5000000000005 0.24780044885022781 0.095020890761255861 375.68000000000006 1205.5000000000002 1.0000000180025095e-35 11809.500000000002 11413.500000000002 466.99000000000007 2009.5000000000002 9688.5000000000018 0.080613280507965582 6696.5000000000009 0.076904934687953522 0.065730408863179532 38.500000000000007 0.016992340665992301 0.18221415299817958 13611.500000000002 627.00000000000011 1204.5000000000002 6807.5000000000009 1035.5000000000002 3.0749999999999997 1.0000000180025095e-35 1474.5000000000002 0.056774517506899609 2015.5000000000002 1390.5000000000002 1.8750000000000002 1259.5000000000002 1.0000000180025095e-35 2.6250000000000004 2.9750000000000005 0.11269614181236105 0.021573632756671953 0.016176670014923702 42.500000000000007 57.500000000000007 32.500000000000007 0.015687225069169003 2190.5000000000005 9122.5000000000018 7366.5000000000009 46.500000000000007 3946.5000000000005 260.90500000000003 7032.5000000000009 0.051459931798806459 0.036569049887306852 0.014210738423308751 0.074729185405341972 7301.5000000000009 1.0000000180025095e-35 1994.5000000000002 276.01500000000004 3.7250000000000005 1.0000000180025095e-35 1474.5000000000002 0.011646942258119903 135.50000000000003 1095.5000000000002 7055.5000000000009 337.58500000000004 1319.5000000000002 584.95000000000016 47.500000000000007 7600.5000000000009 12435.500000000002 2010.5000000000002 0.039215911026260639 0.035808871782554645 57.500000000000007 73.500000000000014 1355.5000000000002 2001.5000000000002 312.75500000000005 0.037979788026105847 1538.5000000000002 2.5000000000000004
decision_type=2 2 2 2 2 2 2 2 2 2 2 2 2 2 2 2 2 2 2 2 2 2 2 2 2 2 2 2 2 2 2 2 2 2 2 2 2 2 2 2 2 2 2 2 2 2 2 2 2 2 2 2 2 2 2 2 2 2 2 2 2 2 2 2 2 2 2 2 2 2 2 2 2 2 2 2 2 2 2 2 2 2 2 2 2 2 2 2 2 2 2
left_child=2 -2 10 7 5 9 -7 8 -3 19 11 25 15 18 -11 16 20 24 26 30 32 -22 37 -24 -18 74 -14 -9 45 34 31 39 33 -6 35 -30 -37 59 43 -4 41 -25 -28 56 -45 61 47 48 57 -50 -32 52 -46 54 58 -56 -39 -47 -34 60 90 65 63 -58 -65 -17 -55 -53 69 71 -71 72 -61 -42 -1 -63 81 78 -64 80 -73 82 84 -69 -70 -75 -83 -79 -81 -88 -12
right_child=1 3 4 -5 12 6 -8 27 -10 14 22 -13 13 -15 -16 28 17 -19 -20 -21 21 -23 23 40 -26 -27 42 -29 29 -31 50 -33 53 -35 -36 36 -38 38 -40 -41 73 -43 -44 44 51 46 -48 -49 49 -51 -52 67 -54 66 55 -57 62 -59 -60 68 -62 75 77 64 -66 -67 -68 83 76 70 -72 79 -74 85 -76 -77 -78 87 -80 88 -82 86 -84 -85 -86 -87 89 -89 -90 -91 -92
leaf_value=-2.0382901557358606 65.63741662025339 16.562100244393967 -0.012332030994959439 26.390516422772194 -2.234420488732566 41.70124203205436 -0.37485242342321839 0.96786129291643674 5.3844052333206145 1.8411252296813407 -2.4755798377843874 13.568697418434152 2.6291488751365164 10.724119128738367 12.919480902104102 -2.2101847881552006 3.4612114835693686 9.2740237448962226 5.5404114294022566 3.9934437931305027 5.9790653904173388 -0.87457711379096637 7.8909771968621047 -2.0368255693729571 -1.5601536576268376 1.7781529561639977 -1.9878248694256999 5.2354242687191999 -1.6962617313895263 2.8485741897748214 -2.4903379927487239 1.9177792009110646 -1.1016482928652029 2.9844477186809413 -2.3336672607891984 -0.76323373301862296 3.2276362299279153 -1.4079717500085913 -0.21805531591016145 -2.3023608159726012 -1.940513227468504 0.077654482542154402 -0.28597084630252151 0.84311945691091383 -0.45748480458919666 -1.3382054210598888 -0.25140581605556195 -2.3990893525208579 -2.094831280073334 -0.66554490440063618 -1.1493328376071803 -1.5944861275725379 -2.1759586540524225 -2.5432502696668471 0.43238419062073696 -1.4461453236771578 -2.6045483131041776 0.13303553517540737 -2.4269910443713476 -1.5144496978493656 0.15149505185613954 -2.1463921715513461 -2.5753220972703832 -0.57620846217555544 -2.2186537481044626 -0.98466006000870543 -1.4776263634894762 -2.5798863614238354 -2.4364181435601706 -2.4201506738529055 -1.1406859002159535 -2.3436943615575778 -2.4588743566747868 -2.4481157892776988 -2.6084456749380758 -2.7176974449396125 -1.9647959977181271 -2.5818509724463965 -2.034314336178308 -2.4283782333885311 -2.0815756950641746 -2.7178613559421714 -1.7326836231120808 -2.1808307770339068 -2.1513360296965924 -2.7808698832417367 -2.4030341902861068 -2.8220960851118626 -2.5471332862913605 -2.5401420176035372 -2.3618109609116171
leaf_weight=123 91 161 115 99 92 103 155 108 117 111 194 98 131 106 91 92 96 136 130 147 120 100 91 136 142 93 99 106 149 93 165 156 110 111 163 159 98 173 122 108 91 118 170 98 105 91 113 156 343 179 101 105 96 114 103 106 148 91 112 122 92 93 154 100 107 93 111 166 2137 123 97 1382 115 145 163 151 92 114 95 317 326 147 107 96 97 92 104 120 206 202 117
leaf_count=123 91 161 115 99 92 103 155 108 117 111 194 98 131 106 91 92 96 136 130 147 120 100 91 136 142 93 99 106 149 93 165 156 110 111 163 159 98 173 122 108 91 118 170 98 105 91 113 156 343 179 101 105 96 114 103 106 148 91 112 122 92 93 154 100 107 93 111 166 2137 123 97 1382 115 145 163 151 92 114 95 317 326 147 107 96 97 92 104 120 206 202 117
internal_value=0.167744 18.3903 -0.699443 11.1152 1.18869 4.57364 16.4225 8.04123 11.8582 1.49806 -1.84279 1.7172 0.168211 3.0755 6.83241 -0.3575 0.806327 3.66845 1.54557 0.137398 -0.185634 2.86327 -2.04378 -0.501158 0.46481 -1.34701 0.246973 3.08221 -1.17686 -0.261721 -0.741252 0.128973 -0.966623 0.618706 -0.770275 -0.142337 0.75815 -2.17728 -1.75329 -1.1219 -1.81352 -1.05408 -0.912712 -1.86492 -1.47098 -1.60889 -1.3878 -1.53699 -1.3458 -1.60492 -1.98157 -1.87044 -1.27879 -1.45737 -1.16443 -0.519838 -2.12431 -0.601982 -1.77078 -2.30488 -1.84282 -2.11008 -2.27207 -1.91749 -1.42573 -1.5947 -2.01803 -2.19417 -2.33827 -2.26515 -1.85652 -2.30153 -1.97318 -2.40129 -2.36362 -2.5004 -2.40633 -2.53245 -2.36935 -2.33636 -2.29373 -2.42083 -2.39253 -2.43409 -2.42409 -2.57775 -2.56682 -2.70552 -2.47536 -2.4939 -2.43313
internal_weight=15013 682 14331 591 5405 1252 258 492 278 994 8926 477 4153 636 202 3517 1453 374 530 792 1079 220 8449 673 238 379 400 214 2064 662 645 379 859 203 569 406 257 7776 1799 223 582 254 269 1677 666 1402 973 860 704 522 266 568 201 656 431 209 1011 182 222 5977 403 429 838 355 207 185 225 367 5574 2688 220 2468 237 328 286 244 2886 483 249 2231 1708 2794 2341 262 2234 237 453 234 523 306 311
internal_count=15013 682 14331 591 5405 1252 258 492 278 994 8926 477 4153 636 202 3517 1453 374 530 792 1079 220 8449 673 238 379 400 214 2064 662 645 379 859 203 569 406 257 7776 1799 223 582 254 269 1677 666 1402 973 860 704 522 266 568 201 656 431 209 1011 182 222 5977 403 429 838 355 207 185 225 367 5574 2688 220 2468 237 328 286 244 2886 483 249 2231 1708 2794 2341 262 2234 237 453 234 523 306 311
is_linear=0
shrinkage=0.0235024


Tree=11
num_leaves=73
num_cat=0
split_feature=31 18 30 19 0 31 6 26 17 6 28 31 6 6 18 0 14 30 0 9 11 28 30 15 18 11 31 2 11 28 0 17 0 28 30 2 2 6 18 28 6 31 17 2 11 18 30 18 30 25 30 18 18 30 30 28 31 31 0 17 31 30 18 11 28 30 25 28 30 30 19 30
split_gain=4.09553e+08 4.0467e+08 6.10045e+07 4.78991e+07 4.77207e+07 2.93115e+07 1.60738e+07 1.78958e+07 1.53471e+07 1.07337e+07 3.40536e+07 9.11796e+06 9.89494e+06 7.16647e+06 6.95688e+06 1.83514e+07 1.0895e+07 3.65898e+07 5.94624e+06 2.03369e+07 4.01409e+06 3.83249e+06 3.6399e+06 3.57286e+06 5.08176e+06 2.51837e+06 1.88134e+06 3.117e+06 1.26153e+06 998545 965329 2.30577e+06 956287 853060 715103 633659 630707 596969 637587 538037 380057 338339 778224 284906 190520 170470 156181 197028 385970 132371 364429 130052 105246 85623.6 80874.6 52081.9 30524.7 22001.5 61075.2 50149.9 15661.3 40729.9 11686.5 12444.1 21972.3 46089.3 21165.9 2086.33 2010.81 5445.77 98.766 48.8416
threshold=0.36267688132124987 242.61500000000004 332.55905117021217 0.027012251127493603 30.500000000000004 0.072976210398274927 2.2250000000000005 2.5000000000000004 0.084421675885090516 2.2250000000000005 1996.5000000000002 0.20831344902282375 2.3250000000000006 2.1250000000000004 443.64000000000004 42.500000000000007 1.0000000180025095e-35 88.241986649133025 30.500000000000004 1.0000000180025095e-35 18120.255000000001 2014.5000000000002 125.79653741467202 1.0000000180025095e-35 303.37500000000006 20530.035000000003 0.24780044885022781 7601.5000000000009 18655.000000000004 2004.5000000000002 46.500000000000007 0.09465406258075211 53.500000000000007 2004.5000000000002 111.86931816853358 7712.5000000000009 6623.5000000000009 1.2750000000000001 211.40000000000001 2016.5000000000002 7.2750000000000012 0.04498124266211357 0.051459931798806459 12299.500000000002 25205.000000000004 390.71500000000009 63.955126469276223 337.58500000000004 90.085813921197001 1428.5000000000002 27.755233299787822 486.13500000000005 244.92500000000004 140.17386875444296 37.321309240706263 2010.5000000000002 0.067494045668686484 0.035104931517293873 40.500000000000007 0.077901881750866112 0.039215911026260639 37.950314518963232 332.25000000000006 11885.015000000001 2010.5000000000002 27.264386368541881 1025.5000000000002 2006.5000000000002 11.918427387364469 8.7194252234189786 0.016486085145241452 50.070392274563993
decision_type=2 2 2 2 2 2 2 2 2 2 2 2 2 2 2 2 2 2 2 2 2 2 2 2 2 2 2 2 2 2 2 2 2 2 2 2 2 2 2 2 2 2 2 2 2 2 2 2 2 2 2 2 2 2 2 2 2 2 2 2 2 2 2 2 2 2 2 2 2 2 2 2
left_child=2 -2 5 6 8 18 7 -3 -4 10 -7 29 20 14 16 -16 22 -18 19 54 -13 26 37 28 -25 -8 30 -28 -24 -6 31 34 -17 -19 45 -36 -32 38 -12 41 43 57 -43 51 -39 52 49 48 -48 55 -51 -38 -11 -49 -1 56 -44 62 59 -59 61 70 63 68 66 -66 -65 -62 69 -20 -60 -64
right_child=1 3 4 -5 11 9 25 -9 -10 21 13 12 -14 -15 15 32 17 33 39 -21 -22 -23 23 24 -26 -27 27 -29 -30 -31 36 -33 -34 -35 35 -37 40 44 -40 -41 -42 42 46 -45 -46 -47 47 53 -50 50 -52 -53 -54 -55 -56 -57 -58 58 60 -61 67 -63 71 64 65 -67 -68 -69 -70 -71 -72 -73
leaf_value=-1.8476404330973817 64.094776573985854 6.8615948809958054 9.4372995368115156 25.770275251991723 -2.8978293862363977 14.379747174628887 5.8906200406546967 19.118370368771032 23.089793620966454 -1.4364066725003901 -2.4413076270691945 5.7753993707303533 10.341928698604342 5.3022329364072061 8.9130681593108463 0.49059267244952909 16.422668391112882 -1.869561965458937 -2.3794767812181803 10.395659032474516 -0.3213425191476672 2.5574536209482548 -1.3425527345078425 7.2366262684855567 -0.25473221369744764 0.75221850848538474 -1.6089114093957042 3.3867735381117856 0.48298472757883942 0.25589027910190892 -0.041659280757859983 1.7034113412520113 -2.4977763307467007 0.67428391978807678 -1.2960937005384547 1.0769850036955133 -2.0847721911030979 -2.1874466065914908 -0.44586735131889649 -0.82885731432123 -0.69315734163133891 -0.15914884586390171 -2.4030259484886778 -0.9726347621679432 -1.1087833924381645 -1.0054490456737346 -0.41526656235459619 -2.4826102636333589 -2.1322662232745717 -0.83149868082159739 -2.5337622368450483 -2.8744384248191226 -2.3605419006394621 -1.594379705412946 -2.6592811985060303 -1.9035073469319546 -2.0683858751095641 -1.4247761433639694 -2.4328450086521345 -2.2043559393913199 -2.448441629943976 -1.807270754128413 -2.4055412727573229 -2.0981502749899237 -2.3436348631306538 -1.6512219832512653 -2.340291902634255 -2.3145733893210974 -2.4085068687469384 -2.1701510834845914 -2.3227819049563125 -2.4649341628454335
leaf_weight=123 91 171 91 99 107 103 94 107 91 91 118 99 119 173 178 113 93 135 353 93 150 164 389 91 111 120 151 127 452 115 107 168 124 158 159 102 862 601 354 162 125 125 936 119 107 93 140 181 150 133 146 134 279 91 155 171 186 91 100 94 265 110 496 241 129 93 1521 145 720 104 91 233
leaf_count=123 91 171 91 99 107 103 94 107 91 91 118 99 119 173 178 113 93 135 353 93 150 164 389 91 111 120 151 127 452 115 107 168 124 158 159 102 862 601 354 162 125 125 936 119 107 93 140 181 150 133 146 134 279 91 155 171 186 91 100 94 265 110 496 241 129 93 1521 145 720 104 91 233
internal_value=0.163796 17.9581 -0.683012 10.8539 5.74326 -1.04891 7.85226 11.5795 16.2641 0.181085 1.07851 2.49765 4.76699 0.649943 0.383754 3.21021 -0.0657946 3.5789 -2.01971 0.881748 2.10222 -0.923502 -0.698705 0.312756 3.11954 3.00979 -1.15035 0.672895 -0.361277 -1.26365 -1.37678 -0.776877 -1.07248 -0.497421 -1.35256 -0.368263 -1.77397 -1.59283 -0.94496 -2.16908 -1.92336 -2.19988 -1.96249 -2.06118 -2.02458 -1.90719 -2.06807 -1.73087 -1.30375 -2.18856 -1.72268 -2.19112 -2.13355 -2.18585 -2.30057 -2.289 -2.34765 -2.31191 -2.20472 -1.82148 -2.30429 -2.17168 -2.33657 -2.31622 -2.27896 -2.05406 -2.30723 -2.40137 -2.37893 -2.33208 -2.38098 -2.42467
internal_weight=15013 682 14331 591 772 13559 492 278 182 5981 3300 590 368 3197 3024 415 2609 386 7578 371 249 2681 2223 1043 202 214 2517 278 841 222 2239 892 237 293 724 261 1347 1180 472 7207 1240 7045 2259 1115 708 463 2134 562 290 1572 279 996 370 272 278 1293 1122 4786 896 185 711 301 3890 3161 1984 222 1762 410 1177 457 191 729
internal_count=15013 682 14331 591 772 13559 492 278 182 5981 3300 590 368 3197 3024 415 2609 386 7578 371 249 2681 2223 1043 202 214 2517 278 841 222 2239 892 237 293 724 261 1347 1180 472 7207 1240 7045 2259 1115 708 463 2134 562 290 1572 279 996 370 272 278 1293 1122 4786 896 185 711 301 3890 3161 1984 222 1762 410 1177 457 191 729
is_linear=0
shrinkage=0.0235024


Tree=12
num_leaves=108
num_cat=0
split_feature=29 6 26 29 26 1 26 15 6 28 20 26 9 26 27 29 7 27 29 25 28 29 27 11 11 11 28 1 27 29 28 27 6 26 27 7 11 14 20 24 6 25 29 29 16 6 28 24 7 28 14 6 28 29 6 1 29 11 29 25 25 25 27 10 27 10 27 7 6 7 7 15 7 1 11 6 27 1 29 11 24 26 6 29 25 29 22 7 11 29 22 7 6 25 20 1 29 11 7 28 22 22 25 6 29 7 27
split_gain=2.7719e+08 1.61591e+08 5.73759e+08 3.73776e+07 2.3998e+07 2.33306e+07 4.594e+07 1.51572e+08 1.88088e+07 1.43807e+07 9.827e+06 6.19073e+06 6.17399e+06 1.39961e+07 2.00875e+07 8.81682e+06 5.45834e+06 4.35241e+06 3.86e+06 1.48555e+07 2.67388e+06 3.64246e+06 4.62979e+06 7.13294e+06 3.19466e+06 3.29164e+06 4.43124e+06 2.7223e+06 2.39115e+06 2.06974e+06 3.37943e+06 1.7824e+06 2.97928e+06 1.33094e+06 1.25163e+06 1.24833e+06 1.15096e+06 819951 2.74902e+06 719495 529731 517212 937064 1.04738e+06 495014 552407 768262 1.35655e+06 467006 440073 401786 645388 398703 236816 478959 223131 488866 269950 197973 171464 354848 167592 166724 163491 157886 155204 149433 144949 129679 253257 353287 127905 165762 124986 122259 264924 108931 91036.8 80070.6 76954.7 63527.3 61823.1 56338.8 53849.6 45518.8 38858.3 32062 31900.1 30374.7 20834.4 18706.2 11628.6 11264.8 39747.6 10192.8 8656.67 10655.6 7870.13 6944.59 18771.8 4768.87 3874.07 3142.83 2401.42 2209.11 2039.51 1306.06
threshold=188.16890724765335 2.5250000000000008 4.5000000000000009 59.225634083772611 2.5000000000000004 32.500000000000007 2.5000000000000004 1.0000000180025095e-35 2.0250000000000004 2005.5000000000002 1.0000000180025095e-35 1.5000000000000002 1.0000000180025095e-35 2.5000000000000004 12.500000000000002 44.929633925178386 1897.0000000000002 28.500000000000004 62.317356323657265 1199.5000000000002 2000.5000000000002 118.13234314818591 37.500000000000007 30011.640000000003 20860.565000000006 14124.390000000001 2010.5000000000002 37.500000000000007 6.5000000000000009 86.583739928290058 2005.5000000000002 14.500000000000002 2.0250000000000004 2.5000000000000004 16.500000000000004 1867.5000000000002 20784.265000000003 1.0000000180025095e-35 1.0000000180025095e-35 104.50000000000001 3.0749999999999997 1220.5000000000002 83.079504834667929 115.7191456373704 1.0000000180025095e-35 2.2250000000000005 2003.5000000000002 60.500000000000007 1897.0000000000002 2001.5000000000002 1.0000000180025095e-35 2.5250000000000008 2010.5000000000002 42.52046285037239 1.2750000000000001 46.500000000000007 94.897356110197961 25984.500000000004 80.52488993659145 1165.5000000000002 1190.5000000000002 1254.5000000000002 22.500000000000004 1.0000000180025095e-35 31.500000000000004 1.0000000180025095e-35 16.500000000000004 1989.5000000000002 4.575000000000002 1919.5000000000002 1997.5000000000002 1.0000000180025095e-35 1751.0000000000002 34.500000000000007 25765.000000000004 2.7250000000000005 21.500000000000004 63.500000000000007 49.52459708936356 23802.500000000004 9.5000000000000018 3.5000000000000004 2.6250000000000004 79.227025487791124 1250.5000000000002 30.992701425728669 1.5000000000000002 1342.0000000000002 20431.050000000003 85.341930057117466 3.5000000000000004 1685.5000000000002 1.3750000000000002 1240.5000000000002 1.0000000180025095e-35 32.500000000000007 22.028325995683463 13860.005000000003 1598.5000000000002 2004.5000000000002 1.5000000000000002 1.5000000000000002 1016.5000000000001 3.7750000000000004 26.132883913223171 1596.5000000000002 15.500000000000002
decision_type=2 2 2 2 2 2 2 2 2 2 2 2 2 2 2 2 2 2 2 2 2 2 2 2 2 2 2 2 2 2 2 2 2 2 2 2 2 2 2 2 2 2 2 2 2 2 2 2 2 2 2 2 2 2 2 2 2 2 2 2 2 2 2 2 2 2 2 2 2 2 2 2 2 2 2 2 2 2 2 2 2 2 2 2 2 2 2 2 2 2 2 2 2 2 2 2 2 2 2 2 2 2 2 2 2 2 2
left_child=3 4 -3 12 11 6 7 10 -6 -4 28 36 37 14 -14 71 -13 -17 19 -7 41 24 23 27 25 62 29 -23 -5 39 -31 32 -15 61 48 -30 -2 44 63 -27 -34 58 -43 -44 45 46 47 -1 -26 85 66 -52 65 73 -55 56 57 -36 -20 82 -61 -29 -22 91 -65 -8 -33 83 69 88 -71 72 -16 104 80 -76 -75 -78 79 87 86 -64 -47 -57 -70 -49 -46 -68 -62 -69 101 -39 93 106 -86 98 -97 -89 99 -94 -98 102 -84 -103 -48 -60 -82
right_child=1 2 9 5 8 18 52 -9 -10 -11 -12 16 13 31 15 17 -18 -19 20 -21 21 22 -24 -25 34 26 -28 33 35 30 -32 50 40 -35 55 -37 -38 38 -40 -41 -42 42 43 -45 74 59 53 49 -50 -51 51 -53 -54 54 -56 67 -58 -59 105 60 68 -63 81 64 -66 -67 78 89 84 70 -72 -73 -74 76 75 -77 77 -79 -80 -81 92 -83 90 -85 94 -87 -88 97 -90 -91 -92 -93 95 -95 -96 96 100 -99 -100 -101 -102 103 -104 -105 -106 -107 -108
