tree
version=v4
num_class=1
num_tree_per_iteration=1
label_index=0
max_feature_idx=31
objective=regression
feature_names=Age Age_at_contract Age_at_license Car_Age_Contract Car_Age_Contract_Cat_Standard Contract_Duration Customer_Loyalty Cylinder_Capacity Days_Driving_At_Start_Date Half_Yearly_Payment_Method Issurance_Broker_Agent_Channel Market_Value_EOY19 Max_Policy_Simultaneous_Force Max_Product_Simultaneous_Held Multiple_Drivers_Regular_Flag Non_Continuation_Insurance_Flag Policies_Terminated_Non_Payment Power_Wt_Ratio Premium_Amt_Current_Yr Ratio_Premium_Car_Value Rural_Urban_Flag Time_Since_Last_Renewal Total_Policies_Entity Vehicle_Doors Vehicle_Power_HP Vehicle_Wt_Kg Years_Associates Years_Driving Yr_Vehicle_Registration oof_lc oof_halc oof_cs
feature_infos=[19:101] [18:91] [6575:23602] [0:68] [0:1] [32:14244] [1:15.1] [49:7480] [-3660:25943] [0:1] [0:1] [270.45999999999998:220675.79999999999] [1:17] [1:4] [0:1] [0:1] [0:7] [0:2.5172413793103448] [40.200000000000003:2116.6900000000001] [0.00082567981271379997:0.7524957479849147] [0:1] [1:4] [1:17] [0:6] [0:580] [43:7300] [1:40] [1:77] [1950:2018] [-73.106088321658859:1040.6659958950547] [-125.9461543967856:1654.8427210424436] [-0.083988235272692044:0.91735181124222931]
tree_sizes=839 883 880 880 885 873 890 887 879 886 888 889 888 890 891 890 881 887 876 887 886 888 892 893 886 889 890 892 895 883 895 895 886 887 888 888 796 891 877 890 891 892 892 896 897 892 897 892 898 892 894 897 888 891 895 790 808 888 877 891 899 894 903 888 881 882 799 887 885 886 884 797 888 893 885 899 898 891 894 900 890 881 887 888 874 875 877 880 877 891 893 882 894 896 892 898 804 895 805 802 712 625 713 631

Tree=0
num_leaves=8
num_cat=0
split_feature=31 31 31 31 31 31 18
split_gain=195.12 62.6629 21.2196 7.81784 7.42516 4.20709 3.13251
threshold=0.28798282526296698 0.10996421268541691 0.53757641569735271 0.15496259796968795 0.054901625708154274 0.3917885529259772 315.78000000000003
decision_type=2 2 2 2 2 2 2
left_child=1 4 5 -3 -1 -2 -4
right_child=2 3 6 -5 -6 -7 -8
leaf_value=0.10813962428247474 0.11840423011720548 0.11131792178293692 0.12519130630830894 0.113930722299608 0.10977041962350095 0.12247202191777357 0.13136933990374602
leaf_weight=7326 635 1722 128 2928 4136 388 199
leaf_count=7326 635 1722 128 2928 4136 388 199
internal_value=0.110892 0.10995 0.122129 0.112963 0.108728 0.119947 0.128952
internal_weight=17462 16112 1350 4650 11462 1023 327
internal_count=17462 16112 1350 4650 11462 1023 327
is_linear=0
shrinkage=1


Tree=1
num_leaves=8
num_cat=0
split_feature=31 31 31 31 31 31 18
split_gain=183.624 52.0397 25.0933 6.97524 6.63441 6.12445 2.94269
threshold=0.26335896549931942 0.10996421268541691 0.53757641569735271 0.054901625708154274 0.35174848958375532 0.15496259796968795 315.78000000000003
decision_type=2 2 2 2 2 2 2
left_child=1 3 4 -1 -2 -3 -4
right_child=2 5 6 -5 -6 -7 -8
leaf_value=-0.0025924898312168791 0.0060234973111456917 0.00048800947388818024 0.013934578691822762 -0.0010118750577637846 0.010466333536303836 0.002842293008265509 0.019922503233160183
leaf_weight=7326 704 1722 128 4136 581 2666 199
leaf_count=7326 704 1722 128 4136 581 2666 199
internal_value=7.50803e-05 -0.000931216 0.00996937 -0.00202214 0.00803243 0.0019184 0.0175798
internal_weight=17462 15850 1612 11462 1285 4388 327
internal_count=17462 15850 1612 11462 1285 4388 327
is_linear=0
shrinkage=0.0307707


Tree=2
num_leaves=8
num_cat=0
split_feature=31 31 31 31 31 31 18
split_gain=172.498 48.8864 23.5731 6.55258 6.23242 5.75334 2.86182
threshold=0.26335896549931942 0.10996421268541691 0.53757641569735271 0.054901625708154274 0.35174848958375532 0.15496259796968795 458.7000000000001
decision_type=2 2 2 2 2 2 2
left_child=1 3 4 -1 -2 -3 -4
right_child=2 5 6 -5 -6 -7 -8
leaf_value=-0.0025127173054824794 0.0058381557500387978 0.00047299347763272146 0.01547886257802086 -0.00098073928758029877 0.010144289665764882 0.002754834282869289 0.022365996925742409
leaf_weight=7326 704 1722 253 4136 581 2666 74
leaf_count=7326 704 1722 253 4136 581 2666 74
internal_value=7.2772e-05 -0.000902562 0.00966262 -0.00195991 0.00778528 0.00185937 0.0170389
internal_weight=17462 15850 1612 11462 1285 4388 327
internal_count=17462 15850 1612 11462 1285 4388 327
is_linear=0
shrinkage=0.0307707


Tree=3
num_leaves=8
num_cat=0
split_feature=31 31 31 31 31 31 18
split_gain=162.201 51.8387 17.7479 6.44594 6.15553 5.60234 2.22767
threshold=0.28798282526296698 0.10996421268541691 0.60649890579437293 0.15496259796968795 0.054901625708154274 0.3917885529259772 328.02500000000003
decision_type=2 2 2 2 2 2 2
left_child=1 4 5 -3 -1 -2 -4
right_child=2 3 6 -5 -6 -7 -8
leaf_value=-0.0024353992598194056 0.006909476272752191 0.00045843922950666676 0.014618209715573182 0.0028309378941546847 -0.00095056132406158849 0.011229109083098661 0.021320822432524752
leaf_weight=7326 635 1722 76 2928 4136 515 124
leaf_count=7326 635 1722 76 2928 4136 515 124
internal_value=7.0535e-05 -0.000787911 0.0103158 0.00195235 -0.00189961 0.00884411 0.0187758
internal_weight=17462 16112 1350 4650 11462 1150 200
internal_count=17462 16112 1350 4650 11462 1150 200
is_linear=0
shrinkage=0.0307707


Tree=4
num_leaves=8
num_cat=0
split_feature=31 31 31 31 31 31 31
split_gain=151.417 30.8603 28.846 6.57875 5.78375 2.63195 2.02889
threshold=0.23799900676712846 0.11293217302023852 0.3917885529259772 0.062076403514269386 0.60649890579437293 0.17145169804622543 0.33033525551587212
decision_type=2 2 2 2 2 2 2
left_child=1 3 6 -1 -4 -3 -2
right_child=2 5 4 -5 -6 -7 -8
leaf_value=-0.0023589164609175545 0.0043997095547980997 0.00058301097291968656 0.011028032792092147 -0.00077096106097324438 0.017161506813215682 0.0022245538255635717 0.0072046414907522439
leaf_weight=8122 992 1999 529 3550 201 1721 324
leaf_count=8122 992 1999 529 3550 201 1721 324
internal_value=-5.27073e-05 -0.00109811 0.00781175 -0.00187595 0.0127173 0.00134245 0.0050904
internal_weight=17438 15392 2046 11672 730 3720 1316
internal_count=17438 15392 2046 11672 730 3720 1316
is_linear=0
shrinkage=0.0307707


Tree=5
num_leaves=8
num_cat=0
split_feature=29 5 30 21 30 8 5
split_gain=95.5974 36.0912 12.5422 7.02128 5.73643 3.82009 3.60586
threshold=154.18684362177464 429.00000000000006 365.59033939350599 2.5000000000000004 141.3329748568253 6755.5000000000009 682.00000000000011
decision_type=2 2 2 2 2 2 2
left_child=1 5 6 -4 -3 -1 -2
right_child=2 4 3 -5 -6 -7 -8
leaf_value=0.0031759999820589416 0.006884660895754938 -0.0018043329739907657 0.0073044412934136094 0.012761489257285676 0.00020174932534753627 0.0011276495143625184 0.0020506514157685022
leaf_weight=1451 234 10770 552 375 1543 2124 389
leaf_count=1451 234 10770 552 375 1543 2124 389
internal_value=-5.10838e-05 -0.0007627 0.00724312 0.00951225 -0.00155294 0.00195904 0.0038665
internal_weight=17438 15888 1550 927 12313 3575 623
internal_count=17438 15888 1550 927 12313 3575 623
is_linear=0
shrinkage=0.0307707


Tree=6
num_leaves=8
num_cat=0
split_feature=31 31 31 31 31 31 31
split_gain=136.224 27.5522 26.0564 5.05388 4.28011 3.24188 3.15457
threshold=0.23799900676712846 0.10323457800703578 0.45025129443709339 0.060801578178213238 0.35174848958375532 0.15089890833644171 0.60649890579437293
decision_type=2 2 2 2 2 2 2
left_child=1 3 4 -1 -2 -3 -4
right_child=2 5 6 -5 -6 -7 -8
leaf_value=-0.0022512499685542766 0.0043790549482527414 0.00012491596320178693 0.011407945298303307 -0.00081076615034985722 0.0081316657507161348 0.0018534512031048427 0.016287100755751828
leaf_weight=7977 1123 1832 335 3244 387 2339 201
leaf_count=7977 1123 1832 335 3244 387 2339 201
internal_value=-4.95107e-05 -0.00104108 0.00740995 -0.00183481 0.00534093 0.00109424 0.0132383
internal_weight=17438 15392 2046 11221 1510 4171 536
internal_count=17438 15392 2046 11221 1510 4171 536
is_linear=0
shrinkage=0.0307707


Tree=7
num_leaves=8
num_cat=0
split_feature=31 31 31 31 31 31 17
split_gain=127.97 25.8827 24.5357 5.02395 4.74765 3.04706 2.00729
threshold=0.23799900676712846 0.10323457800703578 0.3917885529259772 0.53757641569735271 0.060801578178213238 0.15281662666769644 0.072077402042698316
decision_type=2 2 2 2 2 2 2
left_child=1 4 6 -4 -1 -3 -2
right_child=2 5 3 -5 -6 -7 -8
leaf_value=-0.0021819774907295727 0.006112839651034924 0.00014822290540212531 0.0092753232310696203 0.014388484681554127 -0.00078581853103210054 0.0018187193996315708 0.0036694428349717872
leaf_weight=7977 540 1893 383 347 3244 2278 776
leaf_count=7977 540 1893 383 347 3244 2278 776
internal_value=-4.79855e-05 -0.00100904 0.00718196 0.0117062 -0.00177835 0.00106057 0.00467214
internal_weight=17438 15392 2046 730 11221 4171 1316
internal_count=17438 15392 2046 730 11221 4171 1316
is_linear=0
shrinkage=0.0307707


Tree=8
num_leaves=8
num_cat=0
split_feature=31 31 31 31 31 31 31
split_gain=127.093 26.1689 24.3804 5.62588 4.5265 3.368 3.09794
threshold=0.24173383780582533 0.47991860013017856 0.10996421268541691 0.060801578178213238 0.60649890579437293 0.33033525551587212 0.17564842622557816
decision_type=2 2 2 2 2 2 2
left_child=2 5 3 -1 -3 -2 -4
right_child=1 4 6 -5 -6 -7 -8
leaf_value=-0.0021223044323179976 0.00419743346045453 0.01093490861267897 0.00039612373153494836 -0.00064365417047745411 0.016964340350888056 0.0071830670640230807 0.0021165881239284621
leaf_weight=7924 950 271 2435 3518 209 574 1671
leaf_count=7924 950 271 2435 3518 209 574 1671
internal_value=2.297e-06 0.00729555 -0.000937749 -0.00166768 0.0135609 0.00532204 0.0010963
internal_weight=17552 2004 15548 11442 480 1524 4106
internal_count=17552 2004 15548 11442 480 1524 4106
is_linear=0
shrinkage=0.0307707


Tree=9
num_leaves=8
num_cat=0
split_feature=31 31 31 31 31 31 31
split_gain=119.393 24.5834 22.9031 5.28498 4.25226 3.16393 2.91518
threshold=0.24173383780582533 0.47991860013017856 0.10996421268541691 0.060801578178213238 0.60649890579437293 0.33033525551587212 0.17790283487361899
decision_type=2 2 2 2 2 2 2
left_child=2 5 3 -1 -3 -2 -4
right_child=1 4 6 -5 -6 -7 -8
leaf_value=-0.0020569997291214276 0.0040682785330591071 0.01059846217311471 0.0004070902217995905 -0.00062384861035068317 0.016442393397739879 0.0069620477203338081 0.0020881377632570217
leaf_weight=7924 950 271 2505 3518 209 574 1601
leaf_count=7924 950 271 2505 3518 209 574 1601
internal_value=2.22792e-06 0.00707108 -0.000908894 -0.00161636 0.0131437 0.00515828 0.00106257
internal_weight=17552 2004 15548 11442 480 1524 4106
internal_count=17552 2004 15548 11442 480 1524 4106
is_linear=0
shrinkage=0.0307707


Tree=10
num_leaves=8
num_cat=0
split_feature=31 31 31 31 31 31 31
split_gain=112.158 23.094 21.5153 4.96474 3.99463 2.97223 2.73981
threshold=0.24173383780582533 0.47991860013017856 0.10996421268541691 0.060801578178213238 0.60649890579437293 0.33033525551587212 0.17564842622557816
decision_type=2 2 2 2 2 2 2
left_child=2 5 3 -1 -3 -2 -4
right_child=1 4 6 -5 -6 -7 -8
leaf_value=-0.0019937045149579775 0.0039430976812610324 0.010272367521674219 0.00037140857737635066 -0.00060465251908290503 0.015936504372558138 0.0067478290590988815 0.0019893743620735195
leaf_weight=7924 950 271 2435 3518 209 574 1671
leaf_count=7924 950 271 2435 3518 209 574 1671
internal_value=2.16092e-06 0.00685351 -0.000880926 -0.00156662 0.0127393 0.00499956 0.00102987
internal_weight=17552 2004 15548 11442 480 1524 4106
internal_count=17552 2004 15548 11442 480 1524 4106
is_linear=0
shrinkage=0.0307707


Tree=11
num_leaves=8
num_cat=0
split_feature=31 31 31 31 31 31 31
split_gain=105.363 21.6948 20.2116 4.66391 3.75261 2.79214 2.57828
threshold=0.24173383780582533 0.47991860013017856 0.10996421268541691 0.060801578178213238 0.60649890579437293 0.33033525551587212 0.17790283487361899
decision_type=2 2 2 2 2 2 2
left_child=2 5 3 -1 -3 -2 -4
right_child=1 4 6 -5 -6 -7 -8
leaf_value=-0.0019323570820418598 0.0038217686686547732 0.0099563063206111451 0.00038174431870960699 -0.00058604691594152456 0.01544618074806205 0.0065402018280834922 0.0019626715481792286
leaf_weight=7924 950 271 2505 3518 209 574 1601
leaf_count=7924 950 271 2505 3518 209 574 1601
internal_value=2.09587e-06 0.00664264 -0.00085382 -0.00151842 0.0123473 0.00484572 0.000998183
internal_weight=17552 2004 15548 11442 480 1524 4106
internal_count=17552 2004 15548 11442 480 1524 4106
is_linear=0
shrinkage=0.0307707


Tree=12
num_leaves=8
num_cat=0
split_feature=31 31 31 31 31 31 17
split_gain=91.2648 20.9046 16.5377 7.00645 2.9279 2.01556 1.9762
threshold=0.20859369350446055 0.34090322419810032 0.077432639032304657 0.53757641569735271 0.13819506938300688 0.025371441765270123 0.066392160685600915
decision_type=2 2 2 2 2 2 2
left_child=2 6 5 -3 -4 -1 -2
right_child=1 3 4 -5 -6 -7 -8
leaf_value=-0.0022417468778725622 0.001552352769065714 0.0069752541171821643 -0.00016044792992489976 0.01251494086799039 0.00131598711860321 -0.0013289909106038037 0.0038494323370714999
leaf_weight=3932 498 646 3107 325 2153 5488 1232
leaf_count=3932 498 646 3107 325 2153 5488 1232
internal_value=1.81934e-05 0.00521636 -0.000938234 0.00882968 0.000443883 -0.00170999 0.00318822
internal_weight=17381 2701 14680 971 5260 9420 1730
internal_count=17381 2701 14680 971 5260 9420 1730
is_linear=0
shrinkage=0.0307707


Tree=13
num_leaves=8
num_cat=0
split_feature=31 31 31 31 31 17 31
split_gain=85.7348 19.638 15.607 6.58195 2.9285 1.85645 1.37251
threshold=0.20859369350446055 0.34090322419810032 0.097454688205440052 0.53757641569735271 0.035858125736782591 0.066392160685600915 0.15496259796968795
decision_type=2 2 2 2 2 2 2
left_child=2 5 4 -3 -1 -2 -4
right_child=1 3 6 -5 -6 -7 -8
leaf_value=-0.0020415833156104666 0.0015045880206821978 0.0067606281797723961 0.00028800507041155314 0.012129874426487828 -0.0010264703226736296 0.0037309847406424481 0.0014667379375419615
leaf_weight=5163 498 646 2338 325 5620 1232 1559
leaf_count=5163 498 646 2338 325 5620 1232 1559
internal_value=1.76345e-05 0.00505586 -0.000909364 0.008558 -0.00151252 0.00309012 0.000759565
internal_weight=17381 2701 14680 971 10783 1730 3897
internal_count=17381 2701 14680 971 10783 1730 3897
is_linear=0
shrinkage=0.0307707


Tree=14
num_leaves=8
num_cat=0
split_feature=31 31 31 31 31 31 17
split_gain=80.5399 18.4481 14.6867 6.26476 2.58392 1.79114 1.74396
threshold=0.20859369350446055 0.34090322419810032 0.077432639032304657 0.60649890579437293 0.13819506938300688 0.025371441765270123 0.066392160685600915
decision_type=2 2 2 2 2 2 2
left_child=2 6 5 -3 -4 -1 -2
right_child=1 3 4 -5 -6 -7 -8
leaf_value=-0.0021099464543708223 0.0014582928836207485 0.0070592731303734703 -0.000146629274008919 0.013241214788606575 0.001240368294923489 -0.0012495056018070507 0.0036161818695788425
leaf_weight=3932 498 777 3107 194 2153 5488 1232
leaf_count=3932 498 777 3107 194 2153 5488 1232
internal_value=1.70928e-05 0.00490029 -0.000881382 0.00829467 0.000421093 -0.00160867 0.00299504
internal_weight=17381 2701 14680 971 5260 9420 1730
internal_count=17381 2701 14680 971 5260 9420 1730
is_linear=0
shrinkage=0.0307707


Tree=15
num_leaves=8
num_cat=0
split_feature=31 31 31 31 31 18 30
split_gain=75.6598 17.3939 13.836 5.85285 2.59455 2.57096 1.28498
threshold=0.20859369350446055 0.53757641569735271 0.097454688205440052 0.34090322419810032 0.035858125736782591 313.84000000000009 136.39235802785495
decision_type=2 2 2 2 2 2 2
left_child=2 3 4 -2 -1 -3 -4
right_child=1 5 6 -5 -6 -7 -8
leaf_value=-0.0019201509849289652 0.0029028801943457049 0.007869690551311247 0.00019676684275089353 0.0063353948977202951 -0.00096466763782063257 0.013534106060796509 0.0013171089765816142
leaf_weight=5163 1730 121 2087 646 5620 204 1810
leaf_count=5163 1730 121 2087 646 5620 204 1810
internal_value=1.65677e-05 0.00474951 -0.000854262 0.00383618 -0.00142217 0.0114259 0.000717126
internal_weight=17381 2701 14680 2376 10783 325 3897
internal_count=17381 2701 14680 2376 10783 325 3897
is_linear=0
shrinkage=0.0307707


Tree=16
num_leaves=8
num_cat=0
split_feature=30 5 29 21 30 7 17
split_gain=41.1214 22.0387 6.66753 4.88061 3.69121 2.87614 2.27483
threshold=377.11240723646262 429.00000000000006 269.47580809533468 2.5000000000000004 161.71012357830526 1693.0000000000002 0.083491543130932808
decision_type=2 2 2 2 2 2 2
left_child=1 5 6 -4 -3 -1 -2
right_child=2 4 3 -5 -6 -7 -8
leaf_value=0.00094335898847159336 0.0055694938918820292 -0.001213971026534557 0.0053768005321562324 0.01160976684408214 0.00045363648118816661 0.0026704580685616899 0.0017798022189336354
leaf_weight=2172 297 10992 235 241 1419 1575 303
leaf_count=2172 297 10992 235 241 1419 1575 303
internal_value=-1.10105e-05 -0.000398888 0.00581352 0.00853298 -0.00102331 0.00166933 0.00365584
internal_weight=17234 16158 1076 476 12411 3747 600
internal_count=17234 16158 1076 476 12411 3747 600
is_linear=0
shrinkage=0.0307707


Tree=17
num_leaves=8
num_cat=0
split_feature=31 31 26 31 31 31 23
split_gain=75.4274 19.2235 8.15086 4.47426 4.10401 1.16029 0.896793
threshold=0.28798282526296698 0.079238726797337011 1.5000000000000002 0.60649890579437293 0.15089890833644171 0.030805075059571255 4.5000000000000009
decision_type=2 2 2 2 2 2 2
left_child=1 5 6 -4 -3 -1 -2
right_child=2 4 3 -5 -6 -7 -8
leaf_value=-0.0018413348219118205 0.0051731320081121338 -2.106472605503009e-05 0.0074879882037847409 0.012786374555888927 0.0015363752237569079 -0.0011586311162909522 0.0020787316187559834
leaf_weight=4516 140 3489 766 188 2962 4931 242
leaf_count=4516 140 3489 766 188 2962 4931 242
internal_value=-1.06706e-05 -0.000600796 0.00701153 0.0085324 0.000694042 -0.00148499 0.00321305
internal_weight=17234 15898 1336 954 6451 9447 382
internal_count=17234 15898 1336 954 6451 9447 382
is_linear=0
shrinkage=0.0307707


Tree=18
num_leaves=8
num_cat=0
split_feature=29 5 15 30 24 30 17
split_gain=36.4399 23.9236 4.71144 3.39591 3.20226 2.73083 1.74281
threshold=219.61418834657857 429.00000000000006 1.0000000180025095e-35 742.91810656439054 114.50000000000001 63.196680260131224 0.080283574776042463
decision_type=2 2 2 2 2 2 2
left_child=1 2 -1 4 -2 -3 -5
right_child=3 5 -4 6 -6 -7 -8
leaf_value=0.001362812579136575 0.0068137716281282349 -0.0014055668867677441 0.0047161899335906657 0.01378867454299568 0.0021336306833200343 -0.00048678103154917369 0.0074718657143212509
leaf_weight=3588 440 6849 446 74 202 5541 94
leaf_count=3588 440 6849 446 74 202 5541 94
internal_value=-1.03412e-05 -0.000324567 0.00173359 0.00636089 0.00534134 -0.000994673 0.0102558
internal_weight=17234 16424 4034 810 642 12390 168
internal_count=17234 16424 4034 810 642 12390 168
is_linear=0
shrinkage=0.0307707


Tree=19
num_leaves=8
num_cat=0
split_feature=31 31 26 31 31 19 31
split_gain=67.9448 17.2618 7.61081 4.03666 3.67046 2.14572 1.06296
threshold=0.28798282526296698 0.079238726797337011 1.5000000000000002 0.60649890579437293 0.15089890833644171 0.02698289605953685 0.030805075059571255
decision_type=2 2 2 2 2 2 2
left_child=1 6 5 -4 -3 -2 -1
right_child=2 4 3 -5 -6 -7 -8
leaf_value=-0.0017490485966771255 0.0041146453221903943 -1.9399249768239221e-05 0.0071323670439309358 0.012164988918963554 0.0014534818881990058 -0.0017201870188646271 -0.0010956061524874628
leaf_weight=4516 308 3489 766 188 2962 74 4931
leaf_count=4516 308 3489 766 188 2962 74 4931
internal_value=-1.00215e-05 -0.000570111 0.00665477 0.00812439 0.000656882 0.0029843 -0.00140798
internal_weight=17234 15898 1336 954 6451 382 9447
internal_count=17234 15898 1336 954 6451 382 9447
is_linear=0
shrinkage=0.0307707


Tree=20
num_leaves=8
num_cat=0
split_feature=31 31 31 31 3 19 18
split_gain=59.3194 16.3473 9.57485 4.302 3.80489 2.03816 1.4829
threshold=0.28120381671143119 0.15281662666769644 0.42694005351932257 0.060801578178213238 8.5000000000000018 0.023169272019130854 434.64000000000004
decision_type=2 2 2 2 2 2 2
left_child=1 3 4 -1 -2 -4 -3
right_child=2 6 5 -5 -6 -7 -8
leaf_value=-0.0014954117641593143 -0.00032364927250946521 0.0017837156657028372 0.0078961487934043114 -0.00035789995065314844 0.0048755677576732322 0.012027148257623139 -1.0814237475544834e-05
leaf_weight=7961 165 2480 427 5207 693 154 529
leaf_count=7961 165 2480 427 5207 693 154 529
internal_value=-4.54642e-05 -0.000578021 0.00594137 -0.00104561 0.00387574 0.00899155 0.00146823
internal_weight=17616 16177 1439 13168 858 581 3009
internal_count=17616 16177 1439 13168 858 581 3009
is_linear=0
shrinkage=0.0307707


Tree=21
num_leaves=8
num_cat=0
split_feature=31 31 31 3 31 19 31
split_gain=55.7252 15.4037 8.99474 3.57434 2.66801 1.91469 1.71903
threshold=0.28120381671143119 0.11985393854500602 0.42694005351932257 8.5000000000000018 0.054282641196676661 0.023169272019130854 0.15281662666769644
decision_type=2 2 2 2 2 2 2
left_child=1 4 3 -2 -1 -4 -3
right_child=2 6 5 -5 -6 -7 -8
leaf_value=-0.0014963954361781892 -0.00031369175558985636 7.4899335023343786e-05 0.0076531917684050897 0.004725548011091059 -0.0005502082138613035 0.011657119608822177 0.0014230505776305807
leaf_weight=7289 165 1275 427 693 4604 154 3009
leaf_count=7289 165 1275 427 693 4604 154 3009
internal_value=-4.40642e-05 -0.000560235 0.00575856 0.00375648 -0.00113011 0.0087149 0.00102182
internal_weight=17616 16177 1439 858 11893 581 4284
internal_count=17616 16177 1439 858 11893 581 4284
is_linear=0
shrinkage=0.0307707


Tree=22
num_leaves=8
num_cat=0
split_feature=31 31 31 3 31 19 31
split_gain=52.3487 14.4703 8.44978 3.35776 2.50634 1.79871 1.61487
threshold=0.28120381671143119 0.11985393854500602 0.42694005351932257 8.5000000000000018 0.054282641196676661 0.023169272019130854 0.15281662666769644
decision_type=2 2 2 2 2 2 2
left_child=1 4 3 -2 -1 -4 -3
right_child=2 6 5 -5 -6 -7 -8
leaf_value=-0.0014503504088802786 -0.00030404053138844973 7.2594665224808293e-05 0.0074177101881001857 0.0045801443147306014 -0.00053327800919076749 0.011298475296353349 0.0013792625745049417
leaf_weight=7289 165 1275 427 693 4604 154 3009
leaf_count=7289 165 1275 427 693 4604 154 3009
internal_value=-4.27074e-05 -0.000542997 0.00558138 0.00364089 -0.00109534 0.00844676 0.000990376
internal_weight=17616 16177 1439 858 11893 581 4284
internal_count=17616 16177 1439 858 11893 581 4284
is_linear=0
shrinkage=0.0307707


Tree=23
num_leaves=8
num_cat=0
split_feature=31 31 31 31 3 19 16
split_gain=49.1769 13.6325 7.93783 3.47798 3.15431 1.68975 1.05983
threshold=0.28120381671143119 0.081650382389307302 0.42694005351932257 0.15281662666769644 8.5000000000000018 0.023169272019130854 1.0000000180025095e-35
decision_type=2 2 2 2 2 2 2
left_child=1 6 4 -3 -2 -4 -1
right_child=2 3 5 -5 -6 -7 -8
leaf_value=-0.00095541557696073715 -0.00029468631409784821 -9.769919162885703e-05 0.0071894741694417752 0.0013368220274583903 0.0044392146480542226 0.010950865022044664 -0.0015991176770326916
leaf_weight=5265 165 3418 427 3009 693 154 4485
leaf_count=5265 165 3418 427 3009 693 154 4485
internal_value=-4.13923e-05 -0.000526288 0.00540965 0.000573919 0.00352886 0.00818687 -0.00125152
internal_weight=17616 16177 1439 6427 858 581 9750
internal_count=17616 16177 1439 6427 858 581 9750
is_linear=0
shrinkage=0.0307707


Tree=24
num_leaves=8
num_cat=0
split_feature=30 29 3 7 5 29 30
split_gain=30.9901 10.6529 3.33038 3.1885 2.48029 1.07156 0.984519
threshold=136.39235802785495 211.04299439101149 9.5000000000000018 1298.5000000000002 429.00000000000006 32.759030802432925 92.387056174415747
decision_type=2 2 2 2 2 2 2
left_child=4 2 -2 -3 6 -6 -1
right_child=1 3 -4 -5 5 -7 -8
leaf_value=-0.00052928299010208057 0.00018632074865928793 -6.4685411844021902e-06 0.0019432942416893989 0.0056489393429345874 -0.0013584246927335229 -0.00073821640786936522 0.0011016686767382432
leaf_weight=651 1572 107 2917 801 4906 5705 759
leaf_count=651 1572 107 2917 801 4906 5705 759
internal_value=5.82062e-06 0.00194288 0.00132803 0.00498251 -0.000863852 -0.00102497 0.000348658
internal_weight=17418 5397 4489 908 12021 10611 1410
internal_count=17418 5397 4489 908 12021 10611 1410
is_linear=0
shrinkage=0.0307707


Tree=25
num_leaves=8
num_cat=0
split_feature=31 31 31 31 2 31 30
split_gain=42.9235 10.5837 8.57159 3.7769 1.41621 1.27084 1.16439
threshold=0.20859369350446055 0.60649890579437293 0.070765810952106198 0.29587248256244125 8119.5000000000009 0.025371441765270123 138.01489076772802
decision_type=2 2 2 2 2 2 2
left_child=2 3 5 -2 -3 -1 -4
right_child=1 4 6 -5 -6 -7 -8
leaf_value=-0.0016629508992109497 0.0019761315737849925 0.012847930407707214 -7.6370493805303467e-05 0.0043897311020661264 0.0074330131811074489 -0.00092099195448668405 0.00081315288046932834
leaf_weight=3915 1366 111 3618 1115 78 4949 2266
leaf_count=3915 1366 111 3618 1115 78 4949 2266
internal_value=5.64174e-06 0.00359565 -0.000644303 0.00306087 0.0106144 -0.0012487 0.000266197
internal_weight=17418 2670 14748 2481 189 8864 5884
internal_count=17418 2670 14748 2481 189 8864 5884
is_linear=0
shrinkage=0.0307707


Tree=26
num_leaves=8
num_cat=0
split_feature=31 31 31 31 31 31 31
split_gain=40.3227 9.96569 8.0522 2.34398 1.98517 1.19384 1.10001
threshold=0.20859369350446055 0.47991860013017856 0.070765810952106198 0.60649890579437293 0.29587248256244125 0.025371441765270123 0.14164286540691598
decision_type=2 2 2 2 2 2 2
left_child=2 4 5 -3 -2 -1 -4
right_child=1 3 6 -5 -6 -7 -8
leaf_value=-0.0016117809716293336 0.0019153256061827766 0.0057687179691759361 -4.768441799079783e-05 0.010287851852849413 0.00380329320800126 -0.00089265245423860991 0.0008370542977696123
leaf_weight=3915 1366 256 3851 189 859 4949 2033
leaf_count=3915 1366 256 3851 189 859 4949 2033
internal_value=5.46917e-06 0.00348501 -0.000624477 0.00768852 0.00264424 -0.00121028 0.000258006
internal_weight=17418 2670 14748 445 2225 8864 5884
internal_count=17418 2670 14748 445 2225 8864 5884
is_linear=0
shrinkage=0.0307707


Tree=27
num_leaves=8
num_cat=0
split_feature=31 31 31 31 31 31 30
split_gain=37.8795 9.36191 7.56428 2.20197 1.86489 1.1215 1.07321
threshold=0.20859369350446055 0.47991860013017856 0.070765810952106198 0.60649890579437293 0.29587248256244125 0.025371441765270123 138.01489076772802
decision_type=2 2 2 2 2 2 2
left_child=2 4 5 -3 -2 -1 -4
right_child=1 3 6 -5 -6 -7 -8
leaf_value=-0.0015621856033649459 0.0018563906559592341 0.0055912263498377615 -7.8813695520535133e-05 0.009971325718043017 0.0036862662501507743 -0.00086518501841312289 0.00077517029204506277
leaf_weight=3915 1366 256 3618 189 859 4949 2266
leaf_count=3915 1366 256 3618 189 859 4949 2266
internal_value=5.3017e-06 0.00337778 -0.000605261 0.00745196 0.00256288 -0.00117304 0.000250067
internal_weight=17418 2670 14748 445 2225 8864 5884
internal_count=17418 2670 14748 445 2225 8864 5884
is_linear=0
shrinkage=0.0307707


Tree=28
num_leaves=8
num_cat=0
split_feature=31 31 31 31 26 19 16
split_gain=43.2414 8.34469 6.08373 2.15054 2.07744 1.39868 0.819926
threshold=0.2677192984345918 0.072513901853965182 0.47991860013017856 0.15089890833644171 2.5000000000000004 0.015292542737918953 1.0000000180025095e-35
decision_type=2 2 2 2 2 2 2
left_child=1 6 4 -3 -2 -4 -1
right_child=2 3 5 -5 -6 -7 -8
leaf_value=-0.00090443658242559386 0.0022580832356248978 -0.00021709250005516988 0.0054178253811171641 0.00088422168466015239 0.004899109684355695 0.0089727007417259291 -0.0014946281953704668
leaf_weight=4744 580 4027 161 2879 549 301 4204
leaf_count=4744 580 4027 161 2879 549 301 4204
internal_value=-7.62285e-05 -0.00056154 0.00475974 0.000242029 0.00354241 0.00773422 -0.00118173
internal_weight=17445 15854 1591 6906 1129 462 8948
internal_count=17445 15854 1591 6906 1129 462 8948
is_linear=0
shrinkage=0.0307707


Tree=29
num_leaves=8
num_cat=0
split_feature=29 30 22 30 26 26 30
split_gain=26.7445 6.59867 4.05307 3.27378 3.54334 1.58203 1.52886
threshold=158.54751187803316 136.39235802785495 2.5000000000000004 417.28973501301664 1.5000000000000002 7.5000000000000009 62.05357893324836
decision_type=2 2 2 2 2 2 2
left_child=1 6 -3 5 -5 -2 -1
right_child=3 2 -4 4 -6 -7 -8
leaf_value=-0.0010933673854191461 0.0030960197403921298 0.00021853819294981102 0.0029001154636945537 0.0015359283771523128 0.0064626802192967285 -0.00063587909172524773 -0.0003881648127790032
leaf_weight=6990 562 3372 634 181 585 133 4988
leaf_count=6990 562 3372 634 181 585 133 4988
internal_value=-7.38821e-05 -0.000438136 0.000642946 0.00391117 0.00529861 0.00238186 -0.000799701
internal_weight=17445 15984 4006 1461 766 695 11978
internal_count=17445 15984 4006 1461 766 695 11978
is_linear=0
shrinkage=0.0307707


Tree=30
num_leaves=8
num_cat=0
split_feature=30 5 15 16 22 30 24
split_gain=22.753 7.82568 2.80565 6.28882 1.8064 1.68137 0.789977
threshold=327.64009228138895 429.00000000000006 1.0000000180025095e-35 1.0000000180025095e-35 2.5000000000000004 136.39235802785495 124.50000000000001
decision_type=2 2 2 2 2 2 2
left_child=1 5 6 -4 -3 -1 -2
right_child=2 4 3 -5 -6 -7 -8
leaf_value=4.1636225563654837e-05 0.0023733244033719548 -0.00089335579993980719 0.006108012442569759 0.0012030752999111593 0.00046057529174462012 0.0013885733578864056 -0.00048117569456145715
leaf_weight=1476 263 11299 703 382 1017 2164 141
leaf_count=1476 263 11299 703 382 1017 2164 141
internal_value=-7.16082e-05 -0.000411084 0.00356614 0.00438118 -0.000781553 0.000842402 0.0013771
internal_weight=17445 15956 1489 1085 12316 3640 404
internal_count=17445 15956 1489 1085 12316 3640 404
is_linear=0
shrinkage=0.0307707


Tree=31
num_leaves=8
num_cat=0
split_feature=31 31 31 26 31 19 16
split_gain=37.3598 7.21595 5.23286 1.93475 1.80385 1.31891 0.776197
threshold=0.2677192984345918 0.072513901853965182 0.47991860013017856 2.5000000000000004 0.15089890833644171 0.015292542737918953 1.0000000180025095e-35
decision_type=2 2 2 2 2 2 2
left_child=1 6 3 -2 -3 -4 -1
right_child=2 4 5 -5 -6 -7 -8
leaf_value=-0.00082742871472618834 0.0020572306296589627 -0.00019374465736786054 0.004935044041177194 0.0046059299141908237 0.00081489900610515328 0.0083869088876731106 -0.0014016654687772471
leaf_weight=4744 580 4027 161 549 2879 301 4204
leaf_count=4744 580 4027 161 549 2879 301 4204
internal_value=-6.94044e-05 -0.000520504 0.00442565 0.00329666 0.000226744 0.0071843 -0.00109722
internal_weight=17445 15854 1591 1129 6906 462 8948
internal_count=17445 15854 1591 1129 6906 462 8948
is_linear=0
shrinkage=0.0307707


Tree=32
num_leaves=8
num_cat=0
split_feature=31 31 31 31 18 8 31
split_gain=28.7293 10.0077 2.14836 1.96312 1.66781 1.43018 0.660394
threshold=0.33033525551587212 0.078371999698727976 0.53757641569735271 0.15089890833644171 314.75500000000005 9995.0000000000018 0.035858125736782591
decision_type=2 2 2 2 2 2 2
left_child=1 6 5 -3 -4 -2 -1
right_child=2 3 4 -5 -6 -7 -8
leaf_value=-0.0011963472599488293 0.003115009041682841 6.9039595585141089e-05 0.0042499238276336075 0.0011040370264793638 0.0087998528887809381 0.006082657499360173 -0.00068205500625826516
leaf_weight=5190 511 3559 125 3386 196 220 4342
leaf_count=5190 511 3559 125 3386 196 220 4342
internal_value=-4.29477e-09 -0.000314775 0.00493001 0.00057365 0.00702851 0.00400831 -0.00096208
internal_weight=17529 16477 1052 6945 321 731 9532
internal_count=17529 16477 1052 6945 321 731 9532
is_linear=0
shrinkage=0.0307707


Tree=33
num_leaves=8
num_cat=0
split_feature=31 31 31 31 18 8 31
split_gain=26.9886 9.40127 2.0182 1.84417 1.56675 1.34354 0.620378
threshold=0.33033525551587212 0.078371999698727976 0.53757641569735271 0.15089890833644171 314.75500000000005 9995.0000000000018 0.035858125736782591
decision_type=2 2 2 2 2 2 2
left_child=1 6 5 -3 -4 -2 -1
right_child=2 3 4 -5 -6 -7 -8
leaf_value=-0.0011595349546720242 0.0030191622742434536 6.691523015616937e-05 0.0041191746017200112 0.001070065226908198 0.0085291068476429938 0.0058955093299718798 -0.00066106780516682491
leaf_weight=5190 511 3559 125 3386 196 220 4342
leaf_count=5190 511 3559 125 3386 196 220 4342
internal_value=-3.28411e-09 -0.000305089 0.00477832 0.000555998 0.00681227 0.00388498 -0.000932476
internal_weight=17529 16477 1052 6945 321 731 9532
internal_count=17529 16477 1052 6945 321 731 9532
is_linear=0
shrinkage=0.0307707


Tree=34
num_leaves=8
num_cat=0
split_feature=31 31 31 31 18 21 16
split_gain=25.3534 8.83161 1.89594 1.73242 1.48424 1.33084 0.59656
threshold=0.33033525551587212 0.078371999698727976 0.53757641569735271 0.15089890833644171 291.71000000000009 2.5000000000000004 1.0000000180025095e-35
decision_type=2 2 2 2 2 2 2
left_child=1 6 5 -3 -4 -2 -1
right_child=2 3 4 -5 -6 -7 -8
leaf_value=-0.00067507323676085614 0.0046409448096630928 6.485617679462449e-05 0.0032750387995749337 0.0010371387868134308 0.0079187976172522562 0.0017962674712247576 -0.0011628878803155468
leaf_weight=5063 506 3559 91 3386 230 225 4469
leaf_count=5063 506 3559 91 3386 230 225 4469
internal_value=-2.33275e-09 -0.000295702 0.00463131 0.00053889 0.00660268 0.00376545 -0.000903784
internal_weight=17529 16477 1052 6945 321 731 9532
internal_count=17529 16477 1052 6945 321 731 9532
is_linear=0
shrinkage=0.0307707


Tree=35
num_leaves=8
num_cat=0
split_feature=31 31 29 11 31 6 31
split_gain=23.8173 8.29647 1.86018 1.65298 1.62744 1.42146 0.583086
threshold=0.33033525551587212 0.078371999698727976 163.40932269399727 13071.005000000003 0.15089890833644171 3.4250000000000003 0.056202107697665017
decision_type=2 2 2 2 2 2 2
left_child=1 6 5 -4 -3 -2 -1
right_child=2 4 3 -5 -6 -7 -8
leaf_value=-0.00099971343030439775 0.00087503880909522861 6.2860561947039199e-05 0.0014133946718371696 0.0058620636075618574 0.0010052254780855841 0.0051924236321081226 -0.00040789112000483763
leaf_weight=7539 194 3559 90 653 3386 115 1993
leaf_count=7539 194 3559 90 653 3386 115 1993
internal_value=-1.55053e-09 -0.000286603 0.00448881 0.00532326 0.000522308 0.0024821 -0.000875974
internal_weight=17529 16477 1052 743 6945 309 9532
internal_count=17529 16477 1052 743 6945 309 9532
is_linear=0
shrinkage=0.0307707


Tree=36
num_leaves=7
num_cat=0
split_feature=29 5 28 30 22 30
split_gain=13.9216 4.721 3.10974 2.79222 1.60751 1.04154
threshold=168.99688475857945 370.00000000000006 2016.5000000000002 468.99845114935425 2.5000000000000004 92.387056174415747
decision_type=2 2 2 2 2 2
left_child=1 5 3 -2 -3 -1
right_child=2 4 -4 -5 -6 -7
leaf_value=-0.00046920984169596656 0.0020596264390253388 -0.00071321539348889078 -0.002647734557641254 0.0050636135150100032 0.0005638269624240271 0.00087471277847351236
leaf_weight=663 635 11337 85 544 1017 3094
leaf_count=663 635 11337 85 544 1017 3094
internal_value=-7.36409e-05 -0.00031761 0.00303595 0.00344576 -0.000608086 0.000637548
internal_weight=17375 16111 1264 1179 12354 3757
internal_count=17375 16111 1264 1179 12354 3757
is_linear=0
shrinkage=0.0307707


Tree=37
num_leaves=8
num_cat=0
split_feature=31 31 31 26 28 31 30
split_gain=20.7437 5.8346 5.82332 1.57083 1.46445 0.999043 0.927894
threshold=0.29587248256244125 0.51010457684520194 0.11293217302023852 2.5000000000000004 1996.5000000000002 0.048233952192208752 490.24396293423939
decision_type=2 2 2 2 2 2 2
left_child=2 3 5 -2 -4 -1 -3
right_child=1 6 4 -5 -6 -7 -8
leaf_value=-0.00098560951756100331 0.0011296468603783185 0.0049076348054886195 -0.0021226336045759315 0.0036866874367638804 0.00067994522670993842 -0.00040872486310346404 0.0081681030478335387
leaf_weight=6568 459 128 184 451 4340 5011 234
leaf_count=6568 459 128 184 451 4340 5011 234
internal_value=-7.13748e-05 0.00371152 -0.000370196 0.00239699 0.000565948 -0.000735955 0.00701562
internal_weight=17375 1272 16103 910 4524 11579 362
internal_count=17375 1272 16103 910 4524 11579 362
is_linear=0
shrinkage=0.0307707


Tree=38
num_leaves=8
num_cat=0
split_feature=31 31 31 6 19 28 31
split_gain=19.489 6.07961 4.71963 1.57793 1.29249 1.16412 0.988755
threshold=0.32078961593411442 0.1162494635693211 0.51010457684520194 1.675 0.017801757766456604 1996.5000000000002 0.048233952192208752
decision_type=2 2 2 2 2 2 2
left_child=1 6 3 -2 -4 -3 -1
right_child=2 5 4 -5 -6 -7 -8
leaf_value=-0.00095528173530486126 0.00052865336765810288 -0.0017382918584104531 0.0050492814540050238 0.0035522151731250348 0.0087325055875256598 0.00072197520845778535 -0.00038640336566179241
leaf_weight=6568 252 190 190 465 172 4368 5170
leaf_count=6568 252 190 190 465 172 4368 5170
internal_value=-6.91779e-05 -0.00033436 0.00393576 0.00248959 0.00679977 0.000619411 -0.000704721
internal_weight=17375 16296 1079 717 362 4558 11738
internal_count=17375 16296 1079 717 362 4558 11738
is_linear=0
shrinkage=0.0307707


Tree=39
num_leaves=8
num_cat=0
split_feature=31 31 31 26 28 19 31
split_gain=18.3614 5.13125 5.13018 1.41092 1.30285 1.21418 0.880663
threshold=0.29587248256244125 0.51010457684520194 0.11293217302023852 2.5000000000000004 1996.5000000000002 0.017801757766456604 0.048233952192208752
decision_type=2 2 2 2 2 2 2
left_child=2 3 6 -2 -4 -3 -1
right_child=1 5 4 -5 -6 -7 -8
leaf_value=-0.00092588710066135937 0.0010581464103502098 0.0048939302164194981 -0.0020054273358114053 0.0034815402684997801 0.00063800181297487852 0.0084638361036233206 -0.00038425829293524941
leaf_weight=6568 459 190 184 451 4340 172 5011
leaf_count=6568 459 190 184 451 4340 172 5011
internal_value=-6.70486e-05 0.003492 -0.000348188 0.00225925 0.000530478 0.00659056 -0.00069149
internal_weight=17375 1272 16103 910 4524 362 11579
internal_count=17375 1272 16103 910 4524 362 11579
is_linear=0
shrinkage=0.0307707


Tree=40
num_leaves=8
num_cat=0
split_feature=31 31 31 25 31 24 31
split_gain=18.4609 5.94013 4.62955 2.36491 1.56556 1.30453 0.367751
threshold=0.28120381671143119 0.060801578178213238 0.60649890579437293 1700.5000000000002 0.12291338731657218 104.50000000000001 0.011402411180782057
decision_type=2 2 2 2 2 2 2
left_child=1 6 3 -2 -3 -4 -1
right_child=2 4 5 -5 -6 -7 -8
leaf_value=-0.0012212247234305721 0.002183340074458483 -0.0001253942432357992 0.0097697810319548953 0.0065682513936563261 0.00073225039596867543 0.0047587551008414497 -0.00075207090342429357
leaf_weight=2170 1117 4025 117 130 4036 85 5839
leaf_count=2170 1117 4025 117 130 4036 85 5839
internal_value=1.4269e-05 -0.000285674 0.00334071 0.00264058 0.000304014 0.00766197 -0.000879189
internal_weight=17519 16070 1449 1247 8061 202 8009
internal_count=17519 16070 1449 1247 8061 202 8009
is_linear=0
shrinkage=0.0307707


Tree=41
num_leaves=8
num_cat=0
split_feature=31 31 31 25 31 24 31
split_gain=17.3424 5.58019 4.34911 2.22164 1.4707 1.22549 0.345468
threshold=0.28120381671143119 0.060801578178213238 0.60649890579437293 1700.5000000000002 0.12291338731657218 104.50000000000001 0.011402411180782057
decision_type=2 2 2 2 2 2 2
left_child=1 6 3 -2 -3 -4 -1
right_child=2 4 5 -5 -6 -7 -8
leaf_value=-0.0011836471566737932 0.0021161584869533122 -0.00012153580839038219 0.0094692169687043467 0.0063661773721384544 0.0007097186523496163 0.0046123643707624944 -0.00072892924041302294
leaf_weight=2170 1117 4025 117 130 4036 85 5839
leaf_count=2170 1117 4025 117 130 4036 85 5839
internal_value=1.38308e-05 -0.000276883 0.00323792 0.00255933 0.000294659 0.00742626 -0.000852136
internal_weight=17519 16070 1449 1247 8061 202 8009
internal_count=17519 16070 1449 1247 8061 202 8009
is_linear=0
shrinkage=0.0307707


Tree=42
num_leaves=8
num_cat=0
split_feature=31 31 31 25 31 24 31
split_gain=16.2916 5.24206 4.08565 2.08705 1.38158 1.15124 0.324535
threshold=0.28120381671143119 0.060801578178213238 0.60649890579437293 1700.5000000000002 0.12291338731657218 104.50000000000001 0.011402411180782057
decision_type=2 2 2 2 2 2 2
left_child=1 6 3 -2 -3 -4 -1
right_child=2 4 5 -5 -6 -7 -8
leaf_value=-0.0011472259204708833 0.0020510441139703749 -0.00011779606266247023 0.0091778997519385945 0.0061703201999477311 0.00068788021972747025 0.0044704769909940682 -0.00070649963721048053
leaf_weight=2170 1117 4025 117 130 4036 85 5839
leaf_count=2170 1117 4025 117 130 4036 85 5839
internal_value=1.34061e-05 -0.000268363 0.0031383 0.00248059 0.000285592 0.0071978 -0.000825915
internal_weight=17519 16070 1449 1247 8061 202 8009
internal_count=17519 16070 1449 1247 8061 202 8009
is_linear=0
shrinkage=0.0307707


Tree=43
num_leaves=8
num_cat=0
split_feature=31 31 31 25 31 24 16
split_gain=15.3045 4.92442 3.83816 1.96062 1.29786 1.08149 0.312931
threshold=0.28120381671143119 0.060801578178213238 0.60649890579437293 1700.5000000000002 0.12291338731657218 104.50000000000001 1.0000000180025095e-35
decision_type=2 2 2 2 2 2 2
left_child=1 6 3 -2 -3 -4 -1
right_child=2 4 5 -5 -6 -7 -8
leaf_value=-0.00060629453831306519 0.0019879332952682694 -0.0001141714126466981 0.0088955447480489457 0.0059804886166475784 0.00066671378002056516 0.0043329545908891605 -0.00099100501309135839
leaf_weight=3966 1117 4025 117 130 4036 85 4043
leaf_count=3966 1117 4025 117 130 4036 85 4043
internal_value=1.29944e-05 -0.000260106 0.00304174 0.00240426 0.000276805 0.00697636 -0.000800502
internal_weight=17519 16070 1449 1247 8061 202 8009
internal_count=17519 16070 1449 1247 8061 202 8009
is_linear=0
shrinkage=0.0307707


Tree=44
num_leaves=8
num_cat=0
split_feature=31 31 31 18 19 29 16
split_gain=17.8855 4.35629 3.71145 2.26139 1.69709 1.01112 0.443111
threshold=0.24173383780582533 0.081650382389307302 0.47991860013017856 258.67000000000007 0.024181489363587851 76.591057452432011 1.0000000180025095e-35
decision_type=2 2 2 2 2 2 2
left_child=1 6 3 -2 -4 -3 -1
right_child=2 5 4 -5 -6 -7 -8
leaf_value=-0.00054932800416625151 -0.00046288696625561857 0.00063669275573930578 0.0042502635502362418 0.0026099909951324664 0.0088839046592149116 -0.0002160514260188621 -0.00096325254366201824
leaf_weight=5340 278 3648 353 1230 95 2060 4523
leaf_count=5340 278 3648 353 1230 95 2060 4523
internal_value=7.77799e-07 -0.00034761 0.00277414 0.00204351 0.00523325 0.00032894 -0.000739149
internal_weight=17527 15571 1956 1508 448 5708 9863
internal_count=17527 15571 1956 1508 448 5708 9863
is_linear=0
shrinkage=0.0307707


Tree=45
num_leaves=8
num_cat=0
split_feature=31 31 31 7 19 8 16
split_gain=16.8022 3.99959 3.58385 2.56046 1.5943 0.61909 0.416261
threshold=0.23799900676712846 0.081650382389307302 0.47991860013017856 1693.0000000000002 0.024181489363587851 10159.500000000002 1.0000000180025095e-35
decision_type=2 2 2 2 2 2 2
left_child=1 6 3 -2 -4 -3 -1
right_child=2 5 4 -5 -6 -7 -8
leaf_value=-0.00053242485669845793 0.00032669436728134736 0.0005395057959293048 0.0041194884558495518 0.0029046573956513365 0.0086106069102246646 -0.00014224417712558536 -0.00093361269492582013
leaf_weight=5340 579 3751 353 986 95 1900 4523
leaf_count=5340 579 3751 353 986 95 1900 4523
internal_value=7.5444e-07 -0.000342431 0.00264563 0.00195091 0.00507224 0.000310285 -0.000716404
internal_weight=17527 15514 2013 1565 448 5651 9863
internal_count=17527 15514 2013 1565 448 5651 9863
is_linear=0
shrinkage=0.0307707


Tree=46
num_leaves=8
num_cat=0
split_feature=31 31 31 18 24 29 16
split_gain=15.7909 3.84281 3.27371 2.10362 1.18901 0.95326 0.391038
threshold=0.24173383780582533 0.081650382389307302 0.47991860013017856 258.67000000000007 115.50000000000001 76.591057452432011 1.0000000180025095e-35
decision_type=2 2 2 2 2 2 2
left_child=1 6 3 -2 -4 -3 -1
right_child=2 5 4 -5 -6 -7 -8
leaf_value=-0.00051604182535014192 -0.00049692958909438602 0.00060762440678614543 0.0057932523059015884 0.0024668103798216696 0.0020504503793009033 -0.00022036088782725484 -0.00090488492453616909
leaf_weight=5340 278 3648 343 1230 105 2060 4523
leaf_count=5340 278 3648 343 1230 105 2060 4523
internal_value=7.3183e-07 -0.00032662 0.00260664 0.00192044 0.00491619 0.000308807 -0.00069436
internal_weight=17527 15571 1956 1508 448 5708 9863
internal_count=17527 15571 1956 1508 448 5708 9863
is_linear=0
shrinkage=0.0307707


Tree=47
num_leaves=8
num_cat=0
split_feature=30 29 3 24 30 3 29
split_gain=8.68775 3.53945 2.07231 1.65918 0.617841 0.553783 0.388652
threshold=136.39235802785495 219.61418834657857 7.5000000000000009 70.500000000000014 39.365887748643509 1.5000000000000002 58.526541606573936
decision_type=2 2 2 2 2 2 2
left_child=4 2 -2 -3 6 -6 -1
right_child=1 3 -4 -5 5 -7 -8
leaf_value=-0.00081099345472606917 -0.00035541771683284353 -0.00066701122958503915 0.0011073172546088893 0.003424309096930896 -0.0009163696242756984 -0.0001816980878091693 0.00053946045881503952
leaf_weight=4179 1276 108 3260 716 1138 6638 212
leaf_count=4179 1276 108 3260 716 1138 6638 212
internal_value=7.09667e-07 0.00103287 0.000695842 0.00288806 -0.000453993 -0.000289218 -0.00074579
internal_weight=17527 5360 4536 824 12167 7776 4391
internal_count=17527 5360 4536 824 12167 7776 4391
is_linear=0
shrinkage=0.0307707


Tree=48
num_leaves=8
num_cat=0
split_feature=31 31 31 7 7 19 16
split_gain=13.6953 2.54168 1.47011 1.43955 1.19328 0.836977 0.359057
threshold=0.18483188955055388 0.47991860013017856 0.071580926184751439 1599.5000000000002 1707.0000000000002 0.017674319789654055 1.0000000180025095e-35
decision_type=2 2 2 2 2 2 2
left_child=2 3 6 -2 -3 -4 -1
right_child=1 4 5 -5 -6 -7 -8
leaf_value=-0.00045599965525552102 0.0005952146237054015 0.0060309603556967292 0.00037566185835959467 0.0019912599120261829 0.0027232135252422485 -0.0004035711631449462 -0.00084670994529094563
leaf_weight=4635 1145 164 2750 1797 279 2484 4287
leaf_count=4635 1145 164 2750 1797 279 2484 4287
internal_value=1.68802e-05 0.00177515 -0.000403562 0.00144794 0.003948 5.84588e-06 -0.000643737
internal_weight=17541 3385 14156 2942 443 5234 8922
internal_count=17541 3385 14156 2942 443 5234 8922
is_linear=0
shrinkage=0.0307707


Tree=49
num_leaves=8
num_cat=0
split_feature=30 29 18 17 30 23 24
split_gain=8.4501 2.75999 2.27294 1.10187 1.02159 0.67035 0.290562
threshold=136.39235802785495 219.61418834657857 419.35500000000008 0.086544084570400318 63.711212003617625 2.5000000000000004 74.500000000000014
decision_type=2 2 2 2 2 2 2
left_child=4 2 -2 -3 6 -6 -1
right_child=1 3 -4 -5 5 -7 -8
leaf_value=-0.00095530335051526168 0.0011654323262543878 0.0034456957304460577 -0.00032750374298504229 0.0011056638015688059 -0.0011698186240105329 3.10671408398235e-05 -0.00053673426150622941
leaf_weight=2300 3265 552 1371 291 490 4322 4950
leaf_count=2300 3265 552 1371 291 490 4322 4950
internal_value=1.63612e-05 0.00101843 0.000723928 0.00263798 -0.000438818 -9.12223e-05 -0.000669524
internal_weight=17541 5479 4636 843 12062 4812 7250
internal_count=17541 5479 4636 843 12062 4812 7250
is_linear=0
shrinkage=0.0307707


Tree=50
num_leaves=8
num_cat=0
split_feature=31 31 31 19 3 18 31
split_gain=12.3699 2.29681 1.30979 1.08569 1.07787 0.853299 0.285002
threshold=0.18483188955055388 0.47991860013017856 0.071580926184751439 0.024323903197681202 7.5000000000000009 219.37500000000003 0.011402411180782057
decision_type=2 2 2 2 2 2 2
left_child=2 4 6 -3 -2 -4 -1
right_child=1 3 5 -5 -6 -7 -8
leaf_value=-0.00091898349684959582 6.1509803628183622e-05 0.0029455027669678373 -0.0009794354923622114 0.0066292985092271453 0.0016397681041489442 0.00015988521290864069 -0.00051239740888786383
leaf_weight=2151 492 346 722 97 2450 4512 6771
leaf_count=2151 492 346 722 97 2450 4512 6771
internal_value=1.58579e-05 0.00168688 -0.000383722 0.00375242 0.00137583 2.71866e-06 -0.000610423
internal_weight=17541 3385 14156 443 2942 5234 8922
internal_count=17541 3385 14156 443 2942 5234 8922
is_linear=0
shrinkage=0.0307707


Tree=51
num_leaves=8
num_cat=0
split_feature=31 31 7 31 7 19 31
split_gain=11.6204 2.15766 1.33832 1.23043 1.09194 0.781117 0.267733
threshold=0.18483188955055388 0.47991860013017856 1599.5000000000002 0.071580926184751439 1707.0000000000002 0.017674319789654055 0.011402411180782057
decision_type=2 2 2 2 2 2 2
left_child=3 2 -2 6 -3 -5 -1
right_child=1 4 -4 5 -6 -7 -8
leaf_value=-0.00089070599857361723 0.0005113031712570674 0.0056294933118471403 0.0018573659800345005 0.00035989687190621472 0.0024653636045531085 -0.00039288377844312004 -0.00049663062342656414
leaf_weight=2151 1145 164 1797 2750 279 2484 6771
leaf_count=2151 1145 164 1797 2750 279 2484 6771
internal_value=1.53703e-05 0.00163498 0.0013335 -0.000371915 0.00363697 2.63489e-06 -0.00059164
internal_weight=17541 3385 2942 14156 443 5234 8922
internal_count=17541 3385 2942 14156 443 5234 8922
is_linear=0
shrinkage=0.0307707


Tree=52
num_leaves=8
num_cat=0
split_feature=31 31 1 2 31 29 29
split_gain=9.1616 1.97825 2.22088 1.21916 1.09966 1.21918 0.157476
threshold=0.20859369350446055 0.53757641569735271 61.500000000000007 6749.5000000000009 0.052486913258747915 90.219064576378102 49.948071714766037
decision_type=2 2 2 2 2 2 2
left_child=4 2 -2 -3 6 -6 -1
right_child=1 3 -4 -5 5 -7 -8
leaf_value=-0.00057208328290219378 0.0010126664675100181 0.007251203913103587 0.0046640530972083876 0.0028073207919626707 7.6378731003454742e-05 -0.00095015988398354262 -0.00097187453940547489
leaf_weight=5991 2180 75 170 265 6300 1326 1105
leaf_count=5991 2180 75 170 265 6300 1326 1105
internal_value=-5.6938e-05 0.00159428 0.00127685 0.00378802 -0.00035865 -0.000102117 -0.000634343
internal_weight=17412 2690 2350 340 14722 7626 7096
internal_count=17412 2690 2350 340 14722 7626 7096
is_linear=0
shrinkage=0.0307707


Tree=53
num_leaves=8
num_cat=0
split_feature=31 30 3 31 29 9 30
split_gain=8.6065 1.90333 1.86481 1.03303 1.14531 0.728471 0.266729
threshold=0.20859369350446055 742.91810656439054 15.500000000000002 0.052486913258747915 90.219064576378102 1.0000000180025095e-35 173.21373785632139
decision_type=2 2 2 2 2 2 2
left_child=3 2 -2 6 -5 -3 -1
right_child=1 5 -4 4 -6 -7 -8
leaf_value=-0.0005783220291296126 0.0018344038835088645 0.0022174661389739439 -5.1709385280811929e-05 7.4028519451929784e-05 -0.000920923295380318 0.0060844163997092098 -0.0015899525272068382
leaf_weight=6840 1816 78 683 6300 1326 113 256
leaf_count=6840 1816 78 683 6300 1326 113 256
internal_value=-5.51854e-05 0.00154523 0.00131892 -0.000347614 -9.89746e-05 0.00450571 -0.000614824
internal_weight=17412 2690 2499 14722 7626 191 7096
internal_count=17412 2690 2499 14722 7626 191 7096
is_linear=0
shrinkage=0.0307707


Tree=54
num_leaves=8
num_cat=0
split_feature=31 25 2 30 31 29 30
split_gain=8.08502 1.85961 2.30568 1.52565 0.970434 1.07591 0.250569
threshold=0.20859369350446055 1264.5000000000002 11336.500000000002 829.66762910368959 0.052486913258747915 90.219064576378102 173.21373785632139
decision_type=2 2 2 2 2 2 2
left_child=4 2 -2 -3 6 -6 -1
right_child=1 3 -4 -5 5 -7 -8
leaf_value=-0.00056052669863728203 2.5493868091779702e-05 0.0019992107204480519 0.0036838714410424461 0.0064209995031451203 7.1750621511907419e-05 -0.00089258631290419193 -0.0015410329505323775
leaf_weight=6840 1024 1394 194 78 6300 1326 256
leaf_count=6840 1024 1394 194 78 6300 1326 256
internal_value=-5.3487e-05 0.00149768 0.000608251 0.00223362 -0.000336918 -9.59292e-05 -0.000595905
internal_weight=17412 2690 1218 1472 14722 7626 7096
internal_count=17412 2690 1218 1472 14722 7626 7096
is_linear=0
shrinkage=0.0307707


Tree=55
num_leaves=7
num_cat=0
split_feature=30 30 22 7 26 12
split_gain=4.47037 2.08883 1.97184 1.96055 1.42829 0.347395
threshold=417.28973501301664 136.39235802785495 2.5000000000000004 1241.0000000000002 2.5000000000000004 3.5000000000000004
decision_type=2 2 2 2 2 2
left_child=1 5 -3 -2 -5 -1
right_child=3 2 -4 4 -6 -7
leaf_value=-0.00042530957121179153 -0.002389107846929845 0.00012363306042099384 0.0019179674689228528 0.0013189481392774953 0.0038480652610999493 0.00022313840594912862
leaf_weight=11196 87 3748 686 469 385 841
leaf_count=11196 87 3748 686 469 385 841
internal_value=-5.18408e-05 -0.000169689 0.00040125 0.0020109 0.0024592 -0.000380003
internal_weight=17412 16471 4434 941 854 12037
internal_count=17412 16471 4434 941 854 12037
is_linear=0
shrinkage=0.0307707


Tree=56
num_leaves=7
num_cat=0
split_feature=31 31 23 20 31 31
split_gain=6.84185 2.86236 1.34365 1.27008 1.21424 0.73859
threshold=0.42694005351932257 0.15281662666769644 3.5000000000000004 1.0000000180025095e-35 0.64843416443012147 0.035858125736782591
decision_type=2 2 2 2 2 2
left_child=1 5 -2 -3 -4 -1
right_child=2 3 4 -5 -6 -7
leaf_value=-0.00066277504320945977 0.00018409616329786931 0.00024289698203474718 0.0030494562733423738 0.0015113555545304446 0.0066295788587904169 -0.00018740901524404326
leaf_weight=5097 108 2731 339 1029 122 7878
leaf_count=5097 108 2731 339 1029 122 7878
internal_value=-4.46906e-05 -0.000157515 0.00327348 0.000590044 0.00399719 -0.000374149
internal_weight=17304 16735 569 3760 461 12975
internal_count=17304 16735 569 3760 461 12975
is_linear=0
shrinkage=0.0307707


Tree=57
num_leaves=8
num_cat=0
split_feature=31 31 18 20 11 23 31
split_gain=6.42732 2.68892 1.36538 1.19312 1.13865 1.05603 0.697161
threshold=0.42694005351932257 0.15281662666769644 290.90500000000003 1.0000000180025095e-35 17900.500000000004 3.5000000000000004 0.054282641196676661
decision_type=2 2 2 2 2 2 2
left_child=1 6 4 -3 -2 -4 -1
right_child=2 3 5 -5 -6 -7 -8
leaf_value=-0.00056470317012755132 -0.0016467772271291121 0.00023542292567661755 0.0010113505239211337 0.0014648511072433497 0.0035779016403125322 0.0048981324962198338 -0.00011086454676241854
leaf_weight=7198 86 2731 83 1029 73 327 5777
leaf_count=7198 86 2731 83 1029 73 327 5777
internal_value=-4.33149e-05 -0.000152668 0.00317277 0.000571888 0.000752138 0.0041114 -0.000362636
internal_weight=17304 16735 569 3760 159 410 12975
internal_count=17304 16735 569 3760 159 410 12975
is_linear=0
shrinkage=0.0307707


Tree=58
num_leaves=8
num_cat=0
split_feature=31 31 18 28 11 23 31
split_gain=6.0379 2.52599 1.28264 1.156 1.06968 0.99204 0.663335
threshold=0.42694005351932257 0.15281662666769644 290.90500000000003 1993.5000000000002 17900.500000000004 3.5000000000000004 0.035858125736782591
decision_type=2 2 2 2 2 2 2
left_child=1 6 4 -3 -2 -4 -1
right_child=2 3 5 -5 -6 -7 -8
leaf_value=-0.00062500483039721938 -0.0015961182853851193 -0.0032015668469025111 0.00098023911098613493 0.0006317932589609774 0.0034678416778206275 0.0047474240184963972 -0.00017450660926956747
leaf_weight=5097 86 76 83 3684 73 327 7878
leaf_count=5097 86 76 83 3684 73 327 7878
internal_value=-4.19817e-05 -0.00014797 0.00307515 0.000554291 0.000729002 0.0039849 -0.000351478
internal_weight=17304 16735 569 3760 159 410 12975
internal_count=17304 16735 569 3760 159 410 12975
is_linear=0
shrinkage=0.0307707


Tree=59
num_leaves=8
num_cat=0
split_feature=31 31 18 20 11 23 31
split_gain=5.67207 2.37292 1.20492 1.12416 1.00488 0.931928 0.626014
threshold=0.42694005351932257 0.15281662666769644 290.90500000000003 1.0000000180025095e-35 17900.500000000004 3.5000000000000004 0.054282641196676661
decision_type=2 2 2 2 2 2 2
left_child=1 6 4 -3 -2 -4 -1
right_child=2 3 5 -5 -6 -7 -8
leaf_value=-0.00053214127058304162 -0.0015470177431139013 0.00021063869195832888 0.00095008476582760665 0.0014040053758249413 0.0033611674726463023 0.0046013526971354392 -0.00010208350058107261
leaf_weight=7198 86 2731 83 1029 73 327 5777
leaf_count=7198 86 2731 83 1029 73 327 5777
internal_value=-4.06897e-05 -0.000143417 0.00298053 0.000537235 0.000706578 0.00386229 -0.000340663
internal_weight=17304 16735 569 3760 159 410 12975
internal_count=17304 16735 569 3760 159 410 12975
is_linear=0
shrinkage=0.0307707


Tree=60
num_leaves=8
num_cat=0
split_feature=31 31 10 18 31 29 29
split_gain=6.21939 3.00684 1.34945 1.08273 0.732077 0.677342 0.0882853
threshold=0.15281662666769644 0.42694005351932257 1.0000000180025095e-35 544.24500000000012 0.025371441765270123 63.719750248564935 1.8211889696866528
decision_type=2 2 2 2 2 2 2
left_child=4 2 -2 -3 6 -6 -1
right_child=1 3 -4 -5 5 -7 -8
leaf_value=-6.005290550312955e-05 9.6586334720366482e-05 0.0025577924700519532 0.0012562183803623604 0.0065129632297259276 -1.9301399938109299e-05 -0.00063587753634366097 -0.00070747211753809049
leaf_weight=211 1815 519 1994 75 7036 2219 3640
leaf_count=211 1815 519 1994 75 7036 2219 3640
internal_value=2.06573e-05 0.00102121 0.000703654 0.00305742 -0.000315483 -0.000167134 -0.000672
internal_weight=17509 4403 3809 594 13106 9255 3851
internal_count=17509 4403 3809 594 13106 9255 3851
is_linear=0
shrinkage=0.0307707


Tree=61
num_leaves=8
num_cat=0
split_feature=31 31 3 31 29 24 31
split_gain=5.84854 2.02655 1.84526 1.57106 1.66278 0.676751 0.487628
threshold=0.22472719494999255 0.60649890579437293 1.0000000180025095e-35 0.11985393854500602 76.000491633265582 104.50000000000001 0.025371441765270123
decision_type=2 2 2 2 2 2 2
left_child=3 2 -2 6 -5 -3 -1
right_child=1 5 -4 4 -6 -7 -8
leaf_value=-0.0006513225062889426 -0.0029940254206325795 0.0059149847311206916 0.0013711194193670583 0.00096893817108977302 -0.00042230234297358757 0.00231864525669539 -0.00022971770160754877
leaf_weight=3851 96 117 2034 1949 1396 86 7980
leaf_count=3851 96 117 2034 1949 1396 86 7980
internal_value=2.00221e-05 0.00145435 0.00117435 -0.000200479 0.00038832 0.00439185 -0.000366952
internal_weight=17509 2333 2130 15176 3345 203 11831
internal_count=17509 2333 2130 15176 3345 203 11831
is_linear=0
shrinkage=0.0307707


Tree=62
num_leaves=8
num_cat=0
split_feature=31 31 10 17 31 29 29
split_gain=5.5149 2.70599 1.26623 1.09867 0.643125 0.632776 0.0829357
threshold=0.15281662666769644 0.42694005351932257 1.0000000180025095e-35 0.058838848039215658 0.025371441765270123 63.719750248564935 1.8211889696866528
decision_type=2 2 2 2 2 2 2
left_child=4 2 -2 -3 6 -6 -1
right_child=1 3 -4 -5 5 -7 -8
leaf_value=-3.8165751302389094e-05 7.2286651031693851e-05 0.0061537468254467022 0.0011955928198601386 0.0023559654060512918 -1.5193053745180503e-05 -0.00061114035782355576 -0.0006656612892910848
leaf_weight=211 1815 84 1994 510 7036 2219 3640
leaf_count=211 1815 84 1994 510 7036 2219 3640
internal_value=1.94062e-05 0.000961589 0.000660338 0.00289325 -0.000297124 -0.00015808 -0.000631281
internal_weight=17509 4403 3809 594 13106 9255 3851
internal_count=17509 4403 3809 594 13106 9255 3851
is_linear=0
shrinkage=0.0307707


Tree=63
num_leaves=8
num_cat=0
split_feature=31 31 3 31 29 24 18
split_gain=5.20366 1.83652 1.7273 1.4032 1.56217 0.629875 0.518996
threshold=0.22472719494999255 0.60649890579437293 1.0000000180025095e-35 0.11985393854500602 76.000491633265582 104.50000000000001 358.49000000000007
decision_type=2 2 2 2 2 2 2
left_child=3 2 -2 6 -5 -3 -1
right_child=1 5 -4 4 -6 -7 -8
leaf_value=-0.0004603064643439505 -0.0029277426865139096 0.0056375636402737524 0.0012955789660146096 0.00093005239797119615 -0.00041843781268911942 0.00216805026293058 1.8481085114048792e-05
leaf_weight=9019 96 117 2034 1949 1396 86 2812
leaf_count=9019 96 117 2034 1949 1396 86 2812
internal_value=1.88094e-05 0.00137175 0.0011052 -0.00018918 0.000367275 0.00416814 -0.000346508
internal_weight=17509 2333 2130 15176 3345 203 11831
internal_count=17509 2333 2130 15176 3345 203 11831
is_linear=0
shrinkage=0.0307707


Tree=64
num_leaves=8
num_cat=0
split_feature=29 24 24 2 22 21 3
split_gain=3.1515 1.34483 2.03299 1.91424 1.03949 1.07264 0.602339
threshold=187.82722020851941 102.50000000000001 65.500000000000014 9382.5000000000018 2.5000000000000004 1.5000000000000002 12.500000000000002
decision_type=2 2 2 2 2 2 2
left_child=4 2 -2 -3 6 -6 -1
right_child=1 3 -4 -5 5 -7 -8
leaf_value=-0.00037980781991564988 -0.0014179459047982119 0.0015309151674933919 0.0034379991095465751 -0.0025308911934530669 0.00017668660620657757 0.0020954392225054313 4.7929502507513175e-05
leaf_weight=9894 99 418 465 149 1462 340 4551
leaf_count=9894 99 418 465 149 1462 340 4551
internal_value=-4.87824e-05 0.00152175 0.0025856 0.000463465 -0.000158114 0.000538738 -0.000245046
internal_weight=17378 1131 564 567 16247 1802 14445
internal_count=17378 1131 564 567 16247 1802 14445
is_linear=0
shrinkage=0.0307707


Tree=65
num_leaves=8
num_cat=0
split_feature=31 2 19 6 31 2 23
split_gain=5.79257 1.0314 1.58927 1.14719 0.929339 0.929561 0.230896
threshold=0.33033525551587212 6729.5000000000009 0.0139341937382537 2.5250000000000008 0.077432639032304657 16633.000000000004 2.5000000000000004
decision_type=2 2 2 2 2 2 2
left_child=4 3 -3 -2 6 -6 -1
right_child=1 2 -4 -5 5 -7 -8
leaf_value=-0.00074239034308129894 0.0062840725116024027 -0.00047184314459186593 0.0024872288351833615 0.0014563466765079296 0.00011671719228913814 -0.0032397731266382095 -0.00032478217906748796
leaf_weight=1491 108 234 647 82 6864 79 7873
leaf_count=1491 108 234 647 82 6864 79 7873
internal_value=-4.72812e-05 0.00214482 0.00170128 0.00420096 -0.000191255 7.8515e-05 -0.000391278
internal_weight=17378 1071 881 190 16307 6943 9364
internal_count=17378 1071 881 190 16307 6943 9364
is_linear=0
shrinkage=0.0307707


Tree=66
num_leaves=7
num_cat=0
split_feature=29 2 19 22 2 18
split_gain=2.7977 1.27467 1.02069 0.902341 0.924571 0.582546
threshold=181.0210897379317 6612.5000000000009 0.024479686627697405 2.5000000000000004 9853.5000000000018 215.27500000000003
decision_type=2 2 2 2 2 2
left_child=3 -2 -3 5 -5 -1
right_child=1 2 -4 4 -6 -7
leaf_value=-0.00071920385385634475 0.0048861691537439344 0.00054690773716773171 0.0026721716226160105 0.00021489819341746129 0.002219308593985374 -0.00015442513441285213
leaf_weight=2010 91 824 289 1532 254 12378
leaf_count=2010 91 824 289 1532 254 12378
internal_value=-4.58261e-05 0.00138514 0.0010988 -0.00015235 0.000499986 -0.000233326
internal_weight=17378 1204 1113 16174 1786 14388
internal_count=17378 1204 1113 16174 1786 14388
is_linear=0
shrinkage=0.0307707


Tree=67
num_leaves=8
num_cat=0
split_feature=31 16 1 6 31 2 16
split_gain=5.2853 1.48115 2.02053 1.69523 0.846144 0.873663 0.367211
threshold=0.33033525551587212 1.0000000180025095e-35 52.500000000000007 3.9250000000000003 0.077432639032304657 16633.000000000004 1.0000000180025095e-35
decision_type=2 2 2 2 2 2 2
left_child=4 2 -2 -3 6 -6 -1
right_child=1 3 -4 -5 5 -7 -8
leaf_value=-0.00019320354961631877 0.0019684760664280452 -0.00093207232748016748 0.0058681062742850952 0.0038934864937787469 0.00011250673680145177 -0.0031414993855771499 -0.00057954485836079453
leaf_weight=5011 563 251 162 95 6864 79 4353
leaf_count=5011 563 251 162 95 6864 79 4353
internal_value=-4.44156e-05 0.0020495 0.00284 0.000393032 -0.000181941 7.5471e-05 -0.000372801
internal_weight=17378 1071 725 346 16307 6943 9364
internal_count=17378 1071 725 346 16307 6943 9364
is_linear=0
shrinkage=0.0307707


Tree=68
num_leaves=8
num_cat=0
split_feature=31 31 6 8 19 28 5
split_gain=4.7801 1.56339 1.53899 1.42179 0.746647 0.37543 0.262017
threshold=0.34090322419810032 0.079238726797337011 1.2750000000000001 3309.5000000000005 0.026208990115735856 2003.5000000000002 730.50000000000011
decision_type=2 2 2 2 2 2 2
left_child=1 6 5 -4 -3 -2 -1
right_child=2 4 3 -5 -6 -7 -8
leaf_value=-0.00010750281555838905 0.00074149260771052107 5.1473441412151514e-05 0.0057609907049188079 0.0020747798895804559 0.00086556552939837149 -0.0023066679842072132 -0.00048887145506048885
leaf_weight=2219 77 5705 115 715 1312 76 7375
leaf_count=2219 77 5705 115 715 1312 76 7375
internal_value=-2.19832e-05 -0.000145367 0.00206294 0.00258567 0.00020369 -0.000772738 -0.000400665
internal_weight=17594 16611 983 830 7017 153 9594
internal_count=17594 16611 983 830 7017 153 9594
is_linear=0
shrinkage=0.0307707


Tree=69
num_leaves=8
num_cat=0
split_feature=31 31 28 11 3 29 5
split_gain=4.49047 1.46865 1.42596 1.91041 1.17959 0.724133 0.24614
threshold=0.34090322419810032 0.079238726797337011 2006.5000000000002 27268.800000000003 6.5000000000000009 219.61418834657857 730.50000000000011
decision_type=2 2 2 2 2 2 2
left_child=1 6 3 -2 -4 -3 -1
right_child=2 5 4 -5 -6 -7 -8
leaf_value=-0.00010419490649897687 0.0034312334290283243 0.00013416917536943204 0.0016601231216360618 -0.00082463603195454091 -0.0025604681188254397 0.0017421794039172199 -0.00047382857800905336
leaf_weight=2219 595 6741 168 120 100 276 7375
leaf_count=2219 595 6741 168 120 100 276 7375
internal_value=-2.13065e-05 -0.000140894 0.00199946 0.00271696 8.51863e-05 0.000197423 -0.000388336
internal_weight=17594 16611 983 715 268 7017 9594
internal_count=17594 16611 983 715 268 7017 9594
is_linear=0
shrinkage=0.0307707


Tree=70
num_leaves=8
num_cat=0
split_feature=31 6 31 8 2 30 5
split_gain=4.21838 1.44768 1.37966 1.32313 0.701279 0.54237 0.231226
threshold=0.34090322419810032 1.2750000000000001 0.079238726797337011 3309.5000000000005 6880.5000000000009 417.28973501301664 730.50000000000011
decision_type=2 2 2 2 2 2 2
left_child=2 5 6 -3 -4 -2 -1
right_child=1 3 4 -5 -6 -7 -8
leaf_value=-0.00010098879003816032 0.0010076743812189514 0.0055080924269339734 -0.00029602758422609359 0.0019520855584495048 0.00038550274460277557 -0.0026560218571169531 -0.00045924857627709873
leaf_weight=2219 77 115 1999 715 5018 76 7375
leaf_count=2219 77 115 1999 715 5018 76 7375
internal_value=-2.06507e-05 0.00193794 -0.000136558 0.00244493 0.000191348 -0.000812319 -0.000376387
internal_weight=17594 983 16611 830 7017 153 9594
internal_count=17594 983 16611 830 7017 153 9594
is_linear=0
shrinkage=0.0307707


Tree=71
num_leaves=7
num_cat=0
split_feature=29 24 24 30 22 11
split_gain=2.88287 1.55425 2.04342 1.38415 0.996026 0.392239
threshold=211.04299439101149 69.500000000000014 101.50000000000001 120.11063417491104 2.5000000000000004 34772.105000000003
decision_type=2 2 2 2 2 2
left_child=3 -2 -3 5 -5 -1
right_child=1 2 -4 4 -6 -7
leaf_value=-0.00027373559532251442 -0.001806975989894991 0.0038418882585828868 0.00076884372110645218 0.00011733743328954898 0.0012859322053050898 -0.0013664560751364854
leaf_weight=11076 110 358 479 4433 818 320
leaf_count=11076 110 358 479 4433 818 320
internal_value=-2.00151e-05 0.0016314 0.00208331 -0.000113961 0.000299386 -0.000304422
internal_weight=17594 947 837 16647 5251 11396
internal_count=17594 947 837 16647 5251 11396
is_linear=0
shrinkage=0.0307707


Tree=72
num_leaves=8
num_cat=0
split_feature=31 26 3 23 30 19 29
split_gain=4.07211 1.62911 2.50698 1.37378 0.610509 1.17721 0.34826
threshold=0.28120381671143119 1.5000000000000002 15.500000000000002 3.5000000000000004 139.59283204502796 0.018319828933160805 145.78453758659174
decision_type=2 2 2 2 2 2 2
left_child=4 2 -2 -3 6 -6 -1
right_child=1 3 -4 -5 5 -7 -8
leaf_value=-0.00029349560652176424 -0.0017135145871481087 4.3490650662569436e-05 0.0034672360265322099 0.0027523513251504288 0.0006844081800040664 -0.0003811185058861277 0.0018378981998429919
leaf_weight=12128 286 226 128 822 1996 1932 73
leaf_count=12128 286 226 128 822 1996 1932 73
internal_value=-3.23709e-05 0.00152262 -0.00011163 0.0021682 -0.000173324 0.000160326 -0.00028074
internal_weight=17591 1462 414 1048 16129 3928 12201
internal_count=17591 1462 414 1048 16129 3928 12201
is_linear=0
shrinkage=0.0307707


Tree=73
num_leaves=8
num_cat=0
split_feature=31 6 3 23 30 19 8
split_gain=3.82537 1.60333 2.66328 1.75867 0.573515 1.10588 0.346537
threshold=0.28120381671143119 1.2750000000000001 15.500000000000002 3.5000000000000004 139.59283204502796 0.018319828933160805 10377.500000000002
decision_type=2 2 2 2 2 2 2
left_child=4 2 -2 -3 6 -6 -1
right_child=1 3 -4 -5 5 -7 -8
leaf_value=-0.00015808285050914505 -0.002136155925139454 -0.00032196282821395658 0.0039805660022508467 0.0026551313286778326 0.00066334869515323729 -0.00036939135354126034 -0.00050796349344735508
leaf_weight=8225 238 238 94 892 1996 1932 3976
leaf_count=8225 238 238 94 892 1996 1932 3976
internal_value=-3.13745e-05 0.00147577 -0.000404153 0.0020281 -0.000167991 0.000155393 -0.000272101
internal_weight=17591 1462 332 1130 16129 3928 12201
internal_count=17591 1462 332 1130 16129 3928 12201
is_linear=0
shrinkage=0.0307707


Tree=74
num_leaves=8
num_cat=0
split_feature=31 6 3 27 30 18 29
split_gain=3.59358 1.50618 2.50193 1.3121 0.538764 1.04533 0.326749
threshold=0.28120381671143119 1.2750000000000001 15.500000000000002 37.500000000000007 139.59283204502796 416.54500000000007 145.78453758659174
decision_type=2 2 2 2 2 2 2
left_child=4 2 -2 -3 6 -6 -1
right_child=1 3 -4 -5 5 -7 -8
leaf_value=-0.00027608404476588773 -0.0020704312476217263 0.0015428794753271297 0.003858111080688606 0.0045662204128129871 0.00048393548100387752 -0.00060532485118197415 0.0017884368721638932
leaf_weight=12128 238 972 94 158 2726 1202 73
leaf_count=12128 238 972 94 158 2726 1202 73
internal_value=-3.04089e-05 0.00143036 -0.000391713 0.0019657 -0.000162821 0.000150611 -0.000263728
internal_weight=17591 1462 332 1130 16129 3928 12201
internal_count=17591 1462 332 1130 16129 3928 12201
is_linear=0
shrinkage=0.0307707


Tree=75
num_leaves=8
num_cat=0
split_feature=30 3 18 23 11 25 2
split_gain=2.00616 1.53014 1.32663 0.885081 0.381728 0.425849 0.170469
threshold=139.59283204502796 8.5000000000000018 416.54500000000007 3.5000000000000004 32941.275000000001 1617.5000000000002 8063.5000000000009
decision_type=2 2 2 2 2 2 2
left_child=4 3 -3 -2 5 -1 -6
right_child=1 2 -4 -5 6 -7 -8
leaf_value=-0.00026049613839227863 -0.0020736215650203373 0.0011355958789164805 -0.00025890215509688275 -2.113962379520315e-05 -0.00076605343106205589 0.00049166786437177977 -0.0021137361047954459
leaf_weight=11011 231 2841 836 1432 360 762 118
leaf_count=11011 231 2841 836 1432 360 762 118
internal_value=-2.94729e-05 0.000468252 0.000818544 -0.000306266 -0.000246423 -0.000211812 -0.00109883
internal_weight=17591 5340 3677 1663 12251 11773 478
internal_count=17591 5340 3677 1663 12251 11773 478
is_linear=0
shrinkage=0.0307707


Tree=76
num_leaves=8
num_cat=0
split_feature=31 26 26 8 18 5 31
split_gain=3.02932 2.18741 3.09048 1.69518 0.713288 1.12179 0.270087
threshold=0.19607749726077997 2.5000000000000004 3.5000000000000004 10752.500000000002 147.06500000000003 370.00000000000006 0.058081628357907734
decision_type=2 2 2 2 2 2 2
left_child=4 3 -3 -2 6 -6 -1
right_child=1 2 -4 -5 5 -7 -8
leaf_value=-0.00056574413026430365 0.00063528429188789543 0.0040841905600874336 0.00091812746706867218 -0.00193958566793922 0.00061598518747182538 -0.00018962675052869914 -0.0015956184585306054
leaf_weight=829 1220 403 1059 302 1916 11221 340
leaf_count=829 1220 403 1059 302 1916 11221 340
internal_value=4.90731e-05 0.000940879 0.0017909 0.000124348 -0.000136944 -7.21292e-05 -0.000865306
internal_weight=17290 2984 1462 1522 14306 13137 1169
internal_count=17290 2984 1462 1522 14306 13137 1169
is_linear=0
shrinkage=0.0307707


Tree=77
num_leaves=8
num_cat=0
split_feature=31 26 26 18 18 5 2
split_gain=2.84576 2.05487 2.90323 1.6131 0.670069 1.05382 0.262943
threshold=0.19607749726077997 2.5000000000000004 3.5000000000000004 221.85500000000005 147.06500000000003 370.00000000000006 8921.5000000000018
decision_type=2 2 2 2 2 2 2
left_child=4 3 -3 -2 6 -6 -1
right_child=1 2 -4 -5 5 -7 -8
leaf_value=-0.001063359767290427 -0.0038057377799288598 0.0039585243020220581 0.00088987663994219294 0.00037610211120008236 0.00059703110771938499 -0.0001837918057216078 0.00010918518914285294
leaf_weight=945 93 403 1059 1429 1916 11221 224
leaf_count=945 93 403 1059 1429 1916 11221 224
internal_value=4.75632e-05 0.000911928 0.0017358 0.000120521 -0.00013273 -6.99097e-05 -0.000838682
internal_weight=17290 2984 1462 1522 14306 13137 1169
internal_count=17290 2984 1462 1522 14306 13137 1169
is_linear=0
shrinkage=0.0307707


Tree=78
num_leaves=8
num_cat=0
split_feature=30 4 8 2 24 18 30
split_gain=1.86052 1.42648 1.7621 1.37399 0.582577 0.480148 0.179517
threshold=156.0189151561467 1.0000000180025095e-35 15481.500000000002 6743.5000000000009 143.50000000000003 122.39500000000002 109.7019088148147
decision_type=2 2 2 2 2 2 2
left_child=4 3 -3 -2 5 -1 -6
right_child=1 2 -4 -5 6 -7 -8
leaf_value=-0.00084785368961913716 -0.0015277717869331413 0.0013310939082133936 -0.0023176793252019309 0.00040073014327680938 -0.00079267754307223951 -5.1122092667688752e-05 -0.0020571987520571549
leaf_weight=764 433 2164 133 1820 391 11439 146
leaf_count=764 433 2164 133 1820 391 11439 146
internal_value=4.60997e-05 0.000580215 0.0011198 3.00825e-05 -0.000144656 -0.000101005 -0.00113655
internal_weight=17290 4550 2297 2253 12740 12203 537
internal_count=17290 4550 2297 2253 12740 12203 537
is_linear=0
shrinkage=0.0307707


Tree=79
num_leaves=8
num_cat=0
split_feature=31 26 6 8 17 5 18
split_gain=2.57542 1.93889 2.74995 1.58232 0.64849 0.613752 0.193764
threshold=0.19607749726077997 2.5000000000000004 2.4250000000000003 9188.5000000000018 0.056416933760683755 370.00000000000006 244.39500000000001
decision_type=2 2 2 2 2 2 2
left_child=4 3 -3 -2 6 -6 -1
right_child=1 2 -4 -5 5 -7 -8
leaf_value=-0.00038827044841493666 0.00071677186294104452 0.0038379377041996162 0.00084677859719915814 -0.0014931301854345883 0.00043118505006548323 -0.00015159010653572418 -0.0011316256300029383
leaf_weight=640 1096 401 1061 426 2028 10948 690
leaf_count=640 1096 401 1061 426 2028 10948 690
internal_value=4.46809e-05 0.000866965 0.00166725 9.82175e-05 -0.000126835 -6.05083e-05 -0.000773935
internal_weight=17290 2984 1462 1522 14306 12976 1330
internal_count=17290 2984 1462 1522 14306 12976 1330
is_linear=0
shrinkage=0.0307707


Tree=80
num_leaves=8
num_cat=0
split_feature=29 26 6 29 5 25 8
split_gain=2.19361 1.59936 1.96853 1.06189 1.36664 1.23515 0.753449
threshold=109.39954340226889 6.5000000000000009 3.1750000000000007 76.591057452432011 429.00000000000006 959.00000000000011 5813.5000000000009
decision_type=2 2 2 2 2 2 2
left_child=3 2 -2 4 -1 -5 -3
right_child=1 6 -4 5 -6 -7 -8
leaf_value=0.000695125412953525 0.00090660154162163214 0.00083264988191941692 0.0042837750145438384 0.001798852052357302 -0.00015834611027323796 -0.0010339613780106095 -0.0019573675353182496
leaf_weight=2123 1993 144 178 159 10882 1744 252
leaf_count=2123 1993 144 178 159 10882 1744 252
internal_value=2.46956e-05 0.000855508 0.00118354 -0.000118363 -1.90202e-05 -0.000797254 -0.000942823
internal_weight=17475 2567 2171 14908 13005 1903 396
internal_count=17475 2567 2171 14908 13005 1903 396
is_linear=0
shrinkage=0.0307707


Tree=81
num_leaves=8
num_cat=0
split_feature=31 11 25 5 31 5 30
split_gain=3.04299 1.77824 1.57245 1.29136 1.19655 1.34589 0.544714
threshold=0.3917885529259772 16209.500000000002 1095.5000000000002 682.00000000000011 0.10996421268541691 2916.5000000000005 278.54336410930824
decision_type=2 2 2 2 2 2 2
left_child=4 2 -2 -3 6 -6 -1
right_child=1 3 -4 -5 5 -7 -8
leaf_value=-0.00020786789395277929 0.0017506440462304561 -5.717222708232041e-05 0.0071413292675573921 0.0032308091801268135 0.00039880081518968056 -0.0028708432549753239 -0.0018044756150270892
leaf_weight=11271 104 346 101 168 5157 122 206
leaf_count=11271 104 346 101 168 5157 122 206
internal_value=2.39359e-05 0.0019841 0.00440705 0.00101759 -6.01773e-05 0.000323225 -0.000236529
internal_weight=17475 719 205 514 16756 5279 11477
internal_count=17475 719 205 514 16756 5279 11477
is_linear=0
shrinkage=0.0307707


Tree=82
num_leaves=8
num_cat=0
split_feature=29 26 26 5 1 27 2
split_gain=1.97832 2.11459 2.17267 0.676877 0.840182 0.535946 0.494978
threshold=158.54751187803316 7.5000000000000009 2.5000000000000004 556.00000000000011 68.500000000000014 8.5000000000000018 6954.5000000000009
decision_type=2 2 2 2 2 2 2
left_child=3 2 -2 4 -1 -5 -3
right_child=1 6 -4 5 -6 -7 -8
leaf_value=0.00038937256970432866 0.00031406143605611361 -0.0040548133583190151 0.0028412898614811831 -0.0011902453685981569 -0.0018311907235515641 -0.00014452836140465847 -0.00069461795729129855
leaf_weight=3546 668 72 622 483 169 11817 98
leaf_count=3546 668 72 622 483 169 11817 98
internal_value=2.31997e-05 0.00110753 0.00153265 -7.56541e-05 0.000288345 -0.000185594 -0.00211812
internal_weight=17475 1460 1290 16015 3715 12300 170
internal_count=17475 1460 1290 16015 3715 12300 170
is_linear=0
shrinkage=0.0307707


Tree=83
num_leaves=8
num_cat=0
split_feature=31 26 6 1 31 29 30
split_gain=2.76675 2.20445 2.0763 1.30896 0.776727 1.41191 0.515815
threshold=0.29587248256244125 2.5000000000000004 2.5250000000000008 39.500000000000007 0.10996421268541691 62.661997501554168 278.54336410930824
decision_type=2 2 2 2 2 2 2
left_child=4 3 -3 -2 6 -6 -1
right_child=1 2 -4 -5 5 -7 -8
leaf_value=-0.00019686637230192512 0.001584999675716652 0.0048450470452084029 0.0013649942687351936 -0.0013440934531960432 0.00097112483081975476 -0.00014893627395735261 -0.0017505443820958848
leaf_weight=11271 260 239 506 325 1646 3022 206
leaf_count=11271 260 239 506 325 1646 3022 206
internal_value=2.24857e-05 0.00137146 0.00248153 -4.2261e-05 -8.86424e-05 0.000246015 -0.000224757
internal_weight=17475 1330 745 585 16145 4668 11477
internal_count=17475 1330 745 585 16145 4668 11477
is_linear=0
shrinkage=0.0307707


Tree=84
num_leaves=8
num_cat=0
split_feature=31 0 0 28 22 3 31
split_gain=2.43291 1.29052 2.35341 1.22783 0.964946 1.06897 0.552197
threshold=0.3917885529259772 44.500000000000007 40.500000000000007 2006.5000000000002 1.5000000000000002 1.5000000000000002 0.35174848958375532
decision_type=2 2 2 2 2 2 2
left_child=4 2 -2 -3 6 -6 -1
right_child=1 3 -4 -5 5 -7 -8
leaf_value=-0.00016737886520619823 0.001867931663274977 0.0041694967812989743 -0.0041245675446356612 0.00010989329860216245 -0.00094775737125979843 0.00048326684952525412 -0.0025227007933419174
leaf_weight=11549 265 266 81 96 556 4449 95
leaf_count=11549 265 266 81 96 556 4449 95
internal_value=4.21101e-05 0.00180869 0.000464879 0.003093 -3.30162e-05 0.000324292 -0.0001866
internal_weight=17357 708 346 362 16649 5005 11644
internal_count=17357 708 346 362 16649 5005 11644
is_linear=0
shrinkage=0.0307707


Tree=85
num_leaves=8
num_cat=0
split_feature=31 0 0 28 22 3 31
split_gain=2.2855 1.21234 2.21084 1.15343 0.906476 1.0042 0.518746
threshold=0.3917885529259772 44.500000000000007 40.500000000000007 2006.5000000000002 1.5000000000000002 1.5000000000000002 0.35174848958375532
decision_type=2 2 2 2 2 2 2
left_child=4 2 -2 -3 6 -6 -1
right_child=1 3 -4 -5 5 -7 -8
leaf_value=-0.00016222850563096442 0.0018104590845468445 0.0040412094820510098 -0.0039976877501137166 0.0001065126385639882 -0.0009185954151378537 0.00046839646107881537 -0.0024450944080193935
leaf_weight=11549 265 266 81 96 556 4449 95
leaf_count=11549 265 266 81 96 556 4449 95
internal_value=4.08143e-05 0.00175304 0.000450569 0.00299783 -3.20004e-05 0.000314313 -0.000180859
internal_weight=17357 708 346 362 16649 5005 11644
internal_count=17357 708 346 362 16649 5005 11644
is_linear=0
shrinkage=0.0307707


Tree=86
num_leaves=8
num_cat=0
split_feature=31 0 0 29 22 3 31
split_gain=2.14701 1.13889 2.0769 1.09872 0.851549 0.943355 0.487321
threshold=0.3917885529259772 44.500000000000007 40.500000000000007 322.33040806185369 1.5000000000000002 1.5000000000000002 0.35174848958375532
decision_type=2 2 2 2 2 2 2
left_child=4 2 -2 -3 6 -6 -1
right_child=1 3 -4 -5 5 -7 -8
leaf_value=-0.00015723662880790434 0.001754754740686509 0.0043395642733735007 -0.0038747109746810307 0.00090146807829067765 -0.00089033072548880005 0.00045398362521504579 -0.0023698752684423677
leaf_weight=11549 265 211 81 151 556 4449 95
leaf_count=11549 265 211 81 151 556 4449 95
internal_value=3.95584e-05 0.0016991 0.0004367 0.00290559 -3.10159e-05 0.000304642 -0.000175294
internal_weight=17357 708 346 362 16649 5005 11644
internal_count=17357 708 346 362 16649 5005 11644
is_linear=0
shrinkage=0.0307707


Tree=87
num_leaves=8
num_cat=0
split_feature=31 0 0 28 3 22 31
split_gain=2.01692 1.06989 1.95108 1.07933 0.809829 0.977961 0.324322
threshold=0.3917885529259772 44.500000000000007 40.500000000000007 2006.5000000000002 1.5000000000000002 1.5000000000000002 0.10460633313543909
decision_type=2 2 2 2 2 2 2
left_child=4 2 -2 -3 6 -6 -1
right_child=1 3 -4 -5 5 -7 -8
leaf_value=-0.00036863658125744136 0.0017007643874970399 0.0038255036669795962 -0.0037555171996206142 1.9314910150611427e-05 -0.0001122697385250598 0.00044001430570828374 -0.0012715390124570253
leaf_weight=2188 265 266 81 96 9557 4449 455
leaf_count=2188 265 266 81 96 9557 4449 455
internal_value=3.83412e-05 0.00164682 0.000423258 0.0028162 -3.00616e-05 6.31634e-05 -0.000524084
internal_weight=17357 708 346 362 16649 14006 2643
internal_count=17357 708 346 362 16649 14006 2643
is_linear=0
shrinkage=0.0307707


Tree=88
num_leaves=8
num_cat=0
split_feature=31 8 17 0 29 29 8
split_gain=2.12477 1.48007 4.34424 1.29504 0.376203 1.03341 0.67062
threshold=0.24173383780582533 13781.000000000002 0.079371255635847016 36.500000000000007 219.61418834657857 174.71735321904882 4471.5000000000009
decision_type=2 2 2 2 2 2 2
left_child=4 3 -3 -2 5 -1 -6
right_child=1 2 -4 -5 6 -7 -8
leaf_value=-0.0001856341681474582 0.0020148643146158792 0.0079117366020389854 -0.0019120895106388351 0.00012277733708916669 -0.00079431054221013931 -0.0025438557157494738 0.0033361957671547916
leaf_weight=15077 463 97 76 1316 72 178 77
leaf_count=15077 463 97 76 1316 72 178 77
internal_value=-7.69275e-05 0.00087948 0.00359638 0.00061523 -0.000198125 -0.000213155 0.00134042
internal_weight=17356 1952 173 1779 15404 15255 149
internal_count=17356 1952 173 1779 15404 15255 149
is_linear=0
shrinkage=0.0307707


Tree=89
num_leaves=8
num_cat=0
split_feature=31 8 17 0 29 30 29
split_gain=1.99603 1.40897 2.63162 1.33432 0.356042 0.711463 0.657808
threshold=0.24173383780582533 12786.500000000002 0.081273492602030026 36.500000000000007 100.17118663871729 131.6192868872815 219.61418834657857
decision_type=2 2 2 2 2 2 2
left_child=4 3 -3 -2 5 -1 -6
right_child=1 2 -4 -5 6 -7 -8
leaf_value=-0.00024676526454116829 0.001952868598565249 0.0055592289876067232 -0.0010730480838854191 1.8734027077249809e-05 -0.00085452845756685378 0.0003252738382328881 0.0012991899284312623
leaf_weight=11385 463 150 91 1248 1357 2513 149
leaf_count=11385 463 150 91 1248 1357 2513 149
internal_value=-7.456e-05 0.000852421 0.00305506 0.000542135 -0.000192029 -0.00014333 -0.000641427
internal_weight=17356 1952 241 1711 15404 13898 1506
internal_count=17356 1952 241 1711 15404 13898 1506
is_linear=0
shrinkage=0.0307707


Tree=90
num_leaves=8
num_cat=0
split_feature=31 8 17 26 29 19 30
split_gain=1.87509 1.32545 3.92157 1.09341 0.334597 0.85836 0.650478
threshold=0.24173383780582533 13781.000000000002 0.079371255635847016 1.5000000000000002 101.61810349531015 0.046616429640174852 131.6192868872815
decision_type=2 2 2 2 2 2 2
left_child=4 3 -3 -2 6 -6 -1
right_child=1 2 -4 -5 5 -7 -8
leaf_value=-0.00023877475080576679 -0.00053630283934305112 0.0074973236492735405 -0.0018363692758300301 0.0010992453197183082 -0.00079820401155264117 0.0026241399252950439 0.00030593018126102002
leaf_weight=11398 569 97 76 1210 1395 73 2538
leaf_count=11398 569 97 76 1210 1395 73 2538
internal_value=-7.22655e-05 0.000826194 0.00339727 0.000576126 -0.00018612 -0.00062798 -0.000139574
internal_weight=17356 1952 173 1779 15404 1468 13936
internal_count=17356 1952 173 1779 15404 1468 13936
is_linear=0
shrinkage=0.0307707


Tree=91
num_leaves=8
num_cat=0
split_feature=31 8 17 0 29 29 8
split_gain=1.76148 1.25405 2.32463 1.26025 0.338737 0.941145 0.629197
threshold=0.24173383780582533 12786.500000000002 0.081273492602030026 36.500000000000007 219.61418834657857 174.71735321904882 4471.5000000000009
decision_type=2 2 2 2 2 2 2
left_child=4 3 -3 -2 5 -1 -6
right_child=1 2 -4 -5 6 -7 -8
leaf_value=-0.00016839096187696713 0.0018790655618801803 0.005232372318438012 -0.0010010687311998107 -6.230271453401948e-07 -0.0007882119222614967 -0.0024188811580620573 0.0032126892813620529
leaf_weight=15077 463 150 91 1248 72 178 77
leaf_count=15077 463 150 91 1248 72 178 77
internal_value=-7.00415e-05 0.000800773 0.00287879 0.000508042 -0.000180393 -0.000194654 0.00127954
internal_weight=17356 1952 241 1711 15404 15255 149
internal_count=17356 1952 241 1711 15404 15255 149
is_linear=0
shrinkage=0.0307707


Tree=92
num_leaves=8
num_cat=0
split_feature=31 17 17 18 2 17 17
split_gain=2.65185 1.8178 2.50714 1.51338 0.428508 0.874283 0.343101
threshold=0.24173383780582533 0.072077402042698316 0.065943125300091457 322.93000000000006 14744.500000000002 0.086070761568790219 0.056874488450624101
decision_type=2 2 2 2 2 2 2
left_child=4 2 -2 -3 6 -6 -1
right_child=1 3 -4 -5 5 -7 -8
leaf_value=-0.00058052012506977805 0.0010265717668503354 -0.00099553605161257315 0.0047420604789057755 0.001259069859944439 0.0017245565476937728 -0.0016030194149887099 -9.2145432929792933e-05
leaf_weight=1514 528 484 255 675 296 100 13569
leaf_count=1514 528 484 255 675 296 100 13569
internal_value=1.95368e-05 0.00109135 0.0022367 0.000317541 -0.000114935 0.000884212 -0.000141168
internal_weight=17421 1942 783 1159 15479 396 15083
internal_count=17421 1942 783 1159 15479 396 15083
is_linear=0
shrinkage=0.0307707


Tree=93
num_leaves=8
num_cat=0
split_feature=31 17 17 30 29 27 31
split_gain=2.49117 1.70766 2.35524 1.50266 0.456234 1.21742 0.767046
threshold=0.24173383780582533 0.072077402042698316 0.065943125300091457 345.63174104203762 93.71045309109742 15.500000000000002 0.060801578178213238
decision_type=2 2 2 2 2 2 2
left_child=4 2 -2 -3 6 -6 -1
right_child=1 3 -4 -5 5 -7 -8
leaf_value=-0.00025742192540907291 0.0009949847794340611 -0.00088671349151967676 0.0045961570008969379 0.0013354450167084022 0.00048236125490418099 -0.0012241263393788688 0.00020467130550994335
leaf_weight=7683 528 536 255 623 631 1062 6103
leaf_count=7683 528 536 255 623 631 1062 6103
internal_value=1.89359e-05 0.00105777 0.00216788 0.00030777 -0.000111398 -0.000588101 -5.28552e-05
internal_weight=17421 1942 783 1159 15479 1693 13786
internal_count=17421 1942 783 1159 15479 1693 13786
is_linear=0
shrinkage=0.0307707


Tree=94
num_leaves=8
num_cat=0
split_feature=31 17 17 18 29 27 31
split_gain=2.34023 1.6042 2.21254 1.41375 0.428589 1.14365 0.720567
threshold=0.24173383780582533 0.072077402042698316 0.065943125300091457 322.93000000000006 93.71045309109742 15.500000000000002 0.060801578178213238
decision_type=2 2 2 2 2 2 2
left_child=4 2 -2 -3 6 -6 -1
right_child=1 3 -4 -5 5 -7 -8
leaf_value=-0.00024950089517628883 0.00096436971803962198 -0.00097081885282938982 0.004454742657946844 0.0012083095786163461 0.0004675191888751853 -0.0011864598949732253 0.00019837344273849848
leaf_weight=7683 528 484 255 675 631 1062 6103
leaf_count=7683 528 484 255 675 631 1062 6103
internal_value=1.83534e-05 0.00102523 0.00210118 0.0002983 -0.00010797 -0.000570005 -5.12289e-05
internal_weight=17421 1942 783 1159 15479 1693 13786
internal_count=17421 1942 783 1159 15479 1693 13786
is_linear=0
shrinkage=0.0307707


Tree=95
num_leaves=8
num_cat=0
split_feature=31 17 17 18 29 31 28
split_gain=2.19843 1.507 2.07849 1.32809 0.404995 1.34386 0.560012
threshold=0.24173383780582533 0.072077402042698316 0.065943125300091457 322.93000000000006 76.591057452432011 0.15496259796968795 2016.5000000000002
decision_type=2 2 2 2 2 2 2
left_child=4 2 -2 -3 5 -1 -6
right_child=1 3 -4 -5 6 -7 -8
leaf_value=-0.00013154613401865706 0.00093469668554723752 -0.00094094745522120852 0.0043176794103970701 0.0011711302888412426 -0.00058590924022772402 0.00097069409663313923 0.00096241985157930789
leaf_weight=11624 528 484 255 675 2461 1151 243
leaf_count=11624 528 484 255 675 2461 1151 243
internal_value=1.77889e-05 0.00099368 0.00203653 0.000289121 -0.000104648 -3.2235e-05 -0.000446758
internal_weight=17421 1942 783 1159 15479 12775 2704
internal_count=17421 1942 783 1159 15479 12775 2704
is_linear=0
shrinkage=0.0307707


Tree=96
num_leaves=7
num_cat=0
split_feature=31 11 11 21 30 30
split_gain=1.96279 1.50885 1.21918 0.637986 0.805917 0.545184
threshold=0.23077958757813838 41195.765000000007 22501.790000000005 1.5000000000000002 335.709167573005 152.74388388083591
decision_type=2 2 2 2 2 2
left_child=3 2 -2 5 -5 -1
right_child=1 -3 -4 4 -6 -7
leaf_value=-2.5806886443097019e-05 0.00059085868492867919 -0.0032853761892339402 0.0021905416767046509 -0.00028543293022775378 -0.0027438866588713525 0.00052941180881049691
leaf_weight=8855 1416 77 662 4355 130 2065
leaf_count=8855 1416 77 662 4355 130 2065
internal_value=7.39576e-05 0.000943753 0.0011005 -4.77188e-05 -0.000356706 7.91872e-05
internal_weight=17560 2155 2078 15405 4485 10920
internal_count=17560 2155 2078 15405 4485 10920
is_linear=0
shrinkage=0.0307707


Tree=97
num_leaves=8
num_cat=0
split_feature=31 7 6 31 15 30 30
split_gain=1.84385 1.63149 1.85376 1.23433 0.601711 0.735318 0.522187
threshold=0.23077958757813838 1867.5000000000002 1.5750000000000004 0.60649890579437293 1.0000000180025095e-35 335.709167573005 152.74388388083591
decision_type=2 2 2 2 2 2 2
left_child=4 3 -3 -2 6 -6 -1
right_child=1 2 -4 -5 5 -7 -8
leaf_value=-2.6061296847133415e-05 -0.0003795200421453019 -4.2535803110813717e-05 0.0025283592941415731 0.0034636742694304397 -0.00027915359314295459 -0.0026364278401699087 0.00051680250637351822
leaf_weight=8871 872 398 798 87 4336 129 2069
leaf_count=8871 872 398 798 87 4336 129 2069
internal_value=7.16818e-05 0.000914713 0.00167284 -3.07912e-05 -4.62506e-05 -0.000347272 7.66072e-05
internal_weight=17560 2155 1196 959 15405 4465 10940
internal_count=17560 2155 1196 959 15405 4465 10940
is_linear=0
shrinkage=0.0307707


Tree=98
num_leaves=7
num_cat=0
split_feature=31 11 11 15 30 29
split_gain=1.73213 1.43673 1.1137 0.565252 0.690771 0.495166
threshold=0.23077958757813838 41195.765000000007 22501.790000000005 1.0000000180025095e-35 335.709167573005 76.000491633265582
decision_type=2 2 2 2 2 2
left_child=3 2 -2 5 -5 -1
right_child=1 -3 -4 4 -6 -7
leaf_value=0.00016855183358038524 0.00055242745565056261 -0.0032402513777628462 0.0020813454833409702 -0.0002705638836741539 -0.0025553175458365336 -0.00038020051427296967
leaf_weight=9060 1416 77 662 4336 129 1880
leaf_count=9060 1416 77 662 4336 129 1880
internal_value=6.94762e-05 0.000886568 0.00103952 -4.48276e-05 -0.000336587 7.425e-05
internal_weight=17560 2155 2078 15405 4465 10940
internal_count=17560 2155 2078 15405 4465 10940
is_linear=0
shrinkage=0.0307707


Tree=99
num_leaves=7
num_cat=0
split_feature=30 3 17 12 28 6
split_gain=0.899124 0.799235 0.75548 0.256283 0.309546 0.182048
threshold=63.196680260131224 29.500000000000004 0.061333097302051755 4.5000000000000009 2000.5000000000002 3.1750000000000007
decision_type=2 2 2 2 2 2
left_child=3 2 -2 5 -5 -1
right_child=1 -3 -4 4 -6 -7
leaf_value=-0.00029968621859767432 0.00086626851934092964 -0.002277316099615229 0.00016082640869618555 5.5775243088640228e-05 -0.002668530794360384 1.7832834103414852e-05
leaf_weight=4147 1730 117 8498 73 86 2909
leaf_count=4147 1730 117 8498 73 86 2909
internal_value=6.73382e-05 0.00025122 0.000280149 -0.000196314 -0.00141791 -0.000168782
internal_weight=17560 10345 10228 7215 159 7056
internal_count=17560 10345 10228 7215 159 7056
is_linear=0
shrinkage=0.0307707


Tree=100
num_leaves=6
num_cat=0
split_feature=30 9 31 2 31
split_gain=1.56069 1.45214 0.744662 1.54373 0.487066
threshold=742.91810656439054 1.0000000180025095e-35 0.15281662666769644 6584.5000000000009 0.14543642130891363
decision_type=2 2 2 2 2
left_child=2 -2 4 -4 -1
right_child=1 -3 3 -5 -6
leaf_value=-0.00011693214581229294 -0.00078380402013441457 0.0045630772065221731 -0.00407354667672902 0.00041049784509791939 -0.0014570170418871725
leaf_weight=12889 75 134 74 4054 262
leaf_count=12889 75 134 74 4054 262
internal_value=1.51353e-06 0.00264446 -3.04579e-05 0.000330093 -0.000143633
internal_weight=17488 209 17279 4128 13151
internal_count=17488 209 17279 4128 13151
is_linear=0
shrinkage=0.0307707


Tree=101
num_leaves=5
num_cat=0
split_feature=31 31 2 31
split_gain=1.50217 0.783556 0.936277 0.456373
threshold=0.64843416443012147 0.15281662666769644 15737.000000000002 0.14543642130891363
decision_type=2 2 2 2
left_child=1 3 -3 -1
right_child=-2 2 -4 -5
leaf_value=-0.00011502009213054653 0.0031757986025797253 0.00027936520585625539 0.003703566532315598 -0.0014121875290646706
leaf_weight=12896 140 4113 77 262
leaf_count=12896 140 4113 77 262
internal_value=1.46689e-06 -2.41544e-05 0.000342312 -0.000140852
internal_weight=17488 17348 4190 13158
internal_count=17488 17348 4190 13158
is_linear=0
shrinkage=0.0307707


Tree=102
num_leaves=6
num_cat=0
split_feature=30 9 31 2 31
split_gain=1.42503 1.36092 0.650165 1.44861 0.429868
threshold=742.91810656439054 1.0000000180025095e-35 0.15281662666769644 6584.5000000000009 0.14543642130891363
decision_type=2 2 2 2 2
left_child=2 -2 4 -4 -1
right_child=1 -3 3 -5 -6
leaf_value=-0.00010979482025003371 -0.00079193919647087144 0.0043842616200782713 -0.0039580374093235561 0.00038565830568572894 -0.0013687373377446611
leaf_weight=12889 75 134 74 4054 262
leaf_count=12889 75 134 74 4054 262
internal_value=1.42198e-06 0.00252688 -2.91283e-05 0.00030777 -0.000134878
internal_weight=17488 209 17279 4128 13151
internal_count=17488 209 17279 4128 13151
is_linear=0
shrinkage=0.0307707


Tree=103
num_leaves=5
num_cat=0
split_feature=31 31 17 31
split_gain=1.37213 0.687471 0.930494 0.402678
threshold=0.64843416443012147 0.15281662666769644 0.056110004977600762 0.14543642130891363
decision_type=2 2 2 2
left_child=1 3 -3 -1
right_child=-2 2 -4 -5
leaf_value=-0.00010815274942808088 0.0030351935536503125 0.0016743213747664638 0.00016487782945961724 -0.0013266239929805473
leaf_weight=12896 140 431 3759 262
leaf_count=12896 140 431 3759 262
internal_value=1.37816e-06 -2.31089e-05 0.000320154 -0.000132417
internal_weight=17488 17348 4190 13158
internal_count=17488 17348 4190 13158
is_linear=0
shrinkage=0.0307707


end of trees

feature_importances:
oof_cs=305
oof_halc=50
oof_lc=45
Premium_Amt_Current_Yr=29
Power_Wt_Ratio=25
Car_Age_Contract=22
Ratio_Premium_Car_Value=20
Years_Associates=20
Age_at_license=18
Contract_Duration=17
Days_Driving_At_Start_Date=17
Vehicle_Power_HP=16
Customer_Loyalty=13
Market_Value_EOY19=12
Policies_Terminated_Non_Payment=12
Yr_Vehicle_Registration=12
Age=11
Total_Policies_Entity=11
Vehicle_Doors=10
Cylinder_Capacity=9
Vehicle_Wt_Kg=8
Time_Since_Last_Renewal=5
Age_at_contract=4
Non_Continuation_Insurance_Flag=4
Years_Driving=4
Half_Yearly_Payment_Method=3
Rural_Urban_Flag=3
Issurance_Broker_Agent_Channel=2
Max_Policy_Simultaneous_Force=2
Car_Age_Contract_Cat_Standard=1

parameters:
[boosting: gbdt]
[objective: regression]
[metric: l2]
[tree_learner: serial]
[device_type: cpu]
[data_sample_strategy: bagging]
[data: ]
[valid: ]
[num_iterations: 271]
[learning_rate: 0.0307707]
[num_leaves: 220]
[num_threads: 0]
[seed: 0]
[deterministic: 0]
[force_col_wise: 0]
[force_row_wise: 0]
[histogram_pool_size: -1]
[max_depth: 3]
[min_data_in_leaf: 72]
[min_sum_hessian_in_leaf: 0.001]
[bagging_fraction: 0.582114]
[pos_bagging_fraction: 1]
[neg_bagging_fraction: 1]
[bagging_freq: 4]
[bagging_seed: 3]
[bagging_by_query: 0]
[feature_fraction: 0.881289]
[feature_fraction_bynode: 1]
[feature_fraction_seed: 2]
[extra_trees: 0]
[extra_seed: 6]
[early_stopping_round: 0]
[early_stopping_min_delta: 0]
[first_metric_only: 0]
[max_delta_step: 0]
[lambda_l1: 4.04005e-05]
[lambda_l2: 0.0230437]
[linear_lambda: 0]
[min_gain_to_split: 0.0502387]
[drop_rate: 0.1]
[max_drop: 50]
[skip_drop: 0.5]
[xgboost_dart_mode: 0]
[uniform_drop: 0]
[drop_seed: 4]
[top_rate: 0.2]
[other_rate: 0.1]
[min_data_per_group: 100]
[max_cat_threshold: 32]
[cat_l2: 10]
[cat_smooth: 10]
[max_cat_to_onehot: 4]
[top_k: 20]
[monotone_constraints: ]
[monotone_constraints_method: basic]
[monotone_penalty: 0]
[feature_contri: ]
[forcedsplits_filename: ]
[refit_decay_rate: 0.9]
[cegb_tradeoff: 1]
[cegb_penalty_split: 0]
[cegb_penalty_feature_lazy: ]
[cegb_penalty_feature_coupled: ]
[path_smooth: 0]
[interaction_constraints: ]
[verbosity: 1]
[saved_feature_importance_type: 0]
[use_quantized_grad: 0]
[num_grad_quant_bins: 4]
[quant_train_renew_leaf: 0]
[stochastic_rounding: 1]
[linear_tree: 0]
[max_bin: 264]
[max_bin_by_feature: ]
[min_data_in_bin: 3]
[bin_construct_sample_cnt: 200000]
[data_random_seed: 1]
[is_enable_sparse: 1]
[enable_bundle: 1]
[use_missing: 1]
[zero_as_missing: 0]
[feature_pre_filter: 1]
[pre_partition: 0]
[two_round: 0]
[header: 0]
[label_column: ]
[weight_column: ]
[group_column: ]
[ignore_column: ]
[categorical_feature: ]
[forcedbins_filename: ]
[precise_float_parser: 0]
[parser_config_file: ]
[objective_seed: 5]
[num_class: 1]
[is_unbalance: 0]
[scale_pos_weight: 4.97956]
[sigmoid: 1]
[boost_from_average: 1]
[reg_sqrt: 0]
[alpha: 0.9]
[fair_c: 1]
[poisson_max_delta_step: 0.7]
[tweedie_variance_power: 1.5]
[lambdarank_truncation_level: 30]
[lambdarank_norm: 1]
[label_gain: ]
[lambdarank_position_bias_regularization: 0]
[eval_at: ]
[multi_error_top_k: 1]
[auc_mu_weights: ]
[num_machines: 1]
[local_listen_port: 12400]
[time_out: 120]
[machine_list_filename: ]
[machines: ]
[gpu_platform_id: -1]
[gpu_device_id: -1]
[gpu_use_dp: 0]
[num_gpu: 1]

end of parameters

pandas_categorical:[]
