tree
version=v4
num_class=1
num_tree_per_iteration=1
label_index=0
max_feature_idx=31
objective=regression
feature_names=Age Age_at_contract Age_at_license Car_Age_Contract Car_Age_Contract_Cat_Standard Contract_Duration Customer_Loyalty Cylinder_Capacity Days_Driving_At_Start_Date Half_Yearly_Payment_Method Issurance_Broker_Agent_Channel Market_Value_EOY19 Max_Policy_Simultaneous_Force Max_Product_Simultaneous_Held Multiple_Drivers_Regular_Flag Non_Continuation_Insurance_Flag Policies_Terminated_Non_Payment Power_Wt_Ratio Premium_Amt_Current_Yr Ratio_Premium_Car_Value Rural_Urban_Flag Time_Since_Last_Renewal Total_Policies_Entity Vehicle_Doors Vehicle_Power_HP Vehicle_Wt_Kg Years_Associates Years_Driving Yr_Vehicle_Registration oof_lc oof_halc oof_cs
feature_infos=[19:101] [18:91] [6575:23602] [0:68] [0:1] [32:14244] [1:15.550000000000001] [49:7480] [-4732:25943] [0:1] [0:1] [270.45999999999998:220675.79999999999] [1:17] [1:4] [0:1] [0:1] [0:7] [0:2.5172413793103448] [40.200000000000003:2143.8600000000001] [0.00082567981271379997:0.90841529246468999] [0:1] [1:4] [1:17] [0:6] [0:580] [43:6200] [1:40] [1:77] [1950:2018] [-52.876587401090561:919.45679527462005] [-121.59144686230663:2192.9640127118746] [-0.06042369401346178:0.89284713454294595]
tree_sizes=845 884 885 881 887 881 886 886 883 885 880 885 882 884 880 883 880 883 883 892 889 889 888 890 888 885 899 897 885 885 898 890 897 892 888 899 896 889 897 885 894 895 896 889 902 894 899 896 893 888 898 897 898 897 902 899 899 893 886 788 879 801 878 804 880 884 806 786 879 784

Tree=0
num_leaves=8
num_cat=0
split_feature=31 31 31 31 31 31 31
split_gain=254.31 53.3778 44.6607 11.2516 8.46451 4.35892 3.2593
threshold=0.23619005920836869 0.10503136166808365 0.37595171306175734 0.56990218419682359 0.059750317022527713 0.18187495629917708 0.32084457251611587
decision_type=2 2 2 2 2 2 2
left_child=1 4 6 -4 -1 -3 -2
right_child=2 5 3 -5 -6 -7 -8
leaf_value=0.10720120721292642 0.11756942511296899 0.11191966706094679 0.12695309397028087 0.13653039983783816 0.10936220955615043 0.11445657092435209 0.12189398039821649
leaf_weight=9489 1147 3481 682 288 4370 1647 384
leaf_count=9489 1147 3481 682 288 4370 1647 384
internal_value=0.110797 0.109193 0.122976 0.129797 0.107883 0.112734 0.118654
internal_weight=21488 18987 2501 970 13859 5128 1531
internal_count=21488 18987 2501 970 13859 5128 1531
is_linear=0
shrinkage=1


Tree=1
num_leaves=8
num_cat=0
split_feature=31 31 31 31 31 31 31
split_gain=234.065 49.1285 41.1269 7.79067 7.57536 5.96984 4.0707
threshold=0.23619005920836869 0.10503136166808365 0.41562663821445339 0.059750317022527713 0.56990218419682359 0.32084457251611587 0.16652339484832004
decision_type=2 2 2 2 2 2 2
left_child=1 3 5 -1 -4 -2 -3
right_child=2 6 4 -5 -6 -7 -8
leaf_value=-0.0034948819402353527 0.0064520820653409935 0.00081417446015853625 0.01632702207320632 -0.0014216796061459502 0.02464268568522375 0.011509990604001345 0.0031247530420967359
leaf_weight=9489 1147 2910 486 4370 288 580 2218
leaf_count=9489 1147 2910 486 4370 288 580 2218
internal_value=-4.50189e-05 -0.00158402 0.0116387 -0.00284116 0.0194212 0.00815074 0.00181356
internal_weight=21488 18987 2501 13859 774 1727 5128
internal_count=21488 18987 2501 13859 774 1727 5128
is_linear=0
shrinkage=0.0406293


Tree=2
num_leaves=8
num_cat=0
split_feature=31 31 31 31 31 31 31
split_gain=215.431 45.2175 38.0095 9.48653 7.17047 3.75736 2.71002
threshold=0.23619005920836869 0.10503136166808365 0.37595171306175734 0.56990218419682359 0.059750317022527713 0.18187495629917708 0.32084457251611587
decision_type=2 2 2 2 2 2 2
left_child=1 4 6 -4 -1 -3 -2
right_child=2 5 3 -5 -6 -7 -8
leaf_value=-0.0033528873751755418 0.0061899384984004154 0.00098339170478631884 0.014847390114778085 0.023641470227230954 -0.0013639180936837814 0.0033387448874932662 0.010133291331327328
leaf_weight=9489 1147 3481 682 288 4370 1647 384
leaf_count=9489 1147 3481 682 288 4370 1647 384
internal_value=-4.31899e-05 -0.00151966 0.0111658 0.0174584 -0.00272573 0.00173988 0.007179
internal_weight=21488 18987 2501 970 13859 5128 1531
internal_count=21488 18987 2501 970 13859 5128 1531
is_linear=0
shrinkage=0.0406293


Tree=3
num_leaves=8
num_cat=0
split_feature=31 31 31 31 31 31 31
split_gain=198.285 44.8196 31.7465 6.60021 6.36176 4.25704 4.23312
threshold=0.24469146637188419 0.10503136166808365 0.41562663821445339 0.060512236389322856 0.56990218419682359 0.32084457251611587 0.18187495629917708
decision_type=2 2 2 2 2 2 2
left_child=1 3 5 -1 -4 -2 -3
right_child=2 6 4 -5 -6 -7 -8
leaf_value=-0.003206854234798039 0.006161587400915945 0.00094343699508486387 0.01506042779434796 -0.0012867396333876542 0.022680934234892494 0.010565915051126038 0.0033575511959062329
leaf_weight=9587 965 3481 486 4272 288 580 1829
leaf_count=9587 965 3481 486 4272 288 580 1829
internal_value=-4.14351e-05 -0.00139893 0.0111797 -0.00261498 0.017896 0.00781499 0.00177497
internal_weight=21488 19169 2319 13859 774 1545 5310
internal_count=21488 19169 2319 13859 774 1545 5310
is_linear=0
shrinkage=0.0406293


Tree=4
num_leaves=8
num_cat=0
split_feature=31 31 31 31 31 31 31
split_gain=182.643 38.383 32.3038 7.99794 5.00821 4.08914 2.24125
threshold=0.23619005920836869 0.097447209597018566 0.37595171306175734 0.56990218419682359 0.059750317022527713 0.16652339484832004 0.32084457251611587
decision_type=2 2 2 2 2 2 2
left_child=1 4 6 -4 -1 -3 -2
right_child=2 5 3 -5 -6 -7 -8
leaf_value=-0.0030863699319860914 0.0057061822383878049 0.00053328316505613712 0.013684736423276037 0.021759423846546926 -0.0013535893477597421 0.0027756176012860376 0.0092922974357720484
leaf_weight=9489 1147 3401 682 288 3879 2218 384
leaf_count=9489 1147 3401 682 288 3879 2218 384
internal_value=-3.97517e-05 -0.00139923 0.0102811 0.0160822 -0.00258357 0.0014184 0.00660564
internal_weight=21488 18987 2501 970 13368 5619 1531
internal_count=21488 18987 2501 970 13368 5619 1531
is_linear=0
shrinkage=0.0406293


Tree=5
num_leaves=8
num_cat=0
split_feature=31 31 31 6 31 31 31
split_gain=168.191 39.4892 25.4589 5.75925 5.56924 3.96025 3.20096
threshold=0.24887585033198889 0.10503136166808365 0.41562663821445339 1.2750000000000001 0.059750317022527713 0.18187495629917708 0.33216254499311287
decision_type=2 2 2 2 2 2 2
left_child=1 4 6 -4 -1 -3 -2
right_child=2 5 3 -5 -6 -7 -8
leaf_value=-0.0029609728222062871 0.0060179329787581554 0.00086849483953818857 0.0036934097757067501 0.017450595220098657 -0.0012080922512641415 0.0031654040095047821 0.010070240340335251
leaf_weight=9489 968 3481 54 720 4370 1924 482
leaf_count=9489 968 3481 54 720 4370 1924 482
internal_value=-3.81366e-05 -0.00125948 0.010541 0.0164908 -0.00240826 0.00168612 0.00736498
internal_weight=21488 19264 2224 774 13859 5405 1450
internal_count=21488 19264 2224 774 13859 5405 1450
is_linear=0
shrinkage=0.0406293


Tree=6
num_leaves=8
num_cat=0
split_feature=31 31 31 26 31 31 25
split_gain=154.905 32.5343 27.4053 7.26679 4.28924 3.48391 2.2388
threshold=0.23619005920836869 0.097447209597018566 0.37595171306175734 1.5000000000000002 0.048448208453465945 0.16652339484832004 1259.5000000000002
decision_type=2 2 2 2 2 2 2
left_child=1 4 6 -4 -1 -3 -2
right_child=2 5 3 -5 -6 -7 -8
leaf_value=-0.0029725208565731611 0.0043028832859513455 0.00048851045436005354 0.0059118758996793627 0.016201029246178732 -0.0014866246185737211 0.0025582627771775445 0.0074390223431804858
leaf_weight=8028 662 3401 131 839 5340 2218 869
leaf_count=8028 662 3401 131 839 5340 2218 869
internal_value=-3.65871e-05 -0.00128858 0.00946827 0.0148115 -0.00237896 0.00130551 0.00608296
internal_weight=21488 18987 2501 970 13368 5619 1531
internal_count=21488 18987 2501 970 13368 5619 1531
is_linear=0
shrinkage=0.0406293


Tree=7
num_leaves=8
num_cat=0
split_feature=31 31 31 31 31 31 31
split_gain=142.758 33.4673 21.6507 5.41495 4.77593 3.34857 2.82998
threshold=0.24887585033198889 0.10503136166808365 0.41562663821445339 0.61548388967784173 0.060512236389322856 0.18187495629917708 0.32084457251611587
decision_type=2 2 2 2 2 2 2
left_child=1 4 6 -4 -1 -3 -2
right_child=2 5 3 -5 -6 -7 -8
leaf_value=-0.0027213564405780262 0.0053169873926541145 0.00079956668625973722 0.013219263365408596 0.021034014089212502 -0.0010880149011841937 0.0029116569165076093 0.0089808650438275486
leaf_weight=9587 870 3481 578 196 4272 1924 580
leaf_count=9587 870 3481 578 196 4272 1924 580
internal_value=-3.51006e-05 -0.00116032 0.00971137 0.0151982 -0.00221788 0.0015514 0.00678254
internal_weight=21488 19264 2224 774 13859 5405 1450
internal_count=21488 19264 2224 774 13859 5405 1450
is_linear=0
shrinkage=0.0406293


Tree=8
num_leaves=8
num_cat=0
split_feature=31 31 31 31 31 31 31
split_gain=131.393 30.803 19.9271 4.98388 4.39573 3.082 2.60469
threshold=0.24887585033198889 0.10503136166808365 0.41562663821445339 0.61548388967784173 0.060512236389322856 0.18187495629917708 0.32084457251611587
decision_type=2 2 2 2 2 2 2
left_child=1 4 6 -4 -1 -3 -2
right_child=2 5 3 -5 -6 -7 -8
leaf_value=-0.0026107896893377072 0.0051009621395350637 0.00076708096865520342 0.012682174588684004 0.020179417536696057 -0.0010438095730711792 0.0027933585913330751 0.0086159788844532605
leaf_weight=9587 870 3481 578 196 4272 1924 580
leaf_count=9587 870 3481 578 196 4272 1924 580
internal_value=-3.36745e-05 -0.00111317 0.0093168 0.0145807 -0.00212777 0.00148837 0.00650697
internal_weight=21488 19264 2224 774 13859 5405 1450
internal_count=21488 19264 2224 774 13859 5405 1450
is_linear=0
shrinkage=0.0406293


Tree=9
num_leaves=8
num_cat=0
split_feature=31 31 31 26 31 31 25
split_gain=121.064 25.4038 21.4703 6.34051 3.43306 2.97804 2.07945
threshold=0.23619005920836869 0.096081702613722689 0.37595171306175734 1.5000000000000002 0.032854445562546068 0.14510228963835145 1259.5000000000002
decision_type=2 2 2 2 2 2 2
left_child=1 4 6 -4 -1 -3 -2
right_child=2 5 3 -5 -6 -7 -8
leaf_value=-0.002869889877869799 0.0036584673074564547 0.00011937869887090063 0.0047867406118347958 0.014397785711461974 -0.001549253782638731 0.0019814343430646052 0.0066809418876067079
leaf_weight=5675 662 2620 131 839 7602 3090 869
leaf_count=5675 662 2620 131 839 7602 3090 869
internal_value=-3.23064e-05 -0.00113913 0.00837043 0.0130998 -0.00211373 0.00112704 0.00537403
internal_weight=21488 18987 2501 970 13277 5710 1531
internal_count=21488 18987 2501 970 13277 5710 1531
is_linear=0
shrinkage=0.0406293


Tree=10
num_leaves=8
num_cat=0
split_feature=31 31 31 31 30 31 30
split_gain=116.45 29.5194 15.7804 6.1123 3.6957 1.97575 1.77858
threshold=0.26585200363978495 0.12266129664812721 0.46954971474866081 0.060512236389322856 274.01291201927341 0.33216254499311287 68.275093469034758
decision_type=2 2 2 2 2 2 2
left_child=1 3 5 -1 -4 -2 -3
right_child=2 6 4 -5 -6 -7 -8
leaf_value=-0.0023952801535220502 0.005601304129438163 -0.00039419629709732122 0.0012721654993174158 -0.00066931307465962879 0.015916859182171499 0.0086872756375048939 0.0021770374079369916
leaf_weight=9473 679 496 30 5272 549 691 4243
leaf_count=9473 679 496 30 5272 549 691 4243
internal_value=6.5565e-05 -0.000881619 0.00953449 -0.00177817 0.0151581 0.00715781 0.00190792
internal_weight=21433 19484 1949 14745 579 1370 4739
internal_count=21433 19484 1949 14745 579 1370 4739
is_linear=0
shrinkage=0.0406293


Tree=11
num_leaves=8
num_cat=0
split_feature=31 31 31 31 30 31 30
split_gain=107.18 27.1694 14.5553 5.66269 3.07493 2.39697 1.63699
threshold=0.26585200363978495 0.12266129664812721 0.49644584464406638 0.067653673902098352 315.39225309255181 0.35916074207842213 68.275093469034758
decision_type=2 2 2 2 2 2 2
left_child=1 3 5 -1 -4 -2 -3
right_child=2 6 4 -5 -6 -7 -8
leaf_value=-0.0022261143832178936 0.0057800185738169137 -0.00037818048273141798 0.0024560587572137259 -0.00048723108273783283 0.016103802003961221 0.0091231394390299588 0.0020885857542507465
leaf_weight=10334 872 496 29 4411 452 596 4243
leaf_count=10334 872 496 29 4411 452 596 4243
internal_value=6.29012e-05 -0.000845799 0.00914711 -0.00170592 0.015281 0.00713731 0.00183041
internal_weight=21433 19484 1949 14745 481 1468 4739
internal_count=21433 19484 1949 14745 481 1468 4739
is_linear=0
shrinkage=0.0406293


Tree=12
num_leaves=8
num_cat=0
split_feature=31 31 31 31 30 31 6
split_gain=98.6473 25.0065 13.4317 5.23122 3.21499 1.7002 1.61522
threshold=0.26585200363978495 0.12266129664812721 0.46954971474866081 0.060512236389322856 274.01291201927341 0.33216254499311287 3.5250000000000004
decision_type=2 2 2 2 2 2 2
left_child=1 3 5 -1 -4 -2 -3
right_child=2 6 4 -5 -6 -7 -8
leaf_value=-0.0022075160342857115 0.0051388888923215017 0.0021340958422301414 0.0010123390702185494 -0.00061078541338460495 0.014671421419644406 0.0080015891359887705 0.00026782684299625779
leaf_weight=9473 679 3779 30 5272 549 691 960
leaf_count=9473 679 3779 30 5272 549 691 960
internal_value=6.03455e-05 -0.000811435 0.00877547 -0.00163661 0.0139637 0.00658278 0.00175604
internal_weight=21433 19484 1949 14745 579 1370 4739
internal_count=21433 19484 1949 14745 579 1370 4739
is_linear=0
shrinkage=0.0406293


Tree=13
num_leaves=8
num_cat=0
split_feature=31 31 31 31 31 30 6
split_gain=90.7942 23.0158 12.5906 4.84694 3.52955 1.79672 1.48663
threshold=0.26585200363978495 0.12266129664812721 0.56990218419682359 0.067653673902098352 0.35916074207842213 462.31372248862891 3.5250000000000004
decision_type=2 2 2 2 2 2 2
left_child=1 3 4 -1 -2 -4 -3
right_child=2 6 5 -5 -6 -7 -8
leaf_value=-0.0020513843708786926 0.0053106482798334978 0.0020473889398498549 0.006949298957991408 -0.00044261964609559114 0.0090427154948835228 0.017646424539770236 0.00025694521560524336
leaf_weight=10334 872 3779 29 4411 804 244 960
leaf_count=10334 872 3779 29 4411 804 244 960
internal_value=5.78937e-05 -0.000778467 0.00841893 -0.00157012 0.00710097 0.0165101 0.00168469
internal_weight=21433 19484 1949 14745 1676 273 4739
internal_count=21433 19484 1949 14745 1676 273 4739
is_linear=0
shrinkage=0.0406293


Tree=14
num_leaves=8
num_cat=0
split_feature=31 31 31 31 31 30 30
split_gain=83.6347 22.9188 10.465 4.47713 2.3354 1.65369 1.55241
threshold=0.2806196852052934 0.12266129664812721 0.56990218419682359 0.060512236389322856 0.35916074207842213 462.31372248862891 69.452854531978531
decision_type=2 2 2 2 2 2 2
left_child=1 3 4 -1 -2 -4 -3
right_child=2 6 5 -5 -6 -7 -8
leaf_value=-0.0020344799277884503 0.0054519313648259621 -0.00040380397187942242 0.0066669539094861294 -0.00055731164212230368 0.0086753167568531207 0.016929462721109047 0.0019435959230741495
leaf_weight=9473 689 520 29 5272 804 244 4402
leaf_count=9473 689 520 29 5272 804 244 4402
internal_value=5.55415e-05 -0.00070499 0.00852518 -0.00150633 0.00718777 0.0158393 0.0016956
internal_weight=21433 19667 1766 14745 1493 273 4922
internal_count=21433 19667 1766 14745 1493 273 4922
is_linear=0
shrinkage=0.0406293


Tree=15
num_leaves=8
num_cat=0
split_feature=31 31 31 31 30 31 30
split_gain=77.0555 19.4593 10.7512 4.20738 2.50923 1.71436 1.35065
threshold=0.26585200363978495 0.12266129664812721 0.49644584464406638 0.041861512056927376 315.39225309255181 0.33216254499311287 68.275093469034758
decision_type=2 2 2 2 2 2 2
left_child=1 3 5 -1 -4 -2 -3
right_child=2 6 4 -5 -6 -7 -8
leaf_value=-0.0021746404223195064 0.0045318023836197364 -0.00045848945379039726 0.0014422340500239107 -0.00079945435323380723 0.013770824085637319 0.007316511254770299 0.0017821766483581013
leaf_weight=6923 679 496 29 7822 452 789 4243
leaf_count=6923 679 496 29 7822 452 789 4243
internal_value=5.32849e-05 -0.000717204 0.0077558 -0.00144512 0.0130275 0.00602849 0.00154766
internal_weight=21433 19484 1949 14745 481 1468 4739
internal_count=21433 19484 1949 14745 481 1468 4739
is_linear=0
shrinkage=0.0406293


Tree=16
num_leaves=8
num_cat=0
split_feature=31 31 31 31 31 25 6
split_gain=70.9213 17.9101 10.0084 3.94267 2.71799 1.63568 1.33166
threshold=0.26585200363978495 0.12266129664812721 0.56990218419682359 0.067653673902098352 0.35916074207842213 1070.5000000000002 3.5250000000000004
decision_type=2 2 2 2 2 2 2
left_child=1 3 4 -1 -2 -4 -3
right_child=2 6 5 -5 -6 -7 -8
leaf_value=-0.0018204671706478007 0.0046945583349568328 0.0018280536475715667 0.024147371116788965 -0.00036951190988163249 0.0079695755441162464 0.01361272700613975 0.0001335005486266592
leaf_weight=10334 872 3779 27 4411 804 246 960
leaf_count=10334 872 3779 27 4411 804 246 960
internal_value=5.112e-05 -0.000688065 0.00744069 -0.00138641 0.00626563 0.0146546 0.00148478
internal_weight=21433 19484 1949 14745 1676 273 4739
internal_count=21433 19484 1949 14745 1676 273 4739
is_linear=0
shrinkage=0.0406293


Tree=17
num_leaves=8
num_cat=0
split_feature=31 31 31 31 30 31 28
split_gain=65.4539 14.4335 11.0547 3.67974 2.62716 1.64732 1.15572
threshold=0.24887585033198889 0.12266129664812721 0.46954971474866081 0.041861512056927376 274.01291201927341 0.33216254499311287 1991.5000000000002
decision_type=2 2 2 2 2 2 2
left_child=1 3 5 -1 -4 -2 -3
right_child=2 6 4 -5 -6 -7 -8
leaf_value=-0.0020123221129047068 0.0038563068843397172 -0.0047108821905131595 -0.00025331629900226811 -0.00072625273301504323 0.012094074034185122 0.0064516514043214549 0.0013819219219369286
leaf_weight=6923 971 52 30 7822 549 691 4395
leaf_count=6923 971 52 30 7822 549 691 4395
internal_value=4.9043e-05 -0.000718189 0.00661964 -0.00133008 0.0114543 0.00493536 0.00131068
internal_weight=21433 19192 2241 14745 579 1662 4447
internal_count=21433 19192 2241 14745 579 1662 4447
is_linear=0
shrinkage=0.0406293


Tree=18
num_leaves=8
num_cat=0
split_feature=31 31 31 31 6 25 6
split_gain=60.2727 16.3806 7.86747 3.44859 1.91918 1.50796 1.32021
threshold=0.2806196852052934 0.12266129664812721 0.56990218419682359 0.067653673902098352 1.2750000000000001 1070.5000000000002 3.5250000000000004
decision_type=2 2 2 2 2 2 2
left_child=1 3 4 -1 -2 -4 -3
right_child=2 6 5 -5 -6 -7 -8
leaf_value=-0.0016819908033745652 0.0034302403175392251 0.001771120711496318 0.022693488544863336 -0.00032499172543747849 0.0068790543305695751 0.012578475376985159 0.00012944201019075084
leaf_weight=10334 347 3902 27 4411 1146 246 1020
leaf_count=10334 347 3902 27 4411 1146 246 1020
internal_value=4.70504e-05 -0.000598581 0.0072371 -0.00127604 0.00607749 0.0135789 0.00143091
internal_weight=21433 19667 1766 14745 1493 273 4922
internal_count=21433 19667 1766 14745 1493 273 4922
is_linear=0
shrinkage=0.0406293


Tree=19
num_leaves=8
num_cat=0
split_feature=31 31 31 31 30 7 31
split_gain=55.7138 12.2655 9.47772 3.66475 2.38783 1.53629 0.977784
threshold=0.24887585033198889 0.067653673902098352 0.46954971474866081 0.14510228963835145 274.01291201927341 1707.0000000000002 0.032169946499946457
decision_type=2 2 2 2 2 2 2
left_child=1 6 5 -3 -4 -2 -1
right_child=2 3 4 -5 -6 -7 -8
leaf_value=-0.0019863270482119288 0.0028582348129412723 -0.00020354255433065988 -0.00057785655547506034 0.0014970035489212947 0.011193680191711854 0.0054508446769994234 -0.0011945471648669578
leaf_weight=5470 579 5471 30 3387 549 1083 4864
leaf_count=5470 579 5471 30 3387 549 1083 4864
internal_value=4.51388e-05 -0.000662709 0.00610717 0.000446689 0.0105838 0.00454764 -0.00161365
internal_weight=21433 19192 2241 8858 579 1662 10334
internal_count=21433 19192 2241 8858 579 1662 10334
is_linear=0
shrinkage=0.0406293


Tree=20
num_leaves=8
num_cat=0
split_feature=31 31 31 31 7 31 29
split_gain=44.0721 10.2937 8.42606 4.10278 1.91199 1.89408 1.29387
threshold=0.21736593279652419 0.35916074207842213 0.097447209597018566 0.61548388967784173 2145.5000000000005 0.032169946499946457 250.95582295294017
decision_type=2 2 2 2 2 2 2
left_child=2 4 5 -3 -2 -1 -4
right_child=1 3 6 -5 -6 -7 -8
leaf_value=-0.0019070359538041653 0.0022331804428814711 0.0064897459512258523 0.00053831755027423944 0.012895116772347327 0.0059796398449963786 -0.00092680816686525381 0.007042185557640428
leaf_weight=5566 1664 865 5074 204 260 7834 51
leaf_count=5566 1664 865 5074 204 260 7834 51
internal_value=-5.90041e-05 0.00451552 -0.000798089 0.0077121 0.00273946 -0.00133397 0.000603039
internal_weight=21518 2993 18525 1069 1924 13400 5125
internal_count=21518 2993 18525 1069 1924 13400 5125
is_linear=0
shrinkage=0.0406293


Tree=21
num_leaves=8
num_cat=0
split_feature=31 31 31 31 7 31 29
split_gain=40.5636 9.47425 7.75528 3.77617 1.75978 1.74329 1.19087
threshold=0.21736593279652419 0.35916074207842213 0.097447209597018566 0.61548388967784173 2145.5000000000005 0.032169946499946457 250.95582295294017
decision_type=2 2 2 2 2 2 2
left_child=2 4 5 -3 -2 -1 -4
right_child=1 3 6 -5 -6 -7 -8
leaf_value=-0.0018295544418970716 0.0021424479172390942 0.0062260721478408273 0.00051644610326035182 0.012371197154364728 0.0057366912559738388 -0.00088915255055313014 0.00675606667095573
leaf_weight=5566 1664 865 5074 204 260 7834 51
leaf_count=5566 1664 865 5074 204 260 7834 51
internal_value=-5.66068e-05 0.00433206 -0.000765663 0.00739876 0.00262816 -0.00127977 0.000578538
internal_weight=21518 2993 18525 1069 1924 13400 5125
internal_count=21518 2993 18525 1069 1924 13400 5125
is_linear=0
shrinkage=0.0406293


Tree=22
num_leaves=8
num_cat=0
split_feature=31 31 31 31 7 31 29
split_gain=37.3344 8.72002 7.1379 3.47556 1.61969 1.60514 1.09607
threshold=0.21736593279652419 0.35916074207842213 0.097447209597018566 0.61548388967784173 2145.5000000000005 0.034159343324626196 250.95582295294017
decision_type=2 2 2 2 2 2 2
left_child=2 4 5 -3 -2 -1 -4
right_child=1 3 6 -5 -6 -7 -8
leaf_value=-0.0017322568872832375 0.0020554018212355632 0.0059731113490072438 0.0004954632475559958 0.011868564757730295 0.0055036135465628454 -0.00083581476389146911 0.006481572463079302
leaf_weight=5859 1664 865 5074 204 260 7541 51
leaf_count=5859 1664 865 5074 204 260 7541 51
internal_value=-5.43069e-05 0.00415605 -0.000734555 0.00709816 0.00252138 -0.00122777 0.000555032
internal_weight=21518 2993 18525 1069 1924 13400 5125
internal_count=21518 2993 18525 1069 1924 13400 5125
is_linear=0
shrinkage=0.0406293


Tree=23
num_leaves=8
num_cat=0
split_feature=31 31 31 31 31 30 29
split_gain=34.3623 8.02584 6.59117 3.19888 1.56601 1.51462 1.1093
threshold=0.21736593279652419 0.35916074207842213 0.10166353812533342 0.61548388967784173 0.032169946499946457 360.31344211674025 250.95582295294017
decision_type=2 2 2 2 2 2 2
left_child=2 5 4 -3 -1 -2 -4
right_child=1 3 6 -5 -6 -7 -8
leaf_value=-0.0016848405069124174 0.0017434443432851651 0.0057304278919166236 0.00052359501738592198 0.011386353209429443 -0.00080030235112817821 0.0043427309696537821 0.0066680183232785484
leaf_weight=5566 1424 865 4780 204 8130 500 49
leaf_count=5566 1424 865 4780 204 8130 500 49
internal_value=-5.21004e-05 0.00398719 -0.000704711 0.00680976 -0.00115978 0.00241893 0.000585943
internal_weight=21518 2993 18525 1069 13696 1924 4829
internal_count=21518 2993 18525 1069 13696 1924 4829
is_linear=0
shrinkage=0.0406293


Tree=24
num_leaves=8
num_cat=0
split_feature=31 31 31 30 31 31 29
split_gain=31.6268 7.39394 6.06646 2.34962 1.60831 1.44445 1.02099
threshold=0.21736593279652419 0.46954971474866081 0.10166353812533342 259.97823021323308 0.33216254499311287 0.034159343324626196 250.95582295294017
decision_type=2 2 2 2 2 2 2
left_child=2 4 5 -3 -2 -1 -4
right_child=1 3 6 -5 -6 -7 -8
leaf_value=-0.0015952198892460186 0.0021657254574244194 -0.0031576529652167485 0.00050232164412286921 0.0085155270565200353 0.0044922640546696179 -0.00075188458224222793 0.0063971018104536466
leaf_weight=5859 1721 30 4780 556 686 7837 49
leaf_count=5859 1721 30 4780 556 686 7837 49
internal_value=-4.99836e-05 0.0038252 -0.000676079 0.00791792 0.00282879 -0.00111265 0.000562136
internal_weight=21518 2993 18525 586 2407 13696 4829
internal_count=21518 2993 18525 586 2407 13696 4829
is_linear=0
shrinkage=0.0406293


Tree=25
num_leaves=8
num_cat=0
split_feature=31 31 31 0 31 11 24
split_gain=29.1383 7.21698 5.44006 3.70136 1.33133 1.20103 1.20044
threshold=0.24469146637188419 0.10166353812533342 0.61548388967784173 51.500000000000007 0.032169946499946457 29705.000000000004 88.500000000000014
decision_type=2 2 2 2 2 2 2
left_child=1 4 3 -2 -1 -3 -4
right_child=2 5 6 -5 -6 -7 -8
leaf_value=-0.0015515740704664101 0.0024201912316541736 0.00087994354388568096 0.016054504738664155 0.0060032904340166322 -0.00073600325954639636 -0.001086937430367562 0.0088088276529124151
leaf_weight=5566 1400 4925 50 721 8130 572 154
leaf_count=5566 1400 4925 50 721 8130 572 154
internal_value=-4.79528e-05 -0.00056832 0.00424771 0.00363821 -0.00106745 0.000675276 0.0105847
internal_weight=21518 19193 2325 2121 13696 5497 204
internal_count=21518 19193 2325 2121 13696 5497 204
is_linear=0
shrinkage=0.0406293


Tree=26
num_leaves=8
num_cat=0
split_feature=31 31 31 31 31 7 16
split_gain=26.9256 6.51131 5.18202 2.60875 1.57634 1.48245 0.593617
threshold=0.21736593279652419 0.35916074207842213 0.067653673902098352 0.68475372772969234 0.14510228963835145 2145.5000000000005 1.0000000180025095e-35
decision_type=2 2 2 2 2 2 2
left_child=2 5 6 -3 -4 -2 -1
right_child=1 3 4 -5 -6 -7 -8
leaf_value=-0.00092186327304599237 0.0016712251672714063 0.0053956130487852454 -0.00024284225159657517 0.012028395087357074 0.00097098323207490652 0.0049701195314138021 -0.001534578113805696
leaf_weight=5341 1664 960 5471 109 2608 260 5105
leaf_count=5341 1664 960 5471 109 2608 260 5105
internal_value=-4.60045e-05 0.00352958 -0.000623695 0.00607192 0.000148995 0.00211702 -0.0012213
internal_weight=21518 2993 18525 1069 8079 1924 10446
internal_count=21518 2993 18525 1069 8079 1924 10446
is_linear=0
shrinkage=0.0406293


Tree=27
num_leaves=8
num_cat=0
split_feature=31 31 31 30 30 31 31
split_gain=24.7822 6.01484 4.76949 2.11665 1.49026 1.45085 0.563929
threshold=0.21736593279652419 0.46954971474866081 0.067653673902098352 259.97823021323308 791.95257344432105 0.14510228963835145 0.019961033598608405
decision_type=2 2 2 2 2 2 2
left_child=2 4 6 -3 -2 -4 -1
right_child=1 3 5 -5 -6 -7 -8
leaf_value=-0.0015797055860738507 0.0022770090179121375 -0.0034346141530201381 -0.00023297572796579407 0.0076447462336826722 0.0073432389070418914 0.00093153285994731908 -0.00095327293823801551
leaf_weight=3642 2307 30 5471 556 100 2608 6804
leaf_count=3642 2307 30 5471 556 100 2608 6804
internal_value=-4.41354e-05 0.00338618 -0.000598355 0.00707754 0.00248749 0.000142942 -0.00117168
internal_weight=21518 2993 18525 586 2407 8079 10446
internal_count=21518 2993 18525 586 2407 8079 10446
is_linear=0
shrinkage=0.0406293


Tree=28
num_leaves=8
num_cat=0
split_feature=31 31 31 0 24 11 31
split_gain=22.875 5.65778 4.43807 3.38134 1.11433 1.11357 1.07525
threshold=0.24469146637188419 0.10166353812533342 0.61548388967784173 51.500000000000007 88.500000000000014 29705.000000000004 0.034159343324626196
decision_type=2 2 2 2 2 2 2
left_child=1 6 3 -2 -4 -3 -1
right_child=2 5 4 -5 -6 -7 -8
leaf_value=-0.0013616887478949105 0.0020490578630699913 0.00079476566320875735 0.014757440513921902 0.0054737548470151455 0.007776464553014774 -0.00109914688017286 -0.00063406919891154589
leaf_weight=5859 1400 4925 50 721 154 572 7837
leaf_count=5859 1400 4925 50 721 154 572 7837
internal_value=-4.23422e-05 -0.000503404 0.00376374 0.00321323 0.00948749 0.000597691 -0.000945337
internal_weight=21518 19193 2325 2121 204 5497 13696
internal_count=21518 19193 2325 2121 204 5497 13696
is_linear=0
shrinkage=0.0406293


Tree=29
num_leaves=8
num_cat=0
split_feature=31 31 29 31 31 1 11
split_gain=21.1293 8.15074 3.53022 2.44864 1.62233 1.59668 0.827304
threshold=0.33216254499311287 0.14510228963835145 214.48094734445056 0.68475372772969234 0.067653673902098352 53.500000000000007 15661.000000000002
decision_type=2 2 2 2 2 2 2
left_child=1 4 -3 5 -1 -2 -5
right_child=3 2 -4 6 -6 -7 -8
leaf_value=-0.0010817313584476917 0.0036771809312889144 0.00086523426308998186 0.0051838801123499263 0.017522900967553462 -0.00021809432058178267 0.0072709997705807262 0.0089806949863779177
leaf_weight=10446 899 3990 339 24 5471 264 85
leaf_count=10446 899 3990 339 24 5471 264 85
internal_value=-4.06219e-05 -0.000359742 0.00120342 0.00503871 -0.000784882 0.00449297 0.0108615
internal_weight=21518 20246 4329 1272 15917 1163 109
internal_count=21518 20246 4329 1272 15917 1163 109
is_linear=0
shrinkage=0.0406293


Tree=30
num_leaves=8
num_cat=0
split_feature=31 31 19 31 30 7 31
split_gain=19.7219 5.83197 2.53736 2.42052 2.15984 0.958926 0.294132
threshold=0.18187495629917708 0.33216254499311287 0.013943762447578452 0.062784317547146584 337.48297295340973 999.50000000000011 0.021794333199425576
decision_type=2 2 2 2 2 2 2
left_child=3 4 -3 6 -2 -5 -1
right_child=1 2 -4 5 -6 -7 -8
leaf_value=-0.0013607873421172454 0.00088669088885696197 0.0018226352650402855 0.0058457613740304764 -0.0016298920401174976 0.0036589311409439547 2.7639264426537166e-05 -0.00090382999003224031
leaf_weight=3821 2334 359 927 629 579 6858 5940
leaf_count=3821 2334 359 927 629 579 6858 5940
internal_value=-5.32739e-05 0.00244377 0.00472266 -0.000661176 0.00143771 -0.000111614 -0.00108271
internal_weight=21447 4199 1286 17248 2913 7487 9761
internal_count=21447 4199 1286 17248 2913 7487 9761
is_linear=0
shrinkage=0.0406293


Tree=31
num_leaves=8
num_cat=0
split_feature=31 31 19 5 30 7 31
split_gain=18.1519 5.3677 2.33537 2.28479 1.9879 1.27123 0.87907
threshold=0.18187495629917708 0.33216254499311287 0.013943762447578452 449.50000000000006 337.48297295340973 999.50000000000011 0.062784317547146584
decision_type=2 2 2 2 2 2 2
left_child=3 4 -3 5 -2 -1 -5
right_child=1 2 -4 6 -6 -7 -8
leaf_value=-0.0012931004267827644 0.00085066534857850754 0.001748582861251445 0.0056082522888117221 -0.001054443930618444 0.0035102714908648663 0.00099024168392281399 -0.00039823859349806811
leaf_weight=508 2334 359 927 9613 579 1938 5189
leaf_count=508 2334 359 927 9613 579 1938 5189
internal_value=-5.11095e-05 0.00234448 0.00453079 -0.000634313 0.0013793 0.000516023 -0.000824404
internal_weight=21447 4199 1286 17248 2913 2446 14802
internal_count=21447 4199 1286 17248 2913 2446 14802
is_linear=0
shrinkage=0.0406293


Tree=32
num_leaves=8
num_cat=0
split_feature=31 31 31 19 24 30 31
split_gain=16.7116 4.57585 2.89944 1.87806 1.13164 1.0192 0.729655
threshold=0.24887585033198889 0.1188626109596413 0.46954971474866081 0.014822203548085852 114.50000000000001 161.28951428650819 0.062784317547146584
decision_type=2 2 2 2 2 2 2
left_child=1 6 3 -2 -4 -3 -1
right_child=2 5 4 -5 -6 -7 -8
leaf_value=-0.00099617729410639874 0.00055893162312837359 0.0012065471386133598 0.0067855663142772533 0.0033972999802017092 0.0027459066763970744 -2.7942812426038419e-08 -0.00038193812091498724
leaf_weight=9761 596 2582 430 1086 156 2092 4744
leaf_count=9761 596 2582 430 1086 156 2092 4744
internal_value=-4.90329e-05 -0.00043904 0.00324901 0.00239155 0.00571016 0.000666505 -0.000795284
internal_weight=21447 19179 2268 1682 586 4674 14505
internal_count=21447 19179 2268 1682 586 4674 14505
is_linear=0
shrinkage=0.0406293


Tree=33
num_leaves=8
num_cat=0
split_feature=31 31 26 5 7 7 31
split_gain=15.5309 4.5782 2.32085 1.96597 1.9198 1.14365 0.720769
threshold=0.18187495629917708 0.34477757008724269 2.5000000000000004 449.50000000000006 1687.5000000000002 999.50000000000011 0.062784317547146584
decision_type=2 2 2 2 2 2 2
left_child=3 4 -3 5 -2 -1 -5
right_child=1 2 -4 6 -6 -7 -8
leaf_value=-0.001235377655066552 7.0644070012463095e-05 0.002066083883680511 0.0057636183612490011 -0.00097112861611266992 0.0021632536047290632 0.00093035908239860775 -0.00037693740565436436
leaf_weight=508 1201 460 717 9613 1821 1938 5189
leaf_count=508 1201 460 717 9613 1821 1938 5189
internal_value=-4.70407e-05 0.00216886 0.00431853 -0.000586498 0.00133161 0.000480566 -0.000762829
internal_weight=21447 4199 1177 17248 3022 2446 14802
internal_count=21447 4199 1177 17248 3022 2446 14802
is_linear=0
shrinkage=0.0406293


Tree=34
num_leaves=8
num_cat=0
split_feature=31 31 7 5 17 7 31
split_gain=14.2945 4.2482 1.89539 1.80947 1.09243 1.05261 0.66339
threshold=0.18187495629917708 0.46954971474866081 1687.5000000000002 449.50000000000006 0.051737406613567606 999.50000000000011 0.062784317547146584
decision_type=2 2 2 2 2 2 2
left_child=3 2 -2 5 -3 -1 -5
right_child=1 4 -4 6 -6 -7 -8
leaf_value=-0.0011851850852341581 0.0004164739419651883 0.011859368339485423 0.002317388981057164 -0.00093167236091909391 0.0048212133174269272 0.0008925591803877822 -0.00036162280018434308
leaf_weight=508 1439 39 2174 9613 547 1938 5189
leaf_count=508 1439 39 2174 9613 547 1938 5189
internal_value=-4.51295e-05 0.00208074 0.00156028 -0.000562669 0.00528962 0.000461041 -0.000731835
internal_weight=21447 4199 3613 17248 586 2446 14802
internal_count=21447 4199 3613 17248 586 2446 14802
is_linear=0
shrinkage=0.0406293


Tree=35
num_leaves=8
num_cat=0
split_feature=31 31 31 19 24 30 31
split_gain=13.2411 3.53632 2.27969 1.76625 1.03347 0.96034 0.612989
threshold=0.24887585033198889 0.1188626109596413 0.46954971474866081 0.014822203548085852 114.50000000000001 161.28951428650819 0.021794333199425576
decision_type=2 2 2 2 2 2 2
left_child=1 6 3 -2 -4 -3 -1
right_child=2 5 4 -5 -6 -7 -8
leaf_value=-0.0011452852484544792 0.0003548414112354842 0.0011056519663910132 0.0061024124003682323 0.0031074241811579837 0.0022419383341164808 -6.5564489458978865e-05 -0.00054567514735330233
leaf_weight=3821 596 2582 430 1086 156 2092 10684
leaf_count=3821 596 2582 430 1086 156 2092 10684
internal_value=-4.32959e-05 -0.000390453 0.00289238 0.00213207 0.00507471 0.000581436 -0.000703628
internal_weight=21447 19179 2268 1682 586 4674 14505
internal_count=21447 19179 2268 1682 586 4674 14505
is_linear=0
shrinkage=0.0406293


Tree=36
num_leaves=8
num_cat=0
split_feature=31 31 19 29 5 7 31
split_gain=12.2339 3.73252 1.96747 1.88703 1.5631 0.947478 0.56522
threshold=0.18187495629917708 0.33216254499311287 0.013943762447578452 59.895744374593555 449.50000000000006 999.50000000000011 0.062784317547146584
decision_type=2 2 2 2 2 2 2
left_child=4 3 -3 -2 5 -1 -6
right_child=1 2 -4 -5 6 -7 -8
leaf_value=-0.0011307069331187216 0.0036753303588493414 0.0011945988440718468 0.0047372393695377154 0.00070176859133435883 -0.00086201103444883309 0.00084055054761684068 -0.00033582785715653913
leaf_weight=508 410 359 927 2503 9613 1938 5189
leaf_count=508 410 359 927 2503 9613 1938 5189
internal_value=-4.15369e-05 0.00192515 0.00374828 0.00112029 -0.000520323 0.000431148 -0.000677552
internal_weight=21447 4199 1286 2913 17248 2446 14802
internal_count=21447 4199 1286 2913 17248 2446 14802
is_linear=0
shrinkage=0.0406293


Tree=37
num_leaves=8
num_cat=0
split_feature=31 31 29 7 5 30 31
split_gain=11.3097 2.979 2.13916 2.24934 1.63432 0.873344 0.543096
threshold=0.24887585033198889 0.1188626109596413 479.58283982022249 1599.5000000000002 1095.5000000000002 161.28951428650819 0.021794333199425576
decision_type=2 2 2 2 2 2 2
left_child=1 6 3 -2 -4 -3 -1
right_child=2 5 4 -5 -6 -7 -8
leaf_value=-0.0010638465126838693 0.00038918563212446395 0.0010312406001377059 0.0081110222134953627 0.0032323644521082889 -0.003002371150092244 -8.5666985889346984e-05 -0.00049945450108364548
leaf_weight=3821 688 2582 173 1382 25 2092 10684
leaf_count=3821 688 2582 173 1382 25 2092 10684
internal_value=-3.98492e-05 -0.00036069 0.0026733 0.00228739 0.00670782 0.000531332 -0.00064813
internal_weight=21447 19179 2268 2070 198 4674 14505
internal_count=21447 19179 2268 2070 198 4674 14505
is_linear=0
shrinkage=0.0406293


Tree=38
num_leaves=8
num_cat=0
split_feature=31 31 19 30 5 7 31
split_gain=10.4736 3.23729 1.85613 1.80681 1.35093 0.85342 0.481338
threshold=0.18187495629917708 0.33216254499311287 0.013943762447578452 337.48297295340973 449.50000000000006 999.50000000000011 0.062784317547146584
decision_type=2 2 2 2 2 2 2
left_child=4 3 -3 -2 5 -1 -6
right_child=1 2 -4 -5 6 -7 -8
leaf_value=-0.001078995785457212 0.00052792460993067902 0.00099898217138648577 0.0044399220588599323 0.0030634983158604645 -0.00079762402266342456 0.00079185945831335494 -0.00031205272865117537
leaf_weight=508 2334 359 927 579 9613 1938 5189
leaf_count=508 2334 359 927 579 9613 1938 5189
internal_value=-3.82302e-05 0.00178147 0.00347935 0.00103191 -0.000481233 0.000403309 -0.000627402
internal_weight=21447 4199 1286 2913 17248 2446 14802
internal_count=21447 4199 1286 2913 17248 2446 14802
is_linear=0
shrinkage=0.0406293


Tree=39
num_leaves=8
num_cat=0
split_feature=31 31 26 5 26 7 31
split_gain=9.64236 3.5272 1.70389 5.23408 2.12792 0.902806 0.481544
threshold=0.32084457251611587 0.1188626109596413 2.5000000000000004 730.50000000000011 3.5000000000000004 1685.5000000000002 0.021794333199425576
decision_type=2 2 2 2 2 2 2
left_child=1 6 3 -2 -4 -3 -1
right_child=2 5 4 -5 -6 -7 -8
leaf_value=-0.0009883215464455003 0.0023911897328215449 5.0995391447181271e-05 0.0073929347466779802 -0.016259573708748174 0.002969926494634666 0.0010899180098410304 -0.0004568736361914288
leaf_weight=3821 556 2578 269 26 540 2973 10684
leaf_count=3821 556 2578 269 26 540 2973 10684
internal_value=-3.66769e-05 -0.000263553 0.00323452 0.00155799 0.00444062 0.000607421 -0.000596871
internal_weight=21447 20056 1391 582 809 5551 14505
internal_count=21447 20056 1391 582 809 5551 14505
is_linear=0
shrinkage=0.0406293


Tree=40
num_leaves=8
num_cat=0
split_feature=31 31 3 12 31 11 0
split_gain=13.1472 4.47593 2.02143 0.994415 0.714431 0.708614 0.0778556
threshold=0.14510228963835145 0.56990218419682359 9.5000000000000018 3.5000000000000004 0.023607634295090423 22824.035000000003 78.500000000000014
decision_type=2 2 2 2 2 2 2
left_child=4 2 -2 -3 6 -6 -1
right_child=1 3 -4 -5 5 -7 -8
leaf_value=-0.0010155297670093109 0.0001808930153571875 0.0078848614922218604 0.0019651382737856183 0.0015628818952403271 -0.00019457723825026495 -0.00093213730536935262 0.00088215071601977293
leaf_weight=4118 1433 230 3903 50 8665 2860 36
leaf_count=4118 1433 230 3903 50 8665 2860 36
internal_value=6.19252e-05 0.00174872 0.00148597 0.00675594 -0.000542262 -0.000377607 -0.000999084
internal_weight=21295 5616 5336 280 15679 11525 4154
internal_count=21295 5616 5336 280 15679 11525 4154
is_linear=0
shrinkage=0.0406293


Tree=41
num_leaves=8
num_cat=0
split_feature=31 31 3 12 31 11 22
split_gain=12.1006 4.11961 1.86051 0.915252 0.657556 0.652203 0.0737827
threshold=0.14510228963835145 0.56990218419682359 9.5000000000000018 3.5000000000000004 0.023607634295090423 22824.035000000003 3.5000000000000004
decision_type=2 2 2 2 2 2 2
left_child=4 2 -2 -3 6 -6 -1
right_child=1 3 -4 -5 5 -7 -8
leaf_value=-0.00097472458024360029 0.00017354343038511566 0.0075645052056105338 0.0018852960695876586 0.0014993830117087342 -0.00018667169684100289 -0.00089426525974641642 0.00084773757728939488
leaf_weight=4117 1433 230 3903 50 8665 2860 37
leaf_count=4117 1433 230 3903 50 8665 2860 37
internal_value=5.94092e-05 0.00167767 0.0014256 0.00648145 -0.00052023 -0.000362265 -0.000958492
internal_weight=21295 5616 5336 280 15679 11525 4154
internal_count=21295 5616 5336 280 15679 11525 4154
is_linear=0
shrinkage=0.0406293


Tree=42
num_leaves=8
num_cat=0
split_feature=31 31 3 26 31 11 0
split_gain=11.1373 3.87262 2.06861 1.73995 0.60521 0.600283 0.0717101
threshold=0.14510228963835145 0.46954971474866081 9.5000000000000018 2.5000000000000004 0.023607634295090423 22824.035000000003 78.500000000000014
decision_type=2 2 2 2 2 2 2
left_child=4 2 -2 -3 6 -6 -1
right_child=1 3 -4 -5 5 -7 -8
leaf_value=-0.00093533251539063835 -0.00012672994472022939 0.0012195522102198704 0.0017416275157349174 0.0061803122929021456 -0.0001790873920132031 -0.00085793182104634542 0.00088591189739817917
leaf_weight=4118 1328 163 3714 411 8665 2860 36
leaf_count=4118 1328 163 3714 411 8665 2860 36
internal_value=5.69955e-05 0.00160951 0.00124953 0.00477159 -0.000499093 -0.000347547 -0.000919549
internal_weight=21295 5616 5042 574 15679 11525 4154
internal_count=21295 5616 5042 574 15679 11525 4154
is_linear=0
shrinkage=0.0406293


Tree=43
num_leaves=8
num_cat=0
split_feature=31 31 28 12 5 31 31
split_gain=10.2507 3.58377 1.57938 0.848491 0.568868 0.93148 0.47964
threshold=0.14510228963835145 0.56990218419682359 2007.5000000000002 3.5000000000000004 449.50000000000006 0.12845678835201757 0.1368090410618161
decision_type=2 2 2 2 2 2 2
left_child=4 2 -2 -3 5 -1 -6
right_child=1 3 -4 -5 6 -7 -8
leaf_value=0.00095625376840510258 0.0017079345835273277 0.00706740505986664 8.4234006709856974e-05 0.0012276729531443006 -0.00053058329307717933 -0.0013386797974449065 -0.0027273635456470406
leaf_weight=1014 4025 230 1311 50 14089 410 166
leaf_count=1014 4025 230 1311 50 14089 410 166
internal_value=5.46798e-05 0.00154412 0.00130901 0.0060246 -0.000478815 0.000295493 -0.000556165
internal_weight=21295 5616 5336 280 15679 1424 14255
internal_count=21295 5616 5336 280 15679 1424 14255
is_linear=0
shrinkage=0.0406293


Tree=44
num_leaves=8
num_cat=0
split_feature=31 31 3 26 31 11 9
split_gain=9.43462 3.36851 1.79642 1.6078 0.551916 0.549135 0.068788
threshold=0.14510228963835145 0.46954971474866081 9.5000000000000018 2.5000000000000004 0.023607634295090423 22824.035000000003 1.0000000180025095e-35
decision_type=2 2 2 2 2 2 2
left_child=4 2 -2 -3 6 -6 -1
right_child=1 3 -4 -5 5 -7 -8
leaf_value=-0.00088963786549466843 -0.00013687592576340006 0.0010159844741279671 0.0016042274488830034 0.0057846525632110086 -0.00015351849490028983 -0.00080279834357173689 8.9600753838999642e-05
leaf_weight=4032 1328 163 3714 411 8665 2860 122
leaf_count=4032 1328 163 3714 411 8665 2860 122
internal_value=5.24582e-05 0.00148138 0.00114564 0.00443048 -0.000459362 -0.000314641 -0.000860878
internal_weight=21295 5616 5042 574 15679 11525 4154
internal_count=21295 5616 5042 574 15679 11525 4154
is_linear=0
shrinkage=0.0406293


Tree=45
num_leaves=8
num_cat=0
split_feature=31 31 3 12 5 31 31
split_gain=8.68355 3.11765 1.36269 0.786591 0.514559 0.857483 0.442214
threshold=0.14510228963835145 0.56990218419682359 9.5000000000000018 3.5000000000000004 449.50000000000006 0.12845678835201757 0.1368090410618161
decision_type=2 2 2 2 2 2 2
left_child=4 2 -2 -3 5 -1 -6
right_child=1 3 -4 -5 6 -7 -8
leaf_value=0.00092969472622945679 0.00013037037320842623 0.0066042017170023356 0.0015953245328949137 0.00098151668570379603 -0.00048969931662839702 -0.0012721977792732406 -0.0025990325056210713
leaf_weight=1014 1433 230 3903 50 14089 410 166
leaf_count=1014 1433 230 3903 50 14089 410 166
internal_value=5.03269e-05 0.00142119 0.00120191 0.00560015 -0.000440698 0.000295723 -0.000514263
internal_weight=21295 5616 5336 280 15679 1424 14255
internal_count=21295 5616 5336 280 15679 1424 14255
is_linear=0
shrinkage=0.0406293


Tree=46
num_leaves=8
num_cat=0
split_feature=31 31 3 26 31 11 22
split_gain=7.99227 2.93697 1.53768 1.4886 0.503361 0.502344 0.0675889
threshold=0.14510228963835145 0.46954971474866081 9.5000000000000018 2.5000000000000004 0.023607634295090423 22824.035000000003 3.5000000000000004
decision_type=2 2 2 2 2 2 2
left_child=4 2 -2 -3 6 -6 -1
right_child=1 3 -4 -5 5 -7 -8
leaf_value=-0.00082177784839052915 -0.00013661168617990491 0.00083169137456629331 0.0014742319303658936 0.0054201769647851238 -0.00013047951384494191 -0.00075148121206194626 0.00092251266848158986
leaf_weight=4117 1328 163 3714 411 8665 2860 37
leaf_count=4117 1328 163 3714 411 8665 2860 37
internal_value=4.82821e-05 0.00136345 0.00104996 0.00411717 -0.000422793 -0.000284585 -0.000806241
internal_weight=21295 5616 5042 574 15679 11525 4154
internal_count=21295 5616 5042 574 15679 11525 4154
is_linear=0
shrinkage=0.0406293


Tree=47
num_leaves=8
num_cat=0
split_feature=31 31 28 12 16 31 31
split_gain=7.35603 2.71199 1.27272 0.729203 0.475751 0.462266 0.393635
threshold=0.14510228963835145 0.56990218419682359 2015.5000000000002 3.5000000000000004 1.0000000180025095e-35 0.14321612740256548 0.090066730912244888
decision_type=2 2 2 2 2 2 2
left_child=4 2 -2 -3 5 -1 -6
right_child=1 3 -4 -5 6 -7 -8
leaf_value=-0.00019400477817462682 0.0012472575052403375 0.0061723983627911001 -0.0016359057624117496 0.00075870576946830844 -0.00078245244886513668 -0.0033551610543892199 0.00027836646182285621
leaf_weight=9220 5070 230 266 50 5740 77 642
leaf_count=9220 5070 230 266 50 5740 77 642
internal_value=4.63205e-05 0.00130805 0.00110353 0.00520567 -0.000405615 -0.000220186 -0.000675739
internal_weight=21295 5616 5336 280 15679 9297 6382
internal_count=21295 5616 5336 280 15679 9297 6382
is_linear=0
shrinkage=0.0406293


Tree=48
num_leaves=8
num_cat=0
split_feature=31 31 18 5 30 28 28
split_gain=6.80838 2.1989 1.56835 1.14206 0.861633 0.694348 0.358673
threshold=0.18187495629917708 0.56990218419682359 308.83500000000004 449.50000000000006 84.086759578004163 2003.5000000000002 2003.5000000000002
decision_type=2 2 2 2 2 2 2
left_child=3 2 -2 4 -1 -3 -5
right_child=1 5 -4 6 -6 -7 -8
leaf_value=-0.00066563339069444696 0.00034088066912581297 0.0024789404808947669 0.0019854797092356698 -0.00020679104651936519 0.0010032183392754599 0.0066216632797401311 -0.00061533953462258276
leaf_weight=730 1701 110 2189 5984 1700 170 8711
leaf_count=730 1701 110 2189 5984 1700 170 8711
internal_value=4.44385e-05 0.00151665 0.00126634 -0.00031405 0.000501876 0.00499417 -0.000448973
internal_weight=21295 4170 3890 17125 2430 280 14695
internal_count=21295 4170 3890 17125 2430 280 14695
is_linear=0
shrinkage=0.0406293


Tree=49
num_leaves=8
num_cat=0
split_feature=31 29 24 18 5 30 29
split_gain=6.26638 2.03189 2.19745 1.78162 1.05115 0.793041 0.341632
threshold=0.18187495629917708 479.58283982022249 94.500000000000014 306.74500000000006 449.50000000000006 84.086759578004163 204.25935280719582
decision_type=2 2 2 2 2 2 2
left_child=4 3 -3 -2 5 -1 -6
right_child=1 2 -4 -5 6 -7 -8
leaf_value=-0.00063858914713973806 0.00023790929729019787 0.010549430330458444 0.0019768002363114638 0.0019832196064824706 -0.00041387536146178261 0.00096245829363459192 -0.0027074276216527467
leaf_weight=730 1664 82 124 2300 14587 1700 108
leaf_count=730 1664 82 124 2300 14587 1700 108
internal_value=4.2633e-05 0.00145503 0.00538921 0.00125058 -0.00030129 0.000481485 -0.000430732
internal_weight=21295 4170 206 3964 17125 2430 14695
internal_count=21295 4170 206 3964 17125 2430 14695
is_linear=0
shrinkage=0.0406293


Tree=50
num_leaves=8
num_cat=0
split_feature=31 31 27 30 31 11 16
split_gain=6.62981 1.97182 2.23104 1.75339 1.19668 1.35706 0.460326
threshold=0.24887585033198889 0.49644584464406638 34.500000000000007 281.01975066373876 0.06596265950386429 25845.000000000004 1.0000000180025095e-35
decision_type=2 2 2 2 2 2 2
left_child=4 2 -2 -3 6 -6 -1
right_child=1 3 -4 -5 5 -7 -8
leaf_value=-0.00024949850138171936 0.00078740305600549288 -0.0063255656721330992 0.0044753988654069607 0.004934875676554872 0.00035512042636959301 -0.00093448531535299305 -0.00079420240905423919
leaf_weight=5234 1449 24 333 467 7497 1642 5015
leaf_count=5234 1449 24 333 467 7497 1642 5015
internal_value=2.87679e-05 0.00210472 0.00147657 0.00438447 -0.000214611 0.000123418 -0.000516031
internal_weight=21661 2273 1782 491 19388 9139 10249
internal_count=21661 2273 1782 491 19388 9139 10249
is_linear=0
shrinkage=0.0406293


Tree=51
num_leaves=8
num_cat=0
split_feature=31 31 11 18 31 11 16
split_gain=6.10203 1.82027 1.7155 1.13635 1.10142 1.24902 0.423681
threshold=0.24887585033198889 0.61548388967784173 10799.445000000002 291.39500000000004 0.06596265950386429 25845.000000000004 1.0000000180025095e-35
decision_type=2 2 2 2 2 2 2
left_child=4 2 -2 -3 6 -6 -1
right_child=1 3 -4 -5 5 -7 -8
leaf_value=-0.00023936154509037456 -0.0031195253870333122 -0.001469579350287558 0.0019454301614243597 0.0069812373363719472 0.00034069215612659529 -0.00089651784023617317 -0.00076193450726942885
leaf_weight=5234 117 31 1953 172 7497 1642 5015
leaf_count=5234 117 31 1953 172 7497 1642 5015
internal_value=2.75991e-05 0.00201921 0.00165915 0.00569072 -0.000205892 0.000118403 -0.000495065
internal_weight=21661 2273 2070 203 19388 9139 10249
internal_count=21661 2273 2070 203 19388 9139 10249
is_linear=0
shrinkage=0.0406293


Tree=52
num_leaves=8
num_cat=0
split_feature=31 31 27 30 31 11 16
split_gain=5.61626 1.71949 2.05863 1.58922 1.01374 1.14959 0.389952
threshold=0.24887585033198889 0.49644584464406638 34.500000000000007 281.01975066373876 0.06596265950386429 25845.000000000004 1.0000000180025095e-35
decision_type=2 2 2 2 2 2 2
left_child=4 2 -2 -3 6 -6 -1
right_child=1 3 -4 -5 5 -7 -8
leaf_value=-0.00022963646540686826 0.00068858359179894686 -0.0061302602127599869 0.004231210405598965 0.0045900589709720382 0.00032685006859066765 -0.00086009295195574071 -0.00073097766530821093
leaf_weight=5234 1449 24 333 467 7497 1642 5015
leaf_count=5234 1449 24 333 467 7497 1642 5015
internal_value=2.64777e-05 0.00193717 0.00135059 0.00406605 -0.000197527 0.000113593 -0.000474951
internal_weight=21661 2273 1782 491 19388 9139 10249
internal_count=21661 2273 1782 491 19388 9139 10249
is_linear=0
shrinkage=0.0406293


Tree=53
num_leaves=8
num_cat=0
split_feature=31 11 8 19 31 11 16
split_gain=5.16916 1.62586 1.94965 1.885 0.933036 1.05807 0.358909
threshold=0.24887585033198889 11327.040000000003 13002.500000000002 0.013943762447578452 0.06596265950386429 25845.000000000004 1.0000000180025095e-35
decision_type=2 2 2 2 2 2 2
left_child=4 2 -2 -3 6 -6 -1
right_child=1 3 -4 -5 5 -7 -8
leaf_value=-0.00022030649057116103 -0.0043021552039283527 0.00034054409273107989 0.0072053269364086492 0.0029660906998663396 0.00031357036622200221 -0.00082514796336134494 -0.0007012785470432635
leaf_weight=5234 128 653 30 1462 7497 1642 5015
leaf_count=5234 128 653 30 1462 7497 1642 5015
internal_value=2.5402e-05 0.00185846 -0.00211719 0.00215546 -0.000189501 0.000108977 -0.000455654
internal_weight=21661 2273 158 2115 19388 9139 10249
internal_count=21661 2273 158 2115 19388 9139 10249
is_linear=0
shrinkage=0.0406293


Tree=54
num_leaves=8
num_cat=0
split_feature=31 31 27 26 31 11 16
split_gain=4.75765 1.56095 1.86248 1.49055 0.858759 0.973843 0.330337
threshold=0.24887585033198889 0.49644584464406638 34.500000000000007 4.5000000000000009 0.06596265950386429 25845.000000000004 1.0000000180025095e-35
decision_type=2 2 2 2 2 2 2
left_child=4 2 -2 -3 6 -6 -1
right_child=1 3 -4 -5 5 -7 -8
leaf_value=-0.00021135559977574723 0.00059439168795225885 0.005077438714599038 0.0039640269000792731 -0.00014661742526912095 0.00030083022216125497 -0.00079162284441897676 -0.00067278610696708014
leaf_weight=5234 1449 372 333 119 7497 1642 5015
leaf_count=5234 1449 372 333 119 7497 1642 5015
internal_value=2.43699e-05 0.00178295 0.00122407 0.00381132 -0.000181802 0.00010455 -0.000437141
internal_weight=21661 2273 1782 491 19388 9139 10249
internal_count=21661 2273 1782 491 19388 9139 10249
is_linear=0
shrinkage=0.0406293


Tree=55
num_leaves=8
num_cat=0
split_feature=31 11 19 8 31 8 16
split_gain=4.37891 1.49654 1.64537 1.38931 0.790395 0.949081 0.30404
threshold=0.24887585033198889 10799.445000000002 0.013943762447578452 13177.000000000002 0.06596265950386429 10745.500000000002 1.0000000180025095e-35
decision_type=2 2 2 2 2 2 2
left_child=4 3 -3 -2 6 -6 -1
right_child=1 2 -4 -5 5 -7 -8
leaf_value=-0.00020276837480275481 -0.0046634078440229527 0.00025807966114192916 0.0027021980703566184 0.0066038807820906478 0.00036236386850723769 -0.00055385042132634669 -0.00064545128957773279
leaf_weight=5234 101 653 1497 22 6525 2614 5015
leaf_count=5234 101 653 1497 22 6525 2614 5015
internal_value=2.33798e-05 0.00171051 0.00195987 -0.00264812 -0.000174416 0.000100302 -0.00041938
internal_weight=21661 2273 2150 123 19388 9139 10249
internal_count=21661 2273 2150 123 19388 9139 10249
is_linear=0
shrinkage=0.0406293


Tree=56
num_leaves=8
num_cat=0
split_feature=31 31 11 18 31 11 16
split_gain=4.03031 1.44524 1.35524 1.0216 0.727474 0.894979 0.279836
threshold=0.24887585033198889 0.61548388967784173 10799.445000000002 291.39500000000004 0.06596265950386429 25845.000000000004 1.0000000180025095e-35
decision_type=2 2 2 2 2 2 2
left_child=4 2 -2 -3 6 -6 -1
right_child=1 3 -4 -5 5 -7 -8
leaf_value=-0.00019453003602663729 -0.002927178564002261 -0.0018766331601623694 0.0015746388460792112 0.0061361456560073725 0.00028439178714861289 -0.00076289238535701554 -0.00061922706905131997
leaf_weight=5234 117 31 1953 172 7497 1642 5015
leaf_count=5234 117 31 1953 172 7497 1642 5015
internal_value=2.24299e-05 0.00164102 0.00132019 0.00491252 -0.000167329 9.62267e-05 -0.000402341
internal_weight=21661 2273 2070 203 19388 9139 10249
internal_count=21661 2273 2070 203 19388 9139 10249
is_linear=0
shrinkage=0.0406293


Tree=57
num_leaves=8
num_cat=0
split_feature=31 31 27 30 30 11 25
split_gain=3.70947 1.34467 1.69586 1.42995 0.70206 1.10158 0.389724
threshold=0.24887585033198889 0.49644584464406638 34.500000000000007 281.01975066373876 77.858603217535631 23367.100000000002 1124.5000000000002
decision_type=2 2 2 2 2 2 2
left_child=4 2 -2 -3 6 -6 -1
right_child=1 3 -4 -5 5 -7 -8
leaf_value=-0.00062297306072700131 0.00045476853832651746 -0.0062149340483218293 0.0036701471345141337 0.003954009584991541 0.00046758216594510203 -0.00061936139858875664 -0.00015373263363502329
leaf_weight=5085 1449 24 333 467 5259 2176 6868
leaf_count=5085 1449 24 333 467 5259 2176 6868
internal_value=2.15185e-05 0.00157434 0.00105562 0.00345695 -0.000160531 0.000149467 -0.000353355
internal_weight=21661 2273 1782 491 19388 7435 11953
internal_count=21661 2273 1782 491 19388 7435 11953
is_linear=0
shrinkage=0.0406293


Tree=58
num_leaves=8
num_cat=0
split_feature=31 7 5 7 29 11 22
split_gain=3.41416 1.29915 1.66141 1.00609 0.658737 1.04078 0.466976
threshold=0.24887585033198889 1197.5000000000002 449.50000000000006 997.00000000000011 52.042662118254576 20342.130000000001 1.5000000000000002
decision_type=2 2 2 2 2 2 2
left_child=4 3 -3 -2 6 -6 -1
right_child=1 2 -4 -5 5 -7 -8
leaf_value=-0.00047250442029128994 0.0034311954571495927 0.0010175161384076792 0.0035168485861368469 -0.0055141492407677802 0.0006229025319961193 -0.00038398264523255803 9.8738228037281104e-05
leaf_weight=9393 29 1560 611 73 3741 3098 3156
leaf_count=9393 29 1560 611 73 3741 3098 3156
internal_value=2.06443e-05 0.00151038 0.00172092 -0.00297086 -0.000154008 0.000166793 -0.00032884
internal_weight=21661 2273 2171 102 19388 6839 12549
internal_count=21661 2273 2171 102 19388 6839 12549
is_linear=0
shrinkage=0.0406293


Tree=59
num_leaves=7
num_cat=0
split_feature=31 24 30 31 29 29
split_gain=3.16021 1.43116 1.4982 1.34704 1.255 0.657377
threshold=0.49644584464406638 141.50000000000003 281.01975066373876 0.18187495629917708 59.895744374593555 238.032478487628
decision_type=2 2 2 2 2 2
left_child=3 2 -2 5 -5 -1
right_child=1 -3 -4 4 -6 -7
leaf_value=-0.00018922809616885055 -0.0060206908046197098 -0.0045560490345657933 0.0044093492739825475 0.0028217105832519184 0.00038979085408738783 -0.0040528734067466661
leaf_weight=17342 24 36 431 391 3364 73
leaf_count=17342 24 36 431 391 3364 73
internal_value=1.98055e-05 0.00324219 0.00385919 -5.49319e-05 0.000643021 -0.000205424
internal_weight=21661 491 455 21170 3755 17415
internal_count=21661 491 455 21170 3755 17415
is_linear=0
shrinkage=0.0406293


Tree=60
num_leaves=8
num_cat=0
split_feature=31 19 17 7 29 2 29
split_gain=2.12389 2.05257 1.79129 1.69453 1.07012 1.47434 0.592513
threshold=0.32084457251611587 0.014736733395923502 0.066763540179784073 1200.5000000000002 204.25935280719582 13817.000000000002 163.85953425193063
decision_type=2 2 2 2 2 2 2
left_child=4 2 -2 -3 6 -6 -1
right_child=1 3 -4 -5 5 -7 -8
leaf_value=-0.00013435835466103245 0.0032146890726904402 -0.0034771115463885244 -0.0024478503148710248 0.0031459932177515175 0.0012055420738043654 0.010658943007326073 -0.0016422939284747625
leaf_weight=19197 132 69 306 841 447 29 440
leaf_count=19197 132 69 306 841 447 29 440
internal_value=-1.73684e-05 0.00154388 -0.000741332 0.0026438 -0.000122006 0.00178148 -0.000168146
internal_weight=21461 1348 438 910 20113 476 19637
internal_count=21461 1348 438 910 20113 476 19637
is_linear=0
shrinkage=0.0406293


Tree=61
num_leaves=7
num_cat=0
split_feature=31 31 18 17 18 11
split_gain=2.00242 1.05841 1.07486 0.532694 0.463747 0.45982
threshold=0.61548388967784173 0.18187495629917708 306.74500000000006 0.054828271016260553 307.78500000000003 20896.505000000001
decision_type=2 2 2 2 2 2
left_child=1 3 -3 -1 -2 -6
right_child=4 2 -4 -5 5 -7
leaf_value=-0.00095538061149315313 0.00049927644301078322 -0.00022588401983027263 0.0011201105270499062 -0.00012377148092586787 0.0033608291832694244 0.0081276771348817237
leaf_weight=1382 41 1714 2285 15903 77 59
leaf_count=1382 41 1714 2285 15903 77 59
internal_value=-1.66628e-05 -5.24519e-05 0.000543208 -0.000190262 0.00428693 0.0054288
internal_weight=21461 21284 3999 17285 177 136
internal_count=21461 21284 3999 17285 177 136
is_linear=0
shrinkage=0.0406293


Tree=62
num_leaves=8
num_cat=0
split_feature=31 19 19 7 29 2 29
split_gain=1.845 1.85361 1.7056 1.54466 0.961838 1.35828 0.559635
threshold=0.32084457251611587 0.014736733395923502 0.0094797046390057513 1200.5000000000002 204.25935280719582 13817.000000000002 163.85953425193063
decision_type=2 2 2 2 2 2 2
left_child=4 2 -2 -3 6 -6 -1
right_child=1 3 -4 -5 5 -7 -8
leaf_value=-0.00012441844931602398 0.0036723098712291811 -0.0033595742878677636 -0.0021918165495401955 0.0029638811626195136 0.001138297795407732 0.010212017517331536 -0.0015899196540197188
leaf_weight=19197 109 69 329 841 447 29 440
leaf_count=19197 109 69 329 841 447 29 440
internal_value=-1.59858e-05 0.00143916 -0.000732479 0.00248441 -0.000113512 0.00169111 -0.000157255
internal_weight=21461 1348 438 910 20113 476 19637
internal_count=21461 1348 438 910 20113 476 19637
is_linear=0
shrinkage=0.0406293


Tree=63
num_leaves=7
num_cat=0
split_feature=31 9 29 12 11 11
split_gain=1.76688 0.922712 1.34603 0.585028 0.474401 1.08593
threshold=0.61548388967784173 1.0000000180025095e-35 63.000031494707166 3.5000000000000004 13603.455000000002 17672.500000000004
decision_type=2 2 2 2 2 2
left_child=1 3 -3 -1 -2 -6
right_child=4 2 -4 -5 5 -7
leaf_value=-0.00031794093451595297 0.0096103927597461659 -0.00023064678167000196 0.00087916158666149569 0.00064643472106227964 -0.0018426567964860518 0.005512515777544913
leaf_weight=12939 22 3606 3610 1129 48 107
leaf_count=12939 22 3606 3610 1129 48 107
internal_value=-1.53363e-05 -4.89547e-05 0.000324565 -0.000240547 0.00402723 0.00323478
internal_weight=21461 21284 7216 14068 177 155
internal_count=21461 21284 7216 14068 177 155
is_linear=0
shrinkage=0.0406293


Tree=64
num_leaves=8
num_cat=0
split_feature=31 28 8 9 30 28 30
split_gain=1.63124 1.10357 1.17082 0.854348 1.36225 0.621982 0.555122
threshold=0.56990218419682359 2003.5000000000002 10101.500000000002 1.0000000180025095e-35 1074.1291454280533 2004.5000000000002 582.15294430821223
decision_type=2 2 2 2 2 2 2
left_child=3 2 -2 6 -5 -3 -1
right_child=1 5 -4 4 -6 -7 -8
leaf_value=-0.00020920791867566513 0.002122238033039384 0.010269185068527937 -0.0079894498337544483 0.00026362730659458485 0.0077825152698577562 0.0039646242428845397 -0.0023758615705986178
leaf_weight=13821 89 32 24 7123 40 134 198
leaf_count=13821 89 32 24 7123 40 134 198
internal_value=-1.47132e-05 0.00307171 -2.53771e-05 -5.53661e-05 0.000305615 0.00517996 -0.000239809
internal_weight=21461 279 113 21182 7163 166 14019
internal_count=21461 279 113 21182 7163 166 14019
is_linear=0
shrinkage=0.0406293


Tree=65
num_leaves=8
num_cat=0
split_feature=31 19 17 7 29 5 29
split_gain=1.54195 1.68184 1.6334 1.4094 0.873662 1.33996 0.530931
threshold=0.32084457251611587 0.014736733395923502 0.066763540179784073 1200.5000000000002 204.25935280719582 648.00000000000011 163.85953425193063
decision_type=2 2 2 2 2 2 2
left_child=4 2 -2 -3 6 -6 -1
right_child=1 3 -4 -5 5 -7 -8
leaf_value=-0.00011297931276693097 0.0030252532268986378 -0.0032704520849543835 -0.0023819835057326678 0.0027698028038772174 0.0040531307173201749 -0.00029057347835307121 -0.0015404021708301709
leaf_weight=19197 132 69 306 841 209 267 440
leaf_count=19197 132 69 306 841 209 267 440
internal_value=-1.41154e-05 0.00131616 -0.000752405 0.00231181 -0.000103272 0.00161664 -0.000144963
internal_weight=21461 1348 438 910 20113 476 19637
internal_count=21461 1348 438 910 20113 476 19637
is_linear=0
shrinkage=0.0406293


Tree=66
num_leaves=7
num_cat=0
split_feature=31 31 17 17 11 11
split_gain=1.45745 0.797432 0.969276 0.493124 0.433442 0.994205
threshold=0.61548388967784173 0.18187495629917708 0.090027329983621313 0.054828271016260553 13603.455000000002 17672.500000000004
decision_type=2 2 2 2 2 2
left_child=1 3 -3 -1 -2 -6
right_child=4 2 -4 -5 5 -7
leaf_value=-0.00089984710798240812 0.0089947223582517548 0.00082237899416469763 -0.00067209560713865526 -9.9721043111870725e-05 -0.0019577234760070725 0.005079972643291181
leaf_weight=1382 22 3064 935 15903 48 107
leaf_count=1382 22 3064 935 15903 48 107
internal_value=-1.35419e-05 -4.4075e-05 0.000472958 -0.000163694 0.00365802 0.00290056
internal_weight=21461 21284 3999 17285 177 155
internal_count=21461 21284 3999 17285 177 155
is_linear=0
shrinkage=0.0406293


Tree=67
num_leaves=7
num_cat=0
split_feature=30 12 24 3 31 9
split_gain=1.34443 1.53025 1.95218 0.95681 0.76553 0.60567
threshold=791.95257344432105 1.5000000000000002 94.500000000000014 11.500000000000002 0.68475372772969234 1.0000000180025095e-35
decision_type=2 2 2 2 2 2
left_child=4 3 -3 -2 5 -1
right_child=1 2 -4 -5 -6 -7
leaf_value=-0.00021640708377212184 0.0094579899283720702 0.0060152568714219165 -0.0031404181774501833 0.0024290611442913386 0.005710580194071075 0.00024380533827390559
leaf_weight=14008 66 60 107 62 38 7120
leaf_count=14008 66 60 107 62 38 7120
internal_value=-1.29917e-05 0.00271091 0.000149046 0.00605335 -5.0956e-05 -6.13185e-05
internal_weight=21461 295 167 128 21166 21128
internal_count=21461 295 167 128 21166 21128
is_linear=0
shrinkage=0.0406293


Tree=68
num_leaves=8
num_cat=0
split_feature=31 19 19 7 29 2 29
split_gain=1.27654 1.50295 1.58383 1.29286 0.785491 1.25131 0.49902
threshold=0.32084457251611587 0.014736733395923502 0.0094797046390057513 1200.5000000000002 204.25935280719582 13817.000000000002 163.85953425193063
decision_type=2 2 2 2 2 2 2
left_child=4 2 -2 -3 6 -6 -1
right_child=1 3 -4 -5 5 -7 -8
leaf_value=-0.00010210903661901326 0.003487107865310873 -0.0032073464336827115 -0.0021638213068141013 0.002577781522565424 0.0010066371514191254 0.0097157190950380827 -0.0014859703159203843
leaf_weight=19197 109 69 329 841 447 29 440
leaf_count=19197 109 69 329 841 447 29 440
internal_value=-1.24638e-05 0.00119793 -0.00075754 0.00213913 -9.35858e-05 0.00153723 -0.000133117
internal_weight=21461 1348 438 910 20113 476 19637
internal_count=21461 1348 438 910 20113 476 19637
is_linear=0
shrinkage=0.0406293


Tree=69
num_leaves=7
num_cat=0
split_feature=30 12 24 3 31 7
split_gain=1.19612 1.39394 1.79431 0.879393 0.6835 0.585444
threshold=791.95257344432105 1.5000000000000002 94.500000000000014 11.500000000000002 0.68475372772969234 1539.0000000000002
decision_type=2 2 2 2 2 2
left_child=4 3 -3 -2 5 -1
right_child=1 2 -4 -5 -6 -7
leaf_value=-0.00033472745149124982 0.0090114077370154564 0.005736224549637005 -0.0030414410635778402 0.0022728358420206715 0.0053963402468412223 0.00010747097769284139
leaf_weight=7885 66 60 107 62 38 13243
leaf_count=7885 66 60 107 62 38 13243
internal_value=-1.19575e-05 0.00255732 0.000112211 0.00574741 -4.77666e-05 -5.75581e-05
internal_weight=21461 295 167 128 21166 21128
internal_count=21461 295 167 128 21166 21128
is_linear=0
shrinkage=0.0406293


end of trees

feature_importances:
oof_cs=260
oof_halc=33
Market_Value_EOY19=25
Cylinder_Capacity=22
oof_lc=22
Ratio_Premium_Car_Value=14
Contract_Duration=13
Policies_Terminated_Non_Payment=9
Years_Associates=9
Car_Age_Contract=8
Max_Policy_Simultaneous_Force=8
Vehicle_Power_HP=8
Yr_Vehicle_Registration=7
Customer_Loyalty=6
Power_Wt_Ratio=6
Premium_Amt_Current_Yr=6
Vehicle_Wt_Kg=5
Age=4
Days_Driving_At_Start_Date=4
Half_Yearly_Payment_Method=4
Years_Driving=4
Age_at_license=3
Total_Policies_Entity=3
Age_at_contract=1

parameters:
[boosting: gbdt]
[objective: regression]
[metric: l2]
[tree_learner: serial]
[device_type: cpu]
[data_sample_strategy: bagging]
[data: ]
[valid: ]
[num_iterations: 940]
[learning_rate: 0.0406293]
[num_leaves: 90]
[num_threads: 0]
[seed: 0]
[deterministic: 0]
[force_col_wise: 0]
[force_row_wise: 0]
[histogram_pool_size: -1]
[max_depth: 3]
[min_data_in_leaf: 22]
[min_sum_hessian_in_leaf: 0.001]
[bagging_fraction: 0.717768]
[pos_bagging_fraction: 1]
[neg_bagging_fraction: 1]
[bagging_freq: 10]
[bagging_seed: 3]
[bagging_by_query: 0]
[feature_fraction: 0.999628]
[feature_fraction_bynode: 1]
[feature_fraction_seed: 2]
[extra_trees: 0]
[extra_seed: 6]
[early_stopping_round: 0]
[early_stopping_min_delta: 0]
[first_metric_only: 0]
[max_delta_step: 0]
[lambda_l1: 2.25364e-08]
[lambda_l2: 2.04291e-08]
[linear_lambda: 0]
[min_gain_to_split: 0.0603557]
[drop_rate: 0.1]
[max_drop: 50]
[skip_drop: 0.5]
[xgboost_dart_mode: 0]
[uniform_drop: 0]
[drop_seed: 4]
[top_rate: 0.2]
[other_rate: 0.1]
[min_data_per_group: 100]
[max_cat_threshold: 32]
[cat_l2: 10]
[cat_smooth: 10]
[max_cat_to_onehot: 4]
[top_k: 20]
[monotone_constraints: ]
[monotone_constraints_method: basic]
[monotone_penalty: 0]
[feature_contri: ]
[forcedsplits_filename: ]
[refit_decay_rate: 0.9]
[cegb_tradeoff: 1]
[cegb_penalty_split: 0]
[cegb_penalty_feature_lazy: ]
[cegb_penalty_feature_coupled: ]
[path_smooth: 0]
[interaction_constraints: ]
[verbosity: 1]
[saved_feature_importance_type: 0]
[use_quantized_grad: 0]
[num_grad_quant_bins: 4]
[quant_train_renew_leaf: 0]
[stochastic_rounding: 1]
[linear_tree: 0]
[max_bin: 221]
[max_bin_by_feature: ]
[min_data_in_bin: 3]
[bin_construct_sample_cnt: 200000]
[data_random_seed: 1]
[is_enable_sparse: 1]
[enable_bundle: 1]
[use_missing: 1]
[zero_as_missing: 0]
[feature_pre_filter: 1]
[pre_partition: 0]
[two_round: 0]
[header: 0]
[label_column: ]
[weight_column: ]
[group_column: ]
[ignore_column: ]
[categorical_feature: ]
[forcedbins_filename: ]
[precise_float_parser: 0]
[parser_config_file: ]
[objective_seed: 5]
[num_class: 1]
[is_unbalance: 0]
[scale_pos_weight: 4.53188]
[sigmoid: 1]
[boost_from_average: 1]
[reg_sqrt: 0]
[alpha: 0.9]
[fair_c: 1]
[poisson_max_delta_step: 0.7]
[tweedie_variance_power: 1.5]
[lambdarank_truncation_level: 30]
[lambdarank_norm: 1]
[label_gain: ]
[lambdarank_position_bias_regularization: 0]
[eval_at: ]
[multi_error_top_k: 1]
[auc_mu_weights: ]
[num_machines: 1]
[local_listen_port: 12400]
[time_out: 120]
[machine_list_filename: ]
[machines: ]
[gpu_platform_id: -1]
[gpu_device_id: -1]
[gpu_use_dp: 0]
[num_gpu: 1]

end of parameters

pandas_categorical:[]
