tree
version=v4
num_class=1
num_tree_per_iteration=1
label_index=0
max_feature_idx=31
objective=regression
feature_names=Age Age_at_contract Age_at_license Car_Age_Contract Car_Age_Contract_Cat_Standard Contract_Duration Customer_Loyalty Cylinder_Capacity Days_Driving_At_Start_Date Half_Yearly_Payment_Method Issurance_Broker_Agent_Channel Market_Value_EOY19 Max_Policy_Simultaneous_Force Max_Product_Simultaneous_Held Multiple_Drivers_Regular_Flag Non_Continuation_Insurance_Flag Policies_Terminated_Non_Payment Power_Wt_Ratio Premium_Amt_Current_Yr Ratio_Premium_Car_Value Rural_Urban_Flag Time_Since_Last_Renewal Total_Policies_Entity Vehicle_Doors Vehicle_Power_HP Vehicle_Wt_Kg Years_Associates Years_Driving Yr_Vehicle_Registration oof_lc oof_halc oof_cs
feature_infos=[19:101] [18:91] [6575:23602] [0:68] [0:1] [32:14244] [1:15.550000000000001] [49:7480] [-4732:25943] [0:1] [0:1] [270.45999999999998:220675.79999999999] [1:17] [1:4] [0:1] [0:1] [0:7] [0:2.5172413793103448] [40.200000000000003:2143.8600000000001] [0.00082567981271379997:0.90841529246468999] [0:1] [1:4] [1:17] [0:6] [0:580] [43:6200] [1:40] [1:77] [1950:2018] [-73.106088321658859:1050.3398182052424] [-125.9461543967856:2139.2611961623684] [-0.083988235272692044:0.93509375459802857]
tree_sizes=841 882 885 883 883 872 882 880 880 883 886 886 886 881 889 886 882 882 883 888 881 888 885 886 883 883 885 883 887 880 877 885 889 890 885 887 866 883 886 891 897 889 897 893 889 886 902 883 885 903 881 887 896 893 893 893 883 894 896 892 887 892 893 889 891 888 801 798 894 894 895 879 794 795 800 802 706 706 706 706 895 888 813 893 799 802 800 801 798 796 886 884 887 882 887 891

Tree=0
num_leaves=8
num_cat=0
split_feature=31 31 31 31 31 31 8
split_gain=217.303 54.1213 25.3577 9.96761 8.97596 4.45981 1.02336
threshold=0.27688913730938175 0.11606891420705777 0.61205176521799609 0.36846668112584197 0.060641184829411977 0.17013672829427251 5851.5000000000009
decision_type=2 2 2 2 2 2 2
left_child=1 4 3 -2 -1 -3 -4
right_child=2 5 6 -5 -6 -7 -8
leaf_value=0.10811189022914551 0.11778453840361508 0.11166233601806355 0.13428287290002847 0.12317386046681861 0.10993689748144243 0.11365914384969233 0.12980707288814317
leaf_weight=7936 651 1950 110 649 3761 2318 88
leaf_count=7936 651 1950 110 649 3761 2318 88
internal_value=0.110832 0.109781 0.122038 0.120475 0.108699 0.112747 0.132296
internal_weight=17463 15965 1498 1300 11697 4268 198
internal_count=17463 15965 1498 1300 11697 4268 198
is_linear=0
shrinkage=1


Tree=1
num_leaves=8
num_cat=0
split_feature=31 31 31 31 31 31 8
split_gain=204.137 50.8418 23.8218 9.36365 8.43206 4.19036 0.961349
threshold=0.27688913730938175 0.11606891420705777 0.61205176521799609 0.36846668112584197 0.060641184829411977 0.16583992382456517 5851.5000000000009
decision_type=2 2 2 2 2 2 2
left_child=1 4 3 -2 -1 -3 -4
right_child=2 5 6 -5 -6 -7 -8
leaf_value=-0.0026481353030039373 0.0067268858344105582 0.00072864488135616597 0.022717697597631023 0.011950380950168997 -0.00087928492717900808 0.0026775223442825776 0.018379623789653646
leaf_weight=7936 651 1825 110 649 3761 2443 88
leaf_count=7936 651 1825 110 649 3761 2443 88
internal_value=-1.13894e-05 -0.00103048 0.0108495 0.00933478 -0.00207939 0.00184419 0.020792
internal_weight=17463 15965 1498 1300 11697 4268 198
internal_count=17463 15965 1498 1300 11697 4268 198
is_linear=0
shrinkage=0.0307707


Tree=2
num_leaves=8
num_cat=0
split_feature=31 31 31 31 31 31 30
split_gain=191.768 47.7611 22.3789 8.79628 7.92113 3.95011 0.955679
threshold=0.27688913730938175 0.11606891420705777 0.61205176521799609 0.36846668112584197 0.060641184829411977 0.17013672829427251 605.11204533531782
decision_type=2 2 2 2 2 2 2
left_child=1 4 3 -2 -1 -3 -4
right_child=2 5 6 -5 -6 -7 -8
leaf_value=-0.0025666506317262488 0.0065199023255735613 0.00076679632833804212 0.017513136568161818 0.011582671426040971 -0.00085222877374941893 0.0026460379121993989 0.021900769464909278
leaf_weight=7936 651 1950 79 649 3761 2318 119
leaf_count=7936 651 1950 79 649 3761 2318 119
internal_value=-1.10366e-05 -0.000998771 0.0105156 0.00904755 -0.00201541 0.00178744 0.0201524
internal_weight=17463 15965 1498 1300 11697 4268 198
internal_count=17463 15965 1498 1300 11697 4268 198
is_linear=0
shrinkage=0.0307707


Tree=3
num_leaves=8
num_cat=0
split_feature=31 31 31 31 31 31 8
split_gain=180.149 44.8671 21.0233 8.26329 7.44115 3.71835 0.894246
threshold=0.27688913730938175 0.11606891420705777 0.61205176521799609 0.36846668112584197 0.060641184829411977 0.18311069820112449 5851.5000000000009
decision_type=2 2 2 2 2 2 2
left_child=1 4 3 -2 -1 -3 -4
right_child=2 5 6 -5 -6 -7 -8
leaf_value=-0.0024876731782890742 0.0063192872709321047 0.00090723251200323549 0.021389219586321593 0.011226276865803173 -0.00082600528664690629 0.0027320780962361152 0.01720644485830965
leaf_weight=7936 651 2338 110 649 3761 1930 88
leaf_count=7936 651 2338 110 649 3761 1930 88
internal_value=-1.06947e-05 -0.000968038 0.0101921 0.00876916 -0.00195339 0.00173244 0.0195324
internal_weight=17463 15965 1498 1300 11697 4268 198
internal_count=17463 15965 1498 1300 11697 4268 198
is_linear=0
shrinkage=0.0307707


Tree=4
num_leaves=8
num_cat=0
split_feature=31 31 31 31 31 31 17
split_gain=176.136 43.2539 18.943 6.22079 6.12674 4.29625 0.868444
threshold=0.27688913730938175 0.10717037418755174 0.61205176521799609 0.38035220751848614 0.055274907487354905 0.1534972930643512 0.081110940964955566
decision_type=2 2 2 2 2 2 2
left_child=1 4 3 -2 -1 -3 -4
right_child=2 5 6 -5 -6 -7 -8
leaf_value=-0.0024579935559656263 0.0068069886266586355 0.00042529723420706156 0.020571350845282655 0.01100522802362802 -0.0009456741598300398 0.0023308751200930276 0.016288837269054897
leaf_weight=7307 741 1842 122 609 3885 2859 72
leaf_count=7307 741 1842 122 609 3885 2859 72
internal_value=7.12724e-05 -0.000892665 0.00999333 0.00870102 -0.00193304 0.00158422 0.0189841
internal_weight=17437 15893 1544 1350 11192 4701 194
internal_count=17437 15893 1544 1350 11192 4701 194
is_linear=0
shrinkage=0.0307707


Tree=5
num_leaves=8
num_cat=0
split_feature=30 5 29 30 21 5 7
split_gain=108.535 36.5654 13.7077 8.56775 6.03868 4.65107 4.04291
threshold=313.1944644675678 370.00000000000006 256.31658185836847 130.81671081964228 2.5000000000000004 648.00000000000011 1693.0000000000002
decision_type=2 2 2 2 2 2 2
left_child=1 6 5 -3 -4 -2 -1
right_child=2 3 4 -5 -6 -7 -8
leaf_value=0.0011492483475591807 0.0070273362688182692 -0.001842204194938368 0.0083782409278338691 0.00040875839247282323 0.014579711010863862 0.0025302449116346632 0.0032394724890819964
leaf_weight=2063 656 10381 300 1893 295 326 1523
leaf_count=2063 656 10381 300 1893 295 326 1523
internal_value=6.90816e-05 -0.000696434 0.00776782 -0.00149504 0.0114534 0.00553451 0.002037
internal_weight=17437 15860 1577 12274 595 982 3586
internal_count=17437 15860 1577 12274 595 982 3586
is_linear=0
shrinkage=0.0307707


Tree=6
num_leaves=8
num_cat=0
split_feature=31 31 31 31 31 31 17
split_gain=158.771 41.0629 15.5544 5.6121 4.28963 4.08923 0.824051
threshold=0.291190786949245 0.10717037418755174 0.61205176521799609 0.055274907487354905 0.1534972930643512 0.38035220751848614 0.081110940964955566
decision_type=2 2 2 2 2 2 2
left_child=1 3 5 -1 -3 -2 -4
right_child=2 4 6 -5 -6 -7 -8
leaf_value=-0.0023327120570474486 0.0068806916159781985 0.00039800269177430933 0.019569798092615106 -0.00088530299591723326 0.0022865413880281851 0.010435711807883337 0.015399219998888028
leaf_weight=7307 617 1842 122 3885 2983 609 72
leaf_count=7307 617 1842 122 3885 2983 609 72
internal_value=6.69573e-05 -0.000807308 0.00992815 -0.00183029 0.00156558 0.00864677 0.018024
internal_weight=17437 16017 1420 11192 4825 1226 194
internal_count=17437 16017 1420 11192 4825 1226 194
is_linear=0
shrinkage=0.0307707


Tree=7
num_leaves=8
num_cat=0
split_feature=31 31 31 31 31 31 24
split_gain=149.187 36.1973 16.0394 5.27203 5.2032 3.57961 0.785356
threshold=0.27688913730938175 0.10717037418755174 0.61205176521799609 0.055274907487354905 0.38035220751848614 0.1534972930643512 94.500000000000014
decision_type=2 2 2 2 2 2 2
left_child=1 3 4 -1 -2 -3 -4
right_child=2 5 6 -5 -6 -7 -8
leaf_value=-0.0022609331286497945 0.0062750578656632439 0.00038575603308453995 0.0196714819755349 -0.00085806166185696704 0.010114609471879183 0.0021251577980585961 0.015712220134318545
leaf_weight=7307 741 1842 86 3885 609 2859 108
leaf_count=7307 741 1842 86 3885 609 2859 108
internal_value=6.4899e-05 -0.000822237 0.00919642 -0.00177397 0.00800727 0.00144361 0.0174695
internal_weight=17437 15893 1544 11192 1350 4701 194
internal_count=17437 15893 1544 11192 1350 4701 194
is_linear=0
shrinkage=0.0307707


Tree=8
num_leaves=8
num_cat=0
split_feature=31 31 31 31 31 31 30
split_gain=115.521 36.5364 14.6459 4.70425 3.96367 3.39652 1.18569
threshold=0.29939028738599299 0.097443241587067658 0.61205176521799609 0.38035220751848614 0.1556938188970271 0.055900914168986217 605.11204533531782
decision_type=2 2 2 2 2 2 2
left_child=1 5 3 -2 -3 -1 -4
right_child=2 4 6 -5 -6 -7 -8
leaf_value=-0.0021672636911790259 0.0052120088188882 0.0003713828666790868 0.013372849165752251 0.0092163666942279825 0.0020504100281310009 -0.0009858040844757188 0.018197963300756299
leaf_weight=7539 530 2420 80 584 2959 3318 123
leaf_count=7539 530 2420 80 584 2959 3318 123
internal_value=-6.77968e-05 -0.000778762 0.00869686 0.00731139 0.00129502 -0.0018062 0.0162982
internal_weight=17553 16236 1317 1114 5379 10857 203
internal_count=17553 16236 1317 1114 5379 10857 203
is_linear=0
shrinkage=0.0307707


Tree=9
num_leaves=8
num_cat=0
split_feature=31 31 31 31 31 31 30
split_gain=108.522 34.3225 13.7588 4.4192 3.7235 3.19071 1.11383
threshold=0.29939028738599299 0.097443241587067658 0.61205176521799609 0.38035220751848614 0.1556938188970271 0.055900914168986217 605.11204533531782
decision_type=2 2 2 2 2 2 2
left_child=1 5 3 -2 -3 -1 -4
right_child=2 4 6 -5 -6 -7 -8
leaf_value=-0.0021005756531053961 0.0050516385057838079 0.00035995526439737641 0.012961475471021422 0.008932783643637485 0.0019873180051928701 -0.00095547044635976549 0.017638103527110902
leaf_weight=7539 530 2420 80 584 2959 3318 123
leaf_count=7539 530 2420 80 584 2959 3318 123
internal_value=-6.57089e-05 -0.000754799 0.00842928 0.00708642 0.00125518 -0.00175062 0.0157968
internal_weight=17553 16236 1317 1114 5379 10857 203
internal_count=17553 16236 1317 1114 5379 10857 203
is_linear=0
shrinkage=0.0307707


Tree=10
num_leaves=8
num_cat=0
split_feature=31 31 31 31 31 31 30
split_gain=101.946 32.2427 12.9254 4.15143 3.49787 3.01794 1.04633
threshold=0.29939028738599299 0.097443241587067658 0.61205176521799609 0.38035220751848614 0.1556938188970271 0.040892649868512501 605.11204533531782
decision_type=2 2 2 2 2 2 2
left_child=1 5 3 -2 -3 -1 -4
right_child=2 4 6 -5 -6 -7 -8
leaf_value=-0.0021733190757393414 0.0048962027147592879 0.00034887929387380926 0.012562756421943249 0.0086579262432370119 0.0019261672293391485 -0.0011444697904079374 0.017095468342079617
leaf_weight=5828 530 2420 80 584 2959 5029 123
leaf_count=5828 530 2420 80 584 2959 5029 123
internal_value=-6.36852e-05 -0.000731574 0.00816992 0.00686838 0.00121655 -0.00169676 0.0153108
internal_weight=17553 16236 1317 1114 5379 10857 203
internal_count=17553 16236 1317 1114 5379 10857 203
is_linear=0
shrinkage=0.0307707


Tree=11
num_leaves=8
num_cat=0
split_feature=31 31 31 31 31 31 30
split_gain=95.7694 30.289 12.1425 3.91876 3.28592 2.86664 0.982923
threshold=0.29939028738599299 0.097443241587067658 0.61205176521799609 0.41211589891568379 0.1556938188970271 0.055900914168986217 605.11204533531782
decision_type=2 2 2 2 2 2 2
left_child=1 5 3 -2 -3 -1 -4
right_child=2 4 6 -5 -6 -7 -8
leaf_value=-0.0019762502488578529 0.0051402436526416847 0.00033814415717149752 0.012176302652738967 0.0088535213393001206 0.0018668980401928346 -0.0008908541173695241 0.016569526737897109
leaf_weight=7539 659 2420 80 455 2959 3318 123
leaf_count=7539 659 2420 80 455 2959 3318 123
internal_value=-6.17238e-05 -0.000709063 0.00791855 0.00665704 0.00117912 -0.00164455 0.0148398
internal_weight=17553 16236 1317 1114 5379 10857 203
internal_count=17553 16236 1317 1114 5379 10857 203
is_linear=0
shrinkage=0.0307707


Tree=12
num_leaves=8
num_cat=0
split_feature=31 31 31 31 7 31 31
split_gain=99.3049 22.7464 10.4534 4.87256 2.27606 1.86789 1.59082
threshold=0.27049357041611466 0.12550392812399627 0.43204492940078859 0.055274907487354905 1587.5000000000002 0.61205176521799609 0.18717088550795685
decision_type=2 2 2 2 2 2 2
left_child=1 3 4 -1 -2 -4 -3
right_child=2 6 5 -5 -6 -7 -8
leaf_value=-0.0018997161971099344 0.0029657781643668184 0.00076325946472269128 0.0092726573018464212 -0.0006269722975922211 0.0062528644301073936 0.012914166110246629 0.0020289409519023377
leaf_weight=7293 273 2104 398 4673 741 201 1700
leaf_count=7293 273 2104 398 4673 741 201 1700
internal_value=3.76391e-08 -0.000743776 0.00727207 -0.00140268 0.00536797 0.0104951 0.0013289
internal_weight=17383 15770 1613 11966 1014 599 3804
internal_count=17383 15770 1613 11966 1014 599 3804
is_linear=0
shrinkage=0.0307707


Tree=13
num_leaves=8
num_cat=0
split_feature=31 31 31 31 7 25 31
split_gain=93.2879 21.3849 9.82001 4.3003 2.13814 1.85479 1.71146
threshold=0.27049357041611466 0.1207201495115932 0.43204492940078859 0.055274907487354905 1587.5000000000002 1060.5000000000002 0.18717088550795685
decision_type=2 2 2 2 2 2 2
left_child=1 3 4 -1 -2 -4 -3
right_child=2 6 5 -5 -6 -7 -8
leaf_value=-0.0018412606466140691 0.0028745266650789161 0.00067740315921546203 0.014699990163738512 -0.00063082935894301275 0.0060604651741420906 0.0095234464021174102 0.0019665097817821572
leaf_weight=7293 273 2287 75 4490 741 524 1700
leaf_count=7293 273 2287 75 4490 741 524 1700
internal_value=3.78168e-08 -0.00072089 0.00704832 -0.00138002 0.0052028 0.0101721 0.00122707
internal_weight=17383 15770 1613 11783 1014 599 3987
internal_count=17383 15770 1613 11783 1014 599 3987
is_linear=0
shrinkage=0.0307707


Tree=14
num_leaves=8
num_cat=0
split_feature=31 31 31 31 8 31 31
split_gain=87.6355 20.0952 9.22506 4.29373 2.12081 1.76105 1.39934
threshold=0.27049357041611466 0.12550392812399627 0.43204492940078859 0.055274907487354905 9909.5000000000018 0.61205176521799609 0.18717088550795685
decision_type=2 2 2 2 2 2 2
left_child=1 3 4 -1 -2 -4 -3
right_child=2 6 5 -5 -6 -7 -8
leaf_value=-0.0017846038815508523 0.0041904404905540637 0.00071892971093119097 0.0086723105972580164 -0.00058984549776302955 0.0073670982897610015 0.012207976245133603 0.0019059997672601502
leaf_weight=7293 742 2104 398 4673 272 201 1700
leaf_count=7293 742 2104 398 4673 272 201 1700
internal_value=3.80261e-08 -0.000698707 0.00683145 -0.00131803 0.00504271 0.00985916 0.00124944
internal_weight=17383 15770 1613 11966 1014 599 3804
internal_count=17383 15770 1613 11966 1014 599 3804
is_linear=0
shrinkage=0.0307707


Tree=15
num_leaves=8
num_cat=0
split_feature=31 31 31 31 7 31 31
split_gain=82.3256 18.8873 8.66613 3.79051 2.01101 1.65437 1.50709
threshold=0.27049357041611466 0.1207201495115932 0.43204492940078859 0.055274907487354905 1587.5000000000002 0.61205176521799609 0.18717088550795685
decision_type=2 2 2 2 2 2 2
left_child=1 3 4 -1 -2 -4 -3
right_child=2 6 5 -5 -6 -7 -8
leaf_value=-0.0017296905882517239 0.0026295832759294243 0.00063765983482572857 0.008405472554145664 -0.00059326854488555235 0.005719324845345616 0.011832371089507044 0.0018473515405744293
leaf_weight=7293 273 2287 398 4490 741 201 1700
leaf_count=7293 273 2287 398 4490 741 201 1700
internal_value=3.81552e-08 -0.000677208 0.00662126 -0.00129665 0.00488755 0.00955581 0.00115346
internal_weight=17383 15770 1613 11783 1014 599 3987
internal_count=17383 15770 1613 11783 1014 599 3987
is_linear=0
shrinkage=0.0307707


Tree=16
num_leaves=8
num_cat=0
split_feature=30 29 5 3 26 12 30
split_gain=51.1161 19.9223 6.53484 6.15848 4.77813 1.93184 0.688247
threshold=139.97129599782539 212.59796709813074 440.00000000000006 9.5000000000000018 2.5000000000000004 3.5000000000000004 35.727091978411345
decision_type=2 2 2 2 2 2 2
left_child=2 3 6 -2 -3 -4 -1
right_child=1 4 5 -5 -6 -7 -8
leaf_value=0.0030557898985363262 0.00013793551297129581 0.0041748479385782288 -0.0014404337426571112 0.0025953094550772546 0.0087276856083799894 0.00024171740889304932 0.00060432582926368806
leaf_weight=117 1487 380 9813 2754 513 692 1478
leaf_count=117 1487 380 9813 2754 513 692 1478
internal_value=4.06042e-05 0.00261329 -0.00105098 0.0017337 0.00679047 -0.00132962 0.000784193
internal_weight=17234 5134 12100 4241 893 10505 1595
internal_count=17234 5134 12100 4241 893 10505 1595
is_linear=0
shrinkage=0.0307707


Tree=17
num_leaves=8
num_cat=0
split_feature=31 31 31 31 31 7 18
split_gain=80.6281 17.6121 11.2293 3.35094 2.35798 2.03737 1.29112
threshold=0.2426271331078427 0.11449068882777118 0.45609497548250283 0.055274907487354905 0.61205176521799609 1687.5000000000002 554.6400000000001
decision_type=2 2 2 2 2 2 2
left_child=1 3 5 -1 -4 -2 -3
right_child=2 6 4 -5 -6 -7 -8
leaf_value=-0.0017192113836930153 0.0029990766646642597 0.0012378862306378904 0.0082719878699320272 -0.00062109328939861268 0.0126119471118178 0.0054088831597392121 -0.00087644564111477032
leaf_weight=7278 524 3589 334 4121 184 908 296
leaf_count=7278 524 3589 334 4121 184 908 296
internal_value=3.93556e-05 -0.00071242 0.00593168 -0.00132222 0.00981409 0.00452715 0.00107679
internal_weight=17234 15284 1950 11399 518 1432 3885
internal_count=17234 15284 1950 11399 518 1432 3885
is_linear=0
shrinkage=0.0307707


Tree=18
num_leaves=8
num_cat=0
split_feature=30 29 5 3 26 12 30
split_gain=45.3698 17.6367 5.77847 5.58671 4.36682 1.75274 0.66442
threshold=139.97129599782539 212.59796709813074 440.00000000000006 9.5000000000000018 2.5000000000000004 3.5000000000000004 35.727091978411345
decision_type=2 2 2 2 2 2 2
left_child=2 3 6 -2 -3 -4 -1
right_child=1 4 5 -5 -6 -7 -8
leaf_value=0.0029673758777009514 0.00011443812950935046 0.0038916796659009176 -0.0013578247295183905 0.0024549580313424279 0.0082441335453770168 0.00024445179765847488 0.00055872198777292778
leaf_weight=117 1487 380 9813 2754 513 692 1478
leaf_count=117 1487 380 9813 2754 513 692 1478
internal_value=3.81457e-05 0.00246192 -0.000990258 0.00163432 0.00639218 -0.00125228 0.000735448
internal_weight=17234 5134 12100 4241 893 10505 1595
internal_count=17234 5134 12100 4241 893 10505 1595
is_linear=0
shrinkage=0.0307707


Tree=19
num_leaves=8
num_cat=0
split_feature=31 31 31 31 19 31 31
split_gain=72.8717 15.8582 10.1678 2.94979 2.31167 2.17449 1.59366
threshold=0.2426271331078427 0.078480050380043825 0.45609497548250283 0.1556938188970271 0.014791567622073952 0.61205176521799609 0.02814831673956315
decision_type=2 2 2 2 2 2 2
left_child=1 6 4 -3 -2 -4 -1
right_child=2 3 5 -5 -6 -7 -8
leaf_value=-0.0019133135309309232 0.0026346451917215801 1.6279216926410274e-05 0.0078521830106852812 0.0014203975077278048 0.0052189255330264642 0.012019827258102616 -0.0011048217088898162
leaf_weight=4219 508 3653 334 2314 924 184 5098
leaf_count=4219 508 3653 334 2314 924 184 5098
internal_value=3.69726e-05 -0.000677729 0.00563871 0.000560799 0.00430221 0.00933305 -0.00147093
internal_weight=17234 15284 1950 5967 1432 518 9317
internal_count=17234 15284 1950 5967 1432 518 9317
is_linear=0
shrinkage=0.0307707


Tree=20
num_leaves=8
num_cat=0
split_feature=31 31 31 31 8 2 18
split_gain=74.4479 13.3924 12.5162 2.65941 2.53857 1.37378 1.33345
threshold=0.2426271331078427 0.1207201495115932 0.50998545612890711 0.060641184829411977 10507.500000000002 13399.500000000002 283.59000000000009
decision_type=2 2 2 2 2 2 2
left_child=1 3 4 -1 -2 -3 -4
right_child=2 5 6 -5 -6 -7 -8
leaf_value=-0.0014917025111559194 0.0037059148043498734 0.00083135758815214452 0.0072468125445901586 -0.00052373690951099171 0.0065574426978580172 0.0034931188321996012 0.01141588478225767
leaf_weight=7923 1222 3416 95 4067 390 194 311
leaf_count=7923 1222 3416 95 4067 390 194 311
internal_value=5.07621e-05 -0.000668663 0.00561217 -0.00116337 0.00439589 0.000974421 0.0104408
internal_weight=17618 15600 2018 11990 1612 3610 406
internal_count=17618 15600 2018 11990 1612 3610 406
is_linear=0
shrinkage=0.0307707


Tree=21
num_leaves=8
num_cat=0
split_feature=31 31 31 11 31 11 31
split_gain=69.937 12.5809 11.7579 2.50686 2.49826 1.35747 1.3041
threshold=0.2426271331078427 0.1207201495115932 0.50998545612890711 10851.640000000001 0.060641184829411977 29497.500000000004 0.65289396100007424
decision_type=2 2 2 2 2 2 2
left_child=1 4 3 -2 -1 -3 -4
right_child=2 5 6 -5 -6 -7 -8
leaf_value=-0.0014458019101291682 -0.00045768219367976645 0.0011523974542814071 0.0087686767545278876 0.0045726856089110604 -0.00050762118428520134 -0.00076759614114016558 0.012375367096401062
leaf_weight=7923 100 3219 254 1512 4067 391 152
leaf_count=7923 100 3219 254 1512 4067 391 152
internal_value=4.92013e-05 -0.000648088 0.00543949 0.00426063 -0.00112757 0.000944439 0.0101196
internal_weight=17618 15600 2018 1612 11990 3610 406
internal_count=17618 15600 2018 1612 11990 3610 406
is_linear=0
shrinkage=0.0307707


Tree=22
num_leaves=8
num_cat=0
split_feature=31 31 31 11 31 2 18
split_gain=65.6994 11.8186 11.0456 2.35497 2.34688 1.28926 1.23429
threshold=0.2426271331078427 0.1207201495115932 0.50998545612890711 10851.640000000001 0.060641184829411977 13399.500000000002 283.59000000000009
decision_type=2 2 2 2 2 2 2
left_child=1 4 3 -2 -1 -3 -4
right_child=2 5 6 -5 -6 -7 -8
leaf_value=-0.0014013136392698794 -0.00044360225450823521 0.00077678472664822703 0.0067354370496589943 0.0044319829022465502 -0.00049200144476187126 0.003355366370256462 0.010746309259925492
leaf_weight=7923 100 3416 95 1512 4067 194 311
leaf_count=7923 100 3416 95 1512 4067 194 311
internal_value=4.76883e-05 -0.000628146 0.00527212 0.00412952 -0.00109288 0.000915378 0.00980824
internal_weight=17618 15600 2018 1612 11990 3610 406
internal_count=17618 15600 2018 1612 11990 3610 406
is_linear=0
shrinkage=0.0307707


Tree=23
num_leaves=8
num_cat=0
split_feature=31 31 31 8 31 11 31
split_gain=61.7186 11.1025 10.3764 2.38627 2.20467 1.27397 1.20749
threshold=0.2426271331078427 0.1207201495115932 0.50998545612890711 10507.500000000002 0.060641184829411977 29497.500000000004 0.65289396100007424
decision_type=2 2 2 2 2 2 2
left_child=1 4 3 -2 -1 -3 -4
right_child=2 5 6 -5 -6 -7 -8
leaf_value=-0.0013581942423342096 0.0033335158411031659 0.0010886726929373858 0.0082066233035679535 0.0060981517159706096 -0.0004768623186175754 -0.00077132845409198965 0.011676993546171768
leaf_weight=7923 1222 3219 254 390 4067 391 152
leaf_count=7923 1222 3219 254 390 4067 391 152
internal_value=4.62219e-05 -0.000608817 0.0051099 0.00400246 -0.00105925 0.000887212 0.00950647
internal_weight=17618 15600 2018 1612 11990 3610 406
internal_count=17618 15600 2018 1612 11990 3610 406
is_linear=0
shrinkage=0.0307707


Tree=24
num_leaves=8
num_cat=0
split_feature=30 30 30 17 3 26 5
split_gain=31.8258 8.95281 4.0218 3.00354 2.1229 1.78934 1.44654
threshold=329.65627975235009 119.58552528447716 693.17020928203476 0.088811957877807809 4.5000000000000009 2.5000000000000004 440.00000000000006
decision_type=2 2 2 2 2 2 2
left_child=1 6 3 -2 -3 -4 -1
right_child=2 4 5 -5 -6 -7 -8
leaf_value=0.00011752181639075971 0.0046819726494232586 -0.00059917785774465568 0.0051984760531678768 0.0014504790760153914 0.0010255572064245212 0.01042918738624631 -0.0010278630016805207
leaf_weight=1164 796 958 121 414 3711 127 10127
leaf_count=1164 796 958 121 414 3711 127 10127
internal_value=-4.35856e-05 -0.000441137 0.00430815 0.00357637 0.000692187 0.00787783 -0.000909784
internal_weight=17418 15960 1458 1210 4669 248 11291
internal_count=17418 15960 1458 1210 4669 248 11291
is_linear=0
shrinkage=0.0307707


Tree=25
num_leaves=8
num_cat=0
split_feature=31 31 31 31 8 31 5
split_gain=47.9629 10.5253 5.05188 2.13678 1.77235 1.50088 0.460784
threshold=0.29939028738599299 0.1099767887973797 0.61205176521799609 0.032950703350088283 9963.5000000000018 0.19238268413022139 365.50000000000006
decision_type=2 2 2 2 2 2 2
left_child=1 3 4 -1 -2 -3 -4
right_child=2 5 6 -5 -6 -7 -8
leaf_value=-0.0015093808699544291 0.0040432070938165067 0.00027322073825531551 0.0084138374669104361 -0.000653517457628712 0.0067446309155837821 0.0013922661857694407 0.01148523717520585
leaf_weight=4776 799 2923 79 6550 323 1855 113
leaf_count=4776 799 2923 79 6550 323 1855 113
internal_value=-4.22436e-05 -0.000503481 0.00561046 -0.00101442 0.00482101 0.000707681 0.0102227
internal_weight=17418 16104 1314 11326 1122 4778 192
internal_count=17418 16104 1314 11326 1122 4778 192
is_linear=0
shrinkage=0.0307707


Tree=26
num_leaves=8
num_cat=0
split_feature=31 31 31 31 8 31 5
split_gain=45.0568 9.88753 4.74588 2.0073 1.66497 1.40994 0.432861
threshold=0.29939028738599299 0.1099767887973797 0.61205176521799609 0.032950703350088283 9963.5000000000018 0.19238268413022139 365.50000000000006
decision_type=2 2 2 2 2 2 2
left_child=1 3 4 -1 -2 -3 -4
right_child=2 5 6 -5 -6 -7 -8
leaf_value=-0.0014629363685724163 0.0039187983074455354 0.00026481362673802788 0.0081550132314033331 -0.00063340831463029113 0.0065371085323359815 0.001349425642677755 0.011131900286697933
leaf_weight=4776 799 2923 79 6550 323 1855 113
leaf_count=4776 799 2923 79 6550 323 1855 113
internal_value=-4.09425e-05 -0.000487989 0.00543784 -0.00098321 0.00467267 0.000685906 0.00990817
internal_weight=17418 16104 1314 11326 1122 4778 192
internal_count=17418 16104 1314 11326 1122 4778 192
is_linear=0
shrinkage=0.0307707


Tree=27
num_leaves=8
num_cat=0
split_feature=31 31 31 31 6 31 5
split_gain=42.3269 9.28841 4.45842 1.88567 1.57527 1.32451 0.40663
threshold=0.29939028738599299 0.1099767887973797 0.61205176521799609 0.032950703350088283 1.2750000000000001 0.19238268413022139 365.50000000000006
decision_type=2 2 2 2 2 2 2
left_child=1 3 4 -1 -2 -3 -4
right_child=2 5 6 -5 -6 -7 -8
leaf_value=-0.0014179209744248321 0.0023005644095600614 0.00025666515669556722 0.0079041505422199256 -0.00061391796942881192 0.0051255628940833934 0.0013079033747519547 0.01078943336888635
leaf_weight=4776 237 2923 79 6550 885 1855 113
leaf_count=4776 237 2923 79 6550 885 1855 113
internal_value=-3.96814e-05 -0.000472973 0.00527053 -0.000952956 0.0045289 0.0006648 0.00960336
internal_weight=17418 16104 1314 11326 1122 4778 192
internal_count=17418 16104 1314 11326 1122 4778 192
is_linear=0
shrinkage=0.0307707


Tree=28
num_leaves=8
num_cat=0
split_feature=31 31 31 31 28 29 19
split_gain=46.4083 10.2102 3.97732 1.7061 1.68417 1.57766 1.27352
threshold=0.291190786949245 0.097443241587067658 0.61205176521799609 0.026001638619283295 1994.5000000000002 138.91342907987777 0.022603306909283354
decision_type=2 2 2 2 2 2 2
left_child=1 3 5 -1 -3 -2 -4
right_child=2 4 6 -5 -6 -7 -8
leaf_value=-0.0014370529385122645 0.0031910662164355542 -0.0026522638575085526 0.0076315543087359817 -0.00063335279150677733 0.00080377238167833208 0.0055834847059408393 0.012721084579132829
leaf_weight=3977 388 137 129 6738 5205 798 73
leaf_count=3977 388 137 129 6738 5205 798 73
internal_value=8.28334e-05 -0.000383789 0.00548084 -0.000931658 0.000715128 0.00480088 0.00947209
internal_weight=17445 16057 1388 10715 5342 1186 202
internal_count=17445 16057 1388 10715 5342 1186 202
is_linear=0
shrinkage=0.0307707


Tree=29
num_leaves=8
num_cat=0
split_feature=30 30 30 28 29 24 16
split_gain=28.6446 7.90732 2.83317 2.37552 2.19342 2.05195 1.08989
threshold=367.45855289452413 119.58552528447716 493.04748683437816 1999.5000000000002 204.41187635700211 140.50000000000003 1.0000000180025095e-35
decision_type=2 2 2 2 2 2 2
left_child=1 6 3 -2 -3 -4 -1
right_child=2 4 5 -5 -6 -7 -8
leaf_value=-0.00046748840495733932 -0.0018518855398220388 0.00062656155785320328 0.006583232149089401 0.0037961450440479375 0.00374354617985679 0.0017329818941712821 -0.0010853418215006057
leaf_weight=6849 83 4667 592 468 224 96 4466
leaf_count=6849 83 4667 592 468 224 96 4466
internal_value=8.02856e-05 -0.000264481 0.00458972 0.00294531 0.000769332 0.00590654 -0.000711355
internal_weight=17445 16206 1239 551 4891 688 11315
internal_count=17445 16206 1239 551 4891 688 11315
is_linear=0
shrinkage=0.0307707


Tree=30
num_leaves=8
num_cat=0
split_feature=30 30 30 28 24 3 5
split_gain=26.909 7.42818 2.66151 2.2316 1.92761 1.87785 1.14709
threshold=367.45855289452413 119.58552528447716 493.04748683437816 1999.5000000000002 140.50000000000003 9.5000000000000018 365.50000000000006
decision_type=2 2 2 2 2 2 2
left_child=1 6 3 -2 -4 -3 -1
right_child=2 5 4 -5 -6 -7 -8
leaf_value=0.00022196986182903308 -0.0017949175293337206 -6.5709144631519696e-05 0.0063806691864652107 0.0036793406352263205 0.0016796695767558121 0.0011936993607312252 -0.0007947812322605265
leaf_weight=1172 83 1740 592 468 96 3151 10143
leaf_count=1172 83 1740 592 468 96 3151 10143
internal_value=7.78157e-05 -0.000256342 0.0044485 0.00285468 0.0057248 0.000745659 -0.000689466
internal_weight=17445 16206 1239 551 688 4891 11315
internal_count=17445 16206 1239 551 688 4891 11315
is_linear=0
shrinkage=0.0307707


Tree=31
num_leaves=8
num_cat=0
split_feature=31 31 31 31 28 11 19
split_gain=40.3342 8.8513 3.50793 1.83788 1.44559 1.41067 1.17709
threshold=0.291190786949245 0.11293356987591467 0.61205176521799609 0.026001638619283295 1994.5000000000002 10851.640000000001 0.022603306909283354
decision_type=2 2 2 2 2 2 2
left_child=1 3 5 -1 -3 -2 -4
right_child=2 4 6 -5 -6 -7 -8
leaf_value=-0.0013483507818244343 0.00038461583741891691 -0.0027257617494807866 0.007086749056138571 -0.00053084015908883887 0.00087698722156766653 0.0047449348806629212 0.01197957526966985
leaf_weight=3977 75 108 129 7541 4431 1111 73
leaf_count=3977 75 108 129 7541 4431 1111 73
internal_value=7.54217e-05 -0.000359593 0.00510779 -0.000813117 0.000791251 0.00446921 0.00885612
internal_weight=17445 16057 1388 11518 4539 1186 202
internal_count=17445 16057 1388 11518 4539 1186 202
is_linear=0
shrinkage=0.0307707


Tree=32
num_leaves=8
num_cat=0
split_feature=31 31 31 19 31 19 31
split_gain=32.9275 9.773 4.21472 2.37149 1.93971 1.10783 0.627529
threshold=0.291190786949245 0.073451560674689803 0.48261514246131237 0.013935513374667802 0.20139289897222765 0.023753077332121453 0.040892649868512501
decision_type=2 2 2 2 2 2 2
left_child=1 6 3 -2 -3 -4 -1
right_child=2 4 5 -5 -6 -7 -8
leaf_value=-0.0012048505739629518 0.0009863057425161506 0.00024667157124837679 0.0062284619998451808 0.0044232214634910179 0.0014869201802533991 0.0098744030590127516 -0.00067274329858253918
leaf_weight=5792 268 5553 350 654 1521 102 3291
leaf_count=5792 268 5553 350 654 1521 102 3291
internal_value=4.47004e-05 -0.000344192 0.00461766 0.00342426 0.000513345 0.00705168 -0.00101206
internal_weight=17531 16157 1374 922 7074 452 9083
internal_count=17531 16157 1374 922 7074 452 9083
is_linear=0
shrinkage=0.0307707


Tree=33
num_leaves=8
num_cat=0
split_feature=31 31 6 31 31 28 16
split_gain=30.9324 9.18082 4.04815 3.27049 1.82218 0.976346 0.620703
threshold=0.291190786949245 0.073451560674689803 1.2750000000000001 0.41211589891568379 0.20139289897222765 2002.5000000000002 1.0000000180025095e-35
decision_type=2 2 2 2 2 2 2
left_child=1 6 5 -4 -3 -2 -1
right_child=2 4 3 -5 -6 -7 -8
leaf_value=-0.00073865682342829633 0.0035150140853710582 0.00023908134147085361 0.0035081070359972788 0.0068542368928433553 0.001441167300407273 -0.00037888618613929613 -0.0012480111096852156
leaf_weight=4763 96 5553 520 591 1521 167 4320
leaf_count=4763 96 5553 520 591 1521 167 4320
internal_value=4.33258e-05 -0.000333601 0.00447558 0.0052882 0.000497549 0.00104264 -0.000980915
internal_weight=17531 16157 1374 1111 7074 263 9083
internal_count=17531 16157 1374 1111 7074 263 9083
is_linear=0
shrinkage=0.0307707


Tree=34
num_leaves=8
num_cat=0
split_feature=31 31 6 31 2 31 31
split_gain=29.0582 8.62471 3.80285 3.07232 2.10593 1.75339 0.562563
threshold=0.291190786949245 0.072616211200179845 1.2750000000000001 0.41211589891568379 9410.5000000000018 0.1556938188970271 0.026001638619283295
decision_type=2 2 2 2 2 2 2
left_child=1 6 4 -4 -2 -3 -1
right_child=2 5 3 -5 -6 -7 -8
leaf_value=-0.001229192467186033 0.0027334289267243904 7.1856528517294597e-05 0.0034001648551484774 0.0066433352905200509 -0.0033891845346201749 0.0010515792023461016 -0.00073976785577655781
leaf_weight=3981 189 4195 520 591 74 2943 5038
leaf_count=3981 189 4195 520 591 74 2943 5038
internal_value=4.19932e-05 -0.000323336 0.00433787 0.00512548 0.00101057 0.000475799 -0.000955803
internal_weight=17531 16157 1374 1111 263 7138 9019
internal_count=17531 16157 1374 1111 263 7138 9019
is_linear=0
shrinkage=0.0307707


Tree=35
num_leaves=8
num_cat=0
split_feature=31 31 6 31 2 31 16
split_gain=27.2975 8.1037 3.57243 2.88616 1.97835 1.6465 0.571179
threshold=0.291190786949245 0.073451560674689803 1.2750000000000001 0.41211589891568379 9410.5000000000018 0.20139289897222765 1.0000000180025095e-35
decision_type=2 2 2 2 2 2 2
left_child=1 6 4 -4 -2 -3 -1
right_child=2 5 3 -5 -6 -7 -8
leaf_value=-0.00068915131867885342 0.0026493296256610813 0.00022179370137708547 0.0032955439348680182 0.0064389230301417832 -0.0032849293150904227 0.0013644648183627618 -0.0011777630869264852
leaf_weight=4763 189 5553 520 591 74 1521 4320
leaf_count=4763 189 5553 520 591 74 1521 4320
internal_value=4.07014e-05 -0.000313387 0.0042044 0.00496777 0.000979468 0.000467486 -0.000921544
internal_weight=17531 16157 1374 1111 263 7074 9083
internal_count=17531 16157 1374 1111 263 7074 9083
is_linear=0
shrinkage=0.0307707


Tree=36
num_leaves=8
num_cat=0
split_feature=29 5 30 6 22 7 2
split_gain=15.4968 7.19188 3.12537 2.52987 2.30132 1.70806 0.626893
threshold=212.59796709813074 370.00000000000006 750.76722068780361 1.675 2.5000000000000004 1200.5000000000002 8438.5000000000018
decision_type=2 2 2 2 2 2 2
left_child=1 5 3 -2 -3 -1 -4
right_child=2 4 6 -5 -6 -7 -8
leaf_value=-0.00056990520438807157 0.00031098673507247936 -0.00077973575529150213 0.0090766138953894231 0.0041919484743375163 0.00073110368362216841 0.0011237766373290404 0.0053303982488166184
leaf_weight=677 233 11377 103 501 1042 3371 72
leaf_count=677 233 11377 103 501 1042 3371 72
internal_value=-6.99273e-05 -0.000285832 0.00384121 0.00296003 -0.00065297 0.000840518 0.00753623
internal_weight=17376 16467 909 734 12419 4048 175
internal_count=17376 16467 909 734 12419 4048 175
is_linear=0
shrinkage=0.0307707


Tree=37
num_leaves=8
num_cat=0
split_feature=31 31 31 31 7 29 24
split_gain=23.6557 8.59682 2.37718 2.04455 1.70351 1.35566 1.11864
threshold=0.33426948660789779 0.1556938188970271 0.055274907487354905 0.61205176521799609 1432.0000000000002 61.546357251657291 94.500000000000014
decision_type=2 2 2 2 2 2 2
left_child=1 2 -1 4 -2 -3 -5
right_child=3 5 -4 6 -6 -7 -8
leaf_value=-0.0010758404570350925 0.00062884692742516603 0.0021893427632556982 -0.00024097841824178071 0.0096357672748907421 0.0043660999557272127 0.0007119252125881092 0.0050253542261873407
leaf_weight=7297 138 772 5793 95 708 2468 105
leaf_count=7297 138 772 5793 95 708 2468 105
internal_value=-6.77748e-05 -0.000355122 -0.000706372 0.00441816 0.00375651 0.00106397 0.00721616
internal_weight=17376 16330 13090 1046 846 3240 200
internal_count=17376 16330 13090 1046 846 3240 200
is_linear=0
shrinkage=0.0307707


Tree=38
num_leaves=8
num_cat=0
split_feature=31 31 19 31 7 31 31
split_gain=22.2224 8.0934 2.06249 1.73324 1.59939 1.2395 1.20851
threshold=0.33426948660789779 0.10717037418755174 0.019183215398753853 0.53907321568092692 1895.5000000000002 0.1556938188970271 0.055274907487354905
decision_type=2 2 2 2 2 2 2
left_child=1 6 3 -2 -4 -3 -1
right_child=2 5 4 -5 -6 -7 -8
leaf_value=-0.001042736186893695 0.0021242095641699162 4.3769178868993355e-05 0.0044806168959729276 0.0057702481190992586 0.0083662433774920903 0.001031226977677553 -0.00037051307031073086
leaf_weight=7297 444 1915 272 171 159 3240 3878
leaf_count=7297 444 1915 272 171 159 3240 3878
internal_value=-6.56884e-05 -0.000344195 0.00428222 0.00313817 0.00591443 0.000664404 -0.00080946
internal_weight=17376 16330 1046 615 431 5155 11175
internal_count=17376 16330 1046 615 431 5155 11175
is_linear=0
shrinkage=0.0307707


Tree=39
num_leaves=8
num_cat=0
split_feature=31 31 19 31 31 7 31
split_gain=20.876 7.63303 1.93753 1.89903 1.62823 1.50249 0.612323
threshold=0.33426948660789779 0.081738259402911614 0.019183215398753853 0.1556938188970271 0.53907321568092692 1895.5000000000002 0.026001638619283295
decision_type=2 2 2 2 2 2 2
left_child=1 6 4 -3 -2 -4 -1
right_child=2 3 5 -5 -6 -7 -8
leaf_value=-0.001184655628366772 0.0020588495060073096 -3.7364944601755041e-05 0.0043427567790927058 0.00099949558927234314 0.0055927173667373511 0.0081088453533170145 -0.00068520514098310609
leaf_weight=3917 444 3457 272 3240 171 159 5716
leaf_count=3917 444 3457 272 3240 171 159 5716
internal_value=-6.36663e-05 -0.000333604 0.00415047 0.000464268 0.00304161 0.00573246 -0.000888296
internal_weight=17376 16330 1046 6697 615 431 9633
internal_count=17376 16330 1046 6697 615 431 9633
is_linear=0
shrinkage=0.0307707


Tree=40
num_leaves=8
num_cat=0
split_feature=31 31 31 24 30 31 17
split_gain=27.2511 4.62411 4.60921 1.76095 1.48853 0.760099 0.706909
threshold=0.23547873251715673 0.48261514246131237 0.11606891420705777 62.500000000000007 367.45855289452413 0.026001638619283295 0.074392463597009059
decision_type=2 2 2 2 2 2 2
left_child=2 3 5 -2 -3 -1 -4
right_child=1 4 6 -5 -6 -7 -8
leaf_value=-0.0010416394266337587 -0.0012293512723225832 0.0022619779549524236 4.3375919905778529e-05 0.0028137554869364012 0.0068330222130725442 -0.00051725328104772694 0.00090481779358531013
leaf_weight=3973 109 82 1539 1585 381 7670 2179
leaf_count=3973 109 82 1539 1585 381 7670 2179
internal_value=5.97948e-05 0.00329849 -0.000394988 0.00255359 0.00602362 -0.000696194 0.000548242
internal_weight=17518 2157 15361 1694 463 11643 3718
internal_count=17518 2157 15361 1694 463 11643 3718
is_linear=0
shrinkage=0.0307707


Tree=41
num_leaves=8
num_cat=0
split_feature=31 31 31 26 25 31 8
split_gain=25.5999 4.43174 4.35193 2.01767 1.57856 1.01588 0.6914
threshold=0.23547873251715673 0.33426948660789779 0.1534972930643512 2.5000000000000004 1010.5000000000001 0.026001638619283295 14121.500000000002
decision_type=2 2 2 2 2 2 2
left_child=2 4 5 -3 -2 -1 -4
right_child=1 3 6 -5 -6 -7 -8
leaf_value=-0.0010095876062844505 -0.0017749986723834159 0.0029508355681405417 0.0010432096788634928 0.0056563942663837999 0.0021812169741414963 -0.00041992756553070913 -0.0006932668950457169
leaf_weight=3973 106 434 2036 655 962 9109 243
leaf_count=3973 106 434 2036 655 962 9109 243
internal_value=5.79553e-05 0.00319699 -0.000382834 0.00457823 0.00178853 -0.000599009 0.000858051
internal_weight=17518 2157 15361 1089 1068 13082 2279
internal_count=17518 2157 15361 1089 1068 13082 2279
is_linear=0
shrinkage=0.0307707


Tree=42
num_leaves=8
num_cat=0
split_feature=31 31 31 6 19 31 17
split_gain=24.0487 4.17537 4.11513 1.80763 1.78061 0.66397 0.662629
threshold=0.23547873251715673 0.48261514246131237 0.11606891420705777 3.7250000000000005 0.014717725432051203 0.026001638619283295 0.074392463597009059
decision_type=2 2 2 2 2 2 2
left_child=2 4 5 -3 -2 -1 -4
right_child=1 3 6 -5 -6 -7 -8
leaf_value=-0.00097852205616962853 0.0010099525649536175 0.0066195018378362785 3.1391294671144247e-05 0.0017186282959298963 0.0031115693764000342 -0.00048841561338898898 0.00086541688297543575
leaf_weight=3973 581 375 1539 88 1113 7670 2179
leaf_count=3973 581 375 1539 88 1113 7670 2179
internal_value=5.61723e-05 0.00309862 -0.000371054 0.00568815 0.00239079 -0.000655659 0.000520189
internal_weight=17518 2157 15361 463 1694 11643 3718
internal_count=17518 2157 15361 463 1694 11643 3718
is_linear=0
shrinkage=0.0307707


Tree=43
num_leaves=8
num_cat=0
split_feature=31 31 31 11 31 31 8
split_gain=22.5916 4.03446 3.90277 1.5214 1.30982 0.920391 0.649137
threshold=0.23547873251715673 0.33426948660789779 0.1534972930643512 12882.500000000002 0.50998545612890711 0.055900914168986217 14121.500000000002
decision_type=2 2 2 2 2 2 2
left_child=2 3 5 -2 -3 -1 -4
right_child=1 4 6 -5 -6 -7 -8
leaf_value=-0.00078837562300716009 -0.0011914376386662538 0.0035078147334597232 0.00099487945857206677 0.0021325161084576592 0.0057218495809861587 -0.000266992530336549 -0.00068768663515232881
leaf_weight=7461 152 689 2036 916 400 5621 243
leaf_count=7461 152 689 2036 916 400 5621 243
internal_value=5.44444e-05 0.00300328 -0.000359637 0.00165943 0.00432116 -0.000564352 0.000815469
internal_weight=17518 2157 15361 1068 1089 13082 2279
internal_count=17518 2157 15361 1068 1089 13082 2279
is_linear=0
shrinkage=0.0307707


Tree=44
num_leaves=8
num_cat=0
split_feature=31 31 6 7 31 17 16
split_gain=16.4362 5.65598 1.68202 1.00603 0.901945 0.546419 0.390646
threshold=0.15150489767312128 0.33426948660789779 1.675 1197.5000000000002 0.084568213288096813 0.047425317390753001 1.0000000180025095e-35
decision_type=2 2 2 2 2 2 2
left_child=4 3 -3 -2 6 -6 -1
right_child=1 2 -4 -5 5 -7 -8
leaf_value=-0.00054092633691680745 -0.0010692561102978804 0.0015975917903772402 0.0043520553352611136 0.0011199190877747569 -0.0020632385849758349 -4.1172882483522521e-05 -0.00092798356215988891
leaf_weight=5307 212 292 747 3178 132 3044 4617
leaf_count=5307 212 292 747 3178 132 3044 4617
internal_value=-2.86905e-05 0.00159178 0.003578 0.000983008 -0.000576561 -0.000125228 -0.000721001
internal_weight=17529 4429 1039 3390 13100 3176 9924
internal_count=17529 4429 1039 3390 13100 3176 9924
is_linear=0
shrinkage=0.0307707


Tree=45
num_leaves=8
num_cat=0
split_feature=31 31 6 11 31 11 16
split_gain=15.4403 5.31328 1.5801 0.956176 0.847291 0.462794 0.366975
threshold=0.15150489767312128 0.33426948660789779 1.675 13097.525000000001 0.084568213288096813 29497.500000000004 1.0000000180025095e-35
decision_type=2 2 2 2 2 2 2
left_child=4 3 -3 -2 6 -6 -1
right_child=1 2 -4 -5 5 -7 -8
leaf_value=-0.00052428171978599939 -0.00023839005728396522 0.0015484365838509778 0.0042181435917356645 0.0011769626734043871 1.8785528843836571e-06 -0.0012407551355092586 -0.00089942902217362674
leaf_weight=5307 537 292 747 2853 2861 315 4617
leaf_count=5307 537 292 747 2853 2861 315 4617
internal_value=-2.78076e-05 0.0015428 0.0034679 0.00095276 -0.00055882 -0.000121375 -0.000698815
internal_weight=17529 4429 1039 3390 13100 3176 9924
internal_count=17529 4429 1039 3390 13100 3176 9924
is_linear=0
shrinkage=0.0307707


Tree=46
num_leaves=8
num_cat=0
split_feature=31 31 26 7 31 17 16
split_gain=14.5047 4.99133 2.08832 0.920365 0.795949 0.512538 0.344738
threshold=0.15150489767312128 0.33426948660789779 2.5000000000000004 1197.5000000000002 0.084568213288096813 0.047425317390753001 1.0000000180025095e-35
decision_type=2 2 2 2 2 2 2
left_child=4 3 -3 -2 6 -6 -1
right_child=1 2 -4 -5 5 -7 -8
leaf_value=-0.00050814927454223785 -0.001039499125221951 0.001692985532909519 0.0045020697960558324 0.0010543955520069702 -0.001994606913130555 -3.6233102423368984e-05 -0.00087175307335639741
leaf_weight=5307 212 422 617 3178 132 3044 4617
leaf_count=5307 212 422 617 3178 132 3044 4617
internal_value=-2.69518e-05 0.00149533 0.0033612 0.000923443 -0.000541625 -0.000117641 -0.000677313
internal_weight=17529 4429 1039 3390 13100 3176 9924
internal_count=17529 4429 1039 3390 13100 3176 9924
is_linear=0
shrinkage=0.0307707


Tree=47
num_leaves=8
num_cat=0
split_feature=30 29 24 7 12 29 11
split_gain=9.09237 2.67967 2.15587 2.25874 1.98596 1.32962 0.393928
threshold=367.45855289452413 50.17275419276185 111.50000000000001 1882.5000000000002 4.5000000000000009 168.89766518252051 16272.340000000002
decision_type=2 2 2 2 2 2 2
left_child=1 6 3 -2 -3 -4 -1
right_child=2 4 5 -5 -6 -7 -8
leaf_value=-0.00075707457399453305 0.0022441386975013636 0.00012442817789586107 -0.0014708062246127729 0.0057313293121374993 0.0025394627135520769 0.0020445902045886444 -0.00035870241507364925
leaf_weight=4636 462 6577 151 284 339 313 4767
leaf_count=4636 462 6577 151 284 339 313 4767
internal_value=-2.61223e-05 -0.000216953 0.00254752 0.00357184 0.000242814 0.000900552 -0.000555115
internal_weight=17529 16319 1210 746 6916 464 9403
internal_count=17529 16319 1210 746 6916 464 9403
is_linear=0
shrinkage=0.0307707


Tree=48
num_leaves=8
num_cat=0
split_feature=31 31 31 6 28 24 5
split_gain=11.6356 3.3126 2.56625 1.60365 1.07354 1.04884 0.451528
threshold=0.23547873251715673 0.50998545612890711 0.078480050380043825 5.5250000000000012 1994.5000000000002 94.500000000000014 370.00000000000006
decision_type=2 2 2 2 2 2 2
left_child=2 3 6 -2 -4 -3 -1
right_child=1 5 4 -5 -6 -7 -8
leaf_value=0.00061226603904597141 0.0017973343142339534 0.006446747709541875 -0.0021473034908907934 -0.001550029341084076 0.00024019909669198669 0.0032322156389010667 -0.00068557354139171919
leaf_weight=261 1604 172 184 148 5757 218 9198
leaf_count=261 1604 172 184 148 5757 218 9198
internal_value=-3.94032e-05 0.00208551 -0.000334962 0.00151455 0.000166247 0.00465021 -0.000649761
internal_weight=17542 2142 15400 1752 5941 390 9459
internal_count=17542 2142 15400 1752 5941 390 9459
is_linear=0
shrinkage=0.0307707


Tree=49
num_leaves=8
num_cat=0
split_feature=30 30 11 19 9 21 16
split_gain=8.60641 3.21822 2.09366 1.23825 0.478942 0.559825 0.511603
threshold=139.97129599782539 367.45855289452413 33358.415000000001 0.0061713283240841512 1.0000000180025095e-35 2.5000000000000004 1.0000000180025095e-35
decision_type=2 2 2 2 2 2 2
left_child=4 3 -3 -2 6 -6 -1
right_child=1 2 -4 -5 5 -7 -8
leaf_value=-0.00042417749720294757 -0.00300168223435281 0.0027792770307858631 -0.0018906226105402254 0.00066782416328409362 -0.00034387853534752216 0.00074390322329056689 -0.00090590233931335485
leaf_weight=5690 89 1109 99 3970 2753 535 3297
leaf_count=5690 89 1109 99 3970 2753 535 3297
internal_value=-3.81904e-05 0.0010023 0.00239653 0.000587348 -0.000484648 -0.000166878 -0.000600907
internal_weight=17542 5267 1208 4059 12275 3288 8987
internal_count=17542 5267 1208 4059 12275 3288 8987
is_linear=0
shrinkage=0.0307707


Tree=50
num_leaves=8
num_cat=0
split_feature=31 31 31 6 3 27 5
split_gain=10.488 3.0434 2.30203 1.49639 1.25968 1.03621 0.419225
threshold=0.23547873251715673 0.50998545612890711 0.078480050380043825 5.5250000000000012 23.500000000000004 33.500000000000007 370.00000000000006
decision_type=2 2 2 2 2 2 2
left_child=2 3 6 -2 -4 -3 -1
right_child=1 5 4 -5 -6 -7 -8
leaf_value=0.00060027250077310582 0.0017062812642524177 0.005244366108413211 0.00022618673411702004 -0.0015271956877358655 -0.0027481953638061494 0.0013159547464921427 -0.00065028107389982588
leaf_weight=261 1604 310 5803 148 138 80 9198
leaf_count=261 1604 310 5803 148 138 80 9198
internal_value=-3.70153e-05 0.00198039 -0.00031762 0.00143312 0.000157086 0.00443867 -0.000615773
internal_weight=17542 2142 15400 1752 5941 390 9459
internal_count=17542 2142 15400 1752 5941 390 9459
is_linear=0
shrinkage=0.0307707


Tree=51
num_leaves=8
num_cat=0
split_feature=31 31 31 26 24 3 31
split_gain=9.87361 3.0947 1.97269 1.8367 0.986254 0.94505 0.171541
threshold=0.22248605825441206 0.50998545612890711 0.053863968407466697 13.500000000000002 94.500000000000014 23.500000000000004 0.029733889121193017
decision_type=2 2 2 2 2 2 2
left_child=2 3 6 -2 -3 -4 -1
right_child=1 4 5 -5 -6 -7 -8
leaf_value=-0.00081089352676040974 0.0014929398711889174 0.0060441831210050218 6.1465587836066792e-05 -0.0033519498528894083 0.0029271090754862611 -0.0022125469030764419 -0.00050333896548660558
leaf_weight=4479 1945 172 7689 77 218 177 2785
leaf_count=4479 1945 172 7689 77 218 177 2785
internal_value=-3.58762e-05 0.0017925 -0.000327355 0.0013084 0.0043021 1.02895e-05 -0.00069298
internal_weight=17542 2412 15130 2022 390 7866 7264
internal_count=17542 2412 15130 2022 390 7866 7264
is_linear=0
shrinkage=0.0307707


Tree=52
num_leaves=8
num_cat=0
split_feature=31 31 7 5 18 17 9
split_gain=8.49178 2.49199 2.25568 2.09308 1.07078 0.768063 0.579858
threshold=0.23916563422383097 0.61205176521799609 1397.5000000000002 440.00000000000006 373.54000000000002 0.073055654391270819 1.0000000180025095e-35
decision_type=2 2 2 2 2 2 2
left_child=3 2 -2 5 -3 -1 -5
right_child=1 4 -4 6 -6 -7 -8
leaf_value=-0.00025184692743104625 -0.001278839210958083 0.0030698006638553129 0.0018777312185599233 -0.00064173766013193487 0.0076819595216714113 0.00076409639990277216 -0.0001855161123334006
leaf_weight=1100 248 107 1579 8504 86 1960 3824
leaf_count=1100 248 107 1579 8504 86 1960 3824
internal_value=-7.51949e-05 0.00180056 0.00144924 -0.000321429 0.00512564 0.000398888 -0.000500224
internal_weight=17408 2020 1827 15388 193 3060 12328
internal_count=17408 2020 1827 15388 193 3060 12328
is_linear=0
shrinkage=0.0307707


Tree=53
num_leaves=8
num_cat=0
split_feature=31 31 7 5 7 30 9
split_gain=7.97725 2.34104 2.119 1.96626 0.881821 0.671093 0.544721
threshold=0.23916563422383097 0.61205176521799609 1397.5000000000002 440.00000000000006 1907.5000000000002 133.94199087742987 1.0000000180025095e-35
decision_type=2 2 2 2 2 2 2
left_child=3 2 -2 5 -3 -1 -5
right_child=1 4 -4 6 -6 -7 -8
leaf_value=-0.0001102403741843158 -0.0012394920682379409 0.0066807928087359303 0.0018199529158095939 -0.00062199098474917424 0.0024413811124894065 0.00080454300502412457 -0.00017980767686536292
leaf_weight=1398 248 115 1579 8504 78 1662 3824
leaf_count=1398 248 115 1579 8504 78 1662 3824
internal_value=-7.28807e-05 0.00174516 0.00140465 -0.000311539 0.00496796 0.000386614 -0.000484832
internal_weight=17408 2020 1827 15388 193 3060 12328
internal_count=17408 2020 1827 15388 193 3060 12328
is_linear=0
shrinkage=0.0307707


Tree=54
num_leaves=8
num_cat=0
split_feature=31 31 7 5 18 17 30
split_gain=7.4939 2.19923 1.99061 1.84711 1.01119 0.717755 0.541076
threshold=0.23916563422383097 0.61205176521799609 1397.5000000000002 440.00000000000006 373.54000000000002 0.073055654391270819 221.91331708052192
decision_type=2 2 2 2 2 2 2
left_child=3 2 -2 5 -3 -1 -5
right_child=1 4 -4 6 -6 -7 -8
leaf_value=-0.00025434442837731619 -0.0012013554949718628 0.0028173692889396085 0.0017639524472905664 -0.00042061788252711202 0.0072992672224157507 0.00072776305320435366 -0.0013129538202249881
leaf_weight=1100 248 107 1579 11647 86 1960 681
leaf_count=1100 248 107 1579 11647 86 1960 681
internal_value=-7.06377e-05 0.00169146 0.00136143 -0.000301952 0.00481512 0.000374718 -0.000469913
internal_weight=17408 2020 1827 15388 193 3060 12328
internal_count=17408 2020 1827 15388 193 3060 12328
is_linear=0
shrinkage=0.0307707


Tree=55
num_leaves=8
num_cat=0
split_feature=30 24 7 5 9 24 2
split_gain=5.30211 2.93762 1.91442 1.71701 0.772886 0.660908 0.507477
threshold=367.45855289452413 114.50000000000001 1360.5000000000002 440.00000000000006 1.0000000180025095e-35 122.50000000000001 6805.5000000000009
decision_type=2 2 2 2 2 2 2
left_child=3 2 -2 5 -5 -1 -3
right_child=1 6 -4 4 -6 -7 -8
leaf_value=0.00019055987884481225 -0.00060495992647164015 0.0016420214385327737 0.0037608618027594027 -0.00055134399480635126 -2.8872188916630068e-05 0.0013299235485249646 -0.00068329014801904084
leaf_weight=3185 112 122 630 8561 3903 568 327
leaf_count=3185 112 122 630 8561 3903 568 327
internal_value=-6.84637e-05 0.00191312 0.00310187 -0.000213997 -0.000387737 0.000363005 -5.14137e-05
internal_weight=17408 1191 742 16217 12464 3753 449
internal_count=17408 1191 742 16217 12464 3753 449
is_linear=0
shrinkage=0.0307707


Tree=56
num_leaves=8
num_cat=0
split_feature=31 30 17 8 31 1 6
split_gain=10.3731 2.38679 2.25525 1.597 1.48244 1.19421 0.36693
threshold=0.19662016809476165 329.65627975235009 0.088811957877807809 1104.5000000000002 0.078480050380043825 26.500000000000004 4.2750000000000012
decision_type=2 2 2 2 2 2 2
left_child=4 3 -3 -2 6 -6 -1
right_child=1 2 -4 -5 5 -7 -8
leaf_value=-0.00063632925866492784 0.0054554764612010287 0.003751652024148797 0.00076142774602591743 0.00084320419736948638 -0.0017089086516235532 0.0002538287975879674 -0.00019084786023437742
leaf_weight=6969 74 771 346 1789 313 4710 2338
leaf_count=6969 74 771 346 1789 313 4710 2338
internal_value=4.90027e-05 0.0017008 0.00282544 0.00102647 -0.0002945 0.000131517 -0.000524421
internal_weight=17310 2980 1117 1863 14330 5023 9307
internal_count=17310 2980 1117 1863 14330 5023 9307
is_linear=0
shrinkage=0.0307707


Tree=57
num_leaves=8
num_cat=0
split_feature=31 30 17 18 31 1 16
split_gain=9.7446 2.24217 2.1186 2.08024 1.39261 1.12185 0.360788
threshold=0.19662016809476165 329.65627975235009 0.088811957877807809 323.88000000000005 0.078480050380043825 26.500000000000004 1.0000000180025095e-35
decision_type=2 2 2 2 2 2 2
left_child=4 3 -3 -2 6 -6 -1
right_child=1 2 -4 -5 5 -7 -8
leaf_value=-0.00032850074451374998 6.189244937035117e-06 0.0036362144385603257 0.00073799960877199324 0.0020642056853669489 -0.0016563281701113277 0.00024601834472830615 -0.00071244620225644286
leaf_weight=4949 968 771 346 895 313 4710 4358
leaf_count=4949 968 771 346 895 313 4710 4358
internal_value=4.74952e-05 0.00164847 0.0027385 0.000994891 -0.000285438 0.000127469 -0.000508285
internal_weight=17310 2980 1117 1863 14330 5023 9307
internal_count=17310 2980 1117 1863 14330 5023 9307
is_linear=0
shrinkage=0.0307707


Tree=58
num_leaves=8
num_cat=0
split_feature=31 31 17 30 2 18 16
split_gain=9.21941 2.48817 1.84426 1.45529 1.03641 0.964578 0.416876
threshold=0.27688913730938175 0.083576969988924041 0.087724679797653624 322.04166583982914 6840.5000000000009 220.72000000000003 1.0000000180025095e-35
decision_type=2 2 2 2 2 2 2
left_child=1 6 3 -2 -4 -3 -1
right_child=2 5 4 -5 -6 -7 -8
leaf_value=-0.00029089316753794101 0.0016542991712094244 -0.00064212027881906965 -0.0017789357976264965 0.0039629509426456428 0.0016303418915022635 0.00047033683832962525 -0.0006955294405609721
leaf_weight=5240 432 858 122 644 274 5275 4465
leaf_count=5240 432 858 122 644 274 5275 4465
internal_value=4.60339e-05 -0.000170461 0.00237538 0.00303611 0.000579963 0.000314703 -0.000477056
internal_weight=17310 15838 1472 1076 396 6133 9705
internal_count=17310 15838 1472 1076 396 6133 9705
is_linear=0
shrinkage=0.0307707


Tree=59
num_leaves=8
num_cat=0
split_feature=31 31 25 31 19 1 5
split_gain=8.68682 2.00369 1.78449 1.21483 1.21411 1.07379 0.290049
threshold=0.19662016809476165 0.35532707965380789 1265.5000000000002 0.078480050380043825 0.014717725432051203 35.500000000000007 2195.5000000000005
decision_type=2 2 2 2 2 2 2
left_child=3 2 -2 6 -3 -5 -1
right_child=1 4 -4 5 -6 -7 -8
leaf_value=-0.00058000253730342607 5.9002193058044705e-05 0.0011413339669319373 0.0018620601364970626 -0.00064621805339185783 0.003573303776520995 0.00038150138214471048 -0.0001889624363820477
leaf_weight=6876 958 288 1136 1298 598 3725 2431
leaf_count=6876 958 288 1136 1298 598 3725 2431
internal_value=4.46176e-05 0.0015562 0.00103718 -0.000269727 0.00278283 0.000115925 -0.000477863
internal_weight=17310 2980 2094 14330 886 5023 9307
internal_count=17310 2980 2094 14330 886 5023 9307
is_linear=0
shrinkage=0.0307707


Tree=60
num_leaves=8
num_cat=0
split_feature=31 26 2 18 31 18 31
split_gain=5.12828 1.68642 1.73996 1.57247 1.05175 1.21076 0.289257
threshold=0.27688913730938175 2.5000000000000004 8073.5000000000009 546.49000000000012 0.078480050380043825 204.97500000000002 0.021169356640052758
decision_type=2 2 2 2 2 2 2
left_child=4 2 -2 -3 6 -6 -1
right_child=1 3 -4 -5 5 -7 -8
leaf_value=-0.00065316022343690826 0.0019221457537580728 0.0021130127213543595 -0.001205548975974051 0.0064381089164899652 -0.0011880196140727267 0.00022061130955847679 -0.00029927032355974033
leaf_weight=3416 373 752 307 89 641 5853 6078
leaf_count=3416 373 752 307 89 641 5853 6078
internal_value=-5.77667e-05 0.00164958 0.000510089 0.00257089 -0.000220195 8.15664e-05 -0.000426604
internal_weight=17509 1521 680 841 15988 6494 9494
internal_count=17509 1521 680 841 15988 6494 9494
is_linear=0
shrinkage=0.0307707


Tree=61
num_leaves=8
num_cat=0
split_feature=31 26 3 26 31 3 31
split_gain=4.81755 1.58425 1.69682 1.30361 0.988016 1.0058 0.27173
threshold=0.27688913730938175 2.5000000000000004 17.500000000000004 4.5000000000000009 0.078480050380043825 1.0000000180025095e-35 0.021169356640052758
decision_type=2 2 2 2 2 2 2
left_child=4 2 -2 -3 6 -6 -1
right_child=1 3 -4 -5 5 -7 -8
leaf_value=-0.00063306216027685764 -0.00019549037528720847 0.0035837656516538802 0.0039189654341534813 0.0011476721783315886 -0.0014057516833957449 0.00017782116710862158 -0.00029006159144759613
leaf_weight=3416 566 464 114 377 405 6089 6078
leaf_count=3416 566 464 114 377 405 6089 6078
internal_value=-5.59889e-05 0.00159883 0.000494394 0.00249179 -0.00021342 7.90564e-05 -0.000413477
internal_weight=17509 1521 680 841 15988 6494 9494
internal_count=17509 1521 680 841 15988 6494 9494
is_linear=0
shrinkage=0.0307707


Tree=62
num_leaves=8
num_cat=0
split_feature=31 22 2 31 27 18 6
split_gain=4.52566 1.52483 1.47234 0.929404 0.757461 0.697189 0.146347
threshold=0.27688913730938175 4.5000000000000009 9825.5000000000018 0.035858125736782591 27.500000000000004 204.97500000000002 2.1750000000000003
decision_type=2 2 2 2 2 2 2
left_child=3 2 -2 6 -3 -5 -1
right_child=1 4 -4 5 -6 -7 -8
leaf_value=-0.00073678223157247133 0.0017912457705139136 0.0023832315390589155 -0.00057705589376685928 -0.00080418599368026558 0.0067743693214037583 3.773579956024566e-05 -0.00040652126751636439
leaf_weight=2162 1046 77 326 1030 72 9715 3081
leaf_count=2162 1046 77 326 1030 72 9715 3081
internal_value=-5.42658e-05 0.00154963 0.00122851 -0.000206853 0.00450585 -4.2971e-05 -0.00054271
internal_weight=17509 1521 1372 15988 149 10745 5243
internal_count=17509 1521 1372 15988 149 10745 5243
is_linear=0
shrinkage=0.0307707


Tree=63
num_leaves=8
num_cat=0
split_feature=31 2 11 31 31 3 31
split_gain=4.27134 1.4356 1.71273 1.41369 1.11473 1.16832 0.238696
threshold=0.33426948660789779 10140.500000000002 16353.500000000002 0.43204492940078859 0.078480050380043825 1.0000000180025095e-35 0.021169356640052758
decision_type=2 2 2 2 2 2 2
left_child=4 2 -2 -3 6 -6 -1
right_child=1 3 -4 -5 5 -7 -8
leaf_value=-0.0005967957180298243 0.0045200935425417452 -0.0031216587529543723 0.0014999631409411034 0.0018975163524904935 -0.001441670818723619 0.00022323088792850079 -0.00027531969684261074
leaf_weight=3416 256 98 582 116 425 6538 6078
leaf_count=3416 256 98 582 116 425 6538 6078
internal_value=-5.25956e-05 0.00184827 0.00242268 -0.000401067 -0.000174109 0.000121606 -0.00039099
internal_weight=17509 1052 838 214 16457 6963 9494
internal_count=17509 1052 838 214 16457 6963 9494
is_linear=0
shrinkage=0.0307707


Tree=64
num_leaves=8
num_cat=0
split_feature=30 17 2 18 22 18 3
split_gain=3.65893 1.52677 1.52757 0.877429 0.782458 1.33004 0.636297
threshold=313.1944644675678 0.10274600980268941 12601.500000000002 342.88000000000005 2.5000000000000004 321.90000000000003 9.5000000000000018
decision_type=2 2 2 2 2 2 2
left_child=4 2 -2 -3 6 -6 -1
right_child=1 3 -4 -5 5 -7 -8
leaf_value=-0.00047411275475510054 0.0014706295569072922 -0.0033187327673899676 0.0052120347207304319 0.00045582029285650522 -9.1521389236363349e-05 0.0018551278260005551 -6.0878558400787458e-05
leaf_weight=6932 1205 86 113 181 1218 457 7185
leaf_count=6932 1205 86 113 181 1218 457 7185
internal_value=-4.77276e-05 0.00136165 0.00179149 -0.00076013 -0.000189185 0.000439612 -0.000263793
internal_weight=17377 1585 1318 267 15792 1675 14117
internal_count=17377 1585 1318 267 15792 1675 14117
is_linear=0
shrinkage=0.0307707


Tree=65
num_leaves=8
num_cat=0
split_feature=31 31 27 19 31 7 31
split_gain=6.4348 1.3376 1.18598 0.91723 1.52123 1.40624 0.174686
threshold=0.35532707965380789 0.081738259402911614 45.500000000000007 0.014717725432051203 0.48261514246131237 1596.5000000000002 0.026001638619283295
decision_type=2 2 2 2 2 2 2
left_child=1 6 -3 4 -2 -5 -1
right_child=3 2 -4 5 -6 -7 -8
leaf_value=-0.00057571370534320848 -0.00077972564514237192 0.00023441574862205562 -0.0016844624192828787 0.0010460772203081915 0.0036488606009217233 0.0041675846313958967 -0.00030971070004890674
leaf_weight=3972 176 6484 320 204 126 414 5681
leaf_count=3972 176 6484 320 204 126 414 5681
internal_value=-4.62588e-05 -0.000186263 0.000144163 0.00245808 0.0010681 0.00313726 -0.000419166
internal_weight=17377 16457 6804 920 302 618 9653
internal_count=17377 16457 6804 920 302 618 9653
is_linear=0
shrinkage=0.0307707


Tree=66
num_leaves=7
num_cat=0
split_feature=30 25 11 30 29 21
split_gain=3.24912 1.4984 1.79972 0.71653 1.15611 0.331887
threshold=313.1944644675678 1725.5000000000002 33358.415000000001 139.97129599782539 232.72076403381939 2.5000000000000004
decision_type=2 2 2 2 2 2
left_child=3 2 -2 5 -5 -1
right_child=1 -3 -4 4 -6 -7
leaf_value=-0.00035868059766642991 0.0013070416828787523 0.0045592403621846252 -0.0029112022295211901 0.00028338475288159813 -0.0033471410811008553 9.6606926900684735e-05
leaf_weight=10354 1360 122 103 3577 85 1776
leaf_count=10354 1360 122 103 3577 85 1776
internal_value=-4.48351e-05 0.00128327 0.00101002 -0.000178136 0.000199094 -0.00029202
internal_weight=17377 1585 1463 15792 3662 12130
internal_count=17377 1585 1463 15792 3662 12130
is_linear=0
shrinkage=0.0307707


Tree=67
num_leaves=7
num_cat=0
split_feature=31 31 7 30 30 16
split_gain=5.87829 1.2132 1.04183 0.93154 1.5664 0.180528
threshold=0.35532707965380789 0.081738259402911614 1160.0000000000002 221.91331708052192 313.1944644675678 1.0000000180025095e-35
decision_type=2 2 2 2 2 2
left_child=1 5 -3 -2 -5 -1
right_child=3 2 -4 4 -6 -7
leaf_value=-0.00027485125805952899 0.0056127379565974536 -0.0011377064244760923 0.00025111399554494441 -0.0012155986284975778 0.0025932602584558422 -0.00054162370255977455
leaf_weight=5158 76 557 6247 119 725 4495
leaf_count=5158 76 557 6247 119 725 4495
internal_value=-4.34555e-05 -0.000177269 0.000137416 0.00235014 0.00205621 -0.000399077
internal_weight=17377 16457 6804 920 844 9653
internal_count=17377 16457 6804 920 844 9653
is_linear=0
shrinkage=0.0307707


Tree=68
num_leaves=8
num_cat=0
split_feature=31 31 0 7 31 8 25
split_gain=4.21867 1.56732 1.35141 0.911154 0.814895 0.850255 0.194679
threshold=0.17635496486608229 0.48261514246131237 52.500000000000007 2075.0000000000005 0.066339817442464116 1192.5000000000002 1540.5000000000002
decision_type=2 2 2 2 2 2 2
left_child=4 2 -2 -3 6 -6 -1
right_child=1 3 -4 -5 5 -7 -8
leaf_value=-0.00032040752022336432 0.00031254496679795755 0.0032948696122751635 0.0016640192006912326 -0.00014403578292540296 -0.0017373927884863642 0.00019423763712931265 -0.00083184902333960614
leaf_weight=7669 2168 385 1035 90 225 5243 776
leaf_count=7669 2168 385 1035 90 225 5243 776
internal_value=6.70926e-05 0.000993887 0.000749262 0.00264331 -0.000177913 0.000114747 -0.000367405
internal_weight=17591 3678 3203 475 13913 5468 8445
internal_count=17591 3678 3203 475 13913 5468 8445
is_linear=0
shrinkage=0.0307707


Tree=69
num_leaves=8
num_cat=0
split_feature=31 19 31 29 26 17 19
split_gain=3.97842 2.3649 1.88169 1.40535 0.97535 0.803785 0.317468
threshold=0.33426948660789779 0.013935513374667802 0.11293356987591467 212.59796709813074 6.5000000000000009 0.039372539370078709 0.012777656372777252
decision_type=2 2 2 2 2 2 2
left_child=2 3 6 -2 -3 -4 -1
right_child=1 4 5 -5 -6 -7 -8
leaf_value=-0.00060217020429326391 -0.0027596969668322205 0.0032662330986157066 -0.0026892918092393881 0.0014682575008042008 -2.7461531801160556e-05 0.00049925471465186435 -0.00018888498332803936
leaf_weight=2164 133 648 76 169 98 4880 9423
leaf_count=2164 133 648 76 169 98 4880 9423
internal_value=6.50282e-05 0.00190355 -5.14448e-05 -0.000393787 0.00283356 0.000450346 -0.000266072
internal_weight=17591 1048 16543 302 746 4956 11587
internal_count=17591 1048 16543 302 746 4956 11587
is_linear=0
shrinkage=0.0307707


Tree=70
num_leaves=8
num_cat=0
split_feature=31 19 5 8 31 8 16
split_gain=3.74822 1.45161 2.04296 1.2409 0.735641 0.80005 0.190524
threshold=0.17635496486608229 0.023753077332121453 1095.5000000000002 2426.5000000000005 0.066339817442464116 1192.5000000000002 1.0000000180025095e-35
decision_type=2 2 2 2 2 2 2
left_child=4 3 -3 -2 6 -6 -1
right_child=1 2 -4 -5 5 -7 -8
leaf_value=-0.00020455896799663101 -0.001704253052518199 0.001407586545407782 0.0055850121576371432 0.00078147677628335717 -0.0016864753171912585 0.00018725896951827387 -0.00049692374640566191
leaf_weight=4303 205 720 131 2622 225 5243 4142
leaf_count=4303 205 720 131 2622 225 5243 4142
internal_value=6.30272e-05 0.000936617 0.00205078 0.000601211 -0.000167914 0.000110151 -0.000347956
internal_weight=17591 3678 851 2827 13913 5468 8445
internal_count=17591 3678 851 2827 13913 5468 8445
is_linear=0
shrinkage=0.0307707


Tree=71
num_leaves=8
num_cat=0
split_feature=29 26 26 1 30 8 0
split_gain=2.8263 1.15709 1.63132 1.01684 0.88237 0.75312 0.339425
threshold=163.40548908410867 6.5000000000000009 2.5000000000000004 38.500000000000007 62.8872117481909 2227.5000000000005 59.500000000000007
decision_type=2 2 2 2 2 2 2
left_child=4 2 -2 -3 6 -6 -1
right_child=1 3 -4 -5 5 -7 -8
leaf_value=-0.00018766808429887823 0.00068360821862810113 0.0020404443502180887 0.0029396218788449303 -0.0025238486811628219 -0.00072434873288892033 0.00024097095612486403 -0.00067910735813976456
leaf_weight=5465 653 74 567 123 845 8105 1759
leaf_count=5465 653 74 567 123 845 8105 1759
internal_value=6.1088e-05 0.0013788 0.00173214 -0.000809298 -5.43584e-05 0.00014983 -0.000307333
internal_weight=17591 1417 1220 197 16174 8950 7224
internal_count=17591 1417 1220 197 16174 8950 7224
is_linear=0
shrinkage=0.0307707


Tree=72
num_leaves=7
num_cat=0
split_feature=31 31 25 25 25 30
split_gain=3.00713 1.07666 1.11376 1.04276 0.859691 0.7549
threshold=0.41211589891568379 0.18063235496000177 1259.5000000000002 1053.5000000000002 1164.5000000000002 420.67237309390231
decision_type=2 2 2 2 2 2
left_child=1 5 -3 -2 -5 -1
right_child=3 2 -4 4 -6 -7
leaf_value=-0.00023858751787198497 0.0052490105955055677 -0.00024796054915204646 0.00096833232179842268 -0.0012056493178033349 0.0020406280548125864 -0.0032545670540411087
leaf_weight=14001 81 1340 1523 92 481 79
leaf_count=14001 81 1340 1523 92 481 79
internal_value=-6.5875e-05 -0.000144905 0.00039906 0.00198148 0.00151938 -0.000255515
internal_weight=17597 16943 2863 654 573 14080
internal_count=17597 16943 2863 654 573 14080
is_linear=0
shrinkage=0.0307707


Tree=73
num_leaves=7
num_cat=0
split_feature=31 31 11 2 7 0
split_gain=2.82493 1.04952 1.00109 1.34589 0.776354 0.169771
threshold=0.41211589891568379 0.055274907487354905 13540.865000000002 7491.5000000000009 999.50000000000011 73.500000000000014
decision_type=2 2 2 2 2 2
left_child=1 5 -2 -4 -3 -1
right_child=2 4 3 -5 -6 -7
leaf_value=-0.0004490215520266899 0.0046575372425735617 -0.00098916053327835355 -6.8666149963815125e-05 0.0029840649457106936 0.00014544128814363605 0.00022981921892922656
leaf_weight=7036 106 610 286 262 8930 367
leaf_count=7036 106 610 286 262 8930 367
internal_value=-6.38478e-05 -0.000140447 0.00192051 0.00139091 7.2891e-05 -0.000415368
internal_weight=17597 16943 654 548 9540 7403
internal_count=17597 16943 654 548 9540 7403
is_linear=0
shrinkage=0.0307707


Tree=74
num_leaves=7
num_cat=0
split_feature=31 31 25 25 3 0
split_gain=2.65378 0.985926 0.939712 0.824942 0.741327 0.159484
threshold=0.41211589891568379 0.055274907487354905 1053.5000000000002 1164.5000000000002 1.0000000180025095e-35 73.500000000000014
decision_type=2 2 2 2 2 2
left_child=1 5 -2 -4 -3 -1
right_child=2 4 3 -5 -6 -7
leaf_value=-0.00043520488213932531 0.0049632972058205301 -0.00092917816026344034 -0.0012466211902019395 0.0019333624477253599 0.00014423654201196551 0.00022274794995917811
leaf_weight=7036 81 654 92 481 8886 367
leaf_count=7036 81 654 92 481 8886 367
internal_value=-6.18829e-05 -0.000136125 0.00186143 0.00142276 7.06481e-05 -0.000402586
internal_weight=17597 16943 654 573 9540 7403
internal_count=17597 16943 654 573 9540 7403
is_linear=0
shrinkage=0.0307707


Tree=75
num_leaves=7
num_cat=0
split_feature=30 3 30 30 27 29
split_gain=1.89909 0.959132 0.880147 0.807677 0.802223 0.490348
threshold=693.17020928203476 7.5000000000000009 136.88348231107452 168.37126302212667 14.500000000000002 63.062027214994849
decision_type=2 2 2 2 2 2
left_child=2 -2 5 -4 -3 -1
right_child=1 4 3 -5 -6 -7
leaf_value=-0.00016368515053782738 -0.00036258629019969053 0.0061926858429237645 0.00092413277984923546 2.1166657806853818e-05 0.0020920469640357538 -0.00072746667432355757
leaf_weight=10489 78 74 1234 3909 116 1697
leaf_count=10489 78 74 1234 3909 116 1697
internal_value=-5.99785e-05 0.00251037 -9.97334e-05 0.000237826 0.0036897 -0.000242198
internal_weight=17597 268 17329 5143 190 12186
internal_count=17597 268 17329 5143 190 12186
is_linear=0
shrinkage=0.0307707


Tree=76
num_leaves=6
num_cat=0
split_feature=30 31 7 22 22
split_gain=2.87253 1.91232 1.68191 1.46296 0.365532
threshold=750.76722068780361 0.1207201495115932 2949.5000000000005 1.5000000000000002 1.5000000000000002
decision_type=2 2 2 2 2
left_child=1 4 -3 -2 -1
right_child=3 2 -4 -5 -6
leaf_value=-0.00034502447749528624 0.0059903200383276322 0.00036397724035773179 0.0040783463827343313 0.00059120773894209356 7.4437209953193739e-05
leaf_weight=9227 113 5249 118 82 2500
leaf_count=9227 113 5249 118 82 2500
internal_value=6.93795e-06 -3.54268e-05 0.00044566 0.00372027 -0.000255602
internal_weight=17289 17094 5367 195 11727
internal_count=17289 17094 5367 195 11727
is_linear=0
shrinkage=0.0307707


Tree=77
num_leaves=6
num_cat=0
split_feature=30 31 22 6 22
split_gain=2.69851 1.79645 1.37433 1.03772 0.343383
threshold=750.76722068780361 0.1207201495115932 1.5000000000000002 7.3250000000000011 1.5000000000000002
decision_type=2 2 2 2 2
left_child=1 4 -2 -3 -1
right_child=2 3 -4 -5 -6
leaf_value=-0.00033440785083132499 0.0058060311458219072 0.00034930260580866914 0.00057302090935576261 0.0026471855473884933 7.214673988905505e-05
leaf_weight=9227 113 5174 82 193 2500
leaf_count=9227 113 5174 82 193 2500
internal_value=6.72491e-06 -3.43365e-05 0.00360582 0.000431947 -0.000247737
internal_weight=17289 17094 195 5367 11727
internal_count=17289 17094 195 5367 11727
is_linear=0
shrinkage=0.0307707


Tree=78
num_leaves=6
num_cat=0
split_feature=30 5 7 22 26
split_gain=2.53502 1.32441 1.8127 1.29107 0.899603
threshold=750.76722068780361 365.50000000000006 1685.5000000000002 1.5000000000000002 1.5000000000000002
decision_type=2 2 2 2 2
left_child=1 2 -1 -2 -3
right_child=3 4 -4 -5 -6
leaf_value=-0.00014825998763497909 0.0056274118270257401 -0.0031110393859830696 0.0011243866293780913 0.00055539354560892702 -0.00016676626809909189
leaf_weight=2307 113 99 1960 82 12728
leaf_count=2307 113 99 1960 82 12728
internal_value=6.51836e-06 -3.32798e-05 0.000436319 0.00349489 -0.000189496
internal_weight=17289 17094 4267 195 12827
internal_count=17289 17094 4267 195 12827
is_linear=0
shrinkage=0.0307707


Tree=79
num_leaves=6
num_cat=0
split_feature=30 31 7 22 12
split_gain=2.38145 1.62077 1.57413 1.21285 0.330224
threshold=750.76722068780361 0.1207201495115932 2949.5000000000005 1.5000000000000002 2.5000000000000004
decision_type=2 2 2 2 2
left_child=1 4 -3 -2 -1
right_child=3 2 -4 -5 -6
leaf_value=-0.00030453006389420808 0.0054542874926191724 0.0003316204814572402 0.0039250046162549379 0.00053830850277168294 0.00014825376706438466
leaf_weight=9925 113 5249 118 82 1802
leaf_count=9925 113 5249 118 82 1802
internal_value=6.31794e-06 -3.22559e-05 0.000410642 0.00338737 -0.000234954
internal_weight=17289 17094 5367 195 11727
internal_count=17289 17094 5367 195 11727
is_linear=0
shrinkage=0.0307707


Tree=80
num_leaves=8
num_cat=0
split_feature=30 28 28 1 25 11 26
split_gain=1.83704 1.53277 1.29084 0.587985 0.585002 0.635581 0.290334
threshold=133.94199087742987 1996.5000000000002 2004.5000000000002 55.500000000000007 1142.5000000000002 16353.500000000002 1.5000000000000002
decision_type=2 2 2 2 2 2 2
left_child=4 3 -3 -2 6 -6 -1
right_child=1 2 -4 -5 5 -7 -8
leaf_value=0.00036443379910507307 -0.0025593261087898879 0.0011789966342081401 0.00021163558046832909 0.00046401642061276758 0.00071652306544687909 -9.4616420555345096e-05 -0.00047216293619356861
leaf_weight=429 203 2367 2914 87 1088 5740 4649
leaf_count=429 203 2367 2914 87 1088 5740 4649
internal_value=6.44246e-05 0.000525613 0.000645221 -0.00165235 -0.000151373 3.46355e-05 -0.000401484
internal_weight=17477 5571 5281 290 11906 6828 5078
internal_count=17477 5571 5281 290 11906 6828 5078
is_linear=0
shrinkage=0.0307707


Tree=81
num_leaves=8
num_cat=0
split_feature=31 7 18 0 31 30 28
split_gain=2.58351 1.4142 1.50104 0.991873 0.556855 0.511356 0.344773
threshold=0.1534972930643512 1685.5000000000002 307.52500000000003 56.500000000000007 0.14606166703550663 393.14647335179512 2003.5000000000002
decision_type=2 2 2 2 2 2 2
left_child=4 3 -3 -2 5 -1 -6
right_child=1 2 -4 -5 6 -7 -8
leaf_value=-0.00010999518713464415 -0.00032627540714449656 0.0003471719411144365 0.0018354221095535938 0.001437253256869892 -0.00012657702189735058 -0.0024904253236181016 -0.002428762639140328
leaf_weight=12725 1427 1164 1430 383 99 86 163
leaf_count=12725 1427 1164 1430 383 99 86 163
internal_value=6.24422e-05 0.000707015 0.00116761 4.6904e-05 -0.000154701 -0.00012598 -0.00155895
internal_weight=17477 4404 2594 1810 13073 12811 262
internal_count=17477 4404 2594 1810 13073 12811 262
is_linear=0
shrinkage=0.0307707


Tree=82
num_leaves=7
num_cat=0
split_feature=29 18 3 22 18 16
split_gain=1.42884 1.24942 1.25546 0.637553 1.18136 0.638576
threshold=163.40548908410867 189.66000000000003 1.0000000180025095e-35 1.5000000000000002 316.93500000000006 1.0000000180025095e-35
decision_type=2 2 2 2 2 2
left_child=3 -2 -3 5 -5 -1
right_child=1 2 -4 4 -6 -7
leaf_value=3.4073730724292656e-05 -0.0026287454182961759 -0.0013758046239860475 0.0015910239032994589 -7.1502806059173246e-05 0.00094121352638979882 -0.00044328141441635205
leaf_weight=6937 84 153 1150 3202 1654 4297
leaf_count=6937 84 153 1150 3202 1654 4297
internal_value=6.05207e-05 0.00100814 0.00124264 -2.11674e-05 0.000273441 -0.000148515
internal_weight=17477 1387 1303 16090 4856 11234
internal_count=17477 1387 1303 16090 4856 11234
is_linear=0
shrinkage=0.0307707


Tree=83
num_leaves=8
num_cat=0
split_feature=31 31 28 24 31 3 31
split_gain=2.33897 1.36993 1.27944 0.775728 0.529845 0.539349 0.492256
threshold=0.1534972930643512 0.61205176521799609 1995.5000000000002 104.50000000000001 0.14606166703550663 9.5000000000000018 0.11124787715217889
decision_type=2 2 2 2 2 2 2
left_child=4 2 -2 -3 6 -6 -1
right_child=1 3 -4 -5 5 -7 -8
leaf_value=-0.00018548122154461022 -0.0024617147291553176 0.0048636686489234027 0.00065054399697606123 0.00093830430608129079 -0.0035858333073665823 -0.00057523026161393845 0.00043512779224398439
leaf_weight=11458 129 112 4080 83 82 180 1353
leaf_count=11458 129 112 4080 83 82 180 1353
internal_value=5.86583e-05 0.000671968 0.000555144 0.00319319 -0.000147953 -0.00151772 -0.000119936
internal_weight=17477 4404 4209 195 13073 262 12811
internal_count=17477 4404 4209 195 13073 262 12811
is_linear=0
shrinkage=0.0307707


Tree=84
num_leaves=7
num_cat=0
split_feature=31 17 31 27 21 29
split_gain=4.36422 1.18223 1.04195 1.28042 0.866817 0.718782
threshold=0.50998545612890711 0.085403174583879068 0.1556938188970271 5.5000000000000009 2.5000000000000004 76.016459169499981
decision_type=2 2 2 2 2 2
left_child=2 4 5 -4 -2 -1
right_child=1 -3 3 -5 -6 -7
leaf_value=-0.0001662661417032906 0.0014403652866706957 0.00042389048457416065 0.0025514996555423531 0.00018337810972452937 0.005145374489765861 -0.0008605898400006382
leaf_weight=11513 83 114 230 3593 214 1609
leaf_count=11513 83 114 230 3593 214 1609
internal_value=-4.51716e-05 0.00308778 -0.000121165 0.000325864 0.00411016 -0.000251405
internal_weight=17356 411 16945 3823 297 13122
internal_count=17356 411 16945 3823 297 13122
is_linear=0
shrinkage=0.0307707


Tree=85
num_leaves=7
num_cat=0
split_feature=31 30 17 31 27 29
split_gain=4.0998 1.14973 1.02586 0.978813 1.20284 0.675229
threshold=0.50998545612890711 380.33496814733519 0.082101686688508604 0.1556938188970271 5.5000000000000009 76.016459169499981
decision_type=2 2 2 2 2 2
left_child=3 -2 -3 5 -5 -1
right_child=1 2 -4 4 -6 -7
leaf_value=-0.00016115001880377797 -0.00050903942805414907 0.0050067253555463737 0.0014638066734764445 0.0024729960286576265 0.00017773546649823109 -0.00083410925205045536
leaf_weight=11513 73 218 120 230 3593 1609
leaf_count=11513 73 218 120 230 3593 1609
internal_value=-4.37812e-05 0.00299278 0.00374907 -0.000117437 0.000315838 -0.000243669
internal_weight=17356 411 338 16945 3823 13122
internal_count=17356 411 338 16945 3823 13122
is_linear=0
shrinkage=0.0307707


Tree=86
num_leaves=7
num_cat=0
split_feature=31 30 17 31 27 29
split_gain=3.8514 1.08007 0.963705 0.919504 1.12997 0.634314
threshold=0.50998545612890711 380.33496814733519 0.082101686688508604 0.1556938188970271 5.5000000000000009 76.016459169499981
decision_type=2 2 2 2 2 2
left_child=3 -2 -3 5 -5 -1
right_child=1 2 -4 4 -6 -7
leaf_value=-0.0001561913299682222 -0.00049338087970797278 0.0048526811217894442 0.0014187729210047822 0.0023969077761135681 0.00017226644906332553 -0.00080844347529662513
leaf_weight=11513 73 218 120 230 3593 1609
leaf_count=11513 73 218 120 230 3593 1609
internal_value=-4.24338e-05 0.0029007 0.00363373 -0.000113823 0.00030612 -0.000236171
internal_weight=17356 411 338 16945 3823 13122
internal_count=17356 411 338 16945 3823 13122
is_linear=0
shrinkage=0.0307707


Tree=87
num_leaves=7
num_cat=0
split_feature=31 17 31 27 21 29
split_gain=3.61805 1.01761 0.863789 1.0615 0.807978 0.595879
threshold=0.50998545612890711 0.085403174583879068 0.1556938188970271 5.5000000000000009 2.5000000000000004 76.016459169499981
decision_type=2 2 2 2 2 2
left_child=2 4 5 -4 -2 -1
right_child=1 -3 3 -5 -6 -7
leaf_value=-0.00015138521717661383 0.001182470927570622 0.00033999173702000714 0.0023231606092441559 0.00016696571831149206 0.0047594382500885041 -0.00078356743735949962
leaf_weight=11513 83 114 230 3593 214 1609
leaf_count=11513 83 114 230 3593 214 1609
internal_value=-4.11277e-05 0.00281145 -0.000110321 0.000296701 0.00375999 -0.000228904
internal_weight=17356 411 16945 3823 297 13122
internal_count=17356 411 16945 3823 297 13122
is_linear=0
shrinkage=0.0307707


Tree=88
num_leaves=7
num_cat=0
split_feature=31 31 30 19 5 16
split_gain=3.11257 1.44255 1.23473 0.902569 0.779927 0.373522
threshold=0.43204492940078859 0.1207201495115932 35.727091978411345 0.028045803499518355 648.00000000000011 1.0000000180025095e-35
decision_type=2 2 2 2 2 2
left_child=1 5 -3 4 -2 -1
right_child=3 2 -4 -5 -6 -7
leaf_value=2.4509825706035066e-05 0.00099840067772904019 0.0039946724381508241 0.00043449509357025768 0.0052540527509172862 0.0035525617842606392 -0.0003258155094688294
leaf_weight=6813 347 94 4856 85 168 4994
leaf_count=6813 347 94 4856 85 168 4994
internal_value=0.000139164 6.11903e-05 0.000502121 0.00231674 0.00183173 -0.000123667
internal_weight=17357 16757 4950 600 515 11807
internal_count=17357 16757 4950 600 515 11807
is_linear=0
shrinkage=0.0307707


Tree=89
num_leaves=7
num_cat=0
split_feature=31 31 27 18 7 23
split_gain=2.92399 1.35514 1.2335 0.829938 1.14606 0.34727
threshold=0.43204492940078859 0.1207201495115932 46.500000000000007 554.6400000000001 1949.0000000000002 2.5000000000000004
decision_type=2 2 2 2 2 2
left_child=1 5 -3 4 -2 -1
right_child=3 2 -4 -5 -6 -7
leaf_value=-0.00052929523763106797 0.0029012001442351612 0.00058048787596777431 -0.0020282053358354215 0.0053199626735255323 -8.3858775402419027e-05 -5.1844368302490678e-05
leaf_weight=1682 336 4772 178 73 191 10125
leaf_count=1682 336 4772 178 73 191 10125
internal_value=0.000134882 5.93076e-05 0.000486671 0.00224547 0.00181937 -0.000119862
internal_weight=17357 16757 4950 600 527 11807
internal_count=17357 16757 4950 600 527 11807
is_linear=0
shrinkage=0.0307707


Tree=90
num_leaves=8
num_cat=0
split_feature=31 11 23 8 31 27 30
split_gain=2.75293 1.25245 1.37119 1.30662 1.01596 1.48287 0.244837
threshold=0.33426948660789779 16235.175000000001 4.5000000000000009 10288.500000000002 0.097443241587067658 46.500000000000007 280.83299027004011
decision_type=2 2 2 2 2 2 2
left_child=4 3 -3 -2 6 -6 -1
right_child=1 2 -4 -5 5 -7 -8
leaf_value=-0.00012432086446643846 0.0020545390986227399 -0.00066664451251624752 0.0020333954110994929 0.0064789637737995651 0.00046978425354012618 -0.0021305345475077946 -0.0012847069922245111
leaf_weight=10550 231 296 447 87 5355 216 175
leaf_count=10550 231 296 447 87 5355 216 175
internal_value=0.000130732 0.00164944 0.000957751 0.00326538 3.18492e-05 0.000368956 -0.000143258
internal_weight=17357 1061 743 318 16296 5571 10725
internal_count=17357 1061 743 318 16296 5571 10725
is_linear=0
shrinkage=0.0307707


Tree=91
num_leaves=8
num_cat=0
split_feature=31 31 27 26 31 11 16
split_gain=2.62396 1.19532 1.09075 0.809712 1.07002 0.79259 0.348666
threshold=0.43204492940078859 0.1207201495115932 46.500000000000007 2.5000000000000004 0.53907321568092692 16353.500000000002 1.0000000180025095e-35
decision_type=2 2 2 2 2 2 2
left_child=1 6 -3 4 -2 -5 -1
right_child=3 2 -4 5 -6 -7 -8
leaf_value=3.0006357364481815e-05 -0.0019452158323446621 0.00054471110206187818 -0.0019083961927223567 0.0049646228048540022 0.002735166167459291 0.0020127631161279413 -0.00030846191080853151
leaf_weight=6813 91 4772 178 122 94 293 4994
leaf_count=6813 91 4772 178 122 94 293 4994
internal_value=0.000126709 5.51173e-05 0.00045649 0.00212608 0.000432962 0.00288077 -0.000113156
internal_weight=17357 16757 4950 600 185 415 11807
internal_count=17357 16757 4950 600 185 415 11807
is_linear=0
shrinkage=0.0307707


Tree=92
num_leaves=8
num_cat=0
split_feature=31 12 24 31 31 30 3
split_gain=2.25317 1.71303 1.32383 1.16099 0.573553 0.637045 0.636895
threshold=0.1534972930643512 4.5000000000000009 124.50000000000001 0.65289396100007424 0.14606166703550663 405.43835072495068 12.500000000000002
decision_type=2 2 2 2 2 2 2
left_child=4 3 -3 -2 5 -1 -6
right_child=1 2 -4 -5 6 -7 -8
leaf_value=-0.00016801039878427154 0.00031150905205944905 0.0016360062739101367 0.0060863630830180074 0.0035319057887479898 -0.0030778099681298601 -0.0029051316854289918 -4.5732075302869174e-05
leaf_weight=12754 3817 318 79 109 138 81 125
leaf_count=12754 3817 318 79 109 138 81 125
internal_value=-1.33958e-05 0.000595729 0.0025219 0.000400939 -0.000214439 -0.000185289 -0.00163684
internal_weight=17421 4323 397 3926 13098 12835 263
internal_count=17421 4323 397 3926 13098 12835 263
is_linear=0
shrinkage=0.0307707


Tree=93
num_leaves=8
num_cat=0
split_feature=31 12 11 31 31 30 3
split_gain=2.11665 1.60925 1.33409 1.09066 0.539975 0.620951 0.350991
threshold=0.1534972930643512 4.5000000000000009 21950.505000000001 0.65289396100007424 0.1477224750164893 405.43835072495068 12.500000000000002
decision_type=2 2 2 2 2 2 2
left_child=4 3 -3 -2 5 -1 -6
right_child=1 2 -4 -5 6 -7 -8
leaf_value=-0.00016596487702616629 0.00030192375694299852 0.00097851534144866698 0.0046150616111345849 0.003423249536040326 -0.0030305627800331848 -0.0028518316593924339 -0.00047079388982925488
leaf_weight=12813 3817 237 160 109 104 82 99
leaf_count=12813 3817 237 160 109 104 82 99
internal_value=-1.29834e-05 0.0005774 0.00244431 0.000388603 -0.00020784 -0.00018305 -0.0017824
internal_weight=17421 4323 397 3926 13098 12895 203
internal_count=17421 4323 397 3926 13098 12895 203
is_linear=0
shrinkage=0.0307707


Tree=94
num_leaves=8
num_cat=0
split_feature=31 12 11 31 31 3 30
split_gain=1.9884 1.51175 1.25326 1.02459 0.509961 0.574795 0.561759
threshold=0.1534972930643512 4.5000000000000009 21950.505000000001 0.65289396100007424 0.14606166703550663 12.500000000000002 405.43835072495068
decision_type=2 2 2 2 2 2 2
left_child=4 3 -3 -2 6 -6 -1
right_child=1 2 -4 -5 5 -7 -8
leaf_value=-0.00015773375762912368 0.00029263340245001048 0.00094840866426164577 0.0044730732986142689 0.0033179358821915686 -0.002911595736923258 -3.113067859712397e-05 -0.0027280361280529494
leaf_weight=12754 3817 237 160 109 138 125 81
leaf_count=12754 3817 237 160 109 138 125 81
internal_value=-1.25838e-05 0.000559635 0.00236911 0.000376646 -0.000201445 -0.00154268 -0.00017396
internal_weight=17421 4323 397 3926 13098 263 12835
internal_count=17421 4323 397 3926 13098 263 12835
is_linear=0
shrinkage=0.0307707


Tree=95
num_leaves=8
num_cat=0
split_feature=31 12 24 31 31 17 3
split_gain=1.86793 1.42016 1.20353 0.962515 0.480915 0.443287 0.306593
threshold=0.1534972930643512 4.5000000000000009 124.50000000000001 0.65289396100007424 0.1477224750164893 0.054174966799468753 12.500000000000002
decision_type=2 2 2 2 2 2 2
left_child=4 3 -3 -2 5 -1 -6
right_child=1 2 -4 -5 6 -7 -8
leaf_value=-0.00078192336809992534 0.00028362891344464486 0.0014515479512223464 0.0056948584041781585 0.0032158621111006641 -0.0028477587655704201 -0.0001184980141405652 -0.0004553528841666724
leaf_weight=1037 3817 318 79 109 104 11858 99
leaf_count=1037 3817 318 79 109 104 11858 99
internal_value=-1.21964e-05 0.000542416 0.00229622 0.000365057 -0.000195247 -0.000171851 -0.00168121
internal_weight=17421 4323 397 3926 13098 12895 203
internal_count=17421 4323 397 3926 13098 12895 203
is_linear=0
shrinkage=0.0307707


end of trees

feature_importances:
oof_cs=293
oof_halc=54
Cylinder_Capacity=26
Contract_Duration=20
Power_Wt_Ratio=19
Car_Age_Contract=18
Market_Value_EOY19=18
oof_lc=18
Days_Driving_At_Start_Date=16
Premium_Amt_Current_Yr=16
Ratio_Premium_Car_Value=15
Years_Associates=15
Policies_Terminated_Non_Payment=14
Customer_Loyalty=13
Vehicle_Power_HP=13
Age_at_license=12
Vehicle_Wt_Kg=11
Years_Driving=11
Total_Policies_Entity=10
Yr_Vehicle_Registration=10
Max_Policy_Simultaneous_Force=8
Age=5
Age_at_contract=5
Time_Since_Last_Renewal=5
Half_Yearly_Payment_Method=4
Vehicle_Doors=2

parameters:
[boosting: gbdt]
[objective: regression]
[metric: l2]
[tree_learner: serial]
[device_type: cpu]
[data_sample_strategy: bagging]
[data: ]
[valid: ]
[num_iterations: 271]
[learning_rate: 0.0307707]
[num_leaves: 220]
[num_threads: 0]
[seed: 0]
[deterministic: 0]
[force_col_wise: 0]
[force_row_wise: 0]
[histogram_pool_size: -1]
[max_depth: 3]
[min_data_in_leaf: 72]
[min_sum_hessian_in_leaf: 0.001]
[bagging_fraction: 0.582114]
[pos_bagging_fraction: 1]
[neg_bagging_fraction: 1]
[bagging_freq: 4]
[bagging_seed: 3]
[bagging_by_query: 0]
[feature_fraction: 0.881289]
[feature_fraction_bynode: 1]
[feature_fraction_seed: 2]
[extra_trees: 0]
[extra_seed: 6]
[early_stopping_round: 0]
[early_stopping_min_delta: 0]
[first_metric_only: 0]
[max_delta_step: 0]
[lambda_l1: 4.04005e-05]
[lambda_l2: 0.0230437]
[linear_lambda: 0]
[min_gain_to_split: 0.0502387]
[drop_rate: 0.1]
[max_drop: 50]
[skip_drop: 0.5]
[xgboost_dart_mode: 0]
[uniform_drop: 0]
[drop_seed: 4]
[top_rate: 0.2]
[other_rate: 0.1]
[min_data_per_group: 100]
[max_cat_threshold: 32]
[cat_l2: 10]
[cat_smooth: 10]
[max_cat_to_onehot: 4]
[top_k: 20]
[monotone_constraints: ]
[monotone_constraints_method: basic]
[monotone_penalty: 0]
[feature_contri: ]
[forcedsplits_filename: ]
[refit_decay_rate: 0.9]
[cegb_tradeoff: 1]
[cegb_penalty_split: 0]
[cegb_penalty_feature_lazy: ]
[cegb_penalty_feature_coupled: ]
[path_smooth: 0]
[interaction_constraints: ]
[verbosity: 1]
[saved_feature_importance_type: 0]
[use_quantized_grad: 0]
[num_grad_quant_bins: 4]
[quant_train_renew_leaf: 0]
[stochastic_rounding: 1]
[linear_tree: 0]
[max_bin: 264]
[max_bin_by_feature: ]
[min_data_in_bin: 3]
[bin_construct_sample_cnt: 200000]
[data_random_seed: 1]
[is_enable_sparse: 1]
[enable_bundle: 1]
[use_missing: 1]
[zero_as_missing: 0]
[feature_pre_filter: 1]
[pre_partition: 0]
[two_round: 0]
[header: 0]
[label_column: ]
[weight_column: ]
[group_column: ]
[ignore_column: ]
[categorical_feature: ]
[forcedbins_filename: ]
[precise_float_parser: 0]
[parser_config_file: ]
[objective_seed: 5]
[num_class: 1]
[is_unbalance: 0]
[scale_pos_weight: 4.97956]
[sigmoid: 1]
[boost_from_average: 1]
[reg_sqrt: 0]
[alpha: 0.9]
[fair_c: 1]
[poisson_max_delta_step: 0.7]
[tweedie_variance_power: 1.5]
[lambdarank_truncation_level: 30]
[lambdarank_norm: 1]
[label_gain: ]
[lambdarank_position_bias_regularization: 0]
[eval_at: ]
[multi_error_top_k: 1]
[auc_mu_weights: ]
[num_machines: 1]
[local_listen_port: 12400]
[time_out: 120]
[machine_list_filename: ]
[machines: ]
[gpu_platform_id: -1]
[gpu_device_id: -1]
[gpu_use_dp: 0]
[num_gpu: 1]

end of parameters

pandas_categorical:[]
